tree
version=v4
num_class=1
num_tree_per_iteration=1
label_index=0
max_feature_idx=36
objective=binary sigmoid:1
feature_names=Column_0 Column_1 Column_2 Column_3 Column_4 Column_5 Column_6 Column_7 Column_8 Column_9 Column_10 Column_11 Column_12 Column_13 Column_14 Column_15 Column_16 Column_17 Column_18 Column_19 Column_20 Column_21 Column_22 Column_23 Column_24 Column_25 Column_26 Column_27 Column_28 Column_29 Column_30 Column_31 Column_32 Column_33 Column_34 Column_35 Column_36
feature_infos=[0:1] [0.0625:1] [0:1] [0.12083332985639572:0.97916668653488159] [0:0.82916665077209473] [1.0204170841632276e-11:1] [-1:1] [-0.5:1] [-1.470588207244873:1.470588207244873] [0:0.98000001907348633] [-0.89999997615814209:0.88999998569488525] [0:1.5] [-0.75:1.5] [0.014999999664723873:0.38999998569488525] [-0.014999999664723873:0.375] [0.02500000037252903:0.96249997615814209] [-0.67500001192092896:0.78750002384185791] [0.037500001490116119:0.97500002384185791] [-0.78750002384185791:0.67500001192092896] [0:1] [-1:0.5] [0.02500000037252903:0.64999997615814209] [-0.02500000037252903:0.625] [0.125:0.875] [-0.375:0.625] [0.019999999552965164:0.33000001311302185] [-0.029999999329447746:0.23999999463558197] [-0.62845778465270996:1.5383374691009521] [-1.4897173643112183:1.6983475685119629] [0.25:1] [0.029999999329447746:0.090000003576278687] [0:0.69272726774215698] [1.000000082740371e-11:0.53610110282897949] none [0:1] [-1:1] [0.125:0.75]
tree_sizes=1866 1840 1848 1861 1848 1872 1848 1856 1852 1857 1863 1868 1861 1855 1867 1852 1746 1857 1853 1860 1862 1859 1864 1855 1847 1858 1860 1864 1863 1857 1859 1860 1861 1859 1867 1854 1734 1864 1847 1845 1745 1846 1829 1857 1843 1852 1865 1857 1855 1865 1755 1747 1854 1873 1852 1746 1872 1755 1751 1871

Tree=0
num_leaves=16
num_cat=0
split_feature=10 15 8 31 3 32 32 3 10 24 24 32 31 14 0
split_gain=4217.62 2307.73 961.41 665.55 661.344 754.039 617.349 552.339 430.817 314.199 299.923 625.997 265.253 130.854 1.42109e-14
threshold=1.0000000180025095e-35 0.53125000000000011 -0.016700680367648598 0.27295455336570745 0.48333333432674414 0.46023607254028326 0.3769835233688355 0.22291666269302371 -0.074999999254941926 1.0000000180025095e-35 1.0000000180025095e-35 0.35685005784034735 0.58659088611602794 0.022499999497085813 0.17741934955120089
decision_type=2 2 2 2 2 2 2 2 2 2 2 2 2 2 2
left_child=1 3 7 9 5 12 -4 -3 -5 -1 13 -12 -2 -6 -7
right_child=4 2 6 8 10 14 -8 -9 -10 -11 11 -13 -14 -15 -16
leaf_value=-0.67931827691439417 -0.68480497275830954 -0.76879904666048982 -0.70448973869565568 -0.70607161384458861 -0.67374897704053061 -0.89071135341006291 -0.73392387968007877 -0.7240466711351522 -0.69263763220168761 -0.69891938853410451 -0.68170706615876175 -0.80149247416585612 -0.72644365775193431 -0.66549445912084293 -0.89071135341006291
leaf_weight=10835.986361503601 9559.931159645319 991.08637404441833 14923.02278316021 8370.6851885318756 9420.8354224562645 36.636011302471161 2022.9120402932167 2265.5074623227119 20790.946232914925 2519.9309288263321 3251.8191634118557 112.85506224632263 398.41804468631744 9790.8626363575459 8.7607853114604932
leaf_count=4074 4955 2121 11088 4811 2580 139 2212 2353 12398 1180 1089 169 419 1710 34
internal_value=-0.69129 -0.698871 -0.712785 -0.69226 -0.676696 -0.687398 -0.708003 -0.737666 -0.696494 -0.683017 -0.671954 -0.685725 -0.686471 -0.669542 -0.890711
internal_weight=95300.2 62720.1 20202.5 42517.5 32580.1 10003.7 16945.9 3256.59 29161.6 13355.9 22576.4 3364.67 9958.35 19211.7 45.3968
internal_count=51332 40237 17774 22463 11095 5547 13300 4474 17209 5254 5548 1258 5374 4290 173
is_linear=0
shrinkage=1


Tree=1
num_leaves=16
num_cat=0
split_feature=10 15 31 31 8 32 32 3 32 28 27 24 32 5 14
split_gain=3366.3 1726.61 765.621 710.066 658.393 555.169 523.281 495.75 314.83 471.857 246.789 245.161 461.727 227.391 97.6912
threshold=1.0000000180025095e-35 0.60624998807907116 0.26886364817619329 0.59386363625526439 -0.049286995083093636 0.36266320943832403 0.43880930542945867 0.48333333432674414 0.45156115293502813 -0.58128342032432545 0.62112441658973705 1.0000000180025095e-35 0.3600620329380036 1.0811185280346082e-11 0.022499999497085813
decision_type=2 2 2 2 2 2 2 2 2 2 2 2 2 2 2
left_child=1 2 10 4 -3 -5 -4 8 13 -10 -1 14 -13 -2 -9
right_child=7 3 6 5 -6 -7 -8 11 9 -11 -12 12 -14 -15 -16
leaf_value=0.12291113485902075 0.017690890940933606 0.064752030027636784 0.11022692202309554 -0.074525399030858017 0.099400594493855493 0.062298027025126303 0.074318066746684813 0.13066205767199388 0.14782317936292763 -0.071695390754175914 0.016700538066167364 0.12310056600379998 0.019039682243139514 0.12038231268734403 0.13759067911657993
leaf_weight=15374.140813574195 54.191428005695343 1524.7498870193958 33588.957482546568 99.007550805807114 13601.606202870607 295.15821239352226 1046.1444808393717 10061.390587434173 45.61075833439827 52.839069217443466 54.888016626238823 3375.4668212234974 110.07448717951775 10272.08018013835 10291.068398416042
leaf_count=5899 170 1978 19266 339 11302 460 1031 2614 10 202 77 1110 154 5137 1721
internal_value=0.115388 0.108752 0.113269 0.0941816 0.095908 0.0279304 0.109142 0.12809 0.118995 0.0300052 0.122533 0.132067 0.119814 0.119843 0.134165
internal_weight=99847.4 65584.7 50064.1 15520.5 15126.4 394.166 34635.1 34262.7 10424.7 98.4498 15429 23838 3485.54 10326.3 20352.5
internal_count=51470 40352 26273 14079 13280 799 20297 11118 5519 212 5976 5599 1264 5307 4335
is_linear=0
shrinkage=0.05


Tree=2
num_leaves=16
num_cat=0
split_feature=15 10 31 5 32 5 32 9 3 24 24 4 24 12 10
split_gain=2807.59 1429.96 912.687 1277.16 763.981 583.5 458.856 458.669 450.64 330.072 228.695 171.673 47.8072 27.4799 0.0695473
threshold=0.53125000000000011 1.0000000180025095e-35 0.59022724628448497 0.39715954661369329 0.44255866110324865 0.56030303239822399 0.013723607175052168 0.074999999254941954 0.17291666567325595 -1.0000000180025095e-35 -1.0000000180025095e-35 0.46666666865348821 -0.18749999999999997 -1.0000000180025095e-35 1.0000000180025095e-35
decision_type=2 2 2 2 2 2 2 2 2 2 2 2 2 2 2
left_child=1 6 4 14 7 -6 12 -2 -5 -8 13 -12 -1 -3 -4
right_child=2 10 3 8 5 -7 9 -9 -10 -11 11 -13 -14 -15 -16
leaf_value=0.13691860475390238 0.07306913487379664 0.11813196456432751 -0.074954301935072812 -0.074784816756448755 0.059760746575696216 -0.076162990669334546 0.12540722871950796 0.096447933932789998 0.086532997082096108 0.1022962931489402 0.11681850369323971 0.066865283076847581 0.11826769619799492 0.12790020919672382 -0.077203769134835634
leaf_weight=373.64190432429314 2312.7599917203188 815.52643495798111 141.9235682040453 46.945193648338318 333.64220775663853 103.43503969907761 1607.3840628117323 22587.65110257268 556.28696538507938 39774.225814059377 23695.415338113904 173.25192733108997 4271.045712813735 6145.5092305541039 45.336965039372444
leaf_count=19 1820 168 511 178 431 276 252 16451 459 20917 7596 152 1389 785 125
internal_value=0.105635 0.110448 0.0914756 0.0385689 0.0931262 0.0275942 0.104867 0.0942765 0.0739788 0.103194 0.118782 0.116456 0.119768 0.126756 -0.0754989
internal_weight=102984 76856 26128 790.493 25337.5 437.077 46026.3 24900.4 603.232 41381.6 30829.7 23868.7 4644.69 6961.04 187.261
internal_count=51529 31278 20251 1273 18978 707 22577 18271 637 21169 8701 7748 1408 953 636
is_linear=0
shrinkage=0.05


Tree=3
num_leaves=16
num_cat=0
split_feature=17 10 9 3 24 8 1 36 36 19 24 23 3 12 6
split_gain=2365 1215.24 641.549 741.544 327.162 326.902 318.386 928.974 479.163 255.016 179.5 152.955 117.747 26.2912 0.0279138
threshold=0.46875000000000006 1.0000000180025095e-35 0.074999999254941954 0.17291666567325595 -1.0000000180025095e-35 0.37508620321750646 0.98437500000000011 0.53125000000000011 0.65625000000000011 1.0000000180025095e-35 -1.0000000180025095e-35 0.68750000000000011 0.77708330750465404 -1.0000000180025095e-35 -0.0024414483923465009
decision_type=2 2 2 2 2 2 2 2 2 2 2 2 2 2 2
left_child=2 4 3 14 12 -5 8 -8 -4 -6 13 -12 -2 -3 -1
right_child=1 10 6 5 9 -7 7 -9 -10 -11 11 -13 -14 -15 -16
leaf_value=-0.075990312760775114 0.086725369041648473 0.10870941489289464 0.090138401503227911 0.072062722820426958 0.092444995856695716 0.0028790306199451502 -0.079869802948075108 0.077091829777148138 -0.080038961305330836 0.099935590444647601 0.10819501556510808 0.040069877601348447 0.1204521950526253 0.11798979013990048 -0.078188647735978667
leaf_weight=17.965545043349266 298.08597554266453 866.02162650227547 22366.430140599608 2367.2141519635916 20876.796491637826 184.01877725124359 98.288357436656952 2303.6391170471907 41.440400779247284 24932.288535535336 24852.629144772887 82.666709423065186 1962.8241929262877 6425.7892188727856 73.587554678320885
leaf_count=79 105 175 15184 1772 11341 214 371 2294 159 10946 7652 86 215 790 231
internal_value=0.0981434 0.102475 0.0854746 0.0620553 0.0974383 0.0670725 0.0879692 0.0706689 0.0898237 0.0965219 0.109987 0.107969 0.116006 0.116888 -0.0777573
internal_weight=107750 80297.1 27452.6 2642.79 48070 2551.23 24809.8 2401.93 22407.9 45809.1 32227.1 24935.3 2260.91 7291.81 91.5531
internal_count=51614 31310 20304 2296 22607 1986 18008 2665 15343 22287 8703 7738 320 965 310
is_linear=0
shrinkage=0.05


Tree=4
num_leaves=16
num_cat=0
split_feature=10 23 31 9 32 32 1 3 32 9 24 32 31 1 17
split_gain=2050.47 1329.05 677.28 766.446 733.259 635.006 454.9 318.855 479.857 264.09 175.369 342.02 75.9976 67.9258 0.0188101
threshold=1.0000000180025095e-35 0.18750000000000003 0.60386365652084362 0.095000002533197417 0.43880930542945867 0.0066780010238289842 0.85937500000000011 0.48333333432674414 0.46579663455486303 0.91500002145767223 1.0000000180025095e-35 0.3600620329380036 0.10454545170068742 0.14062500000000003 0.50624999403953563
decision_type=2 2 2 2 2 2 2 2 2 2 2 2 2 2 2
left_child=1 2 4 -4 -1 12 -7 8 9 -2 13 -12 -3 -9 -10
right_child=7 5 3 -5 -6 6 -8 10 14 -11 11 -13 -14 -15 -16
leaf_value=0.076983575405491528 0.094824473094281464 0.1031439664172666 0.064431829617799419 -0.078930213652435605 0.0043419357413448509 0.089064518892065639 0.064978888382663899 0.095216270213370147 -0.071994331120275201 0.014306271305268388 0.096357038798134009 0.0089023840554472468 0.1176995064599886 0.10607311858089959 -0.074093180064640024
leaf_weight=16743.162576645613 11037.519207417965 4146.1020616441965 241.6614138931036 151.78644461929798 354.75772631168365 46782.751777783036 2046.1204639673233 1551.1979192495346 19.547058254480362 102.78504677116871 3762.663731276989 115.21908716857433 1144.2738580256701 20220.691768944263 23.519495159387589
leaf_count=14503 5088 1381 282 557 734 21042 1792 569 67 269 1118 153 133 3739 87
internal_value=0.0908964 0.0859655 0.0739839 0.00912484 0.0754764 0.089838 0.0880552 0.100483 0.0934376 0.0940816 0.103555 0.0937586 0.106292 0.1053 -0.0731406
internal_weight=108444 71610.6 17491.4 393.448 17097.9 54119.2 48828.9 36833.1 11183.4 11140.3 25649.8 3877.88 5290.38 21771.9 43.0666
internal_count=51514 40424 16076 839 15237 24348 22834 11090 5511 5357 5579 1271 1514 4308 154
is_linear=0
shrinkage=0.05


Tree=5
num_leaves=16
num_cat=0
split_feature=10 15 6 32 25 32 24 3 32 16 24 32 16 10 15
split_gain=2049.98 1090.5 810.338 689.752 432.075 399.864 310.703 301.199 433.037 233.416 142.063 620.393 79.6581 44.3512 0.0150848
threshold=1.0000000180025095e-35 0.53125000000000011 -0.033315716311335557 0.3726081401109696 0.064999999478459372 0.013723607175052168 1.0000000180025095e-35 0.48333333432674414 0.46579663455486303 0.61875000596046459 1.0000000180025095e-35 0.35685005784034735 -0.093749999999999986 -0.37499999999999994 0.53125000000000011
decision_type=2 2 2 2 2 2 2 2 2 2 2 2 2 2 2
left_child=1 5 4 -4 -3 13 -7 8 9 -2 12 -12 -9 -1 -10
right_child=7 2 3 -5 -6 6 -8 10 14 -11 11 -13 -14 -15 -16
leaf_value=0.073556250788325964 0.089257910660956674 -0.08133111734652515 0.077872383789514221 0.049635567909439092 0.048496300710031748 0.084783611445970741 0.074147034839026751 0.10371274677645599 -0.072334566415225399 0.039333511114395051 0.091854980963428645 -0.031252450318071827 0.097031974436375873 0.098425695124535223 -0.070450132560330392
leaf_weight=186.07018436491489 11223.748731940985 65.685166820883751 18023.444685086608 2457.6286991387606 2632.9970149993896 35310.700037583709 8522.773943439126 6135.7124419957399 22.558581814169884 239.11127577722073 3864.4819169938564 105.12210351228714 16355.591846391559 4906.9056390672922 20.066337466239929
leaf_count=118 5139 295 11818 2631 3084 17626 3601 731 85 254 1087 176 3610 1306 67
internal_value=0.0849752 0.0800239 0.0710906 0.0744841 0.0453363 0.0842563 0.0827155 0.0943788 0.087625 0.0882165 0.0973154 0.0885949 0.0988545 0.0975171 -0.0714474
internal_weight=110073 72106.2 23179.8 20481.1 2698.68 48926.4 43833.5 37966.4 11505.5 11462.9 26460.9 3969.6 22491.3 5092.98 42.6249
internal_count=51628 40479 17828 14449 3379 22651 21227 11149 5545 5393 5604 1263 4341 1424 152
is_linear=0
shrinkage=0.05


Tree=6
num_leaves=16
num_cat=0
split_feature=10 23 9 3 32 3 32 1 3 32 7 9 24 32 14
split_gain=1968.96 1245.06 576.363 573.625 497.519 925.175 452.704 294.768 241.773 223.987 347.648 175.001 141.092 276.255 68.582
threshold=1.0000000180025095e-35 0.18750000000000003 0.87500000000000011 0.30833332240581518 0.45626406371593481 0.49375000596046453 0.0043436905834823855 0.32812500000000006 0.48333333432674414 0.45156115293502813 -0.28214032948017115 0.48499999940395361 1.0000000180025095e-35 0.3600620329380036 0.022499999497085813
decision_type=2 2 2 2 2 2 2 2 2 2 2 2 2 2 2
left_child=1 2 3 -1 6 -6 -3 -4 9 11 -11 -2 14 -14 -10
right_child=8 4 7 -5 5 -7 -8 -9 12 10 -12 -13 13 -15 -16
leaf_value=0.070175760187907707 0.085982817082059515 0.093818110037978186 0.10160297415275595 0.050195817513833452 -0.058729673219691719 0.073112737206000394 0.077984859363314618 -0.087566351129201067 0.090535423607273458 0.10568677643596965 -0.073712358091705649 0.065928805235761875 0.085451148275291225 0.0077024603112838767 0.096031720566778708
leaf_weight=12359.25531154871 10583.475604459643 4965.9182282686234 26.434897497296333 5064.3728235960007 186.15358972549438 466.54951573908329 49668.124298915267 93.183768898248672 11065.390997558832 51.532328218221664 56.736614286899567 1212.5048495531082 3866.6720160096884 117.7308509349823 11652.066876843572
leaf_count=10149 4138 1362 10 5429 346 209 22482 459 2595 6 208 1186 1113 158 1724
internal_value=0.0800619 0.075223 0.0636174 0.0643684 0.0789056 0.0355107 0.079424 -0.0457612 0.0891905 0.0832644 0.0116755 0.0839215 0.0918324 0.0831538 0.0933545
internal_weight=111436 72830 17543.2 17423.6 55286.7 652.703 54634 119.619 38606.1 11904.2 108.269 11796 26701.9 3984.4 22717.5
internal_count=51574 40446 16047 15578 24399 555 23844 469 11128 5538 214 5324 5590 1271 4319
is_linear=0
shrinkage=0.05


Tree=7
num_leaves=16
num_cat=0
split_feature=15 10 31 32 9 32 1 32 10 32 24 5 1 4 35
split_gain=1864.44 825.78 591.45 529.567 537.744 527.502 483.83 414.332 529.485 342.63 336.078 202.532 223.787 133.404 100.558
threshold=0.53125000000000011 1.0000000180025095e-35 0.59613639116287243 0.45626406371593481 0.37500000000000006 0.42539171874523168 0.32812500000000006 0.37996660172939306 -0.20499999821186063 0.35891056060791021 1.0000000180025095e-35 1.0811185280346082e-11 0.32812500000000006 0.46666666865348821 0.41428571939468389
decision_type=2 2 2 2 2 2 2 2 2 2 2 2 2 2 2
left_child=1 7 3 9 -5 6 -4 10 -9 -2 -1 12 -3 -13 -7
right_child=2 11 5 4 -6 14 -8 8 -10 -11 -12 13 -14 -15 -16
leaf_value=0.078834664505933183 0.068826241888696446 0.10526437772452875 0.030741010150319749 -0.053050117935279029 0.10176090997037368 0.025437891770173294 -0.081136575253251075 -0.091782980514780746 0.062976822212366501 0.053880605557257745 0.067895548707112313 0.085876610681931309 -0.088589234971793163 0.046399691299214341 0.089151324699597134
leaf_weight=36897.878646761179 22649.603566631675 26.008726269006729 215.21020120382309 181.05087232589722 81.273753359913826 89.562473654747009 175.39844001829624 55.937528222799301 4620.9122880101204 4616.3259469568729 8671.3285419493914 32999.504329532385 34.817901939153671 215.40052047371864 200.71892561018467
leaf_count=15806 14766 8 280 447 39 152 558 112 3201 3970 3464 8311 168 161 77
internal_value=0.0755908 0.0793444 0.064477 0.0656156 -0.00508637 0.0184423 -0.0194964 0.0752985 0.0611258 0.0662958 0.0767531 0.0854537 -0.00569979 0.0856206 0.0694934
internal_weight=111731 83521.8 28209.1 27528.3 262.325 680.89 390.609 50246.1 4676.85 27265.9 45569.2 33275.7 60.8266 33214.9 290.281
internal_count=51520 31231 20289 19222 486 1067 838 22583 3313 18736 19270 8648 176 8472 229
is_linear=0
shrinkage=0.05


Tree=8
num_leaves=16
num_cat=0
split_feature=15 10 9 15 32 25 31 19 1 31 1 5 1 4 31
split_gain=1657.02 764.993 517.983 761.525 547.555 598.28 364.103 433.03 353.769 264.46 263.238 166.915 194.949 162.145 0.597814
threshold=0.53125000000000011 1.0000000180025095e-35 0.074999999254941954 0.83125001192092907 0.44255866110324865 0.044999999925494201 0.27295455336570745 1.0000000180025095e-35 0.39062500000000006 0.60386365652084362 0.95312500000000011 1.0811185280346082e-11 0.32812500000000006 0.46666666865348821 0.59386363625526439
decision_type=2 2 2 2 2 2 2 2 2 2 2 2 2 2 2
left_child=1 6 3 8 9 -6 10 -8 -2 -4 -1 12 -3 -13 -5
right_child=2 11 4 14 5 -7 7 -9 -10 -11 -12 13 -14 -15 -16
leaf_value=0.077902823338967725 0.026658144195258762 0.097507191850473421 0.064885049920489032 -0.086433646039414891 0.085734875231551794 -0.042388767840208022 0.061452349380753994 0.072908506693029201 0.063112215479519132 0.020198761466147575 -0.021745668135297193 0.081468336117722001 -0.085408885384683525 0.035364965524505812 -0.075258271630850596
leaf_weight=15945.582662180066 1246.2422167509794 26.489146590232849 24987.515162795782 101.72700051963329 144.11852279305458 247.73871386051178 13672.032472521067 20793.972033858299 1428.2702118605375 335.54038599133492 66.551299065351486 32737.34449480474 32.3635613322258 191.82943108677864 13.562346681952475
leaf_count=5153 1200 9 16659 251 76 585 8303 9036 785 580 110 8360 164 158 47
internal_value=0.0715735 0.0751281 0.0611653 0.040702 0.0633853 0.00473296 0.0712585 0.0683641 0.0461257 0.0642929 0.0774887 0.0810494 -0.00307978 0.0811998 -0.085119
internal_weight=111971 83466.2 28504.7 2789.8 25714.9 391.857 50478.1 34466 2674.51 25323.1 16012.1 32988 58.8527 32929.2 115.289
internal_count=51476 31293 20183 2283 17900 661 22602 17339 1985 17239 5263 8691 173 8518 298
is_linear=0
shrinkage=0.05


Tree=9
num_leaves=16
num_cat=0
split_feature=10 15 32 8 0 31 32 16 24 32 16 25 5 14 31
split_gain=1616.97 820.397 436.883 389.551 602.798 483.869 331.967 213.81 175.005 497.2 151.069 110.698 110.611 106.164 56.5447
threshold=1.0000000180025095e-35 0.60624998807907116 0.0066780010238289842 -0.044870505109429352 0.080645158886909499 0.56431818008422863 0.3785576075315476 -1.0000000180025095e-35 1.0000000180025095e-35 0.35342842340469366 0.61875000596046459 0.074999999254941954 2.250000186165835e-10 0.21749999374151233 0.10454545170068742
decision_type=2 2 2 2 2 2 2 2 2 2 2 2 2 2 2
left_child=1 2 14 4 -3 -5 -4 11 10 -10 -9 12 -2 -13 -1
right_child=7 3 6 5 -6 -7 -8 8 9 -11 -12 13 -14 -15 -16
leaf_value=0.077843059030966999 0.083633672703884956 0.048854951407618114 0.066790040852293009 0.059138823936553502 -0.016127500153631145 0.020626628451313602 0.05407744438225473 0.07493012373390838 0.06188666406007616 -0.093192179373640494 0.038911586059022146 0.08226177001608459 0.03133365616607417 0.046443597916358659 0.090407437102086902
leaf_weight=3937.8347568511963 186.78257958590984 1504.2430376410484 45291.118278354406 14804.91648593545 467.88138456642628 863.13851420581341 5792.0350707024336 21673.230016589165 1179.0373798459768 54.054752349853516 295.07822726666927 14587.100066572428 220.3718541264534 209.85140374302864 1159.0324718803167
leaf_count=1274 45 1502 20773 10600 789 1231 4027 7702 435 97 253 2302 177 141 139
internal_value=0.0681167 0.0637878 0.0667414 0.0543811 0.033438 0.0570172 0.0653486 0.0764375 0.0734175 0.0550885 0.0744463 0.0810461 0.0553264 0.0817538 0.0807002
internal_weight=112226 73820.2 56180 17640.2 1972.12 15668.1 51083.2 38405.5 23201.4 1233.09 21968.3 15204.1 407.154 14797 5096.87
internal_count=51487 40335 26213 14122 2291 11831 24800 11152 8487 532 7955 2665 222 2443 1413
is_linear=0
shrinkage=0.05


Tree=10
num_leaves=16
num_cat=0
split_feature=10 23 26 3 31 15 27 3 32 7 24 3 8 14 6
split_gain=1541.49 1054.43 473.712 502.509 453.797 392.978 296.724 231.774 195.951 299.525 164.252 404.905 162.054 55.2522 0.173526
threshold=1.0000000180025095e-35 0.18750000000000003 0.21999999880790713 0.30833332240581518 0.26886364817619329 0.49374999105930334 0.62112441658973705 0.48333333432674414 0.45156115293502813 -0.28214032948017115 1.0000000180025095e-35 0.76874998211860668 -2.9731772599461687e-13 0.022499999497085813 0.0041877662297338256
decision_type=2 2 2 2 2 2 2 2 2 2 2 2 2 2 2
left_child=1 2 3 -1 6 -6 -3 8 12 -10 13 -12 -2 -9 -4
right_child=7 4 14 -5 5 -7 -8 10 9 -11 11 -13 -14 -15 -16
leaf_value=0.056110442083134031 0.070024651772296678 0.071040027880660425 -0.09201583920023905 0.037728720382229623 0.06401936071617749 0.052412569391448387 -0.029878492863309195 0.074936172065897866 0.088423669003704311 -0.076752768166107752 0.031597413749555894 0.073798408702256638 0.051175709582918276 0.079917975000735886 -0.097670579791294079
leaf_weight=12460.490133985877 10599.968443959951 18065.19516825676 34.023059412837029 5299.2301335036755 28260.166314944625 9829.0379255563021 73.13166806101799 11103.594725683331 51.857352405786514 58.303208023309708 691.29953640699387 3196.9522601664066 1277.7748938500881 11159.187900677323 22.564544230699539
leaf_count=10326 4411 6071 57 5605 12531 5761 82 2581 5 208 498 772 965 1688 65
internal_value=0.0649717 0.0607652 0.0501654 0.0506256 0.0641239 0.0610242 0.0706331 0.0731382 0.0673813 0.00100294 0.0757773 0.0662954 0.0679969 0.0774333 -0.0942707
internal_weight=112183 74043.8 17816.3 17759.7 56227.5 38089.2 18138.3 38138.9 11987.9 110.161 26151 3888.25 11877.7 22262.8 56.5876
internal_count=51626 40498 16053 15931 24445 18292 6153 11128 5589 213 5539 1270 5376 4269 122
is_linear=0
shrinkage=0.05


Tree=11
num_leaves=16
num_cat=0
split_feature=10 23 9 3 31 15 24 3 32 12 0 24 3 16 1
split_gain=1568.2 828.929 795.698 534.926 508.513 427.494 249.638 237.237 191.525 280.968 174.068 152.644 262.248 62.8676 0.142802
threshold=1.0000000180025095e-35 0.18750000000000003 0.87500000000000011 0.30833332240581518 0.27295455336570745 0.043750000186264522 1.0000000180025095e-35 0.48333333432674414 0.45156115293502813 -0.62499999999999989 0.33870966732501989 1.0000000180025095e-35 0.76874998211860668 -1.0000000180025095e-35 0.98437500000000011
decision_type=2 2 2 2 2 2 2 2 2 2 2 2 2 2 2
left_child=1 2 3 -1 6 -6 -3 8 10 -10 -2 13 -13 -9 -4
right_child=7 4 14 -5 5 -7 -8 11 9 -11 -12 12 -14 -15 -16
leaf_value=0.054495210477294498 0.065572339600424467 0.069981040088851712 -0.095633402692075653 0.035299105711172667 0.032209322738324171 0.058418525860895722 0.053948582223936253 0.077010821779484984 0.084242991045721027 -0.074884856623820106 0.013344736949814777 0.036497756025257892 0.069827430771323404 0.071718336838636848 -0.091577707263549607
leaf_weight=12810.75573374331 11573.803145870566 15422.772240430117 64.697305798530579 5063.6640870571136 1627.8294192254543 35176.29643329978 2881.6769248843193 11103.541515260935 51.794617876410484 59.729460701346397 161.76631703972816 725.71409541368484 3160.3284662365913 11343.409780830145 32.661089047789574
leaf_count=10105 5135 5034 311 5401 1288 16821 1219 1496 15 199 214 480 782 2836 169
internal_value=0.0618961 0.0576055 0.0482807 0.0490571 0.0606465 0.0572593 0.067457 0.0701088 0.0642327 -0.000981838 0.0648524 0.0727524 0.0636032 0.0743363 -0.0942728
internal_weight=111260 73080.4 17971.8 17874.4 55108.6 36804.1 18304.4 38180.1 11847.1 111.524 11735.6 26333 3886.04 22447 97.3584
internal_count=51505 40348 15986 15506 24362 18109 6253 11157 5563 214 5349 5594 1262 4332 480
is_linear=0
shrinkage=0.05


Tree=12
num_leaves=16
num_cat=0
split_feature=15 10 32 31 31 9 1 31 19 27 9 1 25 35 4
split_gain=1392.86 700.311 536.848 794.536 575.431 522.606 414.595 326.378 348.782 303.055 285.148 265.111 150.819 276.196 129.017
threshold=0.53125000000000011 1.0000000180025095e-35 0.35445098578929907 0.59931820631027233 0.53113636374473583 0.24499999731779101 0.67187500000000011 0.27295455336570745 1.0000000180025095e-35 -0.40069949626922602 0.81499999761581432 0.89062500000000011 0.044999999925494201 0.38750000298023229 0.46666666865348821
decision_type=2 2 2 2 2 2 2 2 2 2 2 2 2 2 2
left_child=1 7 3 10 5 -4 -6 11 -9 -5 -2 -1 13 -3 -14
right_child=2 12 4 9 6 -7 -8 8 -10 -11 -12 -13 14 -15 -16
leaf_value=0.065238366531691419 0.054962461748586537 0.058130254987403179 0.03065351128057164 0.097965840781728708 0.057602315890581547 -0.024633244601736173 -0.045356125106452261 0.049873895191572343 0.060215460005281773 -0.086969826777594739 0.022755382595677137 -0.034125456153380015 0.06940760987275621 -0.042842590921644691 0.030850287840289231
leaf_weight=15641.001917645335 22125.25241972506 1692.0415608584881 2612.0622353479266 26.451861590147018 2473.3758386448026 511.06751777231693 101.80234041810036 13545.527436122298 20480.059348061681 136.28741140663624 709.27089783549309 67.41837751865387 30280.652909636497 70.54863041639328 218.52234555780888
leaf_count=5162 13281 1087 2273 9 1731 1096 266 8213 9085 386 1157 124 7331 148 157
internal_value=0.0592543 0.0625723 0.0497732 0.0531775 0.0360343 0.0216064 0.0535321 0.0588506 0.0560985 -0.0569101 0.0539621 0.0648119 0.0683095 0.0540888 0.0691314
internal_weight=110691 81995.8 28695.6 22997.3 5698.31 3123.13 2575.18 49734 34025.6 162.739 22834.5 15708.4 32261.8 1762.59 30499.2
internal_count=51506 31307 20199 14833 5366 3369 1997 22584 17298 395 14438 5286 8723 1235 7488
is_linear=0
shrinkage=0.05


Tree=13
num_leaves=16
num_cat=0
split_feature=15 24 31 10 9 9 31 26 1 24 16 9 24 31 10
split_gain=1444.13 680.327 439.359 412.779 392.907 343.869 306.948 1435.7 382.24 258.736 148.183 121.713 33.0936 85.1049 7.34147
threshold=0.53125000000000011 -1.0000000180025095e-35 0.59613639116287243 1.0000000180025095e-35 0.13499999791383746 0.074999999254941954 0.38522726297378546 0.12499999627470972 0.98437500000000011 1.0000000180025095e-35 0.54374998807907116 0.34499999880790716 -0.18749999999999997 0.086590908467769637 1.0000000180025095e-35
decision_type=2 2 2 2 2 2 2 2 2 2 2 2 2 2 2
left_child=1 12 6 9 5 -4 8 -8 -2 -3 -6 -5 14 -14 -1
right_child=2 3 4 11 10 -7 7 -9 -10 -11 -12 -13 13 -15 -16
leaf_value=0.081611481564688948 0.056309171135068774 0.057648060926717808 -0.030756291363065041 0.065718317460767062 -0.085569701027549502 0.05654227187898081 0.044915670414267542 -0.081655732200339254 0.030069674248892005 0.048406223637968517 0.023424479066492754 0.057457102244797567 0.039675419613920043 0.071908167144979024 0.07582033144701314
leaf_weight=736.45938311517239 12315.85302208364 38079.162910848856 164.51005774736404 18924.472229763865 126.76170831918716 358.88742557168007 13698.439112693071 227.76807893812656 1564.1963103115559 9453.3112741112709 41.358345255255699 5832.620064869523 211.6288785636425 6333.297869771719 2130.2093930393457
leaf_count=45 6611 18499 273 5040 468 280 10297 451 1853 3861 37 2734 88 882 259
internal_value=0.0568026 0.0601831 0.0471111 0.0585368 0.00774301 0.0291033 0.0480901 0.0428456 0.0533521 0.05581 -0.0587566 0.063772 0.0728281 0.0708659 0.0773081
internal_weight=110199 81701.2 28497.8 72289.6 691.518 523.397 27806.3 13926.2 13880 47532.5 168.12 24757.1 9411.6 6544.93 2866.67
internal_count=51678 31408 20270 30134 1058 553 19212 10748 8464 22360 505 7774 1274 970 304
is_linear=0
shrinkage=0.05


Tree=14
num_leaves=16
num_cat=0
split_feature=10 1 32 26 12 36 32 16 28 32 24 5 12 8 16
split_gain=1433.34 917.139 781.512 959.772 739.649 695.457 356.486 231.48 448.872 234.79 158.443 175.132 27.739 0.824543 0.203001
threshold=1.0000000180025095e-35 0.98437500000000011 0.35445098578929907 0.085000000894069686 -1.0000000180025095e-35 0.53125000000000011 0.013723607175052168 0.50624999403953563 -0.07723864912986754 0.26559901237487799 -1.0000000180025095e-35 1.0811185280346082e-11 -1.0000000180025095e-35 -0.015172105748206375 0.65625000000000011
decision_type=2 2 2 2 2 2 2 2 2 2 2 2 2 2 2
left_child=1 2 6 -4 13 -6 -1 10 9 -9 12 -12 -2 -3 -10
right_child=7 4 3 -5 5 -7 -8 8 14 -11 11 -13 -14 -15 -16
leaf_value=0.06478576548490729 0.061314012114140941 -0.10102884029076345 0.042060736216286435 -0.05018730066701256 -0.099666859940800323 0.031822561313746639 0.052397903600181511 -0.041302221061032221 -0.11306896142980655 0.055167058140337261 -0.022021304833344094 0.061689359903463963 0.071135895313081218 -0.1110326137899434 -0.10654197986937103
leaf_weight=6543.4065340459347 816.16347926855087 27.427312806248665 11926.801102310419 288.79152275621891 106.37293608486652 1840.4443153738976 51638.806053683162 70.264767155051231 29.725988447666168 616.19420477747917 62.615448907017708 28975.962595701218 6029.3777934014797 82.724492281675339 19.879600554704666
leaf_count=2169 173 77 8842 469 361 1986 26243 129 70 319 183 9461 776 208 58
internal_value=0.0544904 0.0504156 0.0513772 0.0398799 0.0175062 0.0246381 0.0537911 0.0625527 0.0347964 0.0452926 0.063122 0.0615089 0.0699649 -0.108542 -0.110453
internal_weight=109075 72454.8 70397.8 12215.6 2056.97 1946.82 58182.2 36620.2 736.065 686.459 35884.1 29038.6 6845.54 110.152 49.6056
internal_count=51524 40355 37723 9311 2632 2347 28412 11169 576 448 10593 9644 949 285 128
is_linear=0
shrinkage=0.05


Tree=15
num_leaves=16
num_cat=0
split_feature=17 10 24 23 3 4 10 8 8 5 3 1 3 10 24
split_gain=1389.83 590.043 508.572 493.319 639.185 421.518 305.207 273.906 253.244 164.735 483.896 87.3754 34.7203 135.552 19.0496
threshold=0.61875000596046459 0.034999999217689044 -1.0000000180025095e-35 0.18750000000000003 0.30833332240581518 0.61458334326744091 1.0000000180025095e-35 -0.35300038754940027 -0.20425535738468167 0.14879240840673449 0.23958332836627963 0.98437500000000011 0.72291669249534618 0.024999999441206459 -0.18749999999999997
decision_type=2 2 2 2 2 2 2 2 2 2 2 2 2 2 2
left_child=1 3 12 4 -1 6 -4 -7 -5 10 -3 -11 13 -2 -14
right_child=2 9 5 8 -6 7 -8 -9 -10 11 -12 -13 14 -15 -16
leaf_value=0.04204194373798513 0.00786976533142421 -0.046808064783190335 0.052972797596909531 0.016250917812588233 0.018055503914314076 0.081173665769300921 0.06098804508932773 -0.11678759287846702 0.048856877255653935 0.062478635892981062 0.052103991616570006 0.017130040796722312 0.072891156780911334 0.066067782188538551 0.067731978145570068
leaf_weight=11807.763430014253 111.99849493801594 134.68074263632298 35309.421895310283 611.96758711338043 3631.5877989977598 25.014166072010994 17896.599360793829 57.964400142431259 22137.457323879004 6372.6575660407543 1509.706306412816 108.01922972500324 2755.1707168072462 938.0843410640955 5103.3756108433008
leaf_count=10263 58 255 15588 510 4465 4 5226 113 11086 2072 656 135 305 133 776
internal_value=0.0524589 0.0459013 0.0573418 0.0432982 0.0363999 0.0554932 0.0556688 -0.0571115 0.0479798 0.0581365 0.0440028 0.0617228 0.0683997 0.0598606 0.0695408
internal_weight=108511 46313.8 62197.6 38188.8 15439.4 53289 53206 82.9786 22749.4 8125.06 1644.39 6480.68 8908.63 1050.08 7858.55
internal_count=51645 29442 22203 26324 14728 20931 20814 117 11596 3118 911 2207 1272 191 1081
is_linear=0
shrinkage=0.05


Tree=16
num_leaves=15
num_cat=0
split_feature=3 1 10 10 6 9 1 31 9 31 1 24 3 0
split_gain=1367.44 647.314 487.091 449.225 571.731 353.238 336.737 304.238 256.376 184.832 130.595 108.569 0.355054 0.0651528
threshold=0.49375000596046453 0.92187500000000011 1.0000000180025095e-35 1.0000000180025095e-35 -0.022714688442647454 0.35500000417232519 0.98437500000000011 0.26886364817619329 0.89499998092651378 0.58659088611602794 0.29687500000000006 1.0000000180025095e-35 0.78125000000000011 1.0000000180025095e-35
decision_type=2 2 2 2 2 2 2 2 2 2 2 2 2 2
left_child=3 2 7 4 5 -1 -6 -2 9 -5 -10 -4 -3 -14
right_child=1 12 11 8 6 -7 -8 -9 10 -11 -12 -13 13 -15
leaf_value=0.028111277908876436 0.05770308210741968 -0.11757043652035407 0.062613678824315719 0.054813038151612252 0.044782866747591854 -0.02760837479255673 0.021925692106297426 0.047994792976293443 0.0735962793443109 0.023920324234735019 -0.053713011100773804 0.053337725976079144 -0.10594038105815005 -0.11011857474286849
leaf_weight=3933.623939409852 13217.716009244323 15.656050428748129 19792.473505422473 10827.948393210769 31019.930144712329 306.61134652793407 1699.6197416186333 20720.509457960725 26.511196807026863 506.84280079603195 83.875616461038589 3752.5486042350531 13.799268037080763 28.810134038329124
leaf_count=3658 3977 30 4174 4872 20104 737 1987 9723 11 466 292 1210 25 43
internal_value=0.0502306 0.0554406 0.0556094 0.0440373 0.0413569 0.0240822 0.0435955 0.0517758 0.0526932 0.0534316 -0.0231376 0.0611353 -0.111131 -0.108765
internal_weight=105946 57541.5 57483.2 48405 36959.8 4240.24 32719.5 33938.2 11445.2 11334.8 110.387 23545 58.2655 42.6094
internal_count=51309 19182 19084 32127 26486 4395 22091 13700 5641 5338 303 5384 98 68
is_linear=0
shrinkage=0.05


Tree=17
num_leaves=16
num_cat=0
split_feature=15 32 24 5 4 8 10 23 10 20 24 1 10 15 1
split_gain=1313.74 657.21 561.923 546.291 454.821 406.053 442.854 352.799 309.542 301.315 42.0582 38.311 5.87526 5.72801 0.187245
threshold=0.41875000298023229 0.44255866110324865 -1.0000000180025095e-35 0.56030303239822399 0.66458332538604747 0.46180371940135961 -0.22500000149011609 0.18750000000000003 1.0000000180025095e-35 -1.0000000180025095e-35 -0.18749999999999997 0.60937500000000011 1.0000000180025095e-35 0.53125000000000011 0.95312500000000011
decision_type=2 2 2 2 2 2 2 2 2 2 2 2 2 2 2
left_child=2 5 10 9 8 7 -7 -2 -4 -3 12 -12 -1 -5 -6
right_child=1 3 4 13 14 6 -8 -9 -10 -11 11 -13 -14 -15 -16
leaf_value=0.073698084917329168 0.035987823640353966 -0.10079117970286487 0.048140414611022718 -0.12069680539830802 -0.1088381953499217 0.031866472721787761 -0.066500202369736666 0.046111101743531918 0.055767353752034059 0.02802228635733911 0.062755762254278563 0.039473171655234965 0.068266682897115336 -0.091703545070095149 -0.10221896058823883
leaf_weight=663.43039759993553 14181.586419612169 50.453580722212791 39150.584781497717 19.776776984333992 16.335084781050682 319.77944925427437 178.17271010577679 21892.524237081409 20150.344528257847 453.08526806533337 5562.6047002375126 182.4815481454134 1995.5514330863953 122.89038087427616 30.883576452732086
leaf_count=43 12732 155 18751 60 25 213 265 10589 6678 497 895 71 264 309 60
internal_value=0.0481762 0.0406292 0.052322 -0.00935502 0.0506085 0.0415124 -0.0033302 0.0421314 0.050732 0.0151154 0.0644226 0.0620162 0.0696218 -0.0957226 -0.104509
internal_weight=104970 37218.3 67752.2 646.206 59348.1 36572.1 497.952 36074.1 59300.9 503.539 8404.07 5745.09 2658.98 142.667 47.2187
internal_count=51607 24820 26787 1021 25514 23799 478 23321 25429 652 1273 966 307 369 85
is_linear=0
shrinkage=0.05


Tree=18
num_leaves=16
num_cat=0
split_feature=15 24 32 31 26 31 10 9 32 12 3 9 24 31 10
split_gain=1353.33 629.33 453.778 676.763 519.875 398.944 397.474 348.268 322.76 269.542 260.202 142.789 36.7414 82.2428 5.59937
threshold=0.53125000000000011 -1.0000000180025095e-35 0.35445098578929907 0.59931820631027233 0.11499999836087228 0.53113636374473583 1.0000000180025095e-35 0.79500001668930065 0.44255866110324865 -0.37499999999999994 0.48333333432674414 0.92500001192092907 -0.18749999999999997 0.052954545244574554 1.0000000180025095e-35
decision_type=2 2 2 2 2 2 2 2 2 2 2 2 2 2 2
left_child=1 12 3 7 5 -4 8 -2 -3 -6 -5 -8 14 -14 -1
right_child=2 6 4 10 9 -7 11 -9 -10 -11 -12 -13 13 -15 -16
leaf_value=0.071561839643309325 0.042303651936953374 0.04636828229171118 0.014667777606011005 -0.088717090076269822 0.074452936155885427 0.041859913589572667 0.054043796440364389 0.0060161600531764715 0.01558136161933011 -0.10060128343078048 0.083550592268088086 -0.02362904228470205 0.023181352707157321 0.061638193767722928 0.066393798256504405
leaf_weight=714.4648249745369 21037.428827747703 44649.794761508703 2987.5441741347313 136.83231937885284 26.937230557203293 2459.1392278373241 22958.470856741071 682.66647344827652 867.85483466088772 119.72839988768101 26.101458072662354 59.322368174791336 142.5308540314436 5650.9310107082129 1967.2452586740255
leaf_count=47 13234 21483 3191 384 6 1914 7627 1214 807 270 7 176 73 907 259
internal_value=0.0466795 0.0500785 0.037153 0.0404016 0.0244434 0.0269448 0.048489 0.0411631 0.0457813 -0.0684501 -0.0611204 0.0538436 0.0629319 0.0606921 0.0677707
internal_weight=104487 77010.6 27476.4 21883 5593.35 5446.68 68535.4 21720.1 45517.6 146.666 162.934 23017.8 8475.17 5793.46 2681.71
internal_count=51599 31379 20220 14839 5381 5105 30093 14448 22290 276 391 7803 1286 980 306
is_linear=0
shrinkage=0.05


Tree=19
num_leaves=16
num_cat=0
split_feature=10 15 6 6 24 4 25 16 32 24 32 9 4 10 25
split_gain=1305.65 656.613 539.29 346.448 328.553 586.997 256.845 231.835 196.12 178.316 463.449 156.635 149.447 227.96 119.75
threshold=1.0000000180025095e-35 0.53125000000000011 -0.022714688442647454 0.4602737575769425 1.0000000180025095e-35 0.014583333861082794 0.24499999731779101 -1.0000000180025095e-35 0.4304767400026322 1.0000000180025095e-35 0.35445098578929907 0.33500000834465032 0.46666666865348821 0.064999999478459372 0.074999999254941954
decision_type=2 2 2 2 2 2 2 2 2 2 2 2 2 2 2
left_child=1 4 6 -4 5 -1 -3 12 -6 11 -11 -9 14 -14 -2
right_child=7 2 3 -5 8 -7 -8 9 -10 10 -12 -13 13 -15 -16
leaf_value=0.043448140413754208 0.029059456240524535 0.017385015619442553 0.037621891655421756 -0.021103011889323172 0.036498314314287982 0.060645264121652213 -0.06049433407752855 0.053333954279478013 -0.015852332788358094 0.037452730111418468 -0.11138220133771473 0.043147114557021346 -0.12833536619739414 0.035247645595818458 0.059358940325506419
leaf_weight=31428.540207639337 334.79847539961338 3096.8896933495998 19196.864257395267 254.4792308062315 8585.1651484072208 5892.4119205474854 109.61576579511166 13899.643807977438 182.71039952337742 1122.0844779759645 54.860909000039101 5179.7850348204374 24.813753977417946 150.27882505953312 12545.53229509294
leaf_count=17520 218 3813 13502 298 3686 1211 126 4841 143 465 95 3091 56 83 2302
internal_value=0.0446276 0.0406909 0.0337217 0.0368536 0.0441171 0.0461633 0.0147227 0.0527519 0.0354074 0.0494032 0.0305151 0.0505684 0.0579476 0.012065 0.0585714
internal_weight=102058 68746.7 22657.8 19451.3 46088.8 37321 3206.51 33311.8 8767.88 20256.4 1176.95 19079.4 13055.4 175.093 12880.3
internal_count=51450 40299 17739 13800 22560 18731 3939 11151 3829 8492 560 7932 2659 139 2520
is_linear=0
shrinkage=0.05


Tree=20
num_leaves=16
num_cat=0
split_feature=10 15 8 3 24 4 32 3 32 26 24 3 31 14 15
split_gain=1329.95 670.824 413.429 507.927 361.224 336.45 292.308 233.922 266.465 182.619 177.776 295.35 175.864 90.273 0.625739
threshold=1.0000000180025095e-35 0.38125000894069677 -0.016700680367648598 0.22291666269302371 1.0000000180025095e-35 0.014583333861082794 0.013723607175052168 0.48333333432674414 0.46579663455486303 0.10500000044703485 1.0000000180025095e-35 0.76874998211860668 0.58659088611602794 0.022499999497085813 0.53125000000000011
decision_type=2 2 2 2 2 2 2 2 2 2 2 2 2 2 2
left_child=1 4 3 -3 5 -1 -4 8 12 -6 13 -12 -2 -9 -10
right_child=7 2 6 -5 9 -7 -8 10 14 -11 11 -13 -14 -15 -16
leaf_value=0.044306895388836552 0.047300686546501165 -0.008449165170663674 0.052523490010857821 0.02995968187968483 0.035432695833541548 0.058750918882163689 0.034944457880872547 0.052871541778338985 -0.083123283350458321 -0.053303456132958851 0.014681235888998837 0.051313322958092704 0.015580070852148348 0.059760237837655439 -0.071150273174473339
leaf_weight=22105.332457125187 10052.586248531938 1147.0170861333609 2595.5957561284304 3448.920808210969 7820.2313583493233 4930.9899255633354 26592.441752180457 9493.1759313195944 23.49025484919548 58.413849219679832 688.67781585454941 2737.2709756046534 456.80739393830299 9530.1171219050884 20.380436688661575
leaf_count=11517 4949 2135 1261 2823 3309 1024 18268 2642 82 53 485 776 440 1714 68
internal_value=0.0432987 0.0393357 0.0343129 0.0203739 0.0441959 0.0469413 0.0365077 0.0515482 0.0454086 0.0347748 0.0544344 0.0439496 0.0459219 0.0563226 -0.0775611
internal_weight=101701 68698.9 33784 4595.94 34915 27036.3 29188 33002.5 10553.3 7878.65 22449.2 3425.95 10509.4 19023.3 43.8707
internal_count=51546 40390 24487 4958 15903 12541 19529 11156 5539 3362 5617 1261 5389 4356 150
is_linear=0
shrinkage=0.05


Tree=21
num_leaves=16
num_cat=0
split_feature=10 1 32 26 30 36 5 32 3 32 9 24 31 14 15
split_gain=1359.25 840.045 764.687 857.7 702.832 590.505 435.974 373.659 239.244 249.11 185.033 143.966 303.702 87.8541 0.547134
threshold=1.0000000180025095e-35 0.98437500000000011 0.3785576075315476 0.085000000894069686 0.04000000003725291 0.53125000000000011 0.063391603529453291 0.013723607175052168 0.48333333432674414 0.46023607254028326 0.48499999940395361 1.0000000180025095e-35 0.50159090757370006 0.022499999497085813 0.53125000000000011
decision_type=2 2 2 2 2 2 2 2 2 2 2 2 2 2 2
left_child=1 2 7 -4 6 -6 -3 -1 9 10 -2 13 -13 -10 -11
right_child=8 4 3 -5 5 -7 -8 -9 11 14 -12 12 -14 -15 -16
leaf_value=0.052647689568836531 0.046679121112785778 0.0089966757023854128 0.02590193553071217 -0.10291079710425025 -0.10695170410770481 0.040427648199590743 -0.064246215738889625 0.039293309949525589 0.051459815457986696 -0.081857127566198118 0.024421992740308981 0.046801444101151786 -0.029146626691528416 0.058350365126780337 -0.070329573364714223
leaf_weight=5820.2100632935762 9241.3694770783186 381.60856778919697 7335.3393586874008 131.54582853615284 72.648813888430595 1054.3522720783949 434.52103327214718 52365.370858058333 9240.0320910066366 24.739021226763725 1038.7522186040878 3312.4298747330904 137.07708768546581 9263.5067381709814 17.62812702357769
leaf_count=2177 4195 538 6224 309 181 744 1197 29104 2585 91 1193 1111 141 1717 74
internal_value=0.0417678 0.0377371 0.0386961 0.0236326 0.00533775 0.0309273 -0.0299991 0.0406291 0.0502093 0.0439315 0.0444302 0.0531612 0.0437834 0.0549095 -0.0770607
internal_weight=99871.1 67595.6 65652.5 7466.89 1943.13 1127 816.13 58185.6 32275.5 10322.5 10280.1 21953 3449.51 18503.5 42.3671
internal_count=51581 40474 37814 6533 2660 925 1735 31281 11107 5553 5388 5554 1252 4302 165
is_linear=0
shrinkage=0.05


Tree=22
num_leaves=16
num_cat=0
split_feature=10 15 8 26 24 8 4 24 3 32 16 6 12 4 7
split_gain=1185.79 679.44 595.517 579.604 391.751 353.481 317.099 265.926 202.252 172.197 147.719 133.768 27.6719 45.7601 23.0734
threshold=1.0000000180025095e-35 0.38125000894069677 -0.016700680367648598 0.12499999627470972 1.0000000180025095e-35 0.6476247012615205 0.014583333861082794 -1.0000000180025095e-35 0.42708334326744085 0.46579663455486303 0.61875000596046459 -0.031215246766805645 -1.0000000180025095e-35 0.12291666492819787 2.5576207818289735e-12
decision_type=2 2 2 2 2 2 2 2 2 2 2 2 2 2 2
left_child=1 4 3 -3 6 -4 -1 12 -6 10 -9 -11 13 -2 -14
right_child=7 2 5 -5 8 -7 -8 9 -10 11 -12 -13 14 -15 -16
leaf_value=0.041432710626985031 0.057033214218884291 0.016416108572156519 0.033851037054685104 -0.1088120912151007 -0.029395115118607703 -0.12086965022244078 0.055723851165635566 0.046457224681971762 0.032171996266937168 -0.084236622438062639 0.009428038768665957 0.03523923840551426 0.053925510196998677 0.028570784122091953 0.061204354219515179
leaf_weight=21851.873895302415 446.07339534163475 4190.7538478523493 28391.598620519042 94.482137441635132 135.8380673378706 36.963659703731537 4719.9036547094584 24827.981867805123 7413.2543230801821 44.814963787794113 272.28637209534645 49.091406106948853 1575.1406084150076 206.62960387766361 3525.793319940567
leaf_count=11569 72 4803 19402 156 153 88 1033 9704 3198 152 256 42 335 99 447
internal_value=0.0399261 0.0361793 0.0310307 0.013655 0.0411156 0.0336499 0.0439712 0.0480176 0.0310642 0.0458027 0.0460555 -0.0217783 0.0577163 0.0480227 0.0589567
internal_weight=97782.5 66834.7 32713.8 4285.24 34120.9 28428.6 26571.8 30947.8 7549.09 25194.2 25100.3 93.9064 5753.64 652.703 5100.93
internal_count=51509 40402 24449 4959 15953 19490 12602 11107 3351 10154 9960 194 953 171 782
is_linear=0
shrinkage=0.05


Tree=23
num_leaves=16
num_cat=0
split_feature=10 23 9 9 32 32 3 32 9 24 3 1 1 15 15
split_gain=1202.52 618.876 1031.89 466.409 456.605 374.479 228.384 213.403 176.439 175.036 309.532 103.99 73.7565 8.17372 0.356812
threshold=1.0000000180025095e-35 0.18750000000000003 0.044999999925494201 0.87500000000000011 0.013723607175052168 0.45626406371593481 0.48333333432674414 0.46579663455486303 0.48499999940395361 1.0000000180025095e-35 0.76874998211860668 0.48437500000000006 0.14062500000000003 0.53125000000000011 0.53125000000000011
decision_type=2 2 2 2 2 2 2 2 2 2 2 2 2 2 2
left_child=1 2 13 -4 11 -6 7 8 -2 12 -11 -3 -8 -1 -9
right_child=6 4 3 -5 5 -7 9 14 -10 10 -12 -13 -14 -15 -16
leaf_value=-0.14453229197371445 0.043452822572490779 0.040732828819623042 0.028406841712707399 -0.06990248907621649 0.036626810325976797 -0.0033456227721716083 0.040593561638716129 -0.076369783949062242 0.021697037186823628 0.0080946545268881353 0.04694448643941096 0.056113893203857484 0.052833430868361335 -0.11518378783830022 -0.06704525545070053
leaf_weight=33.920750021934509 8906.8199602514505 1553.6601065546274 16746.95038561523 121.52272826433182 43332.405549779534 593.96270768344402 1332.9499785900116 23.300206989049911 1040.8353521674871 640.70509992539883 2566.3365995585918 3754.345749437809 16060.422491595149 78.920840606093407 18.33092350512743
leaf_count=130 4208 650 15182 484 21962 559 580 82 1198 481 765 1152 3741 245 67
internal_value=0.038709 0.0349213 0.0266905 0.0276986 0.0377601 0.0360863 0.0469079 0.0407037 0.0411765 0.0499164 0.039183 0.0516118 0.0518954 -0.124006 -0.072264
internal_weight=96805.4 66215.7 16981.3 16868.5 49234.4 43926.4 30589.7 9989.29 9947.66 20600.4 3207.04 5308.01 17393.4 112.842 41.6311
internal_count=51486 40364 16041 15666 24323 22521 11122 5555 5406 5567 1246 1802 4321 375 149
is_linear=0
shrinkage=0.05


Tree=24
num_leaves=16
num_cat=0
split_feature=15 10 31 26 5 9 31 28 36 1 32 1 5 31 1
split_gain=1271.23 644.146 554.453 937.835 543.475 364.086 336.929 356.258 331.857 249.922 243.54 213.523 158.94 175.648 163.874
threshold=0.53125000000000011 1.0000000180025095e-35 0.38659089803695684 0.12499999627470972 0.63196593523025524 0.40500000119209295 0.27295455336570745 0.16977579146623614 0.65625000000000011 0.95312500000000011 0.078048408031463637 0.98437500000000011 1.0811185280346082e-11 0.27886363863945013 0.32812500000000006
decision_type=2 2 2 2 2 2 2 2 2 2 2 2 2 2 2
left_child=1 6 8 5 -5 -4 9 -8 11 -1 -10 -2 14 -14 -3
right_child=2 12 3 4 -6 -7 7 -9 10 -11 -12 -13 13 -15 -16
leaf_value=0.044558093578918663 0.038498074644547839 0.064582142926517414 0.025006120315169456 -0.11297565697237695 0.071236978246422639 -0.010336553388156165 0.039993267098768645 0.029186207401898263 0.06342814176484772 -0.052780021319656895 -0.13201570358970299 0.018166399753605431 0.05414820999142831 0.045010164996714251 -0.10339581893818295
leaf_weight=13354.439550682902 11462.459684878588 24.749510571360588 12239.419095896184 196.6284341365099 50.276395916938782 774.82367993891239 15198.420434877276 15305.45062059164 23.313985049724579 66.271772339940071 50.38861383497715 1455.280253469944 7333.2105108499527 18588.78562836349 35.125967621803284
leaf_count=5125 6599 10 9681 456 10 1540 7934 9416 8 114 231 1709 1911 6559 167
internal_value=0.0376438 0.0411668 0.0282626 0.0210705 -0.0754651 0.0229019 0.0374754 0.0345708 0.0356039 0.0440774 -0.0701919 0.0362076 0.0474073 0.0475953 -0.0339622
internal_weight=96159 69906.5 26252.6 13261.1 246.905 13014.2 43924.6 30503.9 12991.4 13420.7 73.7026 12917.7 25981.9 25922 59.8755
internal_count=51470 31236 20234 11687 466 11221 22589 17350 8547 5239 239 8308 8647 8470 177
is_linear=0
shrinkage=0.05


Tree=25
num_leaves=16
num_cat=0
split_feature=10 15 8 24 9 4 31 3 4 32 31 32 3 31 24
split_gain=1289.11 654.281 549.87 421.151 402.668 328.717 309.146 241.177 264.802 372.272 207.58 739.561 161.324 158.47 134.841
threshold=1.0000000180025095e-35 0.38125000894069677 -0.016700680367648598 1.0000000180025095e-35 0.40500000119209295 0.027083333581686023 0.60386365652084362 0.48333333432674414 0.46666666865348821 0.31057320535182958 0.58659088611602794 0.38313739001750952 0.42708334326744085 0.58295452594757091 1.0000000180025095e-35
decision_type=2 2 2 2 2 2 2 2 2 2 2 2 2 2 2
left_child=1 3 4 5 -3 -1 -4 10 14 -10 13 -12 -5 -2 -9
right_child=7 2 6 12 -6 -7 -8 8 9 -11 11 -13 -14 -15 -16
leaf_value=0.037341131851303944 0.038096011873809121 0.013555717830967224 0.030072682489095278 -0.022605072736748881 -0.055485109449808702 0.052572923065380861 -0.0085929786136061045 0.049814285502769312 -0.14433446126178359 0.030727509301628222 -0.10111669021677522 0.04416630952730892 0.027375723183226144 0.06813267007971846 0.038195847857976264
leaf_weight=20864.667005315423 8799.2597409933805 3963.8318684697151 26918.621081590652 165.22353108227253 223.07634745538235 4266.3701260685921 527.07657250761986 16950.818549856544 42.263805076479912 107.89311261475086 120.5000943094492 320.79062268137932 7065.5273256748915 462.18513105809689 2928.7589747905731
leaf_count=11575 5022 4264 18800 161 690 960 730 4336 110 53 293 176 3198 55 1103
internal_value=0.0358659 0.031869 0.0267553 0.0368674 0.00987726 0.039927 0.0293301 0.0444687 0.047603 -0.0185462 0.0379986 0.00449492 0.0262337 0.039595 0.0481026
internal_weight=93726.9 63994.4 31632.6 32361.8 4186.91 25131 27445.7 29732.5 20029.7 150.157 9702.74 441.291 7230.75 9261.44 19879.6
internal_count=51526 40378 24484 15894 4954 12535 19530 11148 5602 163 5546 469 3359 5077 5439
is_linear=0
shrinkage=0.05


Tree=26
num_leaves=16
num_cat=0
split_feature=10 23 31 1 3 32 9 18 0 24 9 32 31 31 31
split_gain=1105.38 682.555 693.466 886.781 524.701 458.494 376.206 280.032 402.823 210.03 184.154 157.148 103.002 34.6082 4.16757
threshold=1.0000000180025095e-35 0.18750000000000003 0.24431818723678592 0.64062500000000011 0.30833332240581518 0.013723607175052168 0.66500002145767223 -0.61875000596046437 0.080645158886909499 -1.0000000180025095e-35 0.49500000476837164 0.34183394908905035 0.10454545170068742 0.037499999627470977 0.57568180561065685
decision_type=2 2 2 2 2 2 2 2 2 2 2 2 2 2 2
left_child=1 2 3 -1 -4 12 -7 8 11 13 -11 -2 -3 -9 -10
right_child=7 5 4 -5 -6 6 -8 9 14 10 -12 -13 -14 -15 -16
leaf_value=0.0063149671100397849 -0.047392679964879988 0.044323755584599292 0.031021507090938111 -0.10543488236945353 0.010537863376678161 0.032782357542199131 -0.030183981795518691 0.0083877915354641785 -0.13531210246520603 0.042993285022414958 0.029320597895322927 0.05728655651442241 0.061024368420987851 0.05295434225413681 -0.096813806979309192
leaf_weight=909.00153760612011 51.414401933550835 3911.7301293313503 10806.189539656043 220.61114290356636 4399.0383369475603 42369.564152792096 238.55413895845413 43.941019386053085 47.214015513658524 20568.146992057562 2797.6912546306849 118.45893736183643 1208.4754247069359 5041.0180277824402 8.2595247477292997
leaf_count=985 94 1606 9147 952 4942 22143 397 33 118 7841 2054 37 202 930 17
internal_value=0.0347615 0.0311094 0.0222874 -0.0155096 0.0250954 0.0341286 0.0324298 0.0429205 -0.0125976 0.0433603 0.0413562 0.025604 0.0482654 0.0525692 -0.12958
internal_weight=92739.3 64063.2 16334.8 1129.61 15205.2 47728.3 42608.1 28676.1 225.347 28450.8 23365.8 169.873 5120.21 5084.96 55.4735
internal_count=51498 40374 16026 1937 14089 24348 22540 11124 266 10858 9895 131 1808 963 135
is_linear=0
shrinkage=0.05


Tree=27
num_leaves=16
num_cat=0
split_feature=15 10 8 32 9 28 28 32 19 10 31 24 7 31 31
split_gain=1089.75 617.13 556.487 441.603 377.871 274.24 260.445 257.76 305.749 180.027 167.821 217.708 87.1674 73.7242 6.41067
threshold=0.53125000000000011 0.014999999664723875 0.46180371940135961 0.45626406371593481 0.074999999254941954 0.65363159775733959 0.11845036223530771 0.013723607175052168 1.0000000180025095e-35 -0.44499999284744257 0.27886363863945013 1.0000000180025095e-35 8.7391205383369207e-13 0.19795455038547519 0.4984090924263001
decision_type=2 2 2 2 2 2 2 2 2 2 2 2 2 2 2
left_child=1 7 3 4 -2 14 -5 12 -9 -7 13 -12 -1 -3 -4
right_child=2 10 5 6 -6 9 -8 8 -10 -11 11 -13 -14 -15 -16
leaf_value=0.00082043458254057794 0.0077016731238299628 0.041847482118106898 -0.14269279428724529 -0.093654409728368707 0.028198772194730035 0.059969973185955365 0.002670631614893892 0.027418890607101228 0.036119392392965195 -0.058844696270133834 0.044259760557949071 0.026500941124334616 0.046278607990718264 0.056303368681994252 -0.11108226088462447
leaf_weight=108.04874013364315 2497.9725972414017 1176.5502976775169 51.784276396036148 116.39012724161148 22517.291134506464 51.40406908094883 176.72730082273483 16963.545603267848 24947.755381658673 83.945201173424721 12535.447745427489 2001.3057066947222 4394.2305643856525 3522.7935081347823 23.235918760299683
leaf_count=191 2073 427 115 366 17340 15 202 10489 12665 135 4248 956 1565 637 36
internal_value=0.0335318 0.03694 0.0247639 0.025437 0.026152 -0.0562219 -0.0355778 0.0338191 0.0325979 -0.0137203 0.0444702 0.0418149 0.0451877 0.0526841 -0.132902
internal_weight=91168.4 65649.7 25518.8 25308.4 25015.3 210.369 293.117 46413.6 41911.3 135.349 19236.1 14536.8 4502.28 4699.34 75.0202
internal_count=51460 31178 20282 19981 19413 301 568 24910 23154 150 6268 5204 1756 1064 151
is_linear=0
shrinkage=0.05


Tree=28
num_leaves=16
num_cat=0
split_feature=3 32 24 14 3 7 32 26 4 9 35 3 35 16 31
split_gain=1171.1 837.833 596.164 706.812 457.367 526.26 440.296 413.907 389.771 334.942 278.053 257.907 163.934 83.1263 0.392794
threshold=0.49375000596046453 0.45626406371593481 1.0000000180025095e-35 1.0000000180025095e-35 0.25833332538604742 0.0057644676417112359 0.25546163320541387 0.034999999217689044 0.66458332538604747 0.27500000596046453 -0.86607143282890309 0.68125000596046459 0.15476191043853763 -0.093749999999999986 0.33613637089729315
decision_type=2 2 2 2 2 2 2 2 2 2 2 2 2 2 2
left_child=1 7 3 6 5 -3 -2 9 11 -1 -9 -4 -6 -5 -10
right_child=2 4 8 13 12 -7 -8 10 14 -11 -12 -13 -14 -15 -16
leaf_value=0.034497445530664764 0.040858490663499114 -0.097861720535784985 0.0058153099089824209 0.053850333997679925 -0.03298825527444884 0.04748537441860845 0.026554010605182862 0.049693440382919674 -0.11160916498058363 0.022023562891001075 0.019198544999368995 0.030533419663084906 -0.11367160771345181 0.046148973916375749 -0.12070834996925338
leaf_weight=18888.67876458168 13111.317733883858 85.991437166929245 1201.4349513202906 5639.4714996814728 103.59286116063595 225.82428233325481 9122.2842645049095 786.6349929869175 23.869148418307304 7525.6498876065016 15026.441428363323 8675.5068343430758 160.49360986053944 9252.4163816869259 23.574285954236984
leaf_count=11528 5347 368 880 1010 173 139 6011 356 38 7484 11864 3513 361 2397 46
internal_value=0.0322812 0.0262965 0.0377257 0.0406357 -0.0336044 0.00740207 0.0349895 0.0271134 0.0268399 0.0309435 0.0207155 0.0275267 -0.0820221 0.0490654 -0.11613
internal_weight=89853.2 42803.3 47049.9 37125.5 575.902 311.816 22233.6 42227.4 9924.39 26414.3 15813.1 9876.94 264.086 14891.9 47.4434
internal_count=51515 32273 19242 14765 1041 507 11358 31232 4477 19012 12220 4393 534 3407 84
is_linear=0
shrinkage=0.05


Tree=29
num_leaves=16
num_cat=0
split_feature=15 24 9 13 28 8 32 9 32 24 1 24 32 32 32
split_gain=1068.62 624.068 483.984 546.667 448.16 432.301 343.619 464.491 326.012 254.12 220.901 52.0966 52.3135 4.58341 1.57933
threshold=0.53125000000000011 -1.0000000180025095e-35 0.074999999254941954 0.037500000558793552 0.16977579146623614 0.37508620321750646 0.45626406371593481 0.37500000000000006 0.35243083536624914 0.18750000000000003 0.98437500000000011 -0.18749999999999997 0.0043436905834823855 1.1163880583864307e-11 0.2909738570451737
decision_type=2 2 2 2 2 2 2 2 2 2 2 2 2 2 2
left_child=1 11 3 14 9 -5 10 -8 -6 -3 -4 13 -13 -1 -2
right_child=2 4 6 5 8 -7 7 -9 -10 -11 -12 12 -14 -15 -16
leaf_value=0.061531753446731119 -0.12062512832048229 0.038560308897346296 0.027336082345992392 0.012532660243117152 0.030492531415463233 -0.07039387282378308 -0.089894861051538211 0.060435876742852314 0.014359575959032176 0.025590860854504856 0.010755512535269187 0.012175509101652958 0.04763427000555806 0.055382915096059443 -0.10705320876480047
leaf_weight=372.19708653539419 30.648540779948235 29802.124228999019 20298.480397075415 2343.4183475971222 20076.418002858758 168.45644454658031 144.64764055609703 79.692447602748871 3710.1543749943376 4325.0296246558428 2229.4487891644239 106.70252708345652 4133.6864480674267 1631.7997109219432 71.306950882077217
leaf_count=33 65 14543 14924 1768 10509 217 397 46 2928 2110 2653 77 878 280 244
internal_value=0.0314289 0.0348638 0.0227411 0.00236448 0.0332446 0.00697127 0.025082 -0.0364928 0.0279762 0.0369167 0.0256952 0.0498816 0.046742 0.0565249 -0.111133
internal_weight=89524.2 64158.1 25366.1 2613.83 57913.7 2511.87 22752.3 224.34 23786.6 34127.2 22527.9 6244.39 4240.39 2004 101.955
internal_count=51672 31358 20314 2294 30090 1985 18020 443 13437 16653 17577 1268 955 313 309
is_linear=0
shrinkage=0.05


Tree=30
num_leaves=16
num_cat=0
split_feature=10 23 0 3 9 31 15 16 0 15 27 25 31 31 3
split_gain=1103.22 618.404 515.741 511.231 478.316 403.968 354.937 228.159 221.146 437.342 186.672 166.387 330.083 149.274 139.083
threshold=1.0000000180025095e-35 0.18750000000000003 0.46774192154407507 0.30833332240581518 0.58499997854232799 0.26886364817619329 0.043750000186264522 -1.0000000180025095e-35 0.33870966732501989 0.38125000894069677 0.62112441658973705 0.074999999254941954 0.39386364817619329 0.38659089803695684 0.93333333730697643
decision_type=2 2 2 2 2 2 2 2 2 2 2 2 2 2 2
left_child=1 2 3 -1 -4 10 -7 11 13 -10 -3 12 -2 -9 -13
right_child=7 5 4 -5 -6 6 -8 8 9 -11 -12 14 -14 -15 -16
leaf_value=0.024688404426149314 -0.19627587750055778 0.037013131121953473 -0.14416625222081941 0.0047344895787069241 0.021806153811247397 0.0025176943101463171 0.027522135491736727 0.040486000764335714 -0.19243117818854019 0.014037992596968514 -0.036923472203701693 0.046328262437632717 0.02120050187283247 0.030922677566198327 -0.018581261048483413
leaf_weight=11193.54562664032 18.69560307264328 13877.691700927913 93.898150950670242 4500.6079233586788 80.731833711266518 1490.1093235909939 29843.129151940346 8241.1215580776334 30.209477365016937 169.85173244029284 85.897346138954163 9640.312184907496 261.39866290986538 8082.1679335981607 83.240073561668396
leaf_count=10193 69 6067 395 5349 104 1324 17013 3503 100 149 82 2385 148 4718 76
internal_value=0.0302027 0.0265094 0.0180154 0.0189662 -0.0674368 0.0294851 0.026333 0.0387186 0.0351105 -0.0171391 0.0365583 0.0446782 0.00668449 0.0357509 0.0457726
internal_weight=87692.6 61165.6 15868.8 15694.2 174.63 45296.8 31333.2 26527 16523.4 200.061 13963.6 10003.6 280.094 16323.3 9723.55
internal_count=51675 40527 16041 15542 499 24486 18337 11148 8470 249 6149 2678 217 8221 2461
is_linear=0
shrinkage=0.05


Tree=31
num_leaves=16
num_cat=0
split_feature=10 23 31 1 31 3 1 24 32 24 36 1 0 31 3
split_gain=1085.06 732.885 583.133 902.403 448.445 426.389 412.964 194.941 174.426 601.128 391.469 162.446 251.962 68.1739 3.64878
threshold=0.044999999925494201 0.18750000000000003 0.24431818723678592 0.64062500000000011 0.27295455336570745 0.30833332240581518 0.89062500000000011 1.0000000180025095e-35 0.35803636908531195 1.0000000180025095e-35 0.53125000000000011 0.98437500000000011 0.080645158886909499 0.27886363863945013 0.49791666865348821
decision_type=2 2 2 2 2 2 2 2 2 2 2 2 2 2 2
left_child=1 2 3 -1 7 -4 -6 -3 11 10 -10 13 -13 -2 -11
right_child=8 4 5 -5 6 -7 -8 -9 9 14 -12 12 -14 -15 -16
leaf_value=0.0069204451112750091 0.049679177942347615 0.038967672491762528 0.025279513793603981 -0.09666066512010571 0.027465082872820085 0.0074464401045318072 -0.0023734510918589549 0.024274132470692451 0.0378864979779239 -0.16425196943135489 -0.045269004198027131 0.030521611413666518 -0.085914303752730223 0.041723009217602171 -0.13406948653013656
leaf_weight=1002.0633966773748 3741.9047839790583 13425.354683808982 12125.254463247955 266.11139586567879 35083.40962972492 4632.5410660803318 1199.2077125012875 2713.558400452137 2009.2299420461059 13.744555056095122 152.25739507377148 209.93871836364269 59.667539283633232 9600.3401602432132 36.885363683104515
leaf_count=1071 909 5744 10593 1064 19200 5270 1348 1344 824 31 259 119 191 3278 86
internal_value=0.0292302 0.0265726 0.0178758 -0.0148148 0.0295632 0.0203497 0.0264789 0.0364971 0.0410617 0.0280398 0.0320289 0.0431779 0.00475276 0.0439544 -0.142263
internal_weight=86271.5 70447.5 18026 1268.17 52421.5 16757.8 36282.6 16138.9 15824 2212.12 2161.49 13611.9 269.606 13342.2 50.6299
internal_count=51331 45634 17998 2135 27636 15863 20548 7088 5697 1200 1083 4497 310 4187 117
is_linear=0
shrinkage=0.05


Tree=32
num_leaves=16
num_cat=0
split_feature=10 32 36 31 26 1 29 36 24 16 1 9 12 12 7
split_gain=1040.11 547.32 876.939 1020.18 546.45 453.713 487.72 420.525 241.24 167.171 283.443 167.429 41.3709 74.4911 27.6782
threshold=1.0000000180025095e-35 0.3785576075315476 0.53125000000000011 0.48613637685775762 0.085000000894069686 0.98437500000000011 0.37500000000000006 0.65625000000000011 -1.0000000180025095e-35 0.61875000596046459 0.95312500000000011 0.49500000476837164 -1.0000000180025095e-35 -0.37499999999999994 2.5576207818289735e-12
decision_type=2 2 2 2 2 2 2 2 2 2 2 2 2 2 2
left_child=1 5 4 -4 -3 7 -7 -1 12 11 -11 -10 13 -2 -14
right_child=8 2 3 -5 -6 6 -8 -9 9 10 -12 -13 14 -15 -16
leaf_value=0.027468159423360023 0.046936903762689705 0.021368630350689408 -0.10906341430742704 -0.001534195721916649 -0.10925518698873887 -0.029674530016894643 0.022969640989971292 -0.074723942613285119 0.036625198769921645 0.015460835410979102 -0.13947411281550612 0.022969938745263815 0.042988488537302416 0.0059323512421449731 0.052117552525197813
leaf_weight=50558.060119435191 354.47566841542721 5869.420338794589 288.59113921225071 935.98090922832489 81.172838419675827 732.3477368503809 1101.9522150605917 100.87012587487698 18270.943701550364 196.9586887806654 34.723562017083168 2559.1858826950192 1217.8742353469133 161.095085516572 2608.8736674413085
leaf_count=30926 85 4549 733 1224 203 1530 906 200 7832 133 126 2033 335 85 440
internal_value=0.0282171 0.0246097 0.0116572 -0.0268753 0.0195868 0.0263801 0.00195136 0.0272647 0.0366901 0.0344777 -0.00776016 0.0349475 0.0474208 0.0341246 0.0492122
internal_weight=85072.5 59668.4 7175.17 1224.57 5950.59 52493.2 1834.3 50658.9 25404.1 21061.8 231.682 20830.1 4342.32 515.571 3826.75
internal_count=51340 40271 6709 1957 4752 33562 2436 31126 11069 10124 259 9865 945 170 775
is_linear=0
shrinkage=0.05


Tree=33
num_leaves=16
num_cat=0
split_feature=10 32 9 28 15 31 32 24 11 9 3 31 24 12 32
split_gain=1036.35 553.921 599.976 774.977 465.098 533.8 333.446 212.274 182.264 167.755 655.902 298.475 41.4483 57.3618 3.23387
threshold=1.0000000180025095e-35 0.43880930542945867 0.054999999701976783 0.1905055567622185 0.60624998807907116 0.59386363625526439 0.0066780010238289842 -1.0000000180025095e-35 0.62500000000000011 0.49500000476837164 0.89374998211860668 0.27886363863945013 -0.31249999999999994 -1.0000000180025095e-35 0.35033941268920904
decision_type=2 2 2 2 2 2 2 2 2 2 2 2 2 2 2
left_child=1 4 8 -4 6 -6 -1 12 -3 11 -11 -9 14 -14 -2
right_child=7 2 3 -5 5 -7 -8 9 -10 10 -12 -13 13 -15 -16
leaf_value=0.041920018023483586 0.052857629859109925 0.044210905287704425 -0.009603111255398037 -0.12733988373192201 0.017886666882568476 -0.048392757850785922 0.025479445716273103 0.049209609006238011 -0.03497026798893646 0.023950947867061353 -0.22790878458115565 0.032231210461165477 0.024061301864031243 0.045574656096883298 0.058935393426449267
leaf_weight=3347.015884436667 527.15204091370106 476.81032897531986 656.19543351233006 177.59373679757118 14580.727414488792 310.24517302215099 39265.35976947099 3122.7373597696424 85.746841296553612 2469.515574388206 26.123490862548351 15131.583487309515 347.42272693663836 2864.7625761851668 374.24470937997103
leaf_count=1411 119 198 870 489 12829 682 23838 808 122 1964 100 7291 138 642 36
internal_value=0.0269704 0.023357 -0.00775929 -0.0346806 0.0241126 0.0165058 0.0267708 0.0355304 0.0321418 0.0334734 0.0213146 0.0351357 0.0459065 0.0432478 0.055381
internal_weight=83763.2 58899.7 1396.35 833.789 57503.3 14891 42612.4 24863.5 562.557 20750 2495.64 18254.3 4113.58 3212.19 901.397
internal_count=51537 40439 1679 1359 38760 13511 25249 11098 320 10163 2064 8099 935 780 155
is_linear=0
shrinkage=0.05


Tree=34
num_leaves=16
num_cat=0
split_feature=10 23 32 7 32 31 32 3 31 32 9 4 16 9 31
split_gain=1037.42 536.886 606.039 664.884 444.774 428.366 274.148 236.061 209.433 694.565 195.909 149.471 128.482 116.482 82.5074
threshold=1.0000000180025095e-35 0.18750000000000003 0.12504832446575168 1.8419155090043664e-12 0.0043436905834823855 0.38204544782638555 0.45626406371593481 0.48333333432674414 0.58659088611602794 0.38313739001750952 0.48499999940395361 0.19791667163372043 -0.093749999999999986 0.17500000447034839 0.10454545170068742
decision_type=2 2 2 2 2 2 2 2 2 2 2 2 2 2 2
left_child=1 2 3 -1 14 -4 -6 8 10 -10 -2 12 -9 -13 -3
right_child=7 4 5 -5 6 -7 -8 11 9 -11 -12 13 -14 -15 -16
leaf_value=-0.12733677302546084 0.032269221652900221 0.038284704542225829 0.029132081472550704 -0.007102079877514534 0.024187227052652478 0.010784987551946811 -0.010419769922024839 0.047614951087944231 -0.11192067519381346 0.034605994593345589 0.0068706886847659243 0.0056955082733438529 0.036922404936405105 0.033845497609765345 0.056774046434269212
leaf_weight=129.53287297487259 7061.2116843536496 2579.1239048168063 4848.2576384395361 1023.4993733614683 38930.517867833376 9253.5908320099115 580.80378665030003 3829.0010502785444 113.88091856241226 279.05583944916725 850.70401611924171 577.66661478579044 10551.089504525065 1010.0085809230804 787.64643007516861
leaf_count=630 3881 1228 3825 1448 22478 10048 552 845 299 173 1152 345 3927 480 132
internal_value=0.025924 0.022299 0.0142431 -0.0206094 0.025165 0.0170928 0.0236785 0.0346061 0.0277688 -0.00786036 0.0295383 0.0381621 0.0397695 0.0236033 0.0426102
internal_weight=82405.6 58133 15254.9 1153.03 42878.1 14101.8 39511.3 24272.6 8304.85 392.937 7911.92 15967.8 14380.1 1587.68 3366.77
internal_count=51443 40341 15951 2078 24390 13873 23030 11102 5505 472 5033 5597 4772 825 1360
is_linear=0
shrinkage=0.05


Tree=35
num_leaves=16
num_cat=0
split_feature=3 24 14 1 9 9 3 9 31 15 14 3 3 31 6
split_gain=1044.28 563.346 668.142 444.595 402.493 414.441 559.534 425.067 393.342 206.245 79.1607 6.16016 1.46829 1.04669 0.460123
threshold=0.49375000596046453 1.0000000180025095e-35 1.0000000180025095e-35 0.92187500000000011 0.92500001192092907 0.074999999254941954 0.17291666567325595 0.27500000596046453 0.26886364817619329 0.34375000000000006 0.037500000558793552 0.87500000000000011 0.17291666567325595 0.25113636255264288 -1.0000000180025095e-35
decision_type=2 2 2 2 2 2 2 2 2 2 2 2 2 2 2
left_child=4 2 8 9 5 6 -1 -7 -2 -3 -4 -5 13 -6 -14
right_child=1 3 10 11 12 7 -8 -9 -10 -11 -12 -13 14 -15 -16
leaf_value=-0.092705949439416013 0.036905282280031176 0.023257994806628924 0.03820016382284909 -0.14616663083387951 -0.089129093608237286 0.025403560161973718 0.0087305387839289785 0.013816244266312054 0.022459745994012112 0.00037479754557616948 0.046165384219921397 -0.10987341953909807 -0.1117790593742139 -0.11500468416296102 -0.12330907712705259
leaf_weight=139.88782829046249 7570.3320195376873 8088.3048756346107 5647.0314675569534 16.587185844779015 11.608574002981188 22432.453684262931 4829.0472855418921 12229.453884340823 12482.686799682677 1121.1581627577543 6968.5012787207961 39.615704074501991 30.606812343001366 5.8917186111211768 12.063063979148863
leaf_count=395 3072 3589 1611 36 57 14784 3950 12847 8285 822 1768 67 145 32 67
internal_value=0.0249963 0.0304984 0.0335847 0.0196166 0.0191832 0.0193794 0.00587485 0.0213153 0.0279132 0.0204722 0.0426 -0.120585 -0.110037 -0.0978405 -0.115039
internal_weight=81625.2 41934.2 32668.6 9265.67 39691 39630.8 4968.94 34661.9 20053 9209.46 12615.5 56.2029 60.1702 17.5003 42.6699
internal_count=51527 19250 14736 4514 32277 31976 4345 27631 11357 4411 3379 103 301 89 212
is_linear=0
shrinkage=0.05


Tree=36
num_leaves=15
num_cat=0
split_feature=15 32 5 4 27 31 8 32 15 3 15 15 1 32
split_gain=1095.08 500.046 428.483 355.138 301.437 298.984 250.847 240.607 240.084 172.855 11.6349 11.5377 1.49413 0.232098
threshold=0.41875000298023229 0.44255866110324865 0.56030303239822399 0.66458332538604747 0.24489194154739383 0.64431816339492809 0.46180371940135961 0.25546163320541387 0.53125000000000011 0.48333333432674414 0.53125000000000011 0.53125000000000011 0.98437500000000011 0.19302235543727878
decision_type=2 2 2 2 2 2 2 2 2 2 2 2 2 2
left_child=3 5 8 4 9 6 -2 -6 -3 -1 -4 -7 -5 -14
right_child=1 2 10 12 7 11 -8 -9 -10 -11 -12 -13 13 -15
leaf_value=0.025956891873731361 0.01836858262984024 -0.12880900349156019 -0.13765922297879885 -0.12059638563712537 0.029304339233200034 -0.17573939052006604 -0.018602741166476543 0.016872539718853378 0.0063989654805811039 0.033752412992868332 -0.096597890786604843 -0.10564390307618754 -0.095890653674062923 -0.10500869657715624
leaf_weight=10044.98333914578 29209.529349945486 35.641130410134792 19.920705504715443 16.261682540178299 7785.906593054533 7.1167227923870078 466.11566253751516 7782.3631714805961 416.5788835734129 24345.706139780581 128.77098674327135 33.526300042867661 10.627655386924745 20.330125048756599
leaf_count=7148 23112 111 60 27 3717 33 473 5465 538 10245 320 147 22 39
internal_value=0.024187 0.0166891 -0.0284676 0.0287328 0.0288623 0.0176023 0.0177879 0.0230899 -0.00425727 0.0314755 -0.102099 -0.117918 -0.108325 -0.101879
internal_weight=80323.4 30317.2 600.912 50006.2 49959 29716.3 29675.6 15568.3 452.22 34390.7 148.692 40.643 47.2195 30.9578
internal_count=51457 24794 1029 26663 26575 23765 23585 9182 649 17393 380 180 88 61
is_linear=0
shrinkage=0.05


Tree=37
num_leaves=16
num_cat=0
split_feature=10 32 32 3 29 26 1 24 31 3 1 12 14 7 31
split_gain=971.602 557.706 692.041 601.221 570.742 540.178 394.484 251.635 185 196.396 187.531 52.4532 83.184 42.0142 5.13486
threshold=1.0000000180025095e-35 0.25692304968833929 0.28636744618415838 0.13749999925494197 0.37500000000000006 0.12499999627470972 0.98437500000000011 -1.0000000180025095e-35 0.36477273702621466 0.86041668057441723 0.98437500000000011 -1.0000000180025095e-35 0.06750000081956388 2.5576207818289735e-12 0.61659091711044323
decision_type=2 2 2 2 2 2 2 2 2 2 2 2 2 2 2
left_child=1 3 4 14 -3 -4 -5 11 10 -10 -9 12 -2 -13 -1
right_child=7 2 5 6 -6 -7 -8 8 9 -11 -12 13 -14 -15 -16
leaf_value=-0.13165895232681996 0.041413340252856305 -0.026744706919667679 0.018459178024176716 0.026217118439322715 0.011979771188736419 -0.048033966323901271 -0.0050762175762098152 0.036258314494016321 0.026308823661544578 -0.0067075216365923883 -0.00056977700163983631 0.03745669542798126 -0.0061840628988637531 0.049297641075641517 -0.088259915282672297
leaf_weight=57.882904291152954 302.56677053123713 1700.0250198692083 25088.002060420811 25787.923227973282 2161.0175778344274 309.20277771353722 1048.011838182807 8258.895450502634 9927.4357738792896 471.82407236099243 360.7636059448123 1113.338428966701 131.77093996852636 2290.0917097106576 7.7253243476152411
leaf_count=198 74 2074 19947 14682 1655 473 1440 3424 5925 371 459 354 92 441 7
internal_value=0.0229662 0.0194291 0.0146514 0.0246254 -0.0050707 0.0176496 0.024995 0.0316571 0.0293004 0.0248108 0.0347169 0.043336 0.0269731 0.0454242 -0.126549
internal_weight=79016.5 56159.8 29258.2 26901.5 3861.04 25397.2 26835.9 22856.7 19018.9 10399.3 8619.66 3837.77 434.338 3403.43 65.6082
internal_count=51616 40476 24149 16327 3729 20420 16122 11140 10179 6296 3883 961 166 795 205
is_linear=0
shrinkage=0.05


Tree=38
num_leaves=16
num_cat=0
split_feature=10 15 24 31 4 31 16 4 36 23 26 32 36 4 31
split_gain=999.35 631.249 462.183 390.009 529.915 493.875 380.476 215.672 185.516 432.09 204.82 158.171 379.867 103.829 25.1253
threshold=0.044999999925494201 0.38125000894069677 1.0000000180025095e-35 0.38522726297378546 0.15833333134651187 0.403409093618393 -0.056250002235174172 0.66458332538604747 0.59375000000000011 0.18750000000000003 0.044999999925494201 0.35243083536624914 0.53125000000000011 0.45625001192092901 0.60159093141555797
decision_type=2 2 2 2 2 2 2 2 2 2 2 2 2 2 2
left_child=1 2 6 4 -3 -5 -1 -4 11 14 -11 13 -13 -2 -10
right_child=8 3 7 5 -6 -7 -8 -9 9 10 -12 12 -14 -15 -16
leaf_value=0.044465786034281841 0.039418901165608693 0.020925145155623579 0.014315245993215528 -0.023485600016676551 -0.17248071657979044 0.011734465105185042 0.025639820077512299 -0.10369617055916203 -0.21237423610712813 0.028794178711848722 -0.039462266372747364 0.02951839684028831 -0.053841535388536359 0.0061603861289539624 -0.10043324164151815
leaf_weight=3038.2488604038954 10567.34844532609 15613.53146892041 7389.3886896893382 1065.6598134040833 35.497135773301125 15086.560612551868 23005.92697390914 38.919555634260178 20.215495459735397 755.88065135478973 128.60693380981684 2027.8626441061497 146.54059816151857 239.99664604663849 6.665530636906623
leaf_count=762 3608 11445 3842 1520 98 13935 14311 63 136 439 151 994 265 156 8
internal_value=0.0224973 0.0199055 0.0246982 0.014861 0.0204864 0.00941078 0.027836 0.0136969 0.0346739 0.0128676 0.0188695 0.0362048 0.0239005 0.0386803 -0.184617
internal_weight=79166.9 65273.7 33472.5 31801.2 15649 16152.2 26044.2 7428.31 13893.1 911.369 884.488 12981.7 2174.4 10807.3 26.881
internal_count=51733 45976 18978 26998 11543 15455 15073 3905 5757 734 590 5023 1259 3764 144
is_linear=0
shrinkage=0.05


Tree=39
num_leaves=16
num_cat=0
split_feature=15 10 23 4 32 8 5 5 3 6 31 5 10 4 15
split_gain=874.164 426.573 436.464 601.542 411.015 386.177 360.694 356.07 354.188 301.42 257.756 67.9318 103.08 55.76 24.0915
threshold=0.38125000894069677 0.10500000044703485 0.68750000000000011 0.12708333134651187 0.45626406371593481 0.46180371940135961 0.5030120611190797 0.37581168115139013 0.36041666567325598 0.051750654354691512 0.27295455336570745 0.51087471842765819 0.18500000238418582 0.19791667163372043 0.53125000000000011
decision_type=2 2 2 2 2 2 2 2 2 2 2 2 2 2 2
left_child=1 2 10 -4 5 7 9 -2 -7 -6 -1 13 -13 -3 -8
right_child=4 11 3 -5 6 8 14 -9 -10 -11 -12 12 -14 -15 -16
leaf_value=0.031645226137912826 0.011669681910977584 0.043440300487278011 0.0061959734444429196 -0.12276063490178375 -0.069650438829147218 -0.10476686627056991 -0.13769635094743846 0.021825768616852939 -0.0052854317180173055 0.036698011957134173 0.02228523902448935 -0.064392935319481232 0.053674602650790597 0.028941467396844989 -0.088556362799067589
leaf_weight=10248.181114979088 17666.320799835026 3855.2195948287845 464.43610324710608 112.29693254828453 104.39062751084566 112.28907035291195 32.809527277946472 16872.821260899305 440.3286079838872 184.17823976278305 26056.173574402928 38.249745480716228 35.778607681393623 800.88558851927519 104.01662347465754
leaf_count=4721 16156 1032 306 167 303 230 123 11792 375 107 15487 51 7 411 285
internal_value=0.021137 0.0260549 0.0242419 -0.0189134 0.0153754 0.0159676 -0.033477 0.0166311 -0.0254995 -0.00177385 0.0249274 0.0401909 -0.00732977 0.0409464 -0.10034
internal_weight=77128.4 41611.2 36881.1 576.733 35517.2 35091.8 425.395 34539.1 552.618 288.569 36304.4 4730.13 74.0284 4656.11 136.826
internal_count=51553 22182 20681 473 29371 28553 818 27948 605 410 20208 1501 58 1443 408
is_linear=0
shrinkage=0.05


Tree=40
num_leaves=15
num_cat=0
split_feature=24 32 31 36 13 15 31 4 24 31 25 7 31 32
split_gain=870.6 627.414 770.946 688.737 536.268 343.317 672.151 236.14 57.6909 95.4971 272.803 64.1124 6.56413 15.1675
threshold=-1.0000000180025095e-35 0.35445098578929907 0.4620454609394074 0.53125000000000011 0.38249999284744268 0.60624998807907116 0.56204545497894298 0.66458332538604747 -0.18749999999999997 0.086590908467769637 0.16499999910593036 -0.046975361183285706 0.11340909078717233 0.081997565925121321
decision_type=2 2 2 2 2 2 2 2 2 2 2 2 2 2
left_child=8 5 3 -3 -4 7 -7 -2 12 10 -10 -11 -1 -14
right_child=1 2 4 -5 -6 6 -8 -9 9 11 -12 -13 13 -15
leaf_value=0.056598976167764131 0.023898887808605183 0.0030125559245065916 0.017252195588664945 -0.0474935450446336 -0.19001194305650201 0.016833084680967267 -0.043969583543518216 -0.10014990075254047 -0.1322456082208153 0.025463397248330272 0.038125880889955013 0.042979138950445389 0.027187893258052837 0.04966992818576093
leaf_weight=282.95362749695778 44799.194403983653 2428.3612847179174 10074.901022136211 934.86291092634201 31.305515915155411 13179.087063461542 470.76494804769754 38.396898716688156 31.532429710030556 653.78372536599636 92.191979385912418 2600.1750749126077 80.640415877103806 1076.5391489937901
leaf_count=36 26418 2240 8248 1414 105 11006 845 74 51 246 33 620 22 253
internal_value=0.0208162 0.0194385 0.00970949 -0.0110264 0.0166102 0.021679 0.0147361 0.0237927 0.0413932 0.0378205 -0.00529503 0.0394599 0.0497724 0.0481032
internal_weight=76774.7 71956.9 13469.4 3363.22 10106.2 58487.4 13649.9 44837.6 4817.82 3377.68 123.724 3253.96 1440.13 1157.18
internal_count=51611 50350 12007 3654 8353 38343 11851 26492 1261 950 84 866 311 275
is_linear=0
shrinkage=0.05


Tree=41
num_leaves=16
num_cat=0
split_feature=10 17 24 4 31 10 4 32 36 3 1 17 36 31 8
split_gain=857.656 581.198 410.157 364.829 332.218 496.978 449.285 243.432 468.53 497.615 377.997 199.502 152.781 285.675 91.025
threshold=0.044999999925494201 0.61875000596046459 1.0000000180025095e-35 0.014583333861082794 0.38522726297378546 -0.30500000715255732 0.15833333134651187 0.38583625853061682 0.53125000000000011 0.78125000000000011 0.39062500000000006 0.65625000000000011 0.59375000000000011 0.45159089565277105 -0.19087120890617368
decision_type=2 2 2 2 2 2 2 2 2 2 2 2 2 2 2
left_child=1 4 3 -3 6 -6 -1 12 9 -9 -10 -4 14 -14 -2
right_child=7 2 11 -5 5 -7 -8 8 10 -11 -12 -13 13 -15 -16
leaf_value=0.018524673531059178 0.041602965367614486 0.022513410093519367 -0.037281280356532935 0.03803681820154655 -0.10182143590793656 0.0084621547403249363 -0.15855928621676865 0.028890028531289164 0.041321824800298085 -0.12451678879323419 -0.18048159358460003 0.013250920082813448 0.020703884581972302 -0.1019222155197646 0.0320567209457377
leaf_weight=15046.395307585597 3859.8895826265216 20242.586914382875 200.96868740767241 4655.3485112115741 102.81726191937923 15837.80957800895 35.903635263442993 783.66410448402166 29.224408969283104 56.685858026146889 56.04609864205122 6951.3397969976068 799.05330342054367 50.496315091848373 7072.6260413974524
leaf_count=11408 1281 13627 187 1395 249 15245 97 483 17 82 169 3643 533 141 2975
internal_value=0.0200498 0.0176622 0.0223843 0.0254159 0.0127838 0.00775082 0.0181031 0.0319003 0.00721036 0.018542 -0.104464 0.011831 0.03384 0.0134151 0.0354272
internal_weight=75780.9 63073.2 32050.2 24897.9 31022.9 15940.6 15082.3 12707.7 925.62 840.35 85.2705 7152.31 11782.1 849.55 10932.5
internal_count=51532 45851 18852 15022 26999 15494 11505 5681 751 565 186 3830 4930 674 4256
is_linear=0
shrinkage=0.05


Tree=42
num_leaves=16
num_cat=0
split_feature=10 24 9 32 3 25 1 28 0 32 3 31 8 26 3
split_gain=906.103 475.501 398.791 395.426 230.182 443.292 166.951 359.234 222.668 171.81 613.564 87.7457 30.952 10.866 2.42892
threshold=0.044999999925494201 -1.0000000180025095e-35 0.92500001192092907 0.013723607175052168 0.72291669249534618 0.32500000298023229 0.98437500000000011 -0.22067929059267041 0.080645158886909499 0.38583625853061682 0.78125000000000011 0.27886363863945013 -0.1127178594470024 0.044999999925494201 0.17291666567325595
decision_type=2 2 2 2 2 2 2 2 2 2 2 2 2 2 2
left_child=1 4 3 -3 5 -1 9 13 -9 11 -11 -2 -6 -8 -4
right_child=6 2 14 -5 12 -7 7 8 -10 10 -12 -13 -14 -15 -16
leaf_value=-0.14926134066678812 0.041512545865849973 0.030843159603553313 -0.098223319414640534 0.01508732007200895 0.015442550683202822 0.057941458500960635 -0.21317748718758117 0.04678075697269788 -0.079936057982122055 0.021177864612762481 -0.16154180541089455 0.031437701714080044 0.047710786780979612 -0.1505518776122852 -0.12056520710612856
leaf_weight=44.742975756525993 2892.7877032533288 4285.9784662276506 17.184989884495735 56181.911288969219 77.80970536917448 61.011881083250046 13.259401857852938 129.94353342056274 47.282660901546478 923.03697547316551 48.350665844976902 8545.1867943927646 1654.7274633347988 14.501783281564711 41.645090378820896
leaf_count=64 904 2514 94 42602 34 6 64 48 157 654 85 3729 338 41 210
internal_value=0.0193104 0.0168384 0.0160775 0.0162041 0.0418903 -0.0297223 0.0315319 -0.0132233 0.0129736 0.0322712 0.012083 0.0339857 0.0462616 -0.180463 -0.114039
internal_weight=74979.4 62365 60526.7 60467.9 1838.29 105.755 12614.3 204.987 177.226 12409.4 971.388 11438 1732.54 27.7612 58.8301
internal_count=51544 45862 45420 45116 442 70 5682 310 205 5372 739 4633 372 105 304
is_linear=0
shrinkage=0.05


Tree=43
num_leaves=16
num_cat=0
split_feature=10 8 25 3 32 9 3 9 25 1 10 28 24 3 14
split_gain=869.87 506.58 743.48 472.243 371.812 408.552 217.564 200.969 498.78 192.708 184.74 184.55 151.319 314.231 114.549
threshold=1.0000000180025095e-35 -0.016700680367648598 0.32500000298023229 0.23958332836627963 0.013723607175052168 0.57499998807907116 0.48333333432674414 0.32500000298023229 0.034999999217689044 0.48437500000000006 0.14500000327825549 -0.39432823657989496 1.0000000180025095e-35 0.76874998211860668 0.037500000558793552
decision_type=2 2 2 2 2 2 2 2 2 2 2 2 2 2 2
left_child=1 2 3 -1 9 -6 7 10 -9 -3 -2 -4 14 -14 -8
right_child=6 4 11 -5 5 -7 12 8 -10 -11 -12 -13 13 -15 -16
leaf_value=-0.026022592984546851 0.025946650529413834 0.012527494606297457 0.016238851056300702 0.010373149241296752 0.016266710385106187 -0.0067436395774478066 0.029030451069127963 -0.19645423318734112 0.0095518631851198472 0.037222090692050014 -0.069426366333928596 -0.14331883789414629 -0.015317515341457531 0.028724462517316831 0.039502840633116987
leaf_weight=1083.5877773910761 5300.3957016766071 1063.3889876231551 21.748121693730354 5021.4073029011488 40533.285803668201 2025.430171571672 6583.7740668728948 29.824435949325562 1982.981166832149 3073.0972285568714 51.266061872243881 108.70783045887947 514.31900293380022 1905.4463850557804 4327.5495026111603
leaf_count=2139 3137 762 16 3898 28776 3007 2927 180 2123 1569 106 191 477 787 1394
internal_value=0.0181734 0.0147751 0.00138937 0.0039132 0.0165626 0.0151716 0.026865 0.0199675 0.0064994 0.0308737 0.025033 -0.116719 0.0306753 0.0193634 0.0331839
internal_weight=73626.2 52930.7 6235.45 6105 46695.2 42558.7 20695.6 7364.47 2012.81 4136.49 5351.66 130.456 13331.1 2419.77 10911.3
internal_count=51489 40358 6244 6037 34114 31783 11131 5546 2303 2331 3243 207 5585 1264 4321
is_linear=0
shrinkage=0.05


Tree=44
num_leaves=16
num_cat=0
split_feature=24 10 23 31 32 32 36 32 3 10 4 25 32 3 7
split_gain=819.347 521.594 380.016 527.045 385.74 220.234 599.338 111.372 72.6417 200.867 266.941 54.7558 38.9649 158.803 39.7822
threshold=-1.0000000180025095e-35 0.044999999925494201 0.18750000000000003 0.24431818723678592 0.0043436905834823855 0.34948205947875982 0.53125000000000011 0.28636744618415838 0.72291669249534618 0.024999999441206459 0.34375000000000006 0.24499999731779101 0.37996660172939306 0.79375001788139354 -0.11626304313540457
decision_type=2 2 2 2 2 2 2 2 2 2 2 2 2 2 2
left_child=8 2 3 -2 -4 7 -7 -3 9 10 -1 -11 14 -14 -10
right_child=1 5 4 -5 -6 6 -8 -9 12 11 -12 -13 13 -15 -16
leaf_value=-0.13344934640108194 -0.023963769865594911 0.025561069395488537 0.034263636849929946 0.01045961346071588 0.015595385919712183 0.020746836903647637 -0.078488327448657413 0.037682596988685924 0.026740933160339864 0.018967101213353221 0.051379652910987256 0.056393505042063287 0.045606787123202694 -0.04816638602160711 0.043652175356796136
leaf_weight=44.670627236366272 1199.8111746534705 4639.44363078475 2975.05567663908 15182.177165865898 39590.151162661612 1416.6814590990543 170.46059858053923 3203.3506804853678 388.5697160884738 237.20916968584061 34.71753753721714 166.19804354012012 170.24897341430187 61.442244276404381 3311.0603060871363
leaf_count=53 2160 2265 1502 15878 25794 862 362 1367 133 107 6 17 54 52 849
internal_value=0.0175041 0.0161563 0.0144096 0.00793846 0.0169002 0.0270746 0.0100889 0.030512 0.0383825 0.0200793 -0.0526211 0.0343862 0.0406303 0.0207391 0.041876
internal_weight=72791.2 68377.1 58947.2 16382 42565.2 9429.94 1587.14 7842.79 4414.12 482.795 79.3882 403.407 3931.32 231.691 3699.63
internal_count=51461 50190 45334 18038 27296 4856 1224 3632 1271 183 59 124 1088 106 982
is_linear=0
shrinkage=0.05


Tree=45
num_leaves=16
num_cat=0
split_feature=10 15 27 9 26 24 4 31 32 25 7 13 16 35 24
split_gain=837.707 495.562 399.084 593.11 390.084 377.08 496.398 258.46 191.401 299.089 396.622 335.519 164.464 169.741 96.3086
threshold=0.044999999925494201 0.53125000000000011 -0.26920239627361292 0.39499999582767492 0.23499999940395358 1.0000000180025095e-35 0.014583333861082794 0.59204542636871349 0.38583625853061682 0.054999999701976783 0.10574977844953538 0.32250000536441809 0.61875000596046459 -0.21111111342906949 -0.18749999999999997
decision_type=2 2 2 2 2 2 2 2 2 2 2 2 2 2 2
left_child=1 5 3 -3 -4 6 -1 -7 12 10 -10 -11 14 -14 -2
right_child=8 2 4 -5 -6 7 -8 -9 9 11 -12 -13 13 -15 -16
leaf_value=0.017515638761304131 0.047494420281586541 -0.010442514329877287 0.00989635692606965 -0.1449938431977508 -0.1259962803161245 0.0087238071452939991 0.03452226861254324 -0.079249822902726044 -0.18698147993491543 0.024314650755242126 0.05924520940394841 -0.092060176146626926 0.017617621030796483 -0.13897246805892927 0.030064233797471425
leaf_weight=27353.144597642124 859.80276280641556 560.10129717737436 19508.331909231842 95.930788666009903 52.952171042561531 7396.8189829662442 5089.0417888984084 84.442040592432022 42.666001744568348 807.88050534576178 26.520891189575195 67.077770747244358 43.872295379638672 28.579696521162987 10124.860848486423
leaf_count=20578 233 689 17880 456 103 4254 1748 117 161 524 2 83 46 64 4582
internal_value=0.0170269 0.01462 0.00824201 -0.0301178 0.0095285 0.0178499 0.0201834 0.00773084 0.0290882 0.00747938 -0.0925973 0.0153929 0.0309333 -0.0441515 0.0314285
internal_weight=72142 60140.8 20217.3 656.032 19561.3 39923.4 32442.2 7481.26 12001.3 944.145 69.1869 874.958 11057.1 72.452 10984.7
internal_count=51520 45825 19128 1145 17983 26697 22326 4371 5695 770 163 607 4925 110 4815
is_linear=0
shrinkage=0.05


Tree=46
num_leaves=16
num_cat=0
split_feature=10 6 3 26 23 4 15 20 31 8 1 16 24 4 17
split_gain=812.092 511.86 739.582 742.27 412.278 648.721 372.835 363.96 236.373 383.607 271.877 192.035 306.436 216.634 18.3007
threshold=1.0000000180025095e-35 -0.017200034111738201 0.22291666269302371 0.10500000044703485 0.68750000000000011 0.12708333134651187 0.75624999403953563 -1.0000000180025095e-35 0.59613639116287243 -0.015172105748206375 0.29687500000000006 -0.093749999999999986 1.0000000180025095e-35 0.46666666865348821 0.65625000000000011
decision_type=2 2 2 2 2 2 2 2 2 2 2 2 2 2 2
left_child=1 2 6 -4 7 -6 -1 -3 11 10 -10 13 -13 -2 -11
right_child=8 4 3 -5 5 -7 -8 -9 9 14 -12 12 -14 -15 -16
leaf_value=-0.11424383119872446 0.036619122713873589 0.010237487588215449 0.0084594858461501821 -0.14031545346028751 -0.011549868398926896 -0.20969319782497237 -0.027966862500918694 0.019326601395922308 0.027924831916293781 -0.14413439061927402 -0.070115355876962937 0.024606859529143467 -0.0033696562251723547 -0.035489857202937944 -0.22121557363376546
leaf_weight=149.60022494196892 4066.5022737234831 21526.938465364277 5711.8943409472704 85.087207280099392 259.1220995336771 49.142619736492634 768.28696752339602 22553.54932231456 251.82499004155397 15.037553228437902 98.32362973690033 13996.20712544024 1052.3954127505422 106.89465590566397 15.781875774264334
leaf_count=637 1374 16651 4218 146 206 102 1495 16987 123 42 217 8377 782 129 44
internal_value=0.0158574 0.0125387 -0.00032716 0.00627579 0.0144849 -0.0431373 -0.0420286 0.0148879 0.0245093 -0.0144906 0.000394616 0.0252822 0.0226504 0.0347722 -0.183606
internal_weight=70706.6 51103.6 6714.87 5796.98 44388.8 308.265 917.887 44080.5 19603 380.968 350.149 19222 15048.6 4173.4 30.8194
internal_count=51530 40442 6496 4364 33946 308 2132 33638 11088 426 340 10662 9159 1503 86
is_linear=0
shrinkage=0.05


Tree=47
num_leaves=16
num_cat=0
split_feature=10 32 32 31 31 7 32 31 36 5 24 9 10 6 26
split_gain=762.66 415.482 732.845 617.605 320.182 745.204 559.651 146.229 206.612 449.774 146.611 85.7152 253.688 26.4012 21.7543
threshold=0.044999999925494201 0.35445098578929907 0.35572136938571935 0.4620454609394074 0.48931819200515753 -0.15355689078569409 0.31681558489799505 0.27886363863945013 0.59375000000000011 0.37431319057941442 1.0000000180025095e-35 0.44499999284744268 0.095000002533197417 -0.33315603435039515 1.0000000180025095e-35
decision_type=2 2 2 2 2 2 2 2 2 2 2 2 2 2 2
left_child=1 4 14 -4 6 -6 -1 11 10 -10 -9 13 -13 -2 -3
right_child=7 2 3 -5 5 -7 -8 8 9 -11 -12 12 -14 -15 -16
leaf_value=0.014515083886628508 0.026070993589676961 -0.23118673941879955 -0.014073154053400412 0.012602186413348799 -0.073987188402204584 0.0087368465708797492 0.029594450275929596 0.028945797556685682 0.0056709272019577935 -0.18900012000174127 0.0092853460065218229 -0.049767636484874339 0.034610175580490725 0.047022730764390029 -0.16071680679849534
leaf_weight=34828.605256870389 167.26089192926884 23.594086147844791 2898.9677401930094 8627.4080840796232 286.37459198385477 5515.6279974132776 7473.3575522527099 7342.9835228472948 470.61241601407528 31.667550347745419 1088.8509597852826 98.52688105404377 929.13442860543728 1487.7270542010665 20.438383117318153
leaf_count=25160 71 102 3226 7567 517 4901 4316 3549 391 144 659 144 416 372 79
internal_value=0.015904 0.0136222 0.00511539 0.00589314 0.0156684 0.00465376 0.0171791 0.0276251 0.0245511 -0.00660262 0.0264069 0.0378625 0.0265205 0.0449052 -0.198477
internal_weight=71291.1 59674.4 11570.4 11526.4 48104 5802 42302 11616.8 8934.11 502.28 8431.83 2682.65 1027.66 1654.99 44.0325
internal_count=51614 45868 10974 10793 34894 5418 29476 5746 4743 535 4208 1003 560 443 181
is_linear=0
shrinkage=0.05


Tree=48
num_leaves=16
num_cat=0
split_feature=15 9 32 10 32 25 32 19 32 10 31 4 3 31 15
split_gain=681.273 393.76 503.238 371.666 306.149 504.766 367.916 247.021 392.8 271.935 154.103 98.2358 391.297 42.4873 6.58819
threshold=0.38125000894069677 0.87500000000000011 1.009151096020844e-11 0.10500000044703485 0.35445098578929907 0.24499999731779101 0.31681558489799505 1.0000000180025095e-35 0.25692304968833929 -0.095000002533197389 0.47568181157112127 0.45625001192092901 0.88124999403953563 0.27886363863945013 0.64375001192092907
decision_type=2 2 2 2 2 2 2 2 2 2 2 2 2 2 2
left_child=3 4 14 7 6 -6 -2 8 -1 -9 -4 13 -13 -5 -3
right_child=1 2 10 11 5 -7 -8 9 -10 -11 -12 12 -14 -15 -16
leaf_value=0.019871820368810619 0.0095093349263583125 0.031117393403268669 -0.12197848122439731 0.042806484352924168 0.0027657287123654629 -0.11486871190620847 0.02329869620578048 0.0067107830278795196 0.0020775511691897923 0.023759480915499051 0.026383937335312524 -0.20253808959772807 0.035437749932481818 0.031763512158064174 0.058458217567341646
leaf_weight=7625.406499851495 19470.273149885237 54.881999731063843 144.82596788555384 1342.8657121174037 7052.098239004612 92.387687847018242 6436.3322595581412 2697.5064249038696 5227.4015850201249 17597.068766955286 19.908672705292702 21.693251743912697 84.783114604651928 2478.8955065235496 36.812663450837135
leaf_count=4355 16500 43 677 417 7388 233 4548 1566 4449 10322 22 68 31 993 9
internal_value=0.0151193 0.00992925 -0.0517905 0.0197818 0.0104081 0.00124456 0.0129352 0.0180585 0.0126347 0.0214934 -0.104048 0.0343239 -0.0130469 0.0356437 0.0420939
internal_weight=70383.1 33307.5 256.429 37075.6 33051.1 7144.49 25906.6 33147.4 12852.8 20294.6 164.735 3928.24 106.476 3821.76 91.6947
internal_count=51621 29420 751 22201 28669 7621 21048 20692 8804 11888 699 1509 99 1410 52
is_linear=0
shrinkage=0.05


Tree=49
num_leaves=16
num_cat=0
split_feature=10 32 9 23 32 31 25 35 23 32 24 31 22 9 1
split_gain=647.489 406.12 494.116 684.27 402.308 232.399 221.774 218.28 208.758 403.077 194.368 378.811 233.459 153.462 147.377
threshold=1.0000000180025095e-35 0.013723607175052168 0.28499999642372137 0.68750000000000011 0.4755412638187409 0.27886363863945013 0.044999999925494201 -0.13392857462167737 0.18750000000000003 0.0043436905834823855 1.0000000180025095e-35 0.59204542636871349 0.037500000558793552 0.45499999821186071 0.48437500000000006
decision_type=2 2 2 2 2 2 2 2 2 2 2 2 2 2 2
left_child=1 8 4 -4 -3 6 7 -2 9 -1 12 -12 -7 -8 -10
right_child=5 2 3 -5 -6 10 13 -9 14 -11 11 -13 -14 -15 -16
leaf_value=-0.077019152117665649 -0.16549060345721017 0.013170623606343107 0.0010987774710518048 -0.21034703780367098 -0.056634078261898473 0.017105498932491171 0.041938078497666613 0.0035563920436277848 0.014517874408286696 0.037057770341517041 0.0074474368536068024 -0.15829351812325843 0.032210164150622098 0.022607489915656837 0.037118293717137214
leaf_weight=135.57918683439493 26.312411747872829 36606.943108417094 10066.704923860729 38.408107995986938 207.5799343585968 8849.3824703022838 2521.0979917272925 69.626026697456837 1016.2675382196903 180.55659929662943 1900.7978912293911 35.111729189753532 3598.3775001913309 1732.115515910089 2485.5676277950406
leaf_count=435 146 26170 11466 87 391 6330 801 111 657 111 1171 46 1422 1119 1142
internal_value=0.0142979 0.0113648 0.0100888 0.000295102 0.012777 0.0222421 0.03237 -0.042807 0.0270465 -0.0118657 0.0191798 0.00444138 0.0214719 0.0340657 0.0305594
internal_weight=69470.4 50737.6 46919.6 10105.1 36814.5 18732.8 4349.15 95.9384 3817.97 316.136 14383.7 1935.91 12447.8 4253.21 3501.84
internal_count=51605 40459 38114 11553 26561 11146 2177 257 2345 546 8969 1217 7752 1920 1799
is_linear=0
shrinkage=0.05


Tree=50
num_leaves=15
num_cat=0
split_feature=3 32 1 20 6 31 10 5 31 15 3 6 18 7
split_gain=559.869 510.244 383.833 375.96 604.587 294.709 490.056 293.051 279.431 19.3424 11.6946 2.62525 1.21294 0.208437
threshold=0.49375000596046453 0.4822430312633515 0.92187500000000011 -1.0000000180025095e-35 -0.28396885097026819 0.27886363863945013 -0.054999999701976769 0.30060242116451269 0.24795454740524295 0.45624999701976782 0.87500000000000011 -1.0000000180025095e-35 -0.24374999105930326 7.4559802776263967e-12
decision_type=2 2 2 2 2 2 2 2 2 2 2 2 2 2
left_child=1 3 5 4 -1 8 -7 -5 -2 11 -4 -3 -11 -12
right_child=2 9 10 7 -6 6 -8 -9 -10 12 13 -13 -14 -15
leaf_value=-0.17650889251483234 0.020770132170351868 -0.11697695185838249 -0.14363675409177293 0.0077419203315481598 0.0035163631281263947 0.0029712679329722087 0.020057326995679275 0.018909035125386352 0.038018553320436903 -0.090185393678447578 -0.092625527151618162 -0.15210042376309002 -0.10898935181726861 -0.1004383148669527
leaf_weight=46.826618187129498 8785.0770235210657 7.1112458407878902 18.954373881220818 10856.259125635028 11526.859437979758 5667.0126930475235 16174.399897906929 12803.705523446202 3204.6447104848921 51.592639803886414 24.038376837968826 21.121289029717445 10.285618692636488 13.238455832004545
leaf_count=102 4656 26 36 11104 10544 3624 9851 10153 1120 162 46 79 42 22
internal_value=0.0142734 0.0098688 0.0188648 0.0101727 0.00278799 0.0190817 0.0156241 0.0137851 0.0253803 -0.108958 -0.11166 -0.143253 -0.0933111 -0.0954002
internal_weight=69211.1 35323.8 33887.4 35233.7 11573.7 33831.1 21841.4 23660 11989.7 90.1108 56.2312 28.2325 61.8783 37.2768
internal_count=51567 32212 19355 31903 10646 19251 13475 21257 5776 309 104 105 204 68
is_linear=0
shrinkage=0.05


Tree=51
num_leaves=15
num_cat=0
split_feature=24 32 31 9 10 10 32 9 24 31 25 28 31 32
split_gain=650.533 437.642 607.611 694.07 435.581 372.7 304.228 124.943 72.1783 101.242 178.427 56.4181 11.9213 33.0717
threshold=-1.0000000180025095e-35 0.35445098578929907 0.51840907335281383 0.24499999731779101 0.044999999925494201 -0.15500000119209287 0.3513715416193009 0.33500000834465032 -0.18749999999999997 0.052954545244574554 0.24499999731779101 -0.033800458535552018 0.11340909078717233 0.11906271800398828
decision_type=2 2 2 2 2 2 2 2 2 2 2 2 2 2
left_child=8 4 3 -3 6 -4 -2 -6 12 10 -10 -11 -1 -14
right_child=1 2 5 -5 7 -7 -8 -9 9 11 -12 -13 13 -15
leaf_value=0.054406189520688014 0.011888471722912033 8.5651452363476599e-07 -0.064788389473601771 -0.047165601855801216 0.030282421697605123 0.01742551382556742 0.037815484327338743 0.016207587608902934 -0.095611681360835088 0.019731000604946394 0.056722794034094429 0.035787408432488892 0.0083972086097520889 0.044762122818850544
leaf_weight=242.10376849770546 44000.499407976866 5736.3348158448935 141.14944221824408 902.70924570411444 4915.9089471101761 5898.1151232495904 1161.3083193078637 2321.3227530792356 42.635713145136833 779.12082017213106 35.003669396042824 1837.0807977169752 68.044849164783955 770.26826194301248
leaf_count=36 33992 5266 239 1804 2129 4732 529 1630 66 349 4 553 43 231
internal_value=0.0135336 0.0123632 0.00402742 -0.00641236 0.0143801 0.015504 0.0125552 0.025768 0.0337148 0.0293359 -0.0269318 0.0310057 0.0446329 0.0418104
internal_weight=68851.6 65077.3 12678.3 6639.04 52399 6039.26 45161.8 7237.23 3774.26 2693.84 77.6394 2616.2 1080.42 838.313
internal_count=51603 50321 12041 7070 38280 4971 34521 3759 1282 972 70 902 310 274
is_linear=0
shrinkage=0.05


Tree=52
num_leaves=16
num_cat=0
split_feature=24 32 31 5 10 5 1 36 24 31 31 7 31 31 10
split_gain=647.71 411.767 659.597 646.855 441.441 344.105 312.535 125.626 70.4674 151.445 436.903 68.4448 12.5793 26.7872 0.276951
threshold=-1.0000000180025095e-35 0.35445098578929907 0.51840907335281383 0.71583852171897899 0.044999999925494201 0.37581168115139013 0.89062500000000011 0.59375000000000011 -0.18749999999999997 0.046136364340782172 1.0000000180025095e-35 -0.046975361183285706 0.11340909078717233 0.25659090280532842 -0.15500000119209287
decision_type=2 2 2 2 2 2 2 2 2 2 2 2 2 2 2
left_child=8 4 3 -3 5 -2 -4 -6 12 10 -10 -11 14 -14 -1
right_child=1 2 6 -5 7 -7 -8 -9 9 11 -12 -13 13 -15 -16
leaf_value=0.055541363925859427 0.0076625668502939438 -0.006086999301415901 0.016135490895826363 -0.17556147555900944 0.027242658853505561 0.016500930781473862 -0.14554324068476307 0.0045734984482806457 0.05487628957771893 0.014556030490874991 -0.28457659296533588 0.034433185887402087 0.010191501713141773 0.043606952246109325 0.052199888584168679
leaf_weight=117.68817853927612 24243.573009066284 6488.5345759391785 6030.2956898584962 56.796752385795116 6440.3953720852733 20178.550280399621 30.039417929947376 675.22697529196739 26.551772780716419 550.08616200089455 14.7420517206192 2036.1383734941483 65.184737730771303 750.46541249752045 131.07459242641926
leaf_count=14 20931 6924 4891 155 3148 13538 119 626 5 258 52 654 43 230 26
internal_value=0.0127203 0.0115481 0.00344787 -0.0075576 0.0135294 0.0116774 0.0153341 0.0250915 0.0330852 0.0286885 -0.0663097 0.0302053 0.0439383 0.0409365 0.0537807
internal_weight=67835.3 64143.4 12605.7 6545.33 51537.7 44422.1 6060.34 7115.62 3691.93 2627.52 41.2938 2586.22 1064.41 815.65 248.763
internal_count=51614 50332 12089 7079 38243 34469 5010 3774 1282 969 57 912 313 273 40
is_linear=0
shrinkage=0.05


Tree=53
num_leaves=16
num_cat=0
split_feature=15 24 32 5 19 24 9 3 24 32 20 24 31 3 31
split_gain=578.741 366.546 344.169 391.492 305.611 345.72 293.759 463.161 373.653 263.744 227.117 87.3429 146.88 9.21811 9.10397
