tree
version=v4
num_class=1
num_tree_per_iteration=1
label_index=0
max_feature_idx=36
objective=regression
feature_names=Column_0 Column_1 Column_2 Column_3 Column_4 Column_5 Column_6 Column_7 Column_8 Column_9 Column_10 Column_11 Column_12 Column_13 Column_14 Column_15 Column_16 Column_17 Column_18 Column_19 Column_20 Column_21 Column_22 Column_23 Column_24 Column_25 Column_26 Column_27 Column_28 Column_29 Column_30 Column_31 Column_32 Column_33 Column_34 Column_35 Column_36
feature_infos=[0:1] [0.0625:1] [0:1] [0.12083332985639572:0.97916668653488159] [0:0.82916665077209473] [1.0204170841632276e-11:1] [-1:1] [-0.5:1] [-1.470588207244873:1.470588207244873] [0:0.98000001907348633] [-0.89999997615814209:0.88999998569488525] [0:1.5] [-0.75:1.5] [0.014999999664723873:0.38999998569488525] [-0.014999999664723873:0.375] [0.02500000037252903:0.96249997615814209] [-0.67500001192092896:0.78750002384185791] [0.037500001490116119:0.97500002384185791] [-0.78750002384185791:0.67500001192092896] [0:1] [-1:0.5] [0.02500000037252903:0.64999997615814209] [-0.02500000037252903:0.625] [0.125:0.875] [-0.375:0.625] [0.019999999552965164:0.33000001311302185] [-0.029999999329447746:0.23999999463558197] [-0.62845778465270996:1.5383374691009521] [-1.4897173643112183:1.6983475685119629] [0.25:1] [0.029999999329447746:0.090000003576278687] [0:0.69272726774215698] [1.000000082740371e-11:0.53610110282897949] none [0:1] [-1:1] [0.125:0.75]
tree_sizes=1580 1691 1693 1587 1565 1680 1698 1686 1581 1568 1570 1678 1656 1689 1697 1585 1671 1692 1671 1691 1688 1590 1581 1705 1588 1696 1693 1500 1668 1611 1480 1695 1559 1662 1691 1696 1493 1693 1679 1680 1606 1669 1686 1683 1684 1692 1682 1643 1573 1690 1405 1687 1688 1375 1639 1276 1552 1361 1600 1632

Tree=0
num_leaves=15
num_cat=0
split_feature=10 32 24 26 24 31 24 9 36 24 31 32 25 32
split_gain=2332.88 849.685 845.656 858.509 676.366 457.935 488.668 329.703 151.606 149.139 130.637 82.587 67.8504 51.2932
threshold=1.0000000180025095e-35 0.0066780010238289842 1.0000000180025095e-35 0.034999999217689044 -0.31249999999999994 0.27886363863945013 1.0000000180025095e-35 0.44499999284744268 0.53125000000000011 0.18750000000000003 0.25977271795272833 0.28298120200634008 0.13999999687075618 0.35033941268920904
decision_type=2 2 2 2 2 2 2 2 2 2 2 2 2 2
left_child=1 8 3 -3 12 7 -7 -6 10 -10 -1 -4 13 -2
right_child=4 2 11 -5 5 6 -8 -9 9 -11 -12 -13 -14 -15
leaf_value=-0.070942115609391121 -0.03883795547466555 -0.081217107245865991 -0.10535233028364385 -0.093604630081465759 -0.044386841229778047 -0.070419760147178295 -0.092249147251742158 -0.070101807866293789 -0.053846316490004986 0.0071899822321101065 0.018428819599354176 -0.096276973175101158 0.014283633743396043 -0.0042707826888457312
leaf_weight=2780.75 282 37924 5712.75 22159.25 2565.75 16178 3046.5 2424.25 860.75 113.25 41.5 4467 138.5 173.25
leaf_count=1580 101 22532 2194 12010 814 7590 1192 1311 391 28 7 1723 30 28
internal_value=-0.0823535 -0.0867987 -0.0880436 -0.0857857 -0.0690831 -0.0703759 -0.0738791 -0.0568797 -0.063758 -0.0467494 -0.069628 -0.10137 -0.0163603 -0.0256831
internal_weight=98867.5 74059.2 70263 60083.2 24808.2 24214.5 19224.5 4990 3796.25 974 2822.25 10179.8 593.75 455.25
internal_count=51531 40465 38459 34542 11066 10907 8782 2125 2006 419 1587 3917 159 129
is_linear=0
shrinkage=1


Tree=1
num_leaves=16
num_cat=0
split_feature=10 10 31 32 9 32 16 26 32 31 4 26 31 36 5
split_gain=2177.65 686.628 663.914 268.108 245.328 264.058 240.033 234.589 227.939 238.118 205.274 152.3 116.702 74.3169 55.5126
threshold=-0.024999999441206452 0.074999999254941954 0.27295455336570745 0.0099338847212493437 0.074999999254941954 0.12828824669122699 -1.0000000180025095e-35 0.044999999925494201 0.0066780010238289842 0.25977271795272833 0.22291666269302371 0.014999999664723875 0.22522726655006411 0.53125000000000011 0.32824160158634191
decision_type=2 2 2 2 2 2 2 2 2 2 2 2 2 2 2
left_child=2 3 8 12 11 -6 10 -5 13 -10 -3 -4 -2 -1 -8
right_child=1 6 4 7 5 -7 14 -9 9 -11 -12 -13 -14 -15 -16
leaf_value=0.0094053433954803672 0.024007189779360828 0.032405355192014471 -0.011170502241498556 0.0050492083012256932 -0.03197126250218129 -0.007867211687459217 0.0070141326099796286 -0.0076115457453388123 -0.00421222393056287 0.020723675302654208 0.0071333331588259649 -0.024801357399472316 0.1001590933624123 0.027799421930393888 0.019659777737841853
leaf_weight=2375.25 1206.25 3889.25 3687.25 35471 1188.25 25944.5 2885 4079.5 9697 1062.25 1012.75 4613 52.5 714.25 1241.25
leaf_count=1329 719 1115 1433 21166 517 13368 1353 2446 4587 459 425 1830 12 309 494
internal_value=-0.000142987 0.00722672 -0.0075958 0.0044663 -0.0112239 -0.00892282 0.0197043 0.00374329 0.00168705 -0.00175033 0.0271842 -0.0187461 0.0271833 0.0136578 0.0108182
internal_weight=99119.2 49837.5 49281.8 40809.2 35433 27132.8 9028.25 39550.5 13848.8 10759.2 4902 8300.25 1258.75 3089.5 4126.25
internal_count=51562 27730 23832 24343 17148 13885 3387 23612 6684 5046 1540 3263 731 1638 1847
is_linear=0
shrinkage=0.05


Tree=2
num_leaves=16
num_cat=0
split_feature=10 24 9 31 32 15 24 32 24 24 32 10 3 4 36
split_gain=2169.37 875.04 643.886 428.046 576.821 357.068 388.104 336.408 215.603 208.226 184.704 168.969 168.962 115.555 99.5275
threshold=-0.024999999441206452 -1.0000000180025095e-35 0.15500000119209292 0.14568181335926059 0.14838368445634845 0.49374999105930334 1.0000000180025095e-35 0.0066780010238289842 1.0000000180025095e-35 -1.0000000180025095e-35 1.1163880583864307e-11 -0.074999999254941926 0.32291665673255926 0.12708333134651187 0.53125000000000011
decision_type=2 2 2 2 2 2 2 2 2 2 2 2 2 2 2
left_child=2 3 9 10 -5 6 -3 14 -9 13 -2 -11 -7 -1 -4
right_child=1 5 7 4 -6 12 -8 8 -10 11 -12 -13 -14 -15 -16
leaf_value=0.0037741709238188754 0.024345333245894243 0.011003220518761 0.0084012412263058771 0.074691958979902509 0.02533772030639346 0.0020487700986818081 -0.0032837086799564728 -0.0024165990153697148 -0.017258047615478004 -0.018550050397885296 -0.04270121130864997 -0.0097182694555950928 -0.01076108739259482 0.061500541661355525 0.029485922759293542
leaf_weight=272 168.25 26626.25 2354.25 759.25 2687.75 10144.5 5786.5 21474.75 2761.75 11167.25 263.75 10515 3449.5 127.25 734.25
leaf_count=61 61 14723 1330 161 782 7637 2304 12154 1197 4184 65 4644 1856 37 297
internal_value=0.000167827 0.00752282 -0.00725851 0.0303287 0.0362087 0.00559998 0.00845264 -0.00212734 -0.00410778 -0.0136081 -0.0165888 -0.014267 -0.00120175 0.0221729 0.0134138
internal_weight=99292.2 49885.8 49406.5 3879 3447 46006.8 32412.8 27325 24236.5 22081.5 432 21682.2 13594 399.25 3088.5
internal_count=51493 27589 23904 1069 943 26520 17027 14978 13351 8926 126 8828 9493 98 1627
is_linear=0
shrinkage=0.05


Tree=3
num_leaves=15
num_cat=0
split_feature=10 24 26 24 31 16 24 32 31 31 36 32 32 7
split_gain=1848.4 754.905 669.037 578.057 433.466 373.579 350.763 267.295 212.125 156.286 184.605 81.203 75.5468 42.8446
threshold=1.0000000180025095e-35 1.0000000180025095e-35 0.034999999217689044 -0.31249999999999994 0.27886363863945013 -0.16875000298023221 1.0000000180025095e-35 0.0099338847212493437 0.18750000000000003 0.058863636106252677 0.53125000000000011 0.41245673596858984 0.15197028964757922 -0.13153623044490811
decision_type=2 2 2 2 2 2 2 2 2 2 2 2 2 2
left_child=1 2 5 12 8 -1 -6 -4 -5 10 -3 -11 -2 -14
right_child=3 9 7 4 6 -7 -8 -9 -10 11 -12 -13 13 -15
leaf_value=0.0451255143900244 0.09181729428046953 -0.0022698995925137231 0.013673013440608246 0.01071543764228265 0.010128931625869281 0.0014950807132789944 -0.0082450467510066499 -0.0099024119928088888 0.032027274568166703 -0.016283642813518195 0.084772368607163029 -0.035382883575571761 0.089199075625297067 0.044201086601542462
leaf_weight=496.75 145.25 299 1271.75 1898.5 16499.75 39743.5 3082.75 22014.75 3032.75 9738.25 76.5 590.25 61.25 388
leaf_count=138 39 154 776 1018 7654 23477 1198 11903 1076 3714 30 211 14 107
internal_value=2.72214e-05 -0.00393943 -0.00186968 0.0117544 0.0105729 0.00203368 0.00723643 -0.00861488 0.0238224 -0.0162231 0.0154631 -0.0173751 0.0604709 0.050336
internal_weight=99339 74230.8 63526.8 25108.2 24513.8 40240.2 19582.5 23286.5 4931.25 10704 375.5 10328.5 594.5 449.25
internal_count=51509 40403 36294 11106 10946 23615 8852 12679 2094 4109 184 3925 160 121
is_linear=0
shrinkage=0.05


Tree=4
num_leaves=15
num_cat=0
split_feature=24 24 4 26 31 32 32 23 8 32 7 1 32 4
split_gain=1105.56 621.004 928.657 732.866 597.708 618.705 553.828 206.933 202.947 199.602 249.857 163.146 137.684 124.164
threshold=-1.0000000180025095e-35 1.0000000180025095e-35 0.064583335071802153 0.034999999217689044 0.12704545259475711 0.14838368445634845 0.046750370413064964 0.43750000000000006 -0.42003786563873285 0.02334484085440636 1.184552456123811e-12 0.26562500000000006 0.35891056060791021 0.12291666492819787
decision_type=2 2 2 2 2 2 2 2 2 2 2 2 2 2
left_child=4 2 3 -2 6 13 7 -1 -7 10 -3 -4 -11 -6
right_child=1 9 11 -5 5 8 -8 -9 -10 12 -12 -13 -14 -15
leaf_value=0.018407131611308979 0.0027582442751102054 0.071441361020451635 0.033330891227802403 -0.0077092495567024737 0.082746679757856365 0.051669587633317575 -0.13917131580086986 -0.039908986952547756 0.015240654723674658 -0.0098673415226388124 0.0007374843779305979 0.014254472895375906 -0.023196947681055291 0.045357974193595496
leaf_weight=430.5 50310.5 145 1973.75 25046.25 539.25 447.5 83 235.25 2625 11505.5 903.75 2593.5 2329.5 377.5
leaf_count=100 29419 73 651 13668 118 82 17 84 813 4452 360 888 885 80
internal_value=3.77042e-05 -0.00114024 0.000606034 -0.000720827 0.0236085 0.0313023 -0.017383 -0.0021995 0.0205464 -0.0105175 0.010513 0.0224984 -0.0121117 0.0673507
internal_weight=99545.8 94807.8 79924 75356.8 4738 3989.25 748.75 665.75 3072.5 14883.8 1048.75 4567.25 13835 916.75
internal_count=51690 50396 44626 43087 1294 1093 201 184 895 5770 433 1539 5337 198
is_linear=0
shrinkage=0.05


Tree=5
num_leaves=16
num_cat=0
split_feature=10 24 24 26 8 9 17 24 31 36 24 4 32 31 32
split_gain=1588.45 555.329 516.38 511.982 296.916 280.36 234.412 224.483 161.061 144.317 142.385 137.145 128.121 98.9187 64.7215
threshold=1.0000000180025095e-35 1.0000000180025095e-35 -1.0000000180025095e-35 0.034999999217689044 0.13637495040893557 0.45499999821186071 0.46875000000000006 -0.31249999999999994 0.058863636106252677 0.53125000000000011 1.0000000180025095e-35 0.031250000931322582 0.21986937522888186 0.4334090948104859 0.15197028964757922
decision_type=2 2 2 2 2 2 2 2 2 2 2 2 2 2 2
left_child=1 3 7 4 -1 -5 11 14 9 -3 -8 -4 -9 -10 -2
right_child=2 8 6 5 -6 -7 10 12 13 -11 -12 -13 -14 -15 -16
leaf_value=0.0053719385854465737 0.088242199361600271 0.0010344095499483128 0.0024138666491738516 -0.010186259351428771 -0.0033076462447368727 0.004346215185667252 0.013438200177587534 0.035169056449884099 -0.018608815534471312 0.074020733906222241 0.0023930222516947326 -0.019757545148552186 0.01361256989296997 -0.0078691642412090073 0.048615260224731616
leaf_weight=23238.5 135 299.75 3663.5 19020 17106.25 4020.25 13222.75 1279 7025.75 87.5 3744 861.5 1495 3085.75 435.25
leaf_count=15385 35 162 2097 9610 8246 3004 6198 319 2741 35 1527 334 455 1147 119
internal_value=0.000208918 -0.00346831 0.0111482 -0.00170412 0.00169178 -0.00765052 0.00830419 0.029425 -0.0141194 0.0175258 0.0110009 -0.00180728 0.0235516 -0.0153314 0.0579965
internal_weight=98719.8 73883.8 24836 63385 40344.8 23040.2 21491.8 3344.25 10498.8 387.25 16966.8 4525 2774 10111.5 570.25
internal_count=51414 40330 11084 36245 23631 12614 10156 928 4085 197 7725 2431 774 3888 154
is_linear=0
shrinkage=0.05


Tree=6
num_leaves=16
num_cat=0
split_feature=10 24 9 32 31 24 31 32 29 26 10 10 31 36 24
split_gain=1367.64 565.681 562.068 311.504 270.32 326.954 265.407 456.721 202.374 167.106 150.416 133.512 118.42 110.736 105.73
threshold=-0.03499999921768903 -1.0000000180025095e-35 0.095000002533197417 0.0066780010238289842 0.27295455336570745 1.0000000180025095e-35 0.13431818783283236 0.14838368445634845 0.37500000000000006 0.12499999627470972 -0.074999999254941926 1.0000000180025095e-35 0.40613636374473577 0.53125000000000011 -1.0000000180025095e-35
decision_type=2 2 2 2 2 2 2 2 2 2 2 2 2 2 2
left_child=2 6 10 13 11 -6 8 -8 -2 -5 14 -3 -12 -4 -1
right_child=1 4 3 9 5 -7 7 -9 -10 -11 12 -13 -14 -15 -16
leaf_value=0.02045016050339505 -0.052316623580771576 0.0059875128636446805 0.007291673306151711 -0.0035353031691177927 0.00401594960483268 -0.0094883353121674521 0.061899075922056027 0.018483394832382281 0.018309242793060457 -0.018334838202787498 -0.019503686219213903 0.019158383922296438 -0.0041221754946039902 0.030543188410335542 -0.021563250166845641
leaf_weight=153.25 188.75 3852.75 2252.25 28198.5 36773 5104.25 782 2687.75 219.25 2045.75 1916.5 3843.75 3605.25 662.75 6555
leaf_count=35 58 2356 1266 14550 22488 1942 165 790 57 981 744 1809 1622 285 2423
internal_value=-2.84044e-05 0.00539142 -0.00641092 -0.00303184 0.00395282 0.00236997 0.0237827 0.0282683 -0.0143639 -0.00453636 -0.0155726 0.0125652 -0.00946082 0.0125781 -0.0206035
internal_weight=98840.8 53451.5 45389.2 33159.2 49573.8 41877.2 3877.75 3469.75 408 30244.2 12230 7696.5 5521.75 2915 6708.25
internal_count=51571 29665 21906 17082 28595 24430 1070 955 115 15531 4824 4165 2366 1551 2458
is_linear=0
shrinkage=0.05


Tree=7
num_leaves=16
num_cat=0
split_feature=10 24 31 31 32 15 24 32 31 15 32 31 31 36 36
split_gain=1345.27 530.432 500.536 265.993 345.916 256.49 263.905 184.99 190.908 183.446 158.825 155.383 132.234 105.004 54.5529
threshold=-0.03499999921768903 -1.0000000180025095e-35 0.27295455336570745 0.14568181335926059 0.14838368445634845 0.49374999105930334 1.0000000180025095e-35 0.0066780010238289842 0.25977271795272833 0.081250000745058074 0.12828824669122699 0.11340909078717233 0.38659089803695684 0.53125000000000011 0.40625000000000006
decision_type=2 2 2 2 2 2 2 2 2 2 2 2 2 2 2
left_child=2 3 7 11 -5 6 -3 13 -9 14 -11 -2 -7 -1 -4
right_child=1 5 9 4 -6 12 -8 8 -10 10 -12 -13 -14 -15 -16
leaf_value=0.0076518802787981545 0.0070079020441499969 0.0083803698634910707 -0.012257504580523619 0.05793386749858398 0.019455970818351501 0.0048746510630593137 -0.0029831282922777292 -0.0036024409707574125 0.019744037316550486 -0.026452719062434207 -0.0080072104977908058 -0.05748134033734368 -0.0049456610369485333 0.029767199753018631 -0.030387785680386439
leaf_weight=2301.25 284.75 28305.25 606 747 2678.5 5285.75 6234.75 9044 969.5 1215.5 29260.75 139 9753 700 1315.75
leaf_count=1283 90 15703 242 164 789 3582 2469 4311 410 498 14257 32 6756 289 583
internal_value=-3.35709e-05 0.00534431 -0.00636063 0.023224 0.0278469 0.00395614 0.00632917 0.00192146 -0.00134205 -0.00968767 -0.00874288 -0.0141461 -0.00149406 0.01281 -0.0246706
internal_weight=98840.8 53428 45412.8 3849.25 3425.5 49578.8 34540 13014.8 10013.5 32398 30476.2 423.75 15038.8 3001.25 1921.75
internal_count=51458 29585 21873 1075 953 28510 18172 6293 4721 15580 14755 122 10338 1572 825
is_linear=0
shrinkage=0.05


Tree=8
num_leaves=15
num_cat=0
split_feature=10 24 32 31 24 31 26 32 35 24 1 1 25 32
split_gain=1112.86 508.659 369.741 305.959 327.242 226.003 217.943 218.687 94.0107 87.863 76.234 68.923 50.7812 35.9083
threshold=-0.024999999441206452 -0.31249999999999994 0.016066857613623146 0.27886363863945013 1.0000000180025095e-35 0.19795455038547519 0.12499999627470972 0.43880930542945867 0.76388889551162731 -0.18749999999999997 0.45312500000000006 0.48437500000000006 0.16499999910593036 0.35033941268920904
decision_type=2 2 2 2 2 2 2 2 2 2 2 2 2 2
left_child=2 12 8 5 -5 -3 7 -4 11 -10 -8 -1 13 -2
right_child=1 3 6 4 -6 -7 10 -9 9 -11 -12 -13 -14 -15
leaf_value=0.0019851129356638119 0.032635356533286954 0.0039266508435701159 -0.0052278142520391993 0.0043368488459984483 -0.0097226979838719724 0.020289058651147936 -0.014184666195546078 -0.024378414592717033 0.049005915275115379 -0.015666173311603089 -0.031887782080673853 0.01719721776374605 0.082122701957568059 0.059320832834046711
leaf_weight=1099.75 305.25 3756.75 41155.5 36168.5 4673.5 4815.5 1612 1546.75 58.25 533.75 976.5 2305.75 102.75 214.75
leaf_count=564 103 2131 19924 21520 1806 2126 733 700 10 235 429 1269 21 35
internal_value=-0.000156309 0.00509645 -0.00548886 0.00453051 0.00272803 0.0131183 -0.00677544 -0.00592148 0.00908778 -0.00930275 -0.0208631 0.0122847 0.0500027 0.0436559
internal_weight=99325.2 50037 49288.2 49414.2 40842 8572.25 45290.8 42702.2 3997.5 592 2588.5 3405.5 622.75 520
internal_count=51606 27742 23864 27583 23326 4257 21786 20624 2078 245 1162 1833 159 138
is_linear=0
shrinkage=0.05


Tree=9
num_leaves=15
num_cat=0
split_feature=10 32 24 24 26 31 24 9 1 1 31 25 25 32
split_gain=1207.49 537.304 396.138 378.084 396.875 261.95 228.296 212.845 114.689 176.649 92.1806 91.2233 49.9972 28.5514
threshold=1.0000000180025095e-35 0.013723607175052168 -0.31249999999999994 1.0000000180025095e-35 0.034999999217689044 0.27886363863945013 1.0000000180025095e-35 0.44499999284744268 0.48437500000000006 0.35937500000000006 0.25977271795272833 0.10000000149011613 0.13999999687075618 0.35033941268920904
decision_type=2 2 2 2 2 2 2 2 2 2 2 2 2 2
left_child=1 8 12 4 -3 7 -7 -4 9 -1 -10 -5 13 -2
right_child=2 3 5 11 -6 6 -8 -9 10 -11 -12 -13 -14 -15
leaf_value=0.015906744519215081 0.030561337137525457 0.0004282993558891557 0.02898339555677892 -0.0096618898338471371 -0.0080604380106719265 0.0083035243231194284 -0.0066246402290463845 0.0084018472200949098 0.018204136231880132 -0.01843260748554738 0.094616849422454838 -0.019633515873253637 0.07459455628333421 0.055149192472034675
leaf_weight=964.5 275.25 37984.5 2533 6717.25 21598.5 16365.25 3036.25 2492 2969.25 612.25 40 3482.75 145 206.75
leaf_count=390 99 22479 816 2703 11768 7635 1172 1324 1561 367 5 1181 29 34
internal_value=0.000116143 -0.00308207 0.00960975 -0.00417157 -0.00264882 0.00860244 0.00596733 0.0187766 0.0134963 0.00257282 0.0192198 -0.0130667 0.0488522 0.0411081
internal_weight=99422.5 74369 25053.5 69783 59583 24426.5 19401.5 5025 4586 1576.75 3009.25 10200 627 482
internal_count=51563 40454 11109 38131 34247 10947 8807 2140 2323 757 1566 3884 162 133
is_linear=0
shrinkage=0.05


Tree=10
num_leaves=15
num_cat=0
split_feature=10 24 16 24 31 31 8 24 31 31 31 8 31 8
split_gain=925.71 378.784 315.194 310.668 262.166 260.596 218.132 190.396 103.68 132.016 78.1351 49.4178 35.3035 33.5265
threshold=1.0000000180025095e-35 1.0000000180025095e-35 -0.16875000298023221 -0.31249999999999994 0.27886363863945013 0.26886364817619329 0.26001179218292242 1.0000000180025095e-35 0.058863636106252677 0.0086363633163273352 0.4334090948104859 0.2755087167024613 0.4793181717395783 0.25535565614700323
decision_type=2 2 2 2 2 2 2 2 2 2 2 2 2 2
left_child=1 2 13 11 6 -4 -5 -6 9 -3 -10 12 -2 -1
right_child=3 8 5 4 7 -7 -8 -9 10 -11 -12 -13 -14 -15
leaf_value=0.045278515871652825 0.02946530360664051 -0.048679377467690493 0.0046523122778726845 0.015104621994294302 0.0071759758312634776 -0.0031268700390812451 0.057349736698387957 -0.0064461518910759784 -0.015104020549467388 0.028073589448842386 -0.0056144112168255572 0.067930162874551933 0.069890755790425099 0.013465529736353175
leaf_weight=392 361.25 68.25 13796.5 4713.25 16421.25 49005 326.75 3040 7179.5 312.75 3108.25 162.5 63.5 105
leaf_count=108 110 42 7311 2067 7675 28856 79 1177 2773 144 1149 33 17 33
internal_value=0.000242065 -0.00257298 -0.00110403 0.00854153 0.00768014 -0.00141791 0.0178434 0.00504809 -0.0112884 0.0143245 -0.0122369 0.0444803 0.0355089 0.0385575
internal_weight=99055.8 73967.2 63298.5 25088.5 24501.2 62801.5 5040 19461.2 10668.8 381 10287.8 587.25 424.75 497
internal_count=51574 40416 36308 11158 10998 36167 2146 8852 4108 186 3922 160 127 141
is_linear=0
shrinkage=0.05


Tree=11
num_leaves=16
num_cat=0
split_feature=10 24 24 26 16 9 31 32 15 25 4 31 1 32 31
split_gain=869.578 449.095 305.492 304.997 265.765 212.672 173.779 323.597 161.719 145.224 128.382 102.873 133.03 67.2725 64.4531
threshold=1.0000000180025095e-35 1.0000000180025095e-35 -1.0000000180025095e-35 0.034999999217689044 -0.16875000298023221 0.38499999046325689 0.14568181335926059 0.14838368445634845 0.53125000000000011 0.32500000298023229 0.031250000931322582 0.058863636106252677 0.48437500000000006 0.2909738570451737 0.11340909078717233
decision_type=2 2 2 2 2 2 2 2 2 2 2 2 2 2 2
left_child=1 3 6 4 -1 -5 14 -8 9 -4 -10 12 -3 -13 -2
right_child=2 11 8 5 -6 -7 7 -9 10 -11 -12 13 -14 -15 -16
leaf_value=0.039120032886630761 -0.0010483143325414389 -0.021974693936627245 0.0073237432560482353 -0.0082817870893696875 0.0011088234147995683 0.0031589311703906471 0.055056256237927807 0.016663322743412399 0.0015865872250460996 0.035226992047413669 -0.019729996223742687 -0.016444941243860974 0.038416093608071911 -0.0082004366343254656 -0.054815002301701915
leaf_weight=465.25 193.75 155.25 16637.5 17784 39605.5 5264.5 703.75 2493.25 3717.75 479.75 872 6137.5 221 4145.5 78.25
leaf_count=132 67 101 7607 8853 23414 3755 152 713 2121 135 334 2317 91 1608 22
internal_value=4.90916e-05 -0.00268892 0.00807285 -0.00108583 0.00155016 -0.00566862 0.0218505 0.0251147 0.00587105 0.0081058 -0.00246332 -0.0121817 0.0134974 -0.0131212 -0.0165161
internal_weight=98954.5 73778.5 25176 63119.2 40070.8 23048.5 3469 3197 21707 17117.2 4589.75 10659.2 376.25 10283 272
internal_count=51422 40271 11151 36154 23546 12608 954 865 10197 7742 2455 4117 192 3925 89
is_linear=0
shrinkage=0.05


Tree=12
num_leaves=16
num_cat=0
split_feature=24 24 4 26 24 25 4 3 32 36 8 32 32 32 32
split_gain=525.11 376.068 574.285 415.635 221.039 239.156 287.993 179.841 172.581 194.034 150.614 125.214 46.1649 41.8356 32.1019
threshold=-1.0000000180025095e-35 1.0000000180025095e-35 0.064583335071802153 0.034999999217689044 -0.31249999999999994 0.24499999731779101 0.027083333581686023 0.84375000000000011 0.02334484085440636 0.53125000000000011 0.37186235189437872 0.35891056060791021 0.15197028964757922 0.057655829936265952 0.35033941268920904
decision_type=2 2 2 2 2 2 2 2 2 2 2 2 2 2 2
left_child=4 2 3 -2 12 6 -6 -7 9 -3 -4 -10 13 -1 -14
right_child=1 8 10 -5 5 7 -8 -9 11 -11 -12 -13 14 -15 -16
leaf_value=0.041234563240879464 0.0023216840969763233 -0.0028037978725044613 0.021229504227060898 -0.0055530352616297764 -0.017836675671311954 0.021513557446974169 0.015523562002125202 0.082113315390307307 -0.0073153398961239352 0.04376161436906572 -0.013078492608365614 -0.020089803542052771 0.022532415114140031 0.085309117230667086 0.047882554648751366
leaf_weight=118.75 50189.25 722.75 3961.75 25154.75 870 346.75 2523.25 189.25 11482.5 324 348 2303 284.25 98.5 222.75
leaf_count=23 29315 316 1336 13759 250 68 719 45 4427 116 152 869 97 25 36
internal_value=0.000154349 -0.000653217 0.000707977 -0.000307412 0.0165514 0.0118729 0.00697029 0.04291 -0.00796325 0.0116096 0.0184592 -0.00944944 0.0419334 0.0612177 0.03367
internal_weight=99139.5 94486 79653.8 75344 4653.5 3929.25 3393.25 536 14832.2 1046.75 4309.75 13785.5 724.25 217.25 507
internal_count=51553 50290 44562 43074 1263 1082 969 113 5728 432 1488 5296 181 48 133
is_linear=0
shrinkage=0.05


Tree=13
num_leaves=16
num_cat=0
split_feature=10 9 10 31 31 32 3 31 3 24 10 31 3 16 31
split_gain=775.068 404.962 310.53 212.135 247.12 194.943 193.892 181.411 170.447 124.799 122.376 105.562 105.551 95.03 94.202
threshold=-0.03499999921768903 0.095000002533197417 0.074999999254941954 0.26886364817619329 0.25659090280532842 0.0066780010238289842 0.30833332240581518 0.16249999403953555 0.57291665673255932 -0.31249999999999994 -0.074999999254941926 0.40613636374473577 0.55208334326744091 -0.13125000149011609 0.22522726655006411
decision_type=2 2 2 2 2 2 2 2 2 2 2 2 2 2 2
left_child=1 10 5 4 -3 14 -5 -7 12 -10 13 -12 -4 -1 -2
right_child=2 3 8 6 -6 7 -8 -9 9 -11 11 -13 -14 -15 -16
leaf_value=-0.0055123082506018245 0.018659837332883684 0.0013556556123625338 0.003389432289069275 0.0028216486981752602 0.028662878365942251 -0.015827101896686038 -0.0078463356962169134 0.0024104948508938445 0.039169825825617212 0.014577875364590688 -0.016486513941187244 -0.0019396031527680693 -0.045390937877425076 -0.020179349007368654 0.087020646826851941
leaf_weight=1395.5 1256.75 11111.75 2211.5 5873.75 895.25 1409.25 15496 42042 563.75 6078 1920.5 3556.75 116.75 5293.75 52.5
leaf_count=456 738 5568 1133 3451 373 916 7719 24665 148 2083 737 1623 41 2009 12
internal_value=2.59159e-05 -0.00477276 0.00409339 -0.00192616 0.0033917 0.00239177 -0.0049141 0.001819 0.0125845 0.0166652 -0.0125819 -0.00704022 0.000943343 -0.0171195 0.0214011
internal_weight=99273.8 45543.2 53730.5 33376.8 12007 44760.5 21369.8 43451.2 8970 6641.75 12166.5 5477.25 2328.25 6689.25 1309.25
internal_count=51672 21936 29736 17111 5941 26331 11170 25581 3405 2231 4825 2360 1174 2465 750
is_linear=0
shrinkage=0.05


Tree=14
num_leaves=16
num_cat=0
split_feature=10 9 10 26 24 4 10 24 32 32 7 3 24 9 32
split_gain=735.143 343.478 280.322 162.318 152.194 175.302 144.935 143.512 127.698 122.181 112.078 108.777 105.291 80.5496 27.8005
threshold=-0.024999999441206452 0.12499999627470972 0.074999999254941954 0.085000000894069686 1.0000000180025095e-35 0.064583335071802153 -0.054999999701976769 -0.31249999999999994 0.019637230783700946 0.013723607175052168 -0.21564685553312299 0.48333333432674414 -1.0000000180025095e-35 0.45499999821186071 0.15197028964757922
decision_type=2 2 2 2 2 2 2 2 2 2 2 2 2 2 2
left_child=1 6 4 9 5 -2 12 14 -6 -3 -9 -8 -1 -5 -4
right_child=2 3 7 13 8 -7 11 10 -10 -11 -12 -13 -14 -15 -16
leaf_value=0.020674840729472302 0.002628778834714554 0.0091503919108089551 0.057923081702364237 -0.015854360064259932 0.030167267332911831 0.016742597061414292 -0.0096187154575696418 0.026296897462838982 -0.0084962327650812842 -0.0011132814228900648 0.008540776626734697 0.003369309071827354 -0.013887387562458109 0.001818065437825476 0.030987782279048671
leaf_weight=224.75 34112 3288.5 124.75 2572 225.5 2351.75 3653.75 1006 4033.75 24519.25 7623.25 2885 11272.5 860.5 412.75
leaf_count=54 21820 1714 31 1237 119 773 1824 358 1556 13025 2912 1147 4296 552 111
internal_value=-5.8886e-06 -0.00433762 0.00427257 -0.00116576 0.00249437 0.00353906 -0.00983161 0.0121722 -0.00644925 0.000100484 0.0106108 -0.00388819 -0.0132118 -0.011424 0.0372393
internal_weight=99166 49276.2 49889.8 31240.2 40723 36463.8 18036 9166.75 4259.25 27807.8 8629.25 6538.75 11497.2 3432.5 537.5
internal_count=51529 23849 27680 16528 24268 22593 7321 3412 1675 14739 3270 2971 4350 1789 142
is_linear=0
shrinkage=0.05


Tree=15
num_leaves=15
num_cat=0
split_feature=10 9 24 15 31 32 24 24 35 24 32 32 25 32
split_gain=721.036 343.187 254.596 216.145 173.252 243.645 165.435 147.037 140.762 92.4461 81.1706 78.5242 22.8127 26.9876
threshold=-0.03499999921768903 0.12499999627470972 -0.31249999999999994 0.49374999105930334 0.26886364817619329 0.16139338165521624 1.0000000180025095e-35 0.18750000000000003 0.78888890147209179 -1.0000000180025095e-35 0.35891056060791021 0.19792290776968005 0.13999999687075618 0.35033941268920904
decision_type=2 2 2 2 2 2 2 2 2 2 2 2 2 2
left_child=1 9 12 6 5 -3 -4 -6 -5 11 -11 -1 13 -2
right_child=2 4 3 8 7 -7 -8 -9 -10 10 -12 -13 -14 -15
leaf_value=0.051483585576762997 0.020127759435842205 0.00063967967963145733 0.0070499760755622911 -0.00060380039748110037 -0.0033640835219891372 0.022784554652337592 -0.0018719573403222921 -0.022434798273756062 -0.028499683609055377 -0.0089100420880449862 -0.01708553207196507 -0.00091184561663033815 0.053314887345460242 0.044181165677829856
leaf_weight=104.5 268.75 10295.25 31780 14768 16904.25 1412.5 6211.25 1075 466.5 11475.75 4128.25 226.5 143.5 206
leaf_count=19 100 5187 16642 10192 9347 589 2462 436 214 4548 1722 60 27 33
internal_value=2.55889e-05 -0.00459921 0.00394418 0.00357363 -0.00142203 0.00331138 0.00559131 -0.00450434 -0.00145801 -0.0105183 -0.011073 0.0156299 0.0358453 0.0305648
internal_weight=99466 45622 53844 53225.8 29687 11707.8 37991.2 17979.2 15234.5 15935 15604 331 618.25 474.75
internal_count=51578 21908 29670 29510 15559 5776 19104 9783 10406 6349 6270 79 160 133
is_linear=0
shrinkage=0.05


Tree=16
num_leaves=16
num_cat=0
split_feature=10 32 26 8 31 8 3 1 23 26 31 32 31 23 31
split_gain=635.247 285.681 257.474 233.67 225.553 279.349 180.706 164.829 152.256 149.822 125.214 91.4926 85.2417 101.132 96.7789
threshold=1.0000000180025095e-35 0.0099338847212493437 0.12499999627470972 0.14280868321657184 0.28431817889213568 0.26001179218292242 0.83124998211860668 0.29687500000000006 0.31250000000000006 0.085000000894069686 0.30477273464202886 0.30197073519229894 0.10454545170068742 0.31250000000000006 0.086590908467769637
decision_type=2 2 2 2 2 2 2 2 2 2 2 2 2 2 2
left_child=1 12 3 -3 5 11 -7 9 -4 -6 -9 -2 14 -14 -1
right_child=4 2 8 -5 7 6 -8 10 -10 -11 -12 -13 13 -15 -16
leaf_value=0.0094004313426403006 0.011440338201142914 -2.3948578598450759e-05 -0.011426283054091225 -0.0060550433336562254 0.0085127764389207466 0.016228650997913346 0.078641877749712888 -0.019594975000058745 -0.03892812182686442 0.052444110664900317 0.0017644299731891175 0.05917586687497977 -0.0058337229497596168 0.040098456525578474 -0.031122837626417522
leaf_weight=3287.5 4850.75 40994.25 2189 26404.75 8703 199.5 277 735.75 653.5 198.5 10176.75 102.5 163.5 448.75 154.25
leaf_count=1851 2124 24978 1052 12010 3356 50 53 302 192 46 5234 33 126 116 84
internal_value=6.47528e-05 -0.00226355 -0.00300841 -0.00238674 0.00691724 0.0159457 0.0525108 0.00444312 -0.017749 0.00949243 0.000324322 0.0124282 0.0106422 0.0278324 0.00758429
internal_weight=99539.2 74295.5 70241.5 67399 25243.8 5429.75 476.5 19814 2842.5 8901.5 10912.5 4953.25 4054 612.25 3441.75
internal_count=51607 40409 38232 36988 11198 2260 103 8938 1244 3402 5536 2157 2177 242 1935
is_linear=0
shrinkage=0.05


Tree=17
num_leaves=16
num_cat=0
split_feature=10 9 10 24 4 31 31 3 3 3 16 10 4 1 10
split_gain=578.782 345.445 254.295 167.072 219.168 152.803 235.443 165.314 115.35 116.826 114.716 110.05 101.209 72.1136 69.0345
threshold=-0.03499999921768903 0.095000002533197417 0.074999999254941954 1.0000000180025095e-35 0.064583335071802153 0.26886364817619329 0.25977271795272833 0.30833332240581518 0.57291665673255932 0.55208334326744091 -0.093749999999999986 -0.074999999254941926 0.45625001192092901 0.57812500000000011 -0.59499999880790699
decision_type=2 2 2 2 2 2 2 2 2 2 2 2 2 2 2
left_child=1 11 3 4 -2 6 -3 -7 9 -4 -5 14 -10 -13 -1
right_child=2 5 8 10 -6 7 -8 -9 12 -11 -12 13 -14 -15 -16
leaf_value=0.020031784599492872 0.0020895912161539932 0.0012709277543754187 0.0039032414086046215 0.0002602991653553148 0.017647203398432541 0.0031008067058713516 0.031225402354721744 -0.0067749010895472488 0.01576717307260821 -0.050826005296817051 -0.0153683954636694 -0.0037840107583597599 -0.012876887796215201 -0.020436251855922238 -0.016353648164362022
leaf_weight=133 37367 11347 2214.25 2559.5 2409.75 5852.75 696.25 15354.75 6496.75 102 2169.25 4720.25 323.75 754 6572.75
leaf_count=51 23582 5608 1119 1004 786 3445 277 7669 2104 38 831 1997 146 339 2423
internal_value=1.86635e-05 -0.00413401 0.00353565 0.00197583 0.0030321 -0.00149521 0.00300267 -0.00404945 0.0111336 0.00149315 -0.00690915 -0.0113378 0.0144075 -0.00607762 -0.015632
internal_weight=99073 45430.8 53642.2 44505.5 39776.8 33250.8 12043.2 21207.5 9136.75 2316.25 4728.75 12180 6820.5 5474.25 6705.75
internal_count=51419 21809 29610 26203 24368 16999 5885 11114 3407 1157 1835 4810 2250 2336 2474
is_linear=0
shrinkage=0.05


Tree=18
num_leaves=16
num_cat=0
split_feature=10 32 15 26 35 31 8 28 35 31 6 1 36 8 1
split_gain=520.421 251.55 224.146 189.283 161.814 137.974 221.99 137.024 103.212 93.6586 86.7561 79.2433 79.1054 65.9942 12.9547
threshold=1.0000000180025095e-35 0.0066780010238289842 0.53125000000000011 0.12499999627470972 0.38750000298023229 0.27886363863945013 0.26001179218292242 -0.58128342032432545 0.84523808956146251 0.10454545170068742 -0.014195180032402275 0.57812500000000011 0.53125000000000011 0.19234835356473926 0.39062500000000006
decision_type=2 2 2 2 2 2 2 2 2 2 2 2 2 2 2
left_child=1 9 5 4 -3 6 -2 -7 13 12 -5 -11 -1 -4 -10
right_child=2 3 8 10 -6 7 -8 -9 14 11 -12 -13 -14 -15 -16
leaf_value=0.0027008141819315282 0.012709186124264344 0.00039795789194327759 -0.0011407884345507628 -0.03489053067295475 -0.0045221397632850217 0.02467395329447248 0.051988610078382985 0.0050424750629243639 -0.061721522506230919 -0.0017986054372281946 -0.011418316379105349 0.040937713284630965 0.020901544898119587 -0.037770014193048609 -0.031971966388938372
leaf_weight=2354.75 4493.75 32021.5 4120.5 470 34951.75 946 391 14714.75 48.75 147.75 2424 408 799.75 126.75 146.75
leaf_count=1415 1912 20156 2263 169 16943 250 90 6398 23 76 1105 131 358 50 60
internal_value=8.0287e-05 -0.002037 0.00631461 -0.00271071 -0.00216972 0.0085167 0.0158533 0.00622833 -0.00386895 0.0106496 -0.0152303 0.029576 0.00731519 -0.00223391 -0.0393903
internal_weight=98565.8 73577.5 24988.2 69867.2 66973.2 20545.5 4884.75 15660.8 4442.75 3710.25 2894 555.75 3154.5 4247.25 195.5
internal_count=51399 40353 11046 38373 37099 8650 2002 6648 2396 1980 1274 207 1773 2313 83
is_linear=0
shrinkage=0.05


Tree=19
num_leaves=16
num_cat=0
split_feature=10 32 24 26 24 31 32 4 16 25 34 25 32 23 9
split_gain=504.173 261.571 240.785 259.442 169.714 182.316 234.079 137.385 119.028 113.104 106.379 83.1877 82.1219 105.681 63.5785
threshold=1.0000000180025095e-35 0.0066780010238289842 1.0000000180025095e-35 0.034999999217689044 -1.0000000180025095e-35 0.14568181335926059 0.14838368445634845 0.12291666492819787 0.31875000894069677 0.32500000298023229 0.88194444775581371 0.10000000149011613 1.2539676328554574e-11 0.31250000000000006 0.49500000476837164
decision_type=2 2 2 2 2 2 2 2 2 2 2 2 2 2 2
left_child=1 12 3 -3 5 7 -7 -2 10 -10 -6 -4 14 -14 -1
right_child=4 2 11 -5 8 6 -8 -9 9 -11 -12 -13 13 -15 -16
leaf_value=-0.0037582247254804206 -0.0013167392095272163 0.0011165366847041083 -0.0064474374105233023 -0.0056875709525159163 0.0082577789502528351 0.045573725446759805 0.012810391731657862 -0.080818656941322745 -0.0048497424345582416 0.039448981352682183 -0.0016526979602194008 -0.015999901889543377 -0.0018053409776179455 0.040154913412468775 0.01210645363755801
leaf_weight=890.75 210.5 38467 6766.25 22035.5 14485.5 698 2489.75 73.25 3813 149.75 3330.25 3436.75 221.5 465.25 2170
leaf_count=365 63 22667 2716 11921 6793 154 703 25 1972 46 1380 1217 177 168 1266
internal_value=0.000193092 -0.0018775 -0.00255979 -0.00136157 0.00629852 0.0165657 0.0199844 -0.0218401 0.00466192 -0.00317572 0.00640524 -0.00966506 0.0109955 0.0266213 0.00748946
internal_weight=99703 74453 70705.5 60502.5 25250 3471.5 3187.75 283.75 21778.5 3962.75 17815.8 10203 3747.5 686.75 3060.75
internal_count=51633 40497 38521 34588 11136 945 857 88 10191 2018 8173 3933 1976 345 1631
is_linear=0
shrinkage=0.05


Tree=20
num_leaves=16
num_cat=0
split_feature=10 9 10 26 31 32 16 32 3 32 3 32 3 5 6
split_gain=425.335 231.689 184.235 139.375 136.286 222.955 128.685 122.667 116.067 111.282 91.7465 85.2774 89.4761 72.133 9.4172
threshold=-0.044999999925494187 0.12499999627470972 0.074999999254941954 0.044999999925494201 0.26886364817619329 0.16458325833082202 -1.0000000180025095e-35 0.078048408031463637 0.74375000596046459 0.0066780010238289842 0.94583332538604747 0.45626406371593481 0.23958332836627963 0.32163383066654211 0.25013513863086706
decision_type=2 2 2 2 2 2 2 2 2 2 2 2 2 2 2
left_child=1 11 3 9 5 -3 10 -6 -5 -2 -4 12 -1 -8 -13
right_child=2 4 6 8 7 -7 13 -9 -10 -11 -12 14 -14 -15 -16
leaf_value=0.0033927177001316687 0.016358979653358419 0.00052445091525915859 0.015659026158516831 -0.0041324935282444344 -0.039578975099362514 0.022227548382726635 -0.0014822461342665618 -0.00352005977985409 -0.03408225262005319 0.0021406392047629017 -0.04436531659515075 -0.034170047432785663 -0.0098749025033854198 0.012747624997282625 -0.01626076103735628
leaf_weight=1429.25 1421 9649.75 4895 4637.25 239.5 1348.75 2860.25 15494.75 347.75 43609.75 64.5 359.25 11459 1293.25 92.25
leaf_count=675 856 4799 1525 2661 83 540 1329 8387 138 25585 23 115 4343 530 60
internal_value=0.0002072 -0.00376978 0.00290246 0.00171113 -0.00108412 0.00318591 0.00944098 -0.00406893 -0.00622177 0.00258932 0.0148784 -0.00915183 -0.00840358 0.00294842 -0.0305108
internal_weight=99201.2 40072.5 59128.8 50015.8 26732.8 10998.5 9113 15734.2 4985 45030.8 4959.5 13339.8 12888.2 4153.5 451.5
internal_count=51649 19002 32647 29240 13809 5339 3407 8470 2799 26441 1548 5193 5018 1859 175
is_linear=0
shrinkage=0.05


Tree=21
num_leaves=15
num_cat=0
split_feature=10 32 8 6 31 9 3 10 32 1 31 36 16 36
split_gain=379.215 233.471 177.861 182.161 160.474 196.069 208.996 125.396 123.937 100.024 78.0894 78.2019 75.1437 66.3122
threshold=1.0000000180025095e-35 0.0099338847212493437 0.16131673753261569 -0.017200034111738201 0.27886363863945013 0.49500000476837164 0.827083319425583 0.41499999165534979 0.26297125220298773 0.20312500000000003 0.25977271795272833 0.53125000000000011 -1.0000000180025095e-35 0.53125000000000011
decision_type=2 2 2 2 2 2 2 2 2 2 2 2 2 2
left_child=1 10 3 -3 5 6 -2 8 -6 -4 11 -1 -7 -9
right_child=4 2 9 -5 7 12 -8 13 -10 -11 -12 -13 -14 -15
leaf_value=0.0050032965284445901 0.012293790565416927 -0.0064561501002744258 0.00092265383885257513 0.0010512546800974726 -0.0038265998606055564 0.013761763048178124 0.041022764197190233 0.041646556283664121 0.005023582623792688 -0.0074165527971416616 0.078061226243714255 0.021187655416795279 -0.004728016986441751 -0.00096816115050561203
leaf_weight=2938.75 1926 10583.25 4345.75 34162.25 5514.5 881.5 943 316.75 13995.25 20836.75 41.5 1000.5 1459 128.25
leaf_count=1695 685 6141 1953 20694 2279 345 256 106 6495 9338 7 464 892 57
internal_value=-0.000140632 -0.00194564 -0.00261613 -0.000724404 0.00516077 0.0129754 0.0217366 0.00312065 0.00252205 -0.00597745 0.00983263 0.00911384 0.00223577 0.0293649
internal_weight=99073 73908.8 69928 44745.5 25164.2 5209.5 2869 19954.8 19509.8 25182.5 3980.75 3939.25 2340.5 445
internal_count=51407 40292 38126 26835 11115 2178 941 8937 8774 11291 2166 2159 1237 163
is_linear=0
shrinkage=0.05


Tree=22
num_leaves=15
num_cat=0
split_feature=10 32 26 8 24 23 31 9 24 32 15 31 8 7
split_gain=404.842 228.365 192.828 166.389 153.357 132.86 132.662 175.103 135.052 63.5935 91.7015 63.6524 25.7664 26.5812
threshold=1.0000000180025095e-35 0.0066780010238289842 0.12499999627470972 0.14280868321657184 -0.31249999999999994 0.31250000000000006 0.27886363863945013 0.49500000476837164 1.0000000180025095e-35 1.2539676328554574e-11 0.60624998807907116 0.10454545170068742 0.2954836785793305 -0.13153623044490811
decision_type=2 2 2 2 2 2 2 2 2 2 2 2 2 2
left_child=1 9 3 -3 12 -4 7 -6 -8 11 -11 -1 13 -2
right_child=4 2 5 -5 6 -7 8 -9 -10 10 -12 -13 -14 -15
leaf_value=0.004514133597940932 0.053177270708339552 -7.2969277670240667e-05 -0.0096207541081282152 -0.0051547618849238095 0.020491660053487848 -0.035713417565927462 0.0047193396256594647 0.0017471178105515706 -0.0066740832256394003 0.03190318349453735 -0.017784720631505515 0.028113254099131121 0.049638581439091341 0.019642956314231505
leaf_weight=2703.75 70 41051.5 2220.25 26509 2755.75 625.25 16349.25 2274 3093 574.75 110.75 319.5 137 379.25
leaf_count=1523 16 25124 1071 12046 919 192 7619 1215 1188 257 89 108 28 112
internal_value=-0.000109398 -0.00196694 -0.00260395 -0.00206693 0.00538466 -0.0153542 0.00477924 0.0120171 0.0029068 0.0101258 0.0238756 0.00700811 0.0306567 0.0248681
internal_weight=99173 74114.8 70406 67560.5 25058.2 2845.5 24472 5029.75 19442.2 3708.75 685.5 3023.25 586.25 449.25
internal_count=51507 40410 38433 37170 11097 1263 10941 2134 8807 1977 346 1631 156 128
is_linear=0
shrinkage=0.05


Tree=23
num_leaves=16
num_cat=0
split_feature=10 32 32 32 31 31 20 16 32 24 31 31 32 32 31
split_gain=372.863 238.16 198.63 240.381 197.392 155.27 151.234 122.987 80.0531 112.57 75.4638 72.8475 57.7101 110.184 109.518
threshold=0.074999999254941954 0.35445098578929907 0.28636744618415838 0.013723607175052168 0.48931819200515753 0.53113636374473583 -1.0000000180025095e-35 -1.0000000180025095e-35 0.21986937522888186 0.18750000000000003 0.52522724866867077 0.2815909087657929 0.26852825284004217 0.35243083536624914 0.34386363625526434
decision_type=2 2 2 2 2 2 2 2 2 2 2 2 2 2 2
left_child=1 2 3 -1 -4 10 -7 8 9 -2 -3 -10 14 -14 -9
right_child=7 5 4 -5 -6 6 -8 12 11 -11 -12 -13 13 -15 -16
leaf_value=0.0088083772040213355 0.026764464029708918 -0.0080352255540580581 0.0071252911942256969 -0.0026563715370683523 -0.0030105111677541756 -0.0092464476295709488 0.0060899418159030844 0.0044229167114943268 0.04397860504042319 -0.0058238569434589825 -0.025533994088053874 0.0075148595723742249 0.016838206332618715 -0.0054499003519601283 -0.023220699659843996
leaf_weight=5141 1888.5 12338.5 16900.75 41312.75 6710.75 2560.5 4318.75 1250 144.5 308.25 648.5 2629.25 1477.25 887.75 502.25
leaf_count=2698 514 7183 9029 20681 4095 1392 2674 505 38 126 392 865 631 484 251
internal_value=0.000115642 -0.000859701 0.000510408 -0.00138758 0.00424454 -0.00569187 0.000381641 0.00976754 0.0150614 0.0221916 -0.00890902 0.00941446 0.00337656 0.00847192 -0.00350061
internal_weight=99019.2 89931.5 70065.2 46453.8 23611.5 19866.2 6879.25 9087.75 4970.5 2196.75 12987 2773.75 4117.25 2365 1752.25
internal_count=51558 48144 36503 23379 13124 11641 4066 3414 1543 640 7575 903 1871 1115 756
is_linear=0
shrinkage=0.05


Tree=24
num_leaves=15
num_cat=0
split_feature=10 9 24 15 23 24 3 23 32 4 10 27 8 7
split_gain=385.603 197.256 154.1 116.035 227.849 105.509 162.551 104.853 74.3486 148.522 81.2169 71.7026 21.8051 23.4499
threshold=-0.03499999921768903 0.10500000044703485 -0.31249999999999994 0.45624999701976782 0.31250000000000006 1.0000000180025095e-35 0.86041668057441723 0.68750000000000011 0.11906271800398828 0.12708333134651187 -0.074999999254941926 0.57252174615859996 0.2755087167024613 -0.13153623044490811
decision_type=2 2 2 2 2 2 2 2 2 2 2 2 2 2
left_child=1 8 12 7 -5 6 -3 -4 9 -1 -10 -7 13 -2
right_child=2 5 3 4 -6 11 -8 -9 10 -11 -12 -13 -14 -15
leaf_value=-0.03207834345410198 0.047773670351583197 -0.0011133915441487242 0.0046202696042967409 0.0012216197204263403 -0.017290484477891954 -0.0097477468480385802 0.015320687709900405 -0.017986489311812969 -0.011296059342069963 0.035496041054192261 -0.0032782749549784746 0.043101511444625269 0.044480252679133955 0.017627288555027067
leaf_weight=659.5 76.5 26496.75 34092.25 16691.5 1846 3912.5 1595.25 520.75 6794 92.75 5902.5 65.25 144.25 411.5
leaf_count=200 15 14337 17021 11456 747 1609 589 231 2558 21 2571 22 28 119
internal_value=-4.02338e-06 -0.00339083 0.00286237 0.00257046 -0.000621851 -0.00125934 -0.000180156 0.00428015 -0.00847356 -0.0237466 -0.00756866 -0.00888082 0.0274015 0.0223531
internal_weight=99301.2 45518.5 53782.8 53150.5 18537.5 32069.8 28092 34613 13448.8 752.25 12696.5 3977.75 632.25 488
internal_count=51524 21907 29617 29455 12203 16557 14926 17252 5350 221 5129 1631 162 134
is_linear=0
shrinkage=0.05


Tree=25
num_leaves=16
num_cat=0
split_feature=10 9 16 24 24 31 31 32 3 3 4 8 7 31 15
split_gain=294.881 217.596 150.648 257.101 138.731 137.276 191.171 128.608 123.84 117.984 117.89 76.6513 107.832 83.2225 71.0215
threshold=-0.044999999925494187 0.095000002533197417 -0.093749999999999986 1.0000000180025095e-35 1.0000000180025095e-35 0.26886364817619329 0.22068181633949283 0.02334484085440636 0.30833332240581518 0.74791666865348827 0.064583335071802153 0.058841461315751083 8.7011287064342481e-11 0.36613637208938604 0.081250000745058074
decision_type=2 2 2 2 2 2 2 2 2 2 2 2 2 2 2
left_child=1 11 4 10 9 6 -3 -6 -7 -2 -4 12 -1 -13 -5
right_child=2 5 3 14 7 8 -8 -9 -10 -11 -12 13 -14 -15 -16
leaf_value=-0.012125357824530988 0.032969198610937833 -0.00081394582436752981 0.0012196739978415359 0.0028538835281306327 0.034188883571894972 0.0026340037083016905 0.014586787059255174 -7.0869487072280541e-05 -0.0066065725705001998 0.010829230744537731 0.011726035555656038 -0.020622306204724675 0.0074836116160098241 -0.0091185023755317902 -0.016484354994992727
leaf_weight=1513 811.25 8439.75 45941.25 582.5 296 4929.25 2647 3673.75 13711.5 2330 2834.75 2297.25 1306.5 4981 2567.5
leaf_count=575 211 4146 27823 213 105 2853 1215 1390 6708 668 1116 788 463 2096 1080
internal_value=-0.000371955 -0.00369672 0.00187087 0.000936189 0.00869609 -0.0015427 0.00286303 0.00248367 -0.00416305 0.016547 0.00183028 -0.0100381 -0.00303895 -0.0127495 -0.0129083
internal_weight=98862.2 39825.2 59037 51926 7111 29727.5 11086.8 3969.75 18640.8 3141.25 48776 10097.8 2819.5 7278.25 3150
internal_count=51450 18844 32606 30232 2374 14922 5361 1495 9561 879 28939 3922 1038 2884 1293
is_linear=0
shrinkage=0.05


Tree=26
num_leaves=16
num_cat=0
split_feature=10 9 15 1 24 4 32 34 1 3 5 23 10 32 7
split_gain=317.231 186.104 123.219 134.059 114.713 181.01 162.096 111.783 99.7084 110.653 91.8911 88.4037 80.4623 90.9692 35.09
threshold=-0.03499999921768903 0.095000002533197417 0.49374999105930334 0.32812500000000006 1.0000000180025095e-35 0.064583335071802153 0.02334484085440636 0.78888890147209179 0.98437500000000011 0.23958332836627963 2.409977772899197e-11 0.31250000000000006 -0.60500001907348622 0.10018867999315263 1.3961992673117154e-10
decision_type=2 2 2 2 2 2 2 2 2 2 2 2 2 2 2
left_child=1 12 4 11 5 -2 -6 -5 9 -3 -10 -4 14 -14 -1
right_child=2 8 3 7 6 -7 -8 -9 10 -11 -12 -13 13 -15 -16
leaf_value=0.0015062351433021764 0.0034001021808342542 0.0075277305266426694 -0.0077997490468274368 0.0026873750532215319 0.027136464381929098 0.013158460622727903 -0.0045072602967997418 -0.012228579236343982 0.008465272993756599 -0.0017613634369679232 -0.02139475209467968 -0.034887893970653387 -0.031597000491147165 -0.0080796272396921089 0.055848722948747521
leaf_weight=52.75 26749.5 3615.25 2624.25 10764.25 435.25 5778.75 5766.5 1422 338.5 28316.5 1078.75 340.25 426.25 11649 68
leaf_count=23 14916 2202 1633 7762 181 1914 2293 787 268 13949 640 143 128 4659 23
internal_value=-0.0001466 -0.00321848 0.00245004 -0.00137291 0.00394553 0.00513371 -0.00228645 0.000946849 -0.00128565 -0.00070967 -0.0142629 -0.0109088 -0.00850366 -0.00890978 0.032109
internal_weight=99425.8 45545 53880.8 15150.8 38730 32528.2 6201.75 12186.2 33349 31931.8 1417.25 2964.5 12196 12075.2 120.75
internal_count=51521 21892 29629 10325 19304 16830 2474 8549 17059 16151 908 1776 4833 4787 46
is_linear=0
shrinkage=0.05


Tree=27
num_leaves=14
num_cat=0
split_feature=10 32 24 32 32 3 32 1 1 24 3 25 32
split_gain=292.015 146.23 140.641 122.506 142.807 117.466 96.8982 281.672 108.187 81.314 65.6905 28.7734 27.4071
threshold=-0.03499999921768903 0.35891056060791021 -0.31249999999999994 0.35445098578929907 0.28636744618415838 0.78958335518836986 0.31681558489799505 0.32812500000000006 0.98437500000000011 -1.0000000180025095e-35 0.84791669249534618 0.13999999687075618 0.35033941268920904
decision_type=2 2 2 2 2 2 2 2 2 2 2 2 2
left_child=1 6 11 4 -4 -5 8 -8 -1 -3 -11 12 -2
right_child=2 9 3 5 -6 -7 7 -9 -10 10 -12 -13 -14
leaf_value=-0.0020267242295607022 0.011129091555348717 0.047500096335710285 0.0013997271960275622 -0.00024526972558593731 0.0075641323652034815 -0.016014718229521118 -0.0081379232708281915 0.013380238611311955 -0.016057296151549126 -0.0084945751850858953 -0.028621311972371236 0.047287834926631106 0.035164967081462495
leaf_weight=30270.5 295.75 62.75 24694.75 11922.25 15164.75 1310.75 2659.75 3551.5 1439.25 7022.5 430.25 129 198
leaf_count=14292 107 16 12542 7600 8641 684 1259 1729 913 3514 164 27 32
internal_value=0.000142616 -0.0028077 0.00263822 0.00236114 0.00374501 -0.00180726 -0.00154493 0.00416584 -0.00266355 -0.00917928 -0.0096565 0.0262613 0.0207678
internal_weight=99151.8 45436.5 53715.2 53092.5 39859.5 13233 37921 6211.25 31709.8 7515.5 7452.75 622.75 493.75
internal_count=51520 21887 29633 29467 21183 8284 18193 2988 15205 3694 3678 166 139
is_linear=0
shrinkage=0.05


Tree=28
num_leaves=16
num_cat=0
split_feature=10 9 24 32 3 31 31 32 14 1 24 1 27 32 32
split_gain=242.203 196.519 118.848 116.473 161.268 106.255 172.458 150.365 90.6238 72.131 75.9773 66.6351 22.0965 20.1097 13.3397
threshold=-0.044999999925494187 0.39499999582767492 -0.31249999999999994 0.35445098578929907 0.78958335518836986 0.27295455336570745 0.25977271795272833 0.12828824669122699 0.23249999433755877 0.48437500000000006 -0.18749999999999997 0.95312500000000011 -0.046928336843848222 0.15197028964757922 0.35033941268920904
decision_type=2 2 2 2 2 2 2 2 2 2 2 2 2 2 2
left_child=1 5 12 8 -5 6 -1 -7 -4 10 -3 -11 14 -14 -2
right_child=2 9 3 4 -6 7 -8 -9 -10 11 -12 -13 13 -15 -16
leaf_value=-0.0021821097968303506 -0.009010554443706166 0.041821602122350171 0.0031720568837997525 -0.00042210141539076782 -0.01820912842760938 -0.026093758675698766 0.023342658962793458 -0.0056642997954319957 -0.029850700553032589 0.0099566264250318393 -0.0025371512624227884 -0.0077199156009340828 0.048032302600996835 0.023327547136360403 0.022223632663260891
leaf_weight=5860.25 71.5 99 43671.25 13113.25 1411.5 936.25 746 23710.25 208.75 4161 3870 611.5 105 382.25 65.5
leaf_count=2307 33 16 23394 8268 723 329 269 10540 98 2624 2436 429 24 94 10
internal_value=-7.31665e-05 -0.00307734 0.00196227 0.00173032 -0.00215063 -0.00493097 0.000700233 -0.00644036 0.00301496 0.00354977 -0.0014307 0.00769173 0.0236632 0.0286513 0.00592258
internal_weight=99023.2 39994.2 59029 58404.8 14524.8 31252.8 6606.25 24646.5 43880 8741.5 3969 4772.5 624.25 487.25 137
internal_count=51594 18950 32644 32483 8991 13445 2576 10869 23492 5505 2452 3053 161 118 43
is_linear=0
shrinkage=0.05


Tree=29
num_leaves=15
num_cat=0
split_feature=10 9 15 22 16 34 31 24 32 10 4 32 13 1
split_gain=231.246 160.538 122.52 102.01 103.738 98.2434 110.239 90.3891 89.7515 75.8939 88.6223 84.0133 74.5421 48.2535
threshold=-0.03499999921768903 0.095000002533197417 0.53125000000000011 0.36249999701976782 -0.093749999999999986 0.78888890147209179 0.38659089803695684 -0.18749999999999997 0.35445098578929907 -0.085000000894069658 0.13958333432674411 0.11906271800398828 0.097500000149011626 0.26562500000000006
decision_type=2 2 2 2 2 2 2 2 2 2 2 2 2 2
left_child=1 9 3 4 -2 6 -4 -3 -9 10 -1 -11 -7 -5
right_child=2 7 5 13 -6 12 -8 8 -10 11 -12 -13 -14 -15
leaf_value=-0.015478097326376387 0.0098257458912042253 0.035847919606416305 0.0063365614323654456 -0.042656015914402913 0.0028531004096205973 -0.0052997130222091089 -0.0034901529748720388 0.00010755687709622001 -0.0073792875060400727 -0.029808030662437281 -0.00059017344194492612 -0.0027444090773856987 -0.026522468525670286 -0.0079041664573051285
leaf_weight=4117.75 6385.25 167.75 4378 155.75 32411.75 1240.75 8199 28401.25 4659.75 300 1320 6496.75 620.75 278.5
leaf_count=1514 2082 26 3170 72 17302 765 5792 14441 2540 84 457 2774 291 133
internal_value=5.90276e-05 -0.00256479 0.00228164 0.00373092 0.00400067 -0.00165625 -6.95156e-05 -0.000761912 -0.000947669 -0.00746137 -0.0118641 -0.00393896 -0.0123768 -0.0203684
internal_weight=99133 45463.2 53669.8 39231.2 38797 14438.5 12577 33228.8 33061 12234.5 5437.75 6796.75 1861.5 434.25
internal_count=51443 21836 29607 19589 19384 10018 8962 17007 16981 4829 1971 2858 1056 205
is_linear=0
shrinkage=0.05


Tree=30
num_leaves=14
num_cat=0
split_feature=24 4 32 15 1 32 31 32 32 16 23 31 3
split_gain=205.055 338.633 154.736 163.003 129.044 115.898 81.2625 80.1857 70.8982 68.6336 165.74 66.1973 27.5817
threshold=1.0000000180025095e-35 0.064583335071802153 0.38453797996044164 0.11875000223517419 0.26562500000000006 0.46023607254028326 0.53113636374473583 0.35243083536624914 0.28874357044696813 -0.093749999999999986 0.68750000000000011 0.44068181514739996 0.60208335518836986
decision_type=2 2 2 2 2 2 2 2 2 2 2 2 2
left_child=1 2 3 -1 8 9 -4 -6 -3 10 -2 -11 -7
right_child=5 4 6 -5 7 12 -8 -9 -10 11 -12 -13 -14
leaf_value=0.0061194327723114571 0.00089126493770403834 0.010989410058421219 -0.0092418488581832072 -0.00037526407627913735 0.0069323617395572572 -0.015521317866185439 -0.00049440383221747216 -0.0183094538532814 0.024930639999642484 -0.011827026383914988 -0.02152544090366448 -0.00096104497194946436 -0.053718564157684646
leaf_weight=11730.5 6818.25 1837 6449.5 54758.75 2766.5 69 4512.75 355 1811 4860 938 1969.75 150
leaf_count=5837 2460 582 4098 30887 927 36 2787 164 576 2042 382 758 39
internal_value=-0.000153506 0.000800442 -0.000136878 0.000770576 0.0115246 -0.00558022 -0.00564085 0.00406168 0.0179103 -0.00503814 -0.00181969 -0.0086932 -0.0416838
internal_weight=99026 84221 77451.5 66489.2 6769.5 14805 10962.2 3121.5 3648 14586 7756.25 6829.75 219
internal_count=51575 45858 43609 36724 2249 5717 6885 1091 1158 5642 2842 2800 75
is_linear=0
shrinkage=0.05


Tree=31
num_leaves=16
num_cat=0
split_feature=15 24 4 9 19 1 31 36 25 6 31 5 8 7 15
split_gain=200.308 262.818 260.501 170.391 139.495 129.817 108.728 251.313 106.992 91.42 83.7359 68.6758 66.03 52.7945 32.6987
threshold=0.53125000000000011 1.0000000180025095e-35 0.064583335071802153 0.074999999254941954 1.0000000180025095e-35 0.26562500000000006 0.058863636106252677 0.53125000000000011 0.24499999731779101 -0.033315716311335557 0.18750000000000003 0.76833632588386547 0.38795444369316107 0.39474178850650793 0.56874999403953563
decision_type=2 2 2 2 2 2 2 2 2 2 2 2 2 2 2
left_child=1 2 4 12 -1 -4 7 -3 11 -10 -8 -5 13 -2 -14
right_child=3 6 5 8 -6 -7 10 -9 9 -11 -12 -13 14 -15 -16
leaf_value=-0.0011435317117859717 -0.011068387706670324 -0.0076977325981333307 0.01855087567204583 -0.0009122597364526222 0.0044373999532274673 0.0047150468102355944 -0.018030874295730383 0.064529829287417684 -0.034371954208280764 -0.0076002006054526495 -0.0041727641391087955 0.056060893236185017 -0.0021333347132580505 0.019502115608177089 -0.034982684486308618
leaf_weight=20787.25 3925.25 342.5 3769.25 26355.25 24268 3081.25 1199.25 185.75 379 2010.25 11970.25 53 92.5 146.5 418.5
leaf_count=10964 2031 191 1151 16761 12755 1060 505 58 129 1014 4571 18 48 62 159
internal_value=1.35463e-05 0.00161797 0.00324371 -0.00313969 0.00186251 0.0123277 -0.00454254 0.0176998 -0.00171462 -0.0118469 -0.00543472 -0.000797918 -0.0120946 -0.00996847 -0.0290364
internal_weight=98983.8 65603.5 51905.8 33380.2 45055.2 6850.5 13697.8 528.25 28797.5 2389.25 13169.5 26408.2 4582.75 4071.75 511
internal_count=51477 31255 25930 20222 23719 2211 5325 249 17922 1143 5076 16779 2300 2093 207
is_linear=0
shrinkage=0.05


Tree=32
num_leaves=15
num_cat=0
split_feature=10 32 32 32 36 8 31 9 0 0 3 31 3 8
split_gain=203.587 176.262 151.739 164.916 121.494 110.572 88.3915 84.2486 69.1666 61.1832 51.8213 69.8455 47.6995 38.5488
threshold=0.074999999254941954 0.44255866110324865 0.0066780010238289842 0.073160395026206984 0.53125000000000011 -0.33036635816097254 0.27568182349205023 0.41499999165534979 0.17741934955120089 0.2741935402154923 0.23958332836627963 0.61386364698410045 0.78958335518836986 0.37508620321750646
decision_type=2 2 2 2 2 2 2 2 2 2 2 2 2 2
left_child=1 2 4 -4 -1 8 7 -7 12 -8 13 -12 -2 -3
right_child=5 10 3 -5 -6 6 9 -9 -10 -11 11 -13 -14 -15
leaf_value=0.0038619817712942 0.023433284834084165 -0.0018068307274683683 -0.0081452961804212905 -7.0007225376347077e-06 0.022830532465888051 0.025522906531074582 0.0028063344400205206 0.0054413035259881504 0.056591347467464075 -0.024287424161847398 -0.016986752118958306 0.028353973688023296 0.00030255388056061103 0.057811417339140914
leaf_weight=3136.75 818.75 557.5 6782.75 75692.75 1155 883 5548.25 1278.5 123.25 216.5 2441 88 306.25 28.5
leaf_count=1822 253 491 3363 40521 483 242 2217 497 29 95 1315 69 96 9
internal_value=0.000105351 -0.000618846 -0.000199316 -0.000676291 0.00896682 0.00720028 0.00502198 0.0136449 0.0210323 0.00178881 -0.0123047 -0.0154091 0.0171366 0.00109269
internal_weight=99056.8 89882.2 86767.2 82475.5 4291.75 9174.5 7926.25 2161.5 1248.25 5764.75 3115 2529 1125 586
internal_count=51502 48073 46189 43884 2305 3429 3051 739 378 2312 1884 1384 349 500
is_linear=0
shrinkage=0.05


Tree=33
num_leaves=16
num_cat=0
split_feature=10 24 16 26 31 36 7 1 32 5 3 9 25 3 10
split_gain=178.351 157.05 216.3 139.999 119.305 224.678 101.114 119.23 98.6504 72.0662 88.1346 77.342 68.8389 60.4268 46.6512
threshold=0.044999999925494201 1.0000000180025095e-35 -0.16875000298023221 0.014999999664723875 0.058863636106252677 0.53125000000000011 -0.21564685553312299 0.14062500000000003 0.3513715416193009 0.1768428906798363 0.84375000000000011 0.17500000447034839 0.13999999687075618 0.72291669249534618 -0.17500000447034833
decision_type=2 2 2 2 2 2 2 2 2 2 2 2 2 2 2
left_child=1 2 14 -4 5 -3 9 13 -9 11 -11 -2 -6 -8 -1
right_child=6 4 3 -5 12 -7 7 8 -10 10 -12 -13 -14 -15 -16
leaf_value=0.062152694693456093 0.024743875955674247 -0.0030512242013224422 0.0014026626819608982 -0.0030608523811446807 -0.0046458530522935871 0.074852624567330869 0.010632599979712099 0.0061803217898503083 -0.0050784159312771589 0.038043507749141364 -0.021711194134744885 -0.0020908684434208019 -0.01284320597811371 -0.053013834204222711 0.022496650422501544
leaf_weight=84 457.5 332.5 42267.25 30062.5 7891 128.25 51 10163.75 2406.25 507.5 70.25 650 3791.75 138.75 633.25
leaf_count=18 142 189 24091 17039 3132 41 32 3888 1144 147 42 272 1338 59 169
internal_value=-0.000185794 -0.00105689 -0.000181573 -0.000452513 -0.00632218 0.0186334 0.00495154 0.00343125 0.00402508 0.0164623 0.0307778 0.00899436 -0.00730638 -0.0359073 0.0271409
internal_weight=99635.5 85190.5 73047 72329.8 12143.5 460.75 14445 12759.8 12570 1685.25 577.75 1107.5 11682.8 189.75 717.25
internal_count=51743 46017 41317 41130 4700 230 5726 5123 5032 603 189 414 4470 91 187
is_linear=0
shrinkage=0.05


Tree=34
num_leaves=16
num_cat=0
split_feature=10 9 32 26 9 14 19 4 3 24 27 36 31 32 9
split_gain=159.645 146.888 106.76 102.326 106.605 85.6093 105.706 95.8121 85.2973 77.9538 68.2981 61.0367 109.801 60.3384 19.2509
threshold=-0.044999999925494187 0.39499999582767492 0.45626406371593481 0.054999999701976783 0.095000002533197417 0.052500000223517425 1.0000000180025095e-35 0.46666666865348821 0.50624999403953563 -1.0000000180025095e-35 0.13524784892797473 0.53125000000000011 0.086590908467769637 0.0700669400393963 0.17500000447034839
decision_type=2 2 2 2 2 2 2 2 2 2 2 2 2 2 2
left_child=1 2 9 5 10 6 -2 -7 -6 -1 -5 13 -13 -3 -4
right_child=3 11 14 4 8 7 -8 -9 -10 -11 -12 12 -14 -15 -16
leaf_value=0.015007530115359711 -0.0026624790762744027 -0.0042787666634424674 -0.027087097011105989 -0.00046852747511758682 -0.0082039382939785837 0.0087905681890688044 0.0028681678709231058 -0.021595754748112095 0.0064827229840613426 -0.0039301018267882942 -0.030103905194548343 0.027498339848313985 0.0038853140592924047 0.0057687962434565358 -0.0040092615950330394
leaf_weight=553.5 11331 3124.75 581.25 283.75 2247.5 6473.75 36371 270.25 1765 29802.5 617.5 649.5 2034.25 2863.5 107
leaf_count=122 6498 1765 222 147 1382 2203 21372 123 711 12993 235 304 1472 1917 84
internal_value=3.45392e-05 -0.00241918 -0.0040263 0.00167627 -0.00523398 0.00229992 0.00155443 0.00757291 -0.00174364 -0.0035848 -0.0207735 0.00333403 0.00959995 0.000525842 -0.0234993
internal_weight=99076 39716.2 31044.2 59359.8 4913.75 54446 47702 6744 4012.5 30356 901.25 8672 2683.75 5988.25 688.25
internal_count=51550 18879 13421 32671 2475 30196 27870 2326 2093 13115 382 5458 1776 3682 306
is_linear=0
shrinkage=0.05


Tree=35
num_leaves=16
num_cat=0
split_feature=15 24 4 19 27 1 32 8 6 23 26 31 32 5 1
split_gain=170.08 198.051 159.034 147.554 136.399 105.841 73.9458 69.6558 79.7831 60.6055 55.9415 81.9014 55.8623 30.9928 28.861
threshold=0.45624999701976782 1.0000000180025095e-35 0.064583335071802153 1.0000000180025095e-35 0.075095430016517653 0.29687500000000006 0.40392558276653295 0.46180371940135961 0.45297759771347051 0.68750000000000011 0.15500000119209292 0.33750000596046453 0.38453797996044164 0.46201923489570623 0.51562500000000011
decision_type=2 2 2 2 2 2 2 2 2 2 2 2 2 2 2
left_child=1 2 3 -1 10 -4 9 8 -6 -3 12 -12 -2 -9 -8
right_child=4 6 5 -5 7 -7 14 13 -10 -11 11 -13 -14 -15 -16
leaf_value=-0.0011576596214992166 0.0016198858078841948 -0.0015633597042332234 0.016063690631722846 0.0050803177476591785 -0.0054372943813327523 0.0021255726700546472 -0.022768477005667382 -0.052015216695680017 0.022230431230824944 -0.013719240101840037 0.00079189426068868864 -0.025860232631366078 -0.0052522776039442571 -0.016345813116977397 0.0030624088892375182
leaf_weight=17635 19391 11170.5 3762.75 20499.75 16454.5 2134.75 655.5 65.25 264.75 1129 674.25 503.5 3489.25 913.25 129.5
leaf_count=9269 12578 4306 1153 10785 8420 758 227 17 102 435 330 232 2277 441 50
internal_value=-7.66732e-07 0.00177234 0.00337732 0.00219563 -0.00242616 0.0110184 -0.00362877 -0.00575803 -0.00499917 -0.00267918 2.48567e-05 -0.0106022 0.000571877 -0.0187244 -0.0185072
internal_weight=98872.5 57116.8 44032.2 38134.8 41755.8 5897.5 13084.5 17697.8 16719.2 12299.5 24058 1177.75 22880.2 978.5 785
internal_count=51380 26983 21965 20054 24397 1911 5018 8980 8522 4741 15417 562 14855 458 277
is_linear=0
shrinkage=0.05


Tree=36
num_leaves=14
num_cat=0
split_feature=32 24 24 15 32 3 16 31 32 32 31 6 10
split_gain=163.073 138.002 111.103 134.874 91.3762 88.1829 90.8485 66.1577 65.6594 47.9503 43.0445 31.3791 24.6212
threshold=0.38453797996044164 -0.18749999999999997 0.18750000000000003 0.53125000000000011 0.28636744618415838 0.84791669249534618 0.31875000894069677 0.51840907335281383 0.45156115293502813 0.47065861523151403 0.50159090757370006 -0.65367746353149403 -0.14500000327825543
decision_type=2 2 2 2 2 2 2 2 2 2 2 2 2
left_child=1 11 3 -3 -4 6 8 -8 -2 10 -7 -1 -13
right_child=5 2 4 -5 -6 9 7 -9 -10 -11 -12 12 -14
leaf_value=0.045699927098042256 0.0013257017990258206 0.0027988064415260657 -0.0080841589803294072 -0.0015897535658186664 0.0025624254402928526 -0.037096884064039368 -0.015709846471846981 -0.0033821128756723129 -0.010035360504068631 0.017547116018698208 -0.011555728083528841 0.037431316419057385 0.012840100242195627
leaf_weight=92.5 6325.75 48876.75 6162.5 27278.75 2994.75 380 2324.75 2046.25 1591.75 69.75 291.5 113.5 986.25
leaf_count=17 3804 23623 2343 16566 1141 168 1346 1153 981 21 146 16 260
internal_value=5.17736e-05 0.000837229 0.000601144 0.00122683 -0.00460234 -0.0051629 -0.00415265 -0.00993871 -0.000958349 -0.0219108 -0.0260094 0.0177305 0.015378
internal_weight=99534.8 86505 85312.8 76155.5 9157.25 13029.8 12288.5 4371 7917.5 741.25 671.5 1192.25 1099.75
internal_count=51585 43966 43673 40189 3484 7619 7284 2499 4785 335 314 293 276
is_linear=0
shrinkage=0.05


Tree=37
num_leaves=16
num_cat=0
split_feature=32 32 31 31 15 10 31 31 1 10 9 13 36 31 9
split_gain=171.334 173.945 162.778 157.293 150.812 141.54 140.216 138.535 136.406 128.815 123.183 93.4735 78.1093 74.8986 56.3351
threshold=0.35445098578929907 0.31681558489799505 0.30022728443145758 0.27886363863945013 0.043750000186264522 -0.044999999925494187 0.4620454609394074 0.47022727131843572 0.35937500000000006 -0.074999999254941926 0.095000002533197417 0.35250000655651098 0.53125000000000011 0.35249999165534979 0.6850000023841859
decision_type=2 2 2 2 2 2 2 2 2 2 2 2 2 2 2
left_child=1 3 8 4 -1 -5 12 11 -3 -9 -4 -8 13 -2 -14
right_child=6 2 10 5 -6 -7 7 9 -10 -11 -12 -13 14 -15 -16
leaf_value=0.017210763106713236 0.014723439982234951 0.0020779092471495692 -0.00087834731903702707 -0.0054216684177583012 0.0022792310082020897 0.00063171446113248139 0.021950698072335989 -0.012057139235900176 0.051410935063509966 0.00012229045738316779 0.0088725050821607879 -0.049255951795822539 -0.018280242199220417 -0.007841360164201467 0.02764214001595974
leaf_weight=1838.5 405.75 230.75 5231.25 15705.5 21091.5 25072.25 844 2699.25 356.75 11092.25 8504.75 48.75 2335 3926.5 68.75
leaf_count=770 247 99 2588 7378 10343 13163 374 1332 126 6796 4829 23 1351 2108 53
internal_value=0.000195313 0.00128265 0.00626131 0.000163291 0.00347642 -0.00169974 -0.00376572 -0.00102583 0.0320346 -0.00226145 0.00515897 0.0180623 -0.00973857 -0.00572799 -0.0169668
internal_weight=99451.5 78031.2 14323.5 63707.8 22930 40777.8 21420.2 14684.2 587.5 13791.5 13736 892.75 6736 4332.25 2403.75
internal_count=51580 39296 7642 31654 11113 20541 12284 8525 225 8128 7417 397 3759 2355 1404
is_linear=0
shrinkage=0.05


Tree=38
num_leaves=16
num_cat=0
split_feature=31 28 31 29 3 15 3 4 16 32 32 32 3 10 31
split_gain=152.09 156.746 156.696 220.672 213.812 121.205 143.86 112.811 112.785 101.566 141.976 95.7125 88.491 72.521 46.219
threshold=0.27886363863945013 0.17320105433464053 0.25659090280532842 0.75000000000000011 0.48333333432674414 0.26874999701976782 0.71041664481163036 0.21249999850988391 0.61875000596046459 0.12828824669122699 0.17139758914709094 0.28636744618415838 0.81458333134651195 -0.024999999441206452 0.38340908288955694
decision_type=2 2 2 2 2 2 2 2 2 2 2 2 2 2 2
left_child=2 8 5 4 -4 7 -7 -1 11 13 -11 -2 -5 -3 -10
right_child=1 9 3 12 -6 6 -8 -9 14 10 -12 -13 -14 -15 -16
leaf_value=0.0081239480158724741 -0.0018486801414345202 -0.028048721023019304 -0.011276838511753109 0.032327087419556949 0.016609604250377337 -0.00014937462595274279 -0.021179583266845742 -0.010506794942793003 -0.00040963796640102542 0.012741299053057258 -0.0043115243971608465 0.00291111035393688 0.083493338922310686 0.013224353766423825 -0.017697115317597014
leaf_weight=7550 17073.75 678 1008.25 450.75 2159.75 10022.25 885 910.5 581.75 1277.25 27502.75 27691.25 104 126.25 1152.75
leaf_count=3228 8496 265 583 169 747 5671 379 357 326 534 13964 15928 35 56 679
internal_value=-0.000120564 -0.00119924 0.0034337 0.0128285 0.00773444 0.00162788 -0.00185574 0.00611895 0.000610968 -0.00404446 -0.00355472 0.00109569 0.0419193 -0.0215697 -0.0118989
internal_weight=99174.2 76083.8 23090.5 3722.75 3168 19367.8 10907.2 8460.5 46499.5 29584.2 28780 44765 554.75 804.25 1734.5
internal_count=51417 40248 11169 1534 1330 9635 6050 3585 25429 14819 14498 24424 204 321 1005
is_linear=0
shrinkage=0.05


Tree=39
num_leaves=16
num_cat=0
split_feature=32 32 31 31 31 31 36 31 20 36 32 26 11 12 5
split_gain=118.115 177.362 183.142 173.524 142.45 214.4 140.452 132.377 123.291 120.97 114.866 85.1051 81.5448 51.0701 41.555
threshold=0.35445098578929907 0.31681558489799505 0.5115908980369569 0.4620454609394074 0.27295455336570745 0.25977271795272833 0.53125000000000011 0.47022727131843572 -1.0000000180025095e-35 0.40625000000000006 0.34757699072360998 0.034999999217689044 0.62500000000000011 0.37500000000000006 1.7392531859172781e-11
decision_type=2 2 2 2 2 2 2 2 2 2 2 2 2 2 2
left_child=1 4 6 12 5 -1 -3 11 -9 -6 -4 -5 14 -14 -2
right_child=3 2 10 7 9 -7 -8 8 -10 -11 -12 -13 13 -15 -16
leaf_value=0.0012720619262666425 0.025870846462306765 0.0045157936725982407 -0.0088339128874218627 0.029237581726317075 0.0037979867690318744 0.018477297911839396 0.016280642894804385 -0.0076432444148862065 0.0020968724001215332 -0.003352931649847199 0.01334009879603208 -0.0031697032207265103 0.030902601284267674 -0.0014041415555674868 -0.01282032707522004
leaf_weight=19794 70.25 6726.25 2781.75 591 7124.75 1993 4073 5302.25 8389.75 34807.25 739.25 308.25 146.75 735 5714.25
leaf_count=9809 55 3433 1658 247 3400 816 2135 2894 5165 17637 404 156 78 448 3179
internal_value=-0.000203822 0.000696203 0.0057243 -0.00350794 -0.000433814 0.00284594 0.00895298 -0.000454506 -0.001675 -0.0021379 -0.00417838 0.0181288 -0.0101914 0.00397268 -0.0123504
internal_weight=99296.8 78039.2 14320.2 21257.5 63719 21787 10799.2 14591.2 13692 41932 3521 899.25 6666.25 881.75 5784.5
internal_count=51514 39292 7630 12222 31662 10625 5568 8462 8059 21037 2062 403 3760 526 3234
is_linear=0
shrinkage=0.05


Tree=40
num_leaves=15
num_cat=0
split_feature=31 28 17 4 9 31 32 1 32 25 7 10 12 32
split_gain=136.73 148.369 145.462 107.554 117.489 107.5 164.437 106.153 100.317 99.2782 116.441 82.6774 74.4949 71.4084
threshold=0.27886363863945013 0.19370330870151523 0.73124998807907116 0.21249999850988391 0.44499999284744268 0.25977271795272833 0.25283828377723699 0.48437500000000006 0.21986937522888186 0.085000000894069686 1.3961992673117154e-10 0.35500000417232519 -0.37499999999999994 0.12828824669122699
decision_type=2 2 2 2 2 2 2 2 2 2 2 2 2 2
left_child=2 9 5 4 -4 7 -7 -1 -5 12 -11 13 -2 -3
right_child=1 11 3 8 -6 6 -8 -9 -10 10 -12 -13 -14 -15
leaf_value=-0.010315775795712122 -0.0053350758936190719 -0.019050639079082839 0.014195463295905273 -0.012475872199280333 0.0024452449332775989 0.017085117958128306 -0.022526786850836745 0.00084075281539087586 0.032891200791502664 -0.0037459496675160235 0.0024816085780890035 0.036097008233404344 0.0048651280606292376 -0.0036776725299422215
leaf_weight=2876.5 2027.5 776.75 5512.75 975.25 3464.25 1627.75 312.25 8239.25 139.25 17451.75 13170.75 128.5 15279.75 27475.75
leaf_count=1451 1102 315 2014 390 1780 689 122 4759 32 8891 6614 36 9536 13862
internal_value=-3.2209e-05 -0.00105324 0.00333388 0.00784224 0.00966102 -0.000150879 0.0107094 -0.0020463 -0.00680753 0.000643282 -0.00106747 -0.00391832 0.0036702 -0.00410032
internal_weight=99458 76310.8 23147.2 10091.5 8977 13055.8 1940 11115.8 1114.5 47929.8 30622.5 28381 17307.2 28252.5
internal_count=51593 40356 11237 4216 3794 7021 811 6210 422 26143 15505 14213 10638 14177
is_linear=0
shrinkage=0.05


Tree=41
num_leaves=16
num_cat=0
split_feature=24 4 26 4 31 36 7 32 1 32 31 32 32 13 34
split_gain=127.414 207.743 144.181 134.031 90.217 150.064 110.596 93.8535 87.6358 75.8254 73.8459 65.0144 143.267 62.7926 60.6445
threshold=1.0000000180025095e-35 0.064583335071802153 0.15500000119209292 0.058333333581686027 0.058863636106252677 0.53125000000000011 9.9814601028924719e-13 1.076455851539704e-11 0.26562500000000006 0.27647614479064947 0.49477273225784307 0.28514298796653753 0.35033941268920904 0.022499999497085813 0.43650794029235845
decision_type=2 2 2 2 2 2 2 2 2 2 2 2 2 2 2
left_child=1 2 3 -1 5 7 -7 -2 9 -3 -10 14 -13 -4 -6
right_child=4 8 13 -5 11 6 -8 -9 10 -11 -12 12 -14 -15 -16
leaf_value=0.00059091356145118501 -0.025687400055862793 0.0068719462630514793 -0.066546052627599064 -0.06562512900704652 0.016499444060433344 -0.012973489237994682 0.072250316785396757 0.0280583385094441 0.0007773088753306851 0.021385114788129347 0.029291475234717118 0.0057082223293664731 -0.0097059962335417638 -0.010131938030765536 -0.0086758626666221892
leaf_weight=75256.25 204.5 1695 50.25 76.5 246.75 51.25 148 134.75 2813 1918.75 247 3426.25 2691.75 2681.5 7829.75
leaf_count=42442 115 519 18 18 93 21 41 69 986 624 94 1322 1035 1191 3023
internal_value=9.21685e-05 0.000838336 0.000114481 0.000523672 -0.00419948 0.0158885 0.0503295 -0.00433961 0.00930544 0.0145778 0.00307894 -0.00496156 -0.00107361 -0.0111697 -0.00790672
internal_weight=99471.2 84738.2 78064.5 75332.8 14733 538.5 199.25 339.25 6673.75 3613.75 3060 14194.5 6118 2731.75 8076.5
internal_count=51611 45892 43669 42460 5719 246 62 184 2223 1143 1080 5473 2357 1209 3116
is_linear=0
shrinkage=0.05


Tree=42
num_leaves=16
num_cat=0
split_feature=24 14 1 27 26 3 9 32 28 15 31 31 1 1 3
split_gain=138.559 184.647 106.29 104.657 112.952 91.3484 74.253 64.5092 54.6118 71.241 134.762 78.8069 68.8666 54.9662 27.1676
threshold=1.0000000180025095e-35 0.022499999497085813 0.26562500000000006 0.19755252450704577 0.12499999627470972 0.74791666865348827 0.024999999441206459 0.28874357044696813 -0.16618983447551725 0.34375000000000006 0.43522727489471441 0.058863636106252677 0.85937500000000011 0.20312500000000003 0.46458333730697637
decision_type=2 2 2 2 2 2 2 2 2 2 2 2 2 2 2
left_child=1 3 7 4 -1 -4 -5 -3 12 11 -11 -10 13 -2 -14
right_child=8 2 5 6 -6 -7 -8 -9 9 10 -12 -13 14 -15 -16
leaf_value=0.0017492777764056189 -0.013436496967142704 0.0070444259673791507 0.0068549151993729605 0.01017030976183002 -0.010791848596029704 -0.010979505038030121 -0.0031576930568403905 0.019603921101870848 0.015958093653551796 -0.023743393029796698 0.0038390996363782447 -0.0052991058299793788 -0.0096793999335565151 0.0081111075987485657 -0.039259050500002647
leaf_weight=48617.75 346.5 1961.25 2500.25 1090.25 1864.25 1007.25 25189 2135.75 457.25 1343.75 660.5 9384.25 297.75 2029.25 105
leaf_count=28782 123 608 865 709 887 302 13006 635 214 573 297 3454 143 874 49
internal_value=-8.84951e-05 0.000690341 0.00812214 -4.59047e-05 0.00128615 0.0017334 -0.00260475 0.0135916 -0.00458152 -0.00606131 -0.0146536 -0.00431147 0.00172736 0.00496842 -0.017391
internal_weight=98990 84365.8 7604.5 76761.2 50482 3507.5 26279.2 4097 14624.2 11845.8 2004.25 9841.5 2778.5 2375.75 402.75
internal_count=51521 45794 2410 43384 29669 1167 13715 1243 5727 4538 870 3668 1189 997 192
is_linear=0
shrinkage=0.05


Tree=43
num_leaves=16
num_cat=0
split_feature=9 10 3 12 15 1 36 26 26 9 5 3 23 34 9
split_gain=106.199 117.752 98.5928 91.5531 89.122 89.0423 85.4361 75.6188 73.7985 68.994 80.206 60.0409 40.8523 39.5474 37.7359
threshold=0.17500000447034839 -0.014999999664723871 0.93333333730697643 -1.0000000180025095e-35 0.11875000223517419 0.79687500000000011 0.59375000000000011 0.085000000894069686 -1.0000000180025095e-35 0.085000000894069686 0.30060242116451269 0.48333333432674414 0.68750000000000011 0.70714285969734203 0.14500000327825549
decision_type=2 2 2 2 2 2 2 2 2 2 2 2 2 2 2
left_child=1 9 3 6 -5 7 -2 -3 13 11 -11 -1 -10 -4 -7
right_child=2 5 8 4 -6 14 -8 -9 12 10 -12 -13 -14 -15 -16
leaf_value=-0.0098451539104253208 -0.0023944647070140556 0.0014568836460932123 -0.0045948283284069592 0.0075453504552105552 0.0015901234371756877 -0.020583132064814127 -0.023805278847035437 0.027931624263088747 -0.013085714402601407 -0.0084251105900604792 0.00050840397459303035 -0.0030463166327379968 -0.038127065347770689 0.047782706831835241 0.0020326307239834549
leaf_weight=6433.25 2713.75 20853.75 80.5 7544 37568.25 651.75 562.5 273.25 617.25 3205.25 11624.5 6557 221.25 65.25 257.25
leaf_count=2827 1416 11079 46 3595 22040 533 364 95 265 1338 5178 2374 78 22 222
internal_value=3.7519e-05 -0.00159026 0.00168123 0.00199989 0.002586 0.00114003 -0.00607049 0.0017993 -0.0139851 -0.0037529 -0.00142245 -0.00641335 -0.0196932 0.0188538 -0.0141828
internal_weight=99228.8 49856 49372.8 48388.5 45112.2 22036 3276.25 21127 984.25 27820 14829.8 12990.2 838.5 145.75 909
internal_count=51472 23646 27826 27415 25635 11929 1780 11174 411 11717 6516 5201 343 68 755
is_linear=0
shrinkage=0.05


Tree=44
num_leaves=16
num_cat=0
split_feature=9 17 3 31 28 23 24 12 28 12 31 10 5 10 32
split_gain=115.825 177.184 172.685 138.685 124.42 94.4148 89.2696 81.4137 81.3422 75.9142 53.3862 41.1017 40.8143 41.3308 21.3592
threshold=0.17500000447034839 0.50624999403953563 0.32291665673255926 0.44522726535797125 0.17717431485652926 0.68750000000000011 0.18750000000000003 0.87500000000000011 -0.7847856581211089 -1.0000000180025095e-35 0.31522727012634283 0.014999999664723875 2.409977772899197e-11 -0.14500000327825543 0.0099338847212493437
decision_type=2 2 2 2 2 2 2 2 2 2 2 2 2 2 2
left_child=1 2 3 -1 6 8 -3 -6 10 -10 -2 -4 14 -14 -7
right_child=5 4 11 -5 7 12 -8 -9 9 -11 -12 -13 13 -15 -16
leaf_value=0.007331247246899349 0.049883043991637906 0.0052564754569256952 -0.009989695406211592 -0.0057656035021691927 -0.00377955543698426 0.025164669193412405 -0.0040582497793482412 0.0083333582719362434 -0.0056282439641396776 0.0023940654552646896 0.0094250943472818059 -0.025459339773229811 -0.0063571134719038096 -0.038222511635002336 -0.015472013776057534
leaf_weight=3279.75 142 13794.5 7993.75 5268 14518.5 68.5 3161.75 1533.75 3153.5 45458.5 191.5 453.75 165 265.5 61.25
leaf_count=1756 25 6544 3388 3320 6327 29 1249 1015 1747 25780 56 154 57 109 37
internal_value=9.44696e-05 -0.00160285 -0.00575077 -0.000740375 0.000532805 0.00180887 0.0035196 -0.0026222 0.00204248 0.00187365 0.0266516 -0.0108206 -0.0186004 -0.0260093 0.00598165
internal_weight=99509.5 50003.8 16995.2 8547.75 33008.5 49505.8 16956.2 16052.2 48945.5 48612 333.5 8447.5 560.25 430.5 129.75
internal_count=51593 23753 8618 5076 15135 27840 7793 7342 27608 27527 81 3542 232 166 66
is_linear=0
shrinkage=0.05


Tree=45
num_leaves=16
num_cat=0
split_feature=32 32 32 15 31 3 31 32 29 32 31 11 0 9 5
split_gain=113.223 142.408 196.666 183.188 183.103 134.459 128.334 127.523 99.0055 93.5002 113.468 66.3049 55.1273 51.1874 34.3851
threshold=0.35445098578929907 0.28636744618415838 0.25692304968833929 0.15625000000000003 0.49659091234207159 0.87500000000000011 0.4620454609394074 0.34757699072360998 0.37500000000000006 0.44255866110324865 0.47022727131843572 0.62500000000000011 0.33870966732501989 0.054999999701976783 1.3423429034986613e-11
decision_type=2 2 2 2 2 2 2 2 2 2 2 2 2 2 2
left_child=1 2 3 -1 5 -3 11 -6 -4 10 -8 14 -13 -11 -2
right_child=6 4 8 -5 7 -7 9 -9 -10 13 -12 12 -14 -15 -16
leaf_value=0.0065284224421854227 0.026538865732181133 0.0076717524237644111 -0.011578494506831136 -0.00094990216713602591 -0.0056464610818877528 -0.0095347152159823978 0.019829858761652493 0.015271663796510543 -0.001320026743315621 0.0043673950557119269 0.0002474371077784965 0.0090178420745449968 -0.028626455773518189 -0.011694338351950944 -0.011122566845352018
leaf_weight=11049 61.25 17854.5 5232 31635.5 5849.5 1212.5 794.25 832.25 4272.75 627.75 10779 749.75 111.75 2364.25 5765
leaf_count=4628 43 9363 2798 15826 3501 543 341 498 2101 318 6329 455 65 1498 3207
internal_value=0.000156614 0.00103875 -0.000462488 0.000985883 0.00408157 0.00657757 -0.00307833 -0.00304099 -0.00696692 -0.000445562 0.00159134 -0.00881223 0.00413479 -0.00832443 -0.0107266
internal_weight=99191 77938 52189.2 42684.5 25748.8 19067 21253 6681.75 9504.75 14565.2 11573.2 6687.75 861.5 2992 5826.25
internal_count=51514 39258 25353 20454 13905 9906 12256 3999 4899 8486 6670 3770 520 1816 3250
is_linear=0
shrinkage=0.05


Tree=46
num_leaves=16
num_cat=0
split_feature=32 24 14 9 32 16 16 29 31 3 10 3 10 23 8
split_gain=116.087 103.294 150.389 121.626 85.4653 63.7924 82.9148 68.3484 43.862 34.3763 61.0416 59.5419 15.6072 11.8432 4.30689
threshold=0.44255866110324865 1.0000000180025095e-35 0.022499999497085813 0.074999999254941954 0.39953462779521948 -0.24374999105930326 -0.093749999999999986 0.75000000000000011 0.47431817650794988 0.49375000596046453 -0.024999999441206452 0.27708332240581518 0.024999999441206459 0.31250000000000006 -0.093419302254915224
decision_type=2 2 2 2 2 2 2 2 2 2 2 2 2 2 2
left_child=1 2 3 -1 -4 7 -7 -3 12 11 -11 -10 13 -2 -14
right_child=8 5 4 -5 -6 6 -8 -9 9 10 -12 -13 14 -15 -16
leaf_value=-0.0048663506101333121 -0.0079116394162317208 -0.0089967254761398486 0.0090074238519857238 0.0010522564972139921 -0.016492589893818334 0.0022668588053693355 -0.0060324283862404392 -0.041328373802076851 -0.0013012557116213093 -0.016131646465435447 0.012086237263213492 -0.018522101811690592 -0.034132912377502531 -0.030593115541177412 -0.055622351818300532
leaf_weight=10042.75 108.75 1911 6906.5 63975.75 345 5462.25 6702 178.75 894.5 311.75 497.5 1143.75 50.25 122.25 43.5
leaf_count=5668 103 745 2167 35915 147 1966 2774 72 702 132 250 654 25 44 16
internal_value=-7.86261e-05 0.000233866 0.000922446 0.000249226 0.00779423 -0.00369211 -0.00230571 -0.0117623 -0.00948851 -0.00750299 0.00121577 -0.0109646 -0.0268981 -0.0199151 -0.044104
internal_weight=98696.2 95524 81270 74018.5 7251.5 14254 12164.2 2089.75 3172.25 2847.5 809.25 2038.25 324.75 231 93.75
internal_count=51380 49454 43897 41583 2314 5557 4740 817 1926 1738 382 1356 188 147 41
is_linear=0
shrinkage=0.05


Tree=47
num_leaves=16
num_cat=0
split_feature=32 36 3 10 32 31 31 10 10 6 32 31 31 10 9
split_gain=113.302 191.975 201.019 140.002 129.19 215.003 196.344 115.675 141.07 90.8114 82.5295 75.0361 73.6851 58.8455 43.7244
threshold=0.0066780010238289842 0.53125000000000011 0.76874998211860668 0.014999999664723875 0.078048408031463637 0.11977272480726243 0.26886364817619329 0.044999999925494201 0.28499999642372137 0.50040915608406078 0.0043436905834823855 0.25977271795272833 0.015681818127632145 -0.14500000327825543 0.67500001192092907
decision_type=2 2 2 2 2 2 2 2 2 2 2 2 2 2 2
left_child=1 3 12 11 7 13 -7 9 -9 -2 -4 -1 -3 -6 -5
right_child=4 2 10 14 5 6 -8 8 -10 -11 -12 -13 -14 -15 -16
leaf_value=0.0028719265711009989 -0.0080553862337729761 -0.024973639219517521 0.03738698782795942 -0.080735713687351149 -0.11431309739669795 0.0072086755662008339 -0.00051111244496116631 0.018692229763626434 -0.031840414371061658 -0.066652283827296363 0.092915203676718044 0.0705473269683769 0.018794215900339566 -0.03601085339314674 -0.025296525446138359
leaf_weight=3141.5 7002.5 108.25 146.75 54.75 47.25 9228 76663.5 792.75 167.25 66.75 123 41.5 861.25 48.75 101.5
leaf_count=1838 3443 76 49 17 14 4467 40710 230 67 19 19 7 380 37 38
internal_value=4.23699e-05 0.0077231 0.0245295 0.00148596 -0.000331672 0.000234699 0.000318285 -0.0063971 0.0098885 -0.00860868 0.0627066 0.00375428 0.0139073 -0.0745502 -0.0447224
internal_weight=98595.2 4578.5 1239.25 3339.25 94016.8 85987.5 85891.5 8029.25 960 7069.25 269.75 3183 969.5 96 156.25
internal_count=51411 2424 524 1900 48987 45228 45177 3759 297 3462 68 1845 456 51 55
is_linear=0
shrinkage=0.05


Tree=48
num_leaves=15
num_cat=0
split_feature=16 15 9 8 14 14 24 19 8 15 8 15 6 25
split_gain=91.5176 99.4862 121.285 95.6036 92.558 75.034 69.1349 65.9819 65.748 46.5241 38.9 37.2031 25.7212 23.389
threshold=-0.28124999999999994 0.41875000298023229 0.074999999254941954 -0.26327538490295405 0.18750000000000003 0.052500000223517425 1.0000000180025095e-35 1.0000000180025095e-35 0.052638929337263114 0.11875000223517419 -0.087149199098348604 0.11875000223517419 -0.048882372677326195 0.16499999910593036
decision_type=2 2 2 2 2 2 2 2 2 2 2 2 2 2
left_child=8 3 5 4 -2 -3 -4 -5 9 10 -1 13 -11 -10
right_child=1 2 6 7 -6 -7 -8 -9 11 12 -12 -13 -14 -15
leaf_value=-0.026537479172029355 0.012864165247107477 -0.0092635629583527994 -7.2287980148868475e-05 -0.00098622975496868623 -0.017706119409849366 0.018520975789639373 -0.011801318858514744 0.0026060487350664636 -0.011847946306599882 -0.0060733308619324196 0.0025489551649910016 -0.057780061659939368 0.040093681462197522 -0.035178123647670916
leaf_weight=203.75 2813 5862 34738.75 21837.25 271.5 253.5 1303.5 30829 267 47 263.75 82.5 84.25 179.75
leaf_count=108 972 2951 21067 10665 101 80 624 14649 88 25 115 19 28 55
internal_value=6.85309e-05 0.000231674 -0.00160118 0.00161765 0.0101733 -0.00811184 -0.000496479 0.00111657 -0.014092 -0.00274284 -0.0101278 -0.0269316 0.0235615 -0.0212349
internal_weight=99036.5 97908.5 42157.8 55750.8 3084.5 6115.5 36042.2 52666.2 1128 598.75 467.5 529.25 131.25 446.75
internal_count=51547 51109 24722 26387 1073 3031 21691 25314 438 276 223 162 53 143
is_linear=0
shrinkage=0.05


Tree=49
num_leaves=16
num_cat=0
split_feature=32 32 32 31 31 31 5 32 32 31 20 26 36 31 3
split_gain=99.2873 135.93 186.442 149.895 130.431 127.309 125.898 111.404 92.7104 89.7561 84.9668 84.6368 51.5218 66.8002 46.9322
threshold=0.35445098578929907 0.28636744618415838 0.21788422018289569 0.52704542875289928 0.48931819200515753 0.4620454609394074 0.75304877758026134 0.1460138335824013 0.34757699072360998 0.47022727131843572 -1.0000000180025095e-35 0.034999999217689044 0.53125000000000011 0.44704544544219976 0.13749999925494197
decision_type=2 2 2 2 2 2 2 2 2 2 2 2 2 2 2
left_child=1 2 7 -4 6 12 -3 -1 -6 11 -11 -7 13 -2 -14
right_child=5 4 3 -5 8 9 -8 -9 -10 10 -12 -13 14 -15 -16
leaf_value=-0.0005499668563294373 -0.0021465868018661805 0.005638982555720754 -0.0056621293257376262 0.011331809605102581 -0.0041864050053042421 0.027010369476060364 0.057835825234301065 0.0055692123205603097 0.012525562702727519 -0.0064942125847668002 0.001614453501196413 -0.0061820312355119903 0.024380393170542941 -0.017370299671118458 -0.015864302260288805
leaf_weight=20455.25 3298.25 18493 18584 1395 6236.75 547.75 116.25 11688 957.25 5172.5 8605.5 295.75 74.75 922 2346.75
leaf_count=10059 1868 9596 9192 817 3792 242 54 5342 513 2855 5196 142 61 471 1336
internal_value=-3.95437e-05 0.0007868 -0.000682509 -0.00447556 0.00375478 -0.00306792 0.00596505 0.0016751 -0.00196267 -0.000460386 -0.00142968 0.0153724 -0.0088083 -0.00547252 -0.014622
internal_weight=99188.8 77925.5 52122.2 19979 25803.2 21263.2 18609.2 32143.2 7194 14621.5 13778 843.5 6641.75 4220.25 2421.5
internal_count=51536 39365 25410 10009 13955 12171 9650 15401 4305 8435 8051 384 3736 2339 1397
is_linear=0
shrinkage=0.05


Tree=50
num_leaves=13
num_cat=0
split_feature=32 31 26 20 1 1 5 31 23 31 9 25
split_gain=106.007 142.209 116.388 117.69 114.891 116.037 99.8793 96.1418 83.0408 117.315 77.9463 74.7063
threshold=0.0066780010238289842 0.22522726655006411 0.044999999925494201 -1.0000000180025095e-35 0.48437500000000006 0.35937500000000006 6.4583338676982307e-11 0.14568181335926059 0.31250000000000006 0.46568182110786444 0.25499999523162847 0.24499999731779101
decision_type=2 2 2 2 2 2 2 2 2 2 2 2
left_child=1 4 3 6 5 -1 -2 -5 9 -4 -6 -10
right_child=2 -3 8 7 10 -7 -8 -9 11 -11 -12 -13
leaf_value=0.0061872940925000886 0.027613623088341834 0.061390546497545745 0.00089407243196212177 -0.009977336256348876 -0.05155971146222809 -0.022135657173286236 -0.0021283893073648966 0.0025461233089598533 -0.006846711450121435 -0.0090614354493306539 0.012859766364700504 -0.023374785484406201
leaf_weight=893.5 284.75 118.75 9562.25 1590.25 47.75 607.5 32495.75 42209 3392.25 4285.25 2827.75 856.25
leaf_count=397 75 23 5204 921 19 365 16015 22830 1316 2541 1573 251
internal_value=-0.000100292 0.00740188 -0.000456499 0.000395695 0.00593697 -0.00527586 -0.00187003 0.00209143 -0.00406286 -0.00218676 0.01179 -0.0101778
internal_weight=99171 4495.25 94675.8 76579.8 4376.5 1501 32780.5 43799.2 18096 13847.5 2875.5 4248.5
internal_count=51530 2377 49153 39841 2354 762 16090 23751 9312 7745 1592 1567
is_linear=0
shrinkage=0.05


Tree=51
num_leaves=16
num_cat=0
split_feature=32 10 6 32 32 19 32 32 3 23 32 35 26 9 16
split_gain=91.167 90.7889 91.8838 86.9826 148.69 80.8614 73.0965 63.9149 85.2186 100.002 60.7855 60.273 58.4339 57.8617 17.2035
threshold=0.38453797996044164 0.044999999925494201 -0.089192125946283327 1.2539676328554574e-11 0.02334484085440636 1.0000000180025095e-35 0.28415288031101232 0.39381062984466558 0.74791666865348827 0.31250000000000006 0.44255866110324865 0.86607143282890331 0.034999999217689044 0.054999999701976783 -0.16875000298023221
decision_type=2 2 2 2 2 2 2 2 2 2 2 2 2 2 2
left_child=1 2 6 11 -5 -4 -1 8 9 -2 12 -3 -9 -12 -10
right_child=7 3 5 4 -6 -7 -8 10 14 -11 13 -13 -14 -15 -16
leaf_value=-0.0098537282958784805 -0.013565257025190507 -0.040587591926184746 -0.0013982278795214192 0.037390809311900933 0.0042137313729006488 0.0021812942144506108 -0.00061805193357791256 0.0034800859341055528 -0.051917032688630349 0.01351630387929716 0.004964500851198139 0.015030554764800603 -0.0057175672341153181 -0.011408605994320281 -0.027230183242340923
leaf_weight=3946.5 1478.75 175 27536 347.25 12295.25 36946.25 4686.5 4921.5 99 443 684.75 67.5 2660.25 2545.5 245.75
leaf_count=1719 869 73 13914 95 4763 20991 2273 3071 27 174 337 25 1428 1597 129
internal_value=9.46902e-05 0.000686153 4.16875e-06 0.00455604 0.005125 0.000652723 -0.00484006 -0.00379459 -0.0114289 -0.00732244 -0.00219424 -0.0251063 0.000252855 -0.00793783 -0.0343194
internal_weight=99078.8 86000.2 73115.2 12885 12642.5 64482.2 8633 13078.5 2266.5 1921.75 10812 242.5 7581.75 3230.25 344.75
internal_count=51485 43853 38897 4956 4858 34905 3992 7632 1199 1043 6433 98 4499 1934 156
is_linear=0
shrinkage=0.05


Tree=52
num_leaves=16
num_cat=0
split_feature=31 31 24 1 24 32 3 23 23 32 20 25 9 9 1
split_gain=100.59 149.815 220.025 152.565 166.731 135.968 124.298 118.069 97.9809 103.259 92.2991 86.016 78.5763 67.2942 66.5332
threshold=0.27886363863945013 0.18750000000000003 -1.0000000180025095e-35 0.48437500000000006 -1.0000000180025095e-35 0.046750370413064964 0.827083319425583 0.43750000000000006 0.43750000000000006 0.078048408031463637 -1.0000000180025095e-35 0.24499999731779101 0.044999999925494201 0.11499999836087228 0.20312500000000003
decision_type=2 2 2 2 2 2 2 2 2 2 2 2 2 2 2
left_child=1 3 7 6 -5 -4 -1 -3 9 13 -11 12 -10 -2 -13
right_child=8 2 5 4 -6 -7 -8 -9 11 10 -12 14 -14 -15 -16
leaf_value=-0.016488640104977859 0.031746376838511343 0.022478713673209777 -0.015623121864439763 -0.039500745003531568 0.0050987891885469231 0.0068295602505922806 0.00011502737289314481 0.069612191824210176 0.0034951695104568966 -0.0021105377390204516 0.0017273273222313604 0.0052181675671127397 -0.0069391220438314409 -0.038504501536134689 -0.04694083744393928
leaf_weight=2225.75 39.25 572.75 722.25 216.25 6768 10151.75 2283.75 173 2381.5 25937.75 39559 86.25 7444.25 259.25 210
leaf_count=1156 12 153 334 63 3878 4672 913 26 941 13493 22825 51 2782 112 70
internal_value=0.000248485 0.0031365 0.00714007 -0.000910958 0.00371788 0.00533826 -0.00808003 0.0334128 -0.00063079 7.37514e-05 0.000207472 -0.00521046 -0.00441013 -0.0292672 -0.0317553
internal_weight=99030.8 23113.5 11619.8 11493.8 6984.25 10874 4509.5 745.75 75917.2 65795.2 65496.8 10122 9825.75 298.5 296.25
internal_count=51481 11195 5185 6010 3941 5006 2069 179 40286 36442 36318 3844 3723 124 121
is_linear=0
shrinkage=0.05


Tree=53
num_leaves=13
num_cat=0
split_feature=24 20 26 9 27 5 27 9 1 27 25 5
split_gain=88.0386 81.7078 107.002 97.4531 79.1322 74.2146 83.5383 77.508 18.2088 21.2127 16.9677 9.75882
threshold=-0.31249999999999994 -1.0000000180025095e-35 0.044999999925494201 0.095000002533197417 0.016433453187346462 6.4583338676982307e-11 -0.016763175837695595 0.49500000476837164 0.17187500000000003 -0.03637364134192466 0.13999999687075618 0.19163509458303454
decision_type=2 2 2 2 2 2 2 2 2 2 2 2
left_child=8 5 4 -4 -3 6 -2 -7 -1 11 -11 -10
right_child=1 2 3 -5 -6 7 -8 -9 9 10 -12 -13
leaf_value=-0.0045970212914966261 -0.0061516311395879292 0.00074861538039744835 -0.010564668712839427 -0.00037774907415231155 0.0050820375130962636 -0.0026642007366483597 0.045151062212149866 0.0046518824256348273 0.016395283454251522 0.021439258385660517 0.044961873421394141 -0.0072691263544638427
leaf_weight=79.25 143.5 28359.25 3077.5 9900.75 16761.5 35677 177.5 4029 103 331.25 99.75 75.5
leaf_count=24 58 16149 1287 5627 8468 17014 39 2647 31 84 17 19
internal_value=0.000135056 1.00205e-05 0.00120759 -0.00279335 0.0023584 -0.00172825 0.0222167 -0.00192183 0.0179489 0.0208804 0.0268833 0.00638597
internal_weight=98814.8 98126 58099 12978.2 45120.8 40027 321 39706 688.75 609.5 431 178.5
internal_count=51464 51289 31531 6914 24617 19758 97 19661 175 151 101 50
is_linear=0
shrinkage=0.05


Tree=54
num_leaves=16
num_cat=0
split_feature=32 24 26 16 24 31 31 1 31 10 32 32 10 9 32
split_gain=89.9052 88.0605 72.7778 77.6675 70.9488 45.0946 48.1066 46.3472 43.8325 37.6293 24.5802 38.6404 25.9067 23.2134 19.3117
threshold=0.44255866110324865 -0.31249999999999994 0.12499999627470972 0.39374999701976782 0.18750000000000003 0.4984090924263001 0.50022727251052868 0.17187500000000003 0.48431818187236791 -0.044999999925494187 0.15197028964757922 0.35033941268920904 0.25499999523162847 0.054999999701976783 0.4755412638187409
decision_type=2 2 2 2 2 2 2 2 2 2 2 2 2 2 2
left_child=1 10 4 -4 -3 7 13 8 -2 -8 12 -12 -1 -7 -9
right_child=5 2 3 -5 -6 6 9 14 -10 -11 11 -13 -14 -15 -16
leaf_value=0.017796392867844457 -0.020210772222312896 0.00057442274023488803 -0.014776016786332667 -0.00023916073378452184 -0.0040042337331824872 0.066602167373395152 -0.015503067349269362 -0.027806519452598617 0.036046160272449904 -0.0019325749710550834 -0.00081527762088950701 0.027918837588242814 0.052056320058049971 0.0087130067521566847 -0.0072668754264064456
leaf_weight=147.25 69 82449.75 1730.5 1959 9428.25 32.75 746.25 561.25 69.5 1619.25 286 198 88.25 36.75 143.75
leaf_count=32 50 44367 750 819 3596 5 350 253 25 1130 102 32 21 49 76
internal_value=-0.000317966 -4.07227e-05 -0.000171924 -0.00705744 0.000104574 -0.0084604 -0.00500906 -0.0184237 0.00801924 -0.00621369 0.017386 0.0109396 0.0306348 0.0359917 -0.0236185
internal_weight=99565.5 96287 95567.5 3689.5 91878 3278.5 2435 843.5 138.5 2365.5 719.5 484 235.5 69.5 705
internal_count=51657 49719 49532 1569 47963 1938 1534 404 75 1480 187 134 53 54 329
is_linear=0
shrinkage=0.05


Tree=55
num_leaves=12
num_cat=0
split_feature=32 32 31 31 31 31 31 10 35 3 28
split_gain=85.5002 131.127 202.547 193.509 125.593 101.914 114.49 66.6503 80.3847 55.1639 52.3433
threshold=0.0066780010238289842 0.078048408031463637 0.11977272480726243 0.27295455336570745 0.22522726655006411 0.37159091234207159 0.24113635718822482 0.034999999217689044 0.86607143282890331 0.36041666567325598 0.26694186031818395
decision_type=2 2 2 2 2 2 2 2 2 2 2
left_child=4 5 10 -4 7 6 -2 9 -9 -1 -3
right_child=1 2 3 -5 -6 -7 -8 8 -10 -11 -12
leaf_value=-0.0063259272681862322 -0.0046765443525128127 -0.036271627398119087 0.0068563521710964309 -0.00059844126741611541 0.057542292666384734 0.068299193618541268 -0.022774556195886371 -0.037636333030557426 0.019247529987494152 0.0093988151495580635 -0.10851258726712938
leaf_weight=664.75 6952.25 52.5 9821.25 76591.25 118 45.25 999.5 184 93.75 3464.5 48
leaf_count=611 3400 35 4729 40604 22 12 349 85 31 1651 15
internal_value=-7.84472e-05 -0.000399909 0.00016633 0.000248836 0.00663567 -0.00652559 -0.00695138 0.00527261 -0.0184361 0.00686736 -0.0707748
internal_weight=99035 94510 86513 86412.5 4525 7997 7951.75 4407 277.75 4129.25 100.5
internal_count=51544 49144 45383 45333 2400 3761 3749 2378 116 2262 50
is_linear=0
shrinkage=0.05


Tree=56
num_leaves=15
num_cat=0
split_feature=24 4 4 1 1 32 31 32 32 6 8 10 10 1
split_gain=110.451 161.012 107.468 92.5598 76.8756 75.6768 74.1909 62.9188 66.7148 52.9025 37.7661 31.4724 49.108 19.8793
threshold=1.0000000180025095e-35 0.064583335071802153 0.058333333581686027 0.26562500000000006 0.10937500000000001 0.27404744923114782 0.50613635778427135 0.40109069645404821 0.39381062984466558 -0.28396885097026819 0.20514474809169772 0.024999999441206459 -0.024999999441206452 0.23437500000000003
decision_type=2 2 2 2 2 2 2 2 2 2 2 2 2 2
left_child=1 2 4 5 -1 -3 -5 8 9 -2 -10 12 -9 -13
right_child=7 3 -4 6 -6 -7 -8 11 10 -11 -12 13 -14 -15
leaf_value=0.009416309055953807 0.0029151603614297156 0.0056617750883681149 -0.06421656478629556 -0.00030924535012214838 7.73942553218279e-05 0.019989882086097688 0.029948368504694647 -0.019345897301207643 0.0081369513412937518 -0.0047952988849287066 0.064496619194779586 -0.059028766875143183 0.0087162409247569395 -0.023535710885133371
leaf_weight=2270 2800.25 1660.75 64.5 2823.75 75353 2070.5 218.25 574.25 64 10822 55.5 57.75 214 124.5
leaf_count=1471 1012 497 16 988 42112 648 82 223 31 4285 16 14 89 54
internal_value=0.00024508 0.0009415 0.000296894 0.00833497 0.000350501 0.0136126 0.0018616 -0.00375296 -0.002884 -0.0032103 0.0343124 -0.0160569 -0.0117274 -0.0347825
internal_weight=99173 84460.8 77687.5 6773.25 77623 3731.25 3042 14712.2 13741.8 13622.2 119.5 970.5 788.25 182.25
internal_count=51538 45814 43599 2215 43583 1145 1070 5724 5344 5297 47 380 312 68
is_linear=0
shrinkage=0.05


Tree=57
num_leaves=13
num_cat=0
split_feature=24 26 32 31 32 10 32 32 32 10 8 32
split_gain=73.3513 70.6355 64.9191 145.066 101.504 44.2765 27.076 32.1363 35.2832 23.1065 22.8326 18.1892
threshold=-0.31249999999999994 0.21999999880790713 0.35445098578929907 0.4620454609394074 0.28636744618415838 -0.12499999627470969 0.15197028964757922 0.35033941268920904 0.25945834815502172 0.25499999523162847 -0.11628320813179015 0.2332890182733536
decision_type=2 2 2 2 2 2 2 2 2 2 2 2
left_child=6 2 4 -4 -2 11 9 8 -8 -1 -7 -3
right_child=1 5 3 -5 -6 10 7 -9 -10 -11 -12 -13
leaf_value=0.017830309610820182 -0.00059320250905528027 0.0055418585841004869 -0.0085626977361400163 0.00036198187999924713 0.0032608563947257086 -0.024774443326043148 0.0096271265020873784 0.023615674514358292 -0.029993630415145828 0.050272356305803567 -0.067346378460706 -0.021371980997072257
leaf_weight=147.25 51528.75 111.75 6641.5 14481.25 25557.25 63.75 184.75 214 80.75 87.5 62.25 143.25
leaf_count=32 25157 78 3743 8409 13823 22 39 34 55 20 20 58
internal_value=4.39573e-05 -7.17071e-05 1.1652e-05 -0.00244415 0.00068458 -0.0215588 0.0160094 0.00919787 -0.00242325 0.0299227 -0.045807 -0.00957739
internal_weight=99304 98589.8 98208.8 21122.8 77086 381 714.25 479.5 265.5 234.75 126 255
internal_count=51490 51310 51132 12152 38980 178 180 128 94 52 42 136
is_linear=0
shrinkage=0.05


Tree=58
num_leaves=15
num_cat=0
split_feature=31 31 32 15 32 9 31 36 10 15 36 32 32 32
split_gain=81.7039 157.007 131.381 116.567 157.185 109.139 104.72 100.666 99.3938 94.4398 91.9755 75.4099 61.148 58.0503
threshold=0.27295455336570745 0.19795455038547519 0.019637230783700946 0.23125000298023227 0.019637230783700946 0.085000000894069686 0.052954545244574554 0.53125000000000011 -0.074999999254941926 0.081250000745058074 0.40625000000000006 0.12828824669122699 0.025773260742425922 0.44255866110324865
decision_type=2 2 2 2 2 2 2 2 2 2 2 2 2 2
left_child=1 2 7 4 -3 -5 -4 -1 9 10 -2 -11 -10 -14
right_child=8 3 6 5 -6 -7 -8 -9 12 11 -12 -13 13 -15
leaf_value=0.0001158537299401588 0.005058266716125131 0.077654497747297421 -0.056762969992870907 -0.016723596955305092 0.012848360364783274 0.0054105563032181723 -0.0054955248052603774 0.01468804167735664 0.050546712355377776 -0.017222265106456171 -0.025075559773139262 -0.0023820784349872339 0.00039267299571168687 -0.0072386270993087531
leaf_weight=4428.25 345.25 96.25 101.25 620.5 3355.75 5435.25 6134.25 1618.25 60 898.75 950 18009.75 54565.25 2611.25
leaf_count=2414 143 22 72 215 1347 2739 3189 748 15 334 387 8564 29794 1662
internal_value=-0.000206114 0.00249864 -0.00123565 0.00732254 0.0146553 0.00314259 -0.00632799 0.00401587 -0.000967163 -0.00398216 -0.0170434 -0.00308746 9.70926e-05 4.41516e-05
internal_weight=99230 21789.8 12282 9507.75 3452 6055.75 6235.5 6046.5 77440.2 20203.8 1295.25 18908.5 57236.5 57176.5
internal_count=51645 10746 6423 4323 1369 2954 3261 3162 40899 9428 530 8898 31471 31456
is_linear=0
shrinkage=0.05


Tree=59
num_leaves=16
num_cat=0
split_feature=32 28 9 7 35 14 16 1 3 36 3 28 24 11 7
split_gain=90.1447 62.3567 69.5752 64.7378 61.6862 75.792 53.7913 53.0002 34.2383 47.4025 52.1959 43.8508 35.4288 26.7999 8.95653
threshold=0.44255866110324865 -0.48688605427741999 0.074999999254941954 -0.1863984018564224 0.63068181276321422 0.23249999433755877 0.71250000596046459 0.32812500000000006 0.23958332836627963 0.59375000000000011 0.30833332240581518 0.16537823528051379 -1.0000000180025095e-35 1.0000000180025095e-35 0.076177675276994719
decision_type=2 2 2 2 2 2 2 2 2 2 2 2 2 2 2
left_child=1 2 3 -1 5 -3 -6 -4 11 12 -11 14 -10 -13 -2
right_child=8 4 7 -5 6 -7 -8 -9 9 10 -12 13 -14 -15 -16
leaf_value=0.013929125236377404 -0.0018291349814660168 0.00093207018411010109 0.0064474880902936783 -0.026715829413896781 -0.0017784133152894122 -0.02619423126464987 -0.025444178707643927 0.02548608941907057 0.019903850023828374 -0.061374766651981619 -0.0029739968335399263 0.045658693298835873 -0.010340356353117542 0.0020007192669623352 -0.020238217277550083
leaf_weight=170.25 358.5 66758.25 929.5 230.75 27187 258.5 242.25 602.5 101 93 65 80.75 2345.5 62.25 81
leaf_count=91 351 37127 280 87 11655 118 84 222 24 33 35 40 1319 69 38
internal_value=-8.16954e-05 0.000191885 0.00908177 -0.00945946 9.93785e-06 0.000827437 -0.00198742 0.0139349 -0.00835511 -0.010806 -0.0373491 0.00260334 -0.00909177 0.0266537 -0.00522194
internal_weight=99566 96379 1933 401 94446 67016.8 27429.2 1532 3187 2604.5 158 582.5 2446.5 143 439.5
internal_count=51573 49664 680 178 48984 37245 11739 502 1909 1411 68 498 1343 109 389
is_linear=0
shrinkage=0.05


end of trees

feature_importances:
Column_32=156
Column_31=127
Column_24=80
Column_10=71
Column_9=48
Column_3=46
Column_1=40
Column_26=32
Column_4=26
Column_15=26
Column_36=26
Column_8=25
Column_16=22
Column_23=17
Column_25=17
Column_5=14
Column_7=13
Column_6=10
Column_28=9
Column_27=8
Column_14=7
Column_35=7
Column_20=6
Column_12=5
Column_19=5
Column_34=5
Column_29=4
Column_0=3
Column_11=3
Column_13=3
Column_17=3
Column_22=1

parameters:
[boosting: gbdt]
[objective: regression]
[metric: rmse]
[tree_learner: serial]
[device_type: cpu]
[data_sample_strategy: bagging]
[data: ]
[valid: ]
[num_iterations: 60]
[learning_rate: 0.05]
[num_leaves: 31]
[num_threads: 4]
[seed: 20260607]
[deterministic: 0]
[force_col_wise: 0]
[force_row_wise: 0]
[histogram_pool_size: -1]
[max_depth: 4]
[min_data_in_leaf: 20]
[min_sum_hessian_in_leaf: 0.001]
