{"learner":{"attributes":{},"feature_names":["candidate_index_norm","valid_candidates_norm","is_j_total","energy_norm","energy_delta","fragmentation_after","fragmentation_delta","delta_fragmentation","delta_fragmentation_delta","largest_free_block_norm","largest_free_block_delta_norm","small_gap_penalty","small_gap_delta","delay_norm","delay_delta_norm","qot_margin","qot_margin_delta","qot_risk","qot_risk_delta","compactness","compactness_delta","route_length_norm","route_length_delta_norm","hop_count_norm","hop_count_delta_norm","width_norm","width_delta_norm","j_total","j_total_delta","request_bit_rate_norm","request_holding_norm","global_load","global_fragmentation","is_base_runtime","energy_rank_norm","energy_rank_delta","pool_size_norm","risk_head_win_prob","risk_head_loss_prob","risk_head_loss_percentile","risk_head_delta_pred","risk_ranker_score","risk_ranker_delta_vs_base","risk_ranker_margin_to_next"],"feature_types":[],"gradient_booster":{"model":{"cats":{"enc":[],"feature_segments":[],"sorted_idx":[]},"gbtree_model_param":{"num_parallel_tree":"1","num_trees":"60"},"iteration_indptr":[0,1,2,3,4,5,6,7,8,9,10,11,12,13,14,15,16,17,18,19,20,21,22,23,24,25,26,27,28,29,30,31,32,33,34,35,36,37,38,39,40,41,42,43,44,45,46,47,48,49,50,51,52,53,54,55,56,57,58,59,60],"tree_info":[0,0,0,0,0,0,0,0,0,0,0,0,0,0,0,0,0,0,0,0,0,0,0,0,0,0,0,0,0,0,0,0,0,0,0,0,0,0,0,0,0,0,0,0,0,0,0,0,0,0,0,0,0,0,0,0,0,0,0,0],"trees":[{"base_weights":[4.6623814E-1,-1.2667499E0,6.314012E-1,-2.8320732E0,-6.710459E-1,3.2456318E-1,8.3540463E-1,-2.1389112E0,-4.078901E0,-4.9264976E-1,-1.4871032E0,-2.7806142E-2,4.1484055E-1,9.9858946E-1,7.5668186E-1,-1.688136E-1,-5.641234E-2,-2.776065E-1,-1.4829554E-1,-1.4215003E-1,-2.0627825E-2,-1.0123842E-1,-1.1832486E-2,2.8469632E-4,-2.0257376E-1,1.5903248E-2,3.0841354E-2,5.340875E-2,4.7735166E-2,3.0936642E-2,4.0344037E-2],"categories":[],"categories_nodes":[],"categories_segments":[],"categories_sizes":[],"default_left":[0,0,0,0,0,0,0,0,0,0,0,0,0,0,0,0,0,0,0,0,0,0,0,0,0,0,0,0,0,0,0],"id":0,"left_children":[1,3,5,7,9,11,13,15,17,19,21,23,25,27,29,-1,-1,-1,-1,-1,-1,-1,-1,-1,-1,-1,-1,-1,-1,-1,-1],"loss_changes":[1.6394926E4,4.645664E3,3.2731133E3,1.1784219E3,5.250404E2,6.643855E2,4.0274414E2,1.1028313E3,7.8647266E2,5.5700964E2,4.3477246E2,5.7429913E2,3.2479126E2,3.0186523E1,1.4625586E2,0E0,0E0,0E0,0E0,0E0,0E0,0E0,0E0,0E0,0E0,0E0,0E0,0E0,0E0,0E0,0E0],"parents":[2147483647,0,0,1,1,2,2,3,3,4,4,5,5,6,6,7,7,8,8,9,9,10,10,11,11,12,12,13,13,14,14],"right_children":[2,4,6,8,10,12,14,16,18,20,22,24,26,28,30,-1,-1,-1,-1,-1,-1,-1,-1,-1,-1,-1,-1,-1,-1,-1,-1],"split_conditions":[7.167011E-1,6.5897477E-1,8.3053833E-1,3.359091E-1,1.19066864E-1,7.447935E-1,-3.7550318E-1,5.967251E-1,6.2551534E-1,-1.7759563E-1,2E-2,3.5E-1,1E-2,-4.8054892E-1,8.522744E-1,-1.688136E-1,-5.641234E-2,-2.776065E-1,-1.4829554E-1,-1.4215003E-1,-2.0627825E-2,-1.0123842E-1,-1.1832486E-2,2.8469632E-4,-2.0257376E-1,1.5903248E-2,3.0841354E-2,5.340875E-2,4.7735166E-2,3.0936642E-2,4.0344037E-2],"split_indices":[38,38,38,31,27,38,40,38,38,6,10,6,10,40,38,0,0,0,0,0,0,0,0,0,0,0,0,0,0,0,0],"split_type":[0,0,0,0,0,0,0,0,0,0,0,0,0,0,0,0,0,0,0,0,0,0,0,0,0,0,0,0,0,0,0],"sum_hessian":[5.727594E4,4.983148E3,5.2292797E4,1.3726086E3,3.610539E3,2.0884053E4,3.1408742E4,8.8391815E2,4.8869043E2,2.9641565E3,6.463826E2,4.259424E3,1.6624629E4,1.0217387E4,2.1191357E4,3.963386E2,4.8757956E2,2.0859349E2,2.8009695E2,9.6544525E1,2.867612E3,4.5159036E2,1.947923E2,4.225244E3,3.417975E1,1.1241286E4,5.3833423E3,3.9426338E3,6.2747524E3,5.6575215E3,1.5533835E4],"tree_param":{"num_deleted":"0","num_feature":"44","num_nodes":"31","size_leaf_vector":"1"}},{"base_weights":[4.5011425E-1,-1.0900162E0,6.0998046E-1,-2.2714803E0,-5.9122217E-1,3.23623E-1,8.207618E-1,-2.9957418E0,-1.2249907E0,-3.8328774E0,-5.560646E-1,8.266553E-2,4.487197E-1,9.8209906E-1,7.389273E-1,-1.2765597E-1,-2.3910658E-1,-1.5663193E-1,-1.3755654E-2,-2.6193145E-1,3.0415496E-2,-6.853278E-2,-2.2380395E-2,8.891515E-3,-2.669235E-2,1.7825017E-2,3.383581E-2,-1.6172832E-1,4.914543E-2,2.9902462E-2,3.8955E-2],"categories":[],"categories_nodes":[],"categories_segments":[],"categories_sizes":[],"default_left":[0,0,0,0,0,0,0,0,0,0,0,0,0,0,0,0,0,0,0,0,0,0,0,0,0,0,0,0,0,0,0],"id":1,"left_children":[1,3,5,7,9,11,13,15,17,19,21,23,25,27,29,-1,-1,-1,-1,-1,-1,-1,-1,-1,-1,-1,-1,-1,-1,-1,-1],"loss_changes":[1.3873712E4,3.1214092E3,3.0808887E3,1.1883242E3,4.226681E2,6.5241187E2,3.8748047E2,7.2214746E2,1.1677983E3,2.5180109E2,3.2525818E2,4.341559E2,2.9932886E2,3.694922E1,1.0995996E2,0E0,0E0,0E0,0E0,0E0,0E0,0E0,0E0,0E0,0E0,0E0,0E0,0E0,0E0,0E0,0E0],"parents":[2147483647,0,0,1,1,2,2,3,3,4,4,5,5,6,6,7,7,8,8,9,9,10,10,11,11,12,12,13,13,14,14],"right_children":[2,4,6,8,10,12,14,16,18,20,22,24,26,28,30,-1,-1,-1,-1,-1,-1,-1,-1,-1,-1,-1,-1,-1,-1,-1,-1],"split_conditions":[2.6576442E-1,1.1727931E-1,7.058063E-1,8E-1,-2.3E-1,4.5041475E-1,-3.7550318E-1,2.7370479E-2,3.599057E-2,6.25E-1,9E-2,3E-2,1E-2,-2.4110818E0,7.710469E-1,-1.2765597E-1,-2.3910658E-1,-1.5663193E-1,-1.3755654E-2,-2.6193145E-1,3.0415496E-2,-6.853278E-2,-2.2380395E-2,8.891515E-3,-2.669235E-2,1.7825017E-2,3.383581E-2,-1.6172832E-1,4.914543E-2,2.9902462E-2,3.8955E-2],"split_indices":[39,39,39,9,10,39,40,7,39,36,9,26,10,43,39,0,0,0,0,0,0,0,0,0,0,0,0,0,0,0,0],"split_type":[0,0,0,0,0,0,0,0,0,0,0,0,0,0,0,0,0,0,0,0,0,0,0,0,0,0,0,0,0,0,0],"sum_hessian":[5.6344297E4,5.2980215E3,5.1046277E4,1.5716924E3,3.7263293E3,2.1644127E4,2.9402148E4,9.2774786E2,6.439446E2,3.882159E1,3.6875076E3,7.397312E3,1.4246815E4,9.890988E3,1.951116E4,7.4546875E2,1.8227911E2,2.1329149E2,4.3065308E2,2.9351515E1,9.470074E0,4.3190912E2,3.2555986E3,6.408767E3,9.885448E2,1.0145683E4,4.1011323E3,1.1319103E0,9.889855E3,4.3327812E3,1.517838E4],"tree_param":{"num_deleted":"0","num_feature":"44","num_nodes":"31","size_leaf_vector":"1"}},{"base_weights":[4.318722E-1,-6.441995E-1,6.3626677E-1,-1.9806815E0,-3.2458866E-1,4.1345033E-1,8.4203255E-1,-3.8161156E0,-1.7221808E0,-2.5551006E-1,-3.1115562E-1,3.4291562E-1,5.9592915E-1,9.666197E-1,7.6485276E-1,-4.278488E-2,-2.0282988E-1,-6.4030014E-2,-1.5484335E-1,-3.9519425E-2,-1.061806E-2,4.407726E-3,2.228551E-2,3.0528307E-2,-4.9287736E-2,5.314995E-2,4.6894398E-2,-2.2863486E-1,3.830641E-2],"categories":[],"categories_nodes":[],"categories_segments":[],"categories_sizes":[],"default_left":[0,0,0,0,0,0,0,0,0,0,0,0,0,0,0,0,0,0,0,0,0,0,0,0,0,0,0,0,0],"id":2,"left_children":[1,3,5,7,9,11,13,15,17,-1,19,21,23,25,27,-1,-1,-1,-1,-1,-1,-1,-1,-1,-1,-1,-1,-1,-1],"loss_changes":[1.2203629E4,3.782686E3,2.1374258E3,8.043462E2,4.579807E2,2.8795605E2,2.323457E2,1.4615771E2,9.065625E2,0E0,3.3740472E2,4.228767E2,1.4506445E2,2.4668945E1,1.0542871E2,0E0,0E0,0E0,0E0,0E0,0E0,0E0,0E0,0E0,0E0,0E0,0E0,0E0,0E0],"parents":[2147483647,0,0,1,1,2,2,3,3,4,4,5,5,6,6,7,7,8,8,10,10,11,11,12,12,13,13,14,14],"right_children":[2,4,6,8,10,12,14,16,18,-1,20,22,24,26,28,-1,-1,-1,-1,-1,-1,-1,-1,-1,-1,-1,-1,-1,-1],"split_conditions":[7.398086E-1,6.5897477E-1,8.5180396E-1,4.7344953E-1,-2.1979861E-1,1E-2,-3.7550318E-1,-8.333333E-1,2.3529412E-1,-2.5551006E-1,6.840639E-1,7.790512E-1,4.119871E-1,-5.2549434E-1,-4.5E-1,-4.278488E-2,-2.0282988E-1,-6.4030014E-2,-1.5484335E-1,-3.9519425E-2,-1.061806E-2,4.407726E-3,2.228551E-2,3.0528307E-2,-4.9287736E-2,5.314995E-2,4.6894398E-2,-2.2863486E-1,3.830641E-2],"split_indices":[38,38,38,38,40,10,40,35,5,0,38,38,40,40,16,0,0,0,0,0,0,0,0,0,0,0,0,0,0],"split_type":[0,0,0,0,0,0,0,0,0,0,0,0,0,0,0,0,0,0,0,0,0,0,0,0,0,0,0,0,0],"sum_hessian":[5.5482496E4,8.856057E3,4.662644E4,1.7081354E3,7.147922E3,2.2387176E4,2.4239266E4,2.0917398E2,1.4989614E3,1.8945755E1,7.128976E3,1.614819E4,6.238985E3,9.267582E3,1.4971683E4,1.6057592E1,1.9311638E2,1.1359878E3,3.629736E2,1.2172633E3,5.9117124E3,4.6430176E3,1.1505172E4,6.1823867E3,5.6598194E1,2.1200366E3,7.1475454E3,2.7203174E0,1.4968963E4],"tree_param":{"num_deleted":"0","num_feature":"44","num_nodes":"29","size_leaf_vector":"1"}},{"base_weights":[4.1501638E-1,-9.252196E-1,5.7320684E-1,-2.313586E0,-6.59742E-1,2.8858426E-1,7.742731E-1,-3.5344212E0,-1.7176179E0,-4.736925E-1,-1.4449335E0,-3.1825606E-2,3.7058002E-1,6.492158E-1,8.879805E-1,-9.516012E-2,-1.8444918E-1,-1.3336173E-1,-4.3099474E-2,-2.212023E-2,-2.4182735E-1,3.687966E-2,-8.161312E-2,-3.0976956E-4,-2.4650712E-1,1.8642439E-2,-2.5715235E-1,3.586396E-2,2.8115455E-2,4.8308995E-2,4.0481146E-2],"categories":[],"categories_nodes":[],"categories_segments":[],"categories_sizes":[],"default_left":[0,0,0,0,0,0,0,0,0,0,0,0,0,0,0,0,0,0,0,0,0,0,0,0,0,0,0,0,0,0,0],"id":3,"left_children":[1,3,5,7,9,11,13,15,17,19,21,23,25,27,29,-1,-1,-1,-1,-1,-1,-1,-1,-1,-1,-1,-1,-1,-1,-1,-1],"loss_changes":[1.1584306E4,2.124625E3,2.7964912E3,6.67353E2,7.069375E2,5.3157227E2,4.066543E2,6.9289795E1,5.0463013E2,5.326188E2,3.8037476E2,5.176701E2,2.0344214E2,8.029199E1,9.111133E1,0E0,0E0,0E0,0E0,0E0,0E0,0E0,0E0,0E0,0E0,0E0,0E0,0E0,0E0,0E0,0E0],"parents":[2147483647,0,0,1,1,2,2,3,3,4,4,5,5,6,6,7,7,8,8,9,9,10,10,11,11,12,12,13,13,14,14],"right_children":[2,4,6,8,10,12,14,16,18,20,22,24,26,28,30,-1,-1,-1,-1,-1,-1,-1,-1,-1,-1,-1,-1,-1,-1,-1,-1],"split_conditions":[7.1808964E-1,6.169796E-1,8.3053833E-1,7.2E-1,1.000734E-1,7.447935E-1,8.732112E-1,-1.0292358E-1,5.3653926E-1,1.25E-1,-1.25E-1,3.272727E-1,4.8778293E-1,-2.0012246E-1,-3.8776636E-1,-9.516012E-2,-1.8444918E-1,-1.3336173E-1,-4.3099474E-2,-2.212023E-2,-2.4182735E-1,3.687966E-2,-8.161312E-2,-3.0976956E-4,-2.4650712E-1,1.8642439E-2,-2.5715235E-1,3.586396E-2,2.8115455E-2,4.8308995E-2,4.0481146E-2],"split_indices":[38,38,38,9,27,38,38,40,38,24,24,8,32,40,40,0,0,0,0,0,0,0,0,0,0,0,0,0,0,0,0],"split_type":[0,0,0,0,0,0,0,0,0,0,0,0,0,0,0,0,0,0,0,0,0,0,0,0,0,0,0,0,0,0,0],"sum_hessian":[5.4636223E4,5.767491E3,4.886873E4,9.245682E2,4.842923E3,2.0231768E4,2.8636963E4,3.0166977E2,6.228984E2,3.9165159E3,9.2640717E2,4.1226294E3,1.6109139E4,1.3641035E4,1.4995927E4,2.7262362E1,2.744074E2,2.942304E2,3.28668E2,3.8897224E3,2.6793447E1,7.29971E1,8.5341003E2,4.102166E3,2.046313E1,1.6103445E4,5.6939516E0,7.645781E3,5.995255E3,7.4998726E3,7.496054E3],"tree_param":{"num_deleted":"0","num_feature":"44","num_nodes":"31","size_leaf_vector":"1"}},{"base_weights":[4.1077265E-1,-6.7266685E-1,5.854345E-1,-1.6255065E0,-3.5931093E-1,3.2699397E-1,7.6949394E-1,-2.456251E0,-1.1476525E0,-1.2649186E0,-2.4356335E-1,1.4414066E-1,4.1749358E-1,6.379226E-1,8.765372E-1,-1.3953136E-1,-4.5961145E-2,-1.1210113E-1,-2.3577955E-2,-2.4086945E-1,-5.529654E-2,-2.2838266E-1,-1.0936586E-2,1.0864153E-2,-3.7208658E-2,2.7088752E-2,1.7149288E-2,4.2130943E-2,3.0947581E-2,4.732261E-2,4.032526E-2],"categories":[],"categories_nodes":[],"categories_segments":[],"categories_sizes":[],"default_left":[0,0,0,0,0,0,0,0,0,0,0,0,0,0,0,0,0,0,0,0,0,0,0,0,0,0,0,0,0,0,0],"id":4,"left_children":[1,3,5,7,9,11,13,15,17,19,21,23,25,27,29,-1,-1,-1,-1,-1,-1,-1,-1,-1,-1,-1,-1,-1,-1,-1,-1],"loss_changes":[1.028355E4,2.2520498E3,2.2258076E3,7.382637E2,5.949459E2,3.2208472E2,3.8436328E2,3.473413E2,8.77203E2,3.580166E2,5.397806E2,4.1901593E2,1.2039307E2,4.7104004E1,7.3012695E1,0E0,0E0,0E0,0E0,0E0,0E0,0E0,0E0,0E0,0E0,0E0,0E0,0E0,0E0,0E0,0E0],"parents":[2147483647,0,0,1,1,2,2,3,3,4,4,5,5,6,6,7,7,8,8,9,9,10,10,11,11,12,12,13,13,14,14],"right_children":[2,4,6,8,10,12,14,16,18,20,22,24,26,28,30,-1,-1,-1,-1,-1,-1,-1,-1,-1,-1,-1,-1,-1,-1,-1,-1],"split_conditions":[7.295755E-1,6.5897477E-1,8.347097E-1,5.9E-1,9E-2,7.6225764E-1,8.72732E-1,1E0,5.621241E-1,6.8679017E-1,-1.9739554E0,7E-1,-1.956213E-13,-3.6802703E-1,-3.839902E-1,-1.3953136E-1,-4.5961145E-2,-1.1210113E-1,-2.3577955E-2,-2.4086945E-1,-5.529654E-2,-2.2838266E-1,-1.0936586E-2,1.0864153E-2,-3.7208658E-2,2.7088752E-2,1.7149288E-2,4.2130943E-2,3.0947581E-2,4.732261E-2,4.032526E-2],"split_indices":[38,38,38,9,9,38,38,1,38,37,43,15,6,40,40,0,0,0,0,0,0,0,0,0,0,0,0,0,0,0,0],"split_type":[0,0,0,0,0,0,0,0,0,0,0,0,0,0,0,0,0,0,0,0,0,0,0,0,0,0,0,0,0,0,0],"sum_hessian":[5.4339523E4,7.543544E3,4.679598E4,1.8658269E3,5.6777173E3,1.9466113E4,2.7329865E4,6.798223E2,1.1860045E3,6.4231604E2,5.035401E3,6.445551E3,1.3020562E4,1.2263388E4,1.5066479E4,5.57684E2,1.2213827E2,4.520195E2,7.3398505E2,2.6259752E1,6.1605634E2,2.7706743E1,5.0076943E3,5.955906E3,4.8964478E2,4.877861E3,8.142701E3,1.036472E3,1.1226916E4,7.533282E3,7.533196E3],"tree_param":{"num_deleted":"0","num_feature":"44","num_nodes":"31","size_leaf_vector":"1"}},{"base_weights":[3.882576E-1,-4.852102E-1,5.911511E-1,-1.2726717E0,-1.662956E-1,3.878945E-1,7.859518E-1,-1.0072321E0,-2.114984E0,-2.1074364E-2,-5.3600734E-1,3.2505506E-1,5.6130874E-1,9.3165773E-1,7.058061E-1,-1.0365472E-1,-3.6406457E-2,-9.400856E-2,-1.9552472E-1,-5.1500153E-4,-2.518637E-1,-1.463644E-1,-2.218095E-2,5.011399E-3,2.0826705E-2,2.8792003E-2,-4.365663E-2,5.139144E-2,4.4975057E-2,3.1988945E-2,3.8659196E-2],"categories":[],"categories_nodes":[],"categories_segments":[],"categories_sizes":[],"default_left":[0,0,0,0,0,0,0,0,0,0,0,0,0,0,0,0,0,0,0,0,0,0,0,0,0,0,0,0,0,0,0],"id":5,"left_children":[1,3,5,7,9,11,13,15,17,19,21,23,25,27,29,-1,-1,-1,-1,-1,-1,-1,-1,-1,-1,-1,-1,-1,-1,-1,-1],"loss_changes":[9.422751E3,2.516811E3,1.7080488E3,6.437783E2,3.8305438E2,2.2993262E2,2.5660547E2,6.5253296E2,2.841184E2,2.7686267E2,4.4322833E2,3.18797E2,1.1755005E2,2.3242188E1,6.275293E1,0E0,0E0,0E0,0E0,0E0,0E0,0E0,0E0,0E0,0E0,0E0,0E0,0E0,0E0,0E0,0E0],"parents":[2147483647,0,0,1,1,2,2,3,3,4,4,5,5,6,6,7,7,8,8,9,9,10,10,11,11,12,12,13,13,14,14],"right_children":[2,4,6,8,10,12,14,16,18,20,22,24,26,28,30,-1,-1,-1,-1,-1,-1,-1,-1,-1,-1,-1,-1,-1,-1,-1,-1],"split_conditions":[7.437466E-1,6.7894053E-1,8.5180396E-1,-1.1570834E-2,6.266206E-2,1E-2,-3.8776636E-1,5.621241E-1,2.2483969E0,5.788794E-1,-1.25E-1,7.813382E-1,4.119871E-1,-5.2549434E-1,8.732112E-1,-1.0365472E-1,-3.6406457E-2,-9.400856E-2,-1.9552472E-1,-5.1500153E-4,-2.518637E-1,-1.463644E-1,-2.218095E-2,5.011399E-3,2.0826705E-2,2.8792003E-2,-4.365663E-2,5.139144E-2,4.4975057E-2,3.1988945E-2,3.8659196E-2],"split_indices":[38,38,38,27,27,10,40,38,42,40,35,38,40,40,38,0,0,0,0,0,0,0,0,0,0,0,0,0,0,0,0],"split_type":[0,0,0,0,0,0,0,0,0,0,0,0,0,0,0,0,0,0,0,0,0,0,0,0,0,0,0,0,0,0,0],"sum_hessian":[5.3166887E4,1.0021668E4,4.314522E4,2.887899E3,7.1337686E3,2.1115805E4,2.2029414E4,2.19757E3,6.90329E2,5.122664E3,2.0111044E3,1.5501472E4,5.6143335E3,7.8135854E3,1.4215829E4,4.5469897E2,1.7428711E3,6.123007E2,7.8028244E1,5.1126846E3,9.97952E0,7.366829E1,1.937436E3,4.4837935E3,1.1017678E4,5.5586216E3,5.571172E1,1.9501853E3,5.8634E3,7.1851807E3,7.030649E3],"tree_param":{"num_deleted":"0","num_feature":"44","num_nodes":"31","size_leaf_vector":"1"}},{"base_weights":[3.781661E-1,-4.7858167E-1,5.6744367E-1,-1.4466863E0,-2.256667E-1,3.6255792E-1,7.744337E-1,-2.6769316E0,-1.2611357E0,-2.1551347E-1,-2.5459543E-1,3.009698E-1,5.296489E-1,9.151342E-1,6.9975924E-1,-1.4872846E-1,-1.06768884E-1,-4.8774827E-2,-1.13007E-1,-2.0200114E-3,-2.4971528E-2,3.3704152E-3,1.978675E-2,1.5461191E-2,3.0539094E-2,5.0404113E-2,4.4241443E-2,-2.0455697E-1,3.5047594E-2],"categories":[],"categories_nodes":[],"categories_segments":[],"categories_sizes":[],"default_left":[0,0,0,0,0,0,0,0,0,0,0,0,0,0,0,0,0,0,0,0,0,0,0,0,0,0,0,0,0],"id":6,"left_children":[1,3,5,7,9,11,13,15,17,19,-1,21,23,25,27,-1,-1,-1,-1,-1,-1,-1,-1,-1,-1,-1,-1,-1,-1],"loss_changes":[8.50479E3,2.3233523E3,1.8214062E3,4.45312E2,3.707335E2,2.2200977E2,2.2385547E2,3.5026855E1,4.8571338E2,3.7341312E2,0E0,3.4917334E2,1.0377075E2,1.9966309E1,8.2648926E1,0E0,0E0,0E0,0E0,0E0,0E0,0E0,0E0,0E0,0E0,0E0,0E0,0E0,0E0],"parents":[2147483647,0,0,1,1,2,2,3,3,4,4,5,5,6,6,7,7,8,8,9,9,11,11,12,12,13,13,14,14],"right_children":[2,4,6,8,10,12,14,16,18,20,-1,22,24,26,28,-1,-1,-1,-1,-1,-1,-1,-1,-1,-1,-1,-1,-1,-1],"split_conditions":[7.398086E-1,6.5897477E-1,8.522744E-1,4.7344953E-1,1.2623124E0,1E-2,-3.8776636E-1,3.35E-1,4.568182E-1,-5.0628786E-3,-2.5459543E-1,7.790512E-1,7.571477E-1,-5.2549434E-1,-4.5E-1,-1.4872846E-1,-1.06768884E-1,-4.8774827E-2,-1.13007E-1,-2.0200114E-3,-2.4971528E-2,3.3704152E-3,1.978675E-2,1.5461191E-2,3.0539094E-2,5.0404113E-2,4.4241443E-2,-2.0455697E-1,3.5047594E-2],"split_indices":[38,38,38,38,41,10,40,31,31,27,0,38,38,40,16,0,0,0,0,0,0,0,0,0,0,0,0,0,0],"split_type":[0,0,0,0,0,0,0,0,0,0,0,0,0,0,0,0,0,0,0,0,0,0,0,0,0,0,0,0,0],"sum_hessian":[5.2443207E4,9.489286E3,4.295392E4,1.9645784E3,7.5247075E3,2.158807E4,2.1365854E4,2.5571283E2,1.7088656E3,7.5100825E3,1.4625225E1,1.5775993E4,5.8120767E3,7.4040317E3,1.3961821E4,1.6211949E2,9.359334E1,1.3304381E3,3.784275E2,4.645804E3,2.8642783E3,4.5539316E3,1.1222062E4,1.5650099E3,4.247067E3,1.8125564E3,5.5914756E3,2.621278E0,1.3959199E4],"tree_param":{"num_deleted":"0","num_feature":"44","num_nodes":"29","size_leaf_vector":"1"}},{"base_weights":[3.7074953E-1,-4.494222E-1,5.558497E-1,-1.2766292E0,-2.2587012E-1,3.5498863E-1,7.5901365E-1,-2.075253E0,-9.2750895E-1,-1.7147572E-1,-1.3512936E0,1.4891694E-1,4.1269863E-1,8.919367E-1,6.792774E-1,-2.4643242E-2,-1.16504274E-1,-8.3478585E-2,-2.3643812E-2,-4.008668E-2,-4.1227276E-3,-3.8061414E-2,-2.5184497E-1,1.0252188E-2,-4.178784E-2,1.7925799E-2,3.2018907E-2,5.0111014E-2,4.2939E-2,4.44767E-2,3.278483E-2],"categories":[],"categories_nodes":[],"categories_segments":[],"categories_sizes":[],"default_left":[0,0,0,0,0,0,0,0,0,0,0,0,0,0,0,0,0,0,0,0,0,0,0,0,0,0,0,0,0,0,0],"id":7,"left_children":[1,3,5,7,9,11,13,15,17,19,21,23,25,27,29,-1,-1,-1,-1,-1,-1,-1,-1,-1,-1,-1,-1,-1,-1,-1,-1],"loss_changes":[7.9037705E3,1.7724729E3,1.7330459E3,5.666719E2,4.61839E2,2.5396631E2,2.2319434E2,2.4866675E2,4.7854492E2,4.0396973E2,7.5265924E2,2.5853186E2,2.0562231E2,2.8078125E1,6.4875E1,0E0,0E0,0E0,0E0,0E0,0E0,0E0,0E0,0E0,0E0,0E0,0E0,0E0,0E0,0E0,0E0],"parents":[2147483647,0,0,1,1,2,2,3,3,4,4,5,5,6,6,7,7,8,8,9,9,10,10,11,11,12,12,13,13,14,14],"right_children":[2,4,6,8,10,12,14,16,18,20,22,24,26,28,30,-1,-1,-1,-1,-1,-1,-1,-1,-1,-1,-1,-1,-1,-1,-1,-1],"split_conditions":[7.398086E-1,6.5897477E-1,8.5180396E-1,5.1E-1,3.2441196E-1,7.6225764E-1,-3.7550318E-1,4.761902E-11,5.621241E-1,9E-2,0E0,7.375E-1,3E-2,-5.2549434E-1,6.8256414E-1,-2.4643242E-2,-1.16504274E-1,-8.3478585E-2,-2.3643812E-2,-4.008668E-2,-4.1227276E-3,-3.8061414E-2,-2.5184497E-1,1.0252188E-2,-4.178784E-2,1.7925799E-2,3.2018907E-2,5.0111014E-2,4.2939E-2,4.44767E-2,3.278483E-2],"split_indices":[38,38,38,9,40,38,40,5,38,9,16,15,10,40,37,0,0,0,0,0,0,0,0,0,0,0,0,0,0,0,0],"split_type":[0,0,0,0,0,0,0,0,0,0,0,0,0,0,0,0,0,0,0,0,0,0,0,0,0,0,0,0,0,0,0],"sum_hessian":[5.205959E4,9.585439E3,4.2474152E4,2.0383284E3,7.547111E3,2.1359512E4,2.111464E4,6.185138E2,1.4198146E3,7.2002573E3,3.4685327E2,4.6738037E3,1.6685707E4,7.913077E3,1.32015625E4,8.619822E1,5.323156E2,5.3838196E2,8.814326E2,8.90145E2,6.3101123E3,3.000257E2,4.6827553E1,4.4225103E3,2.5129314E2,1.3480276E4,3.2054312E3,1.8223802E3,6.090697E3,1.327578E3,1.1873984E4],"tree_param":{"num_deleted":"0","num_feature":"44","num_nodes":"31","size_leaf_vector":"1"}},{"base_weights":[3.4664115E-1,-4.2373544E-1,5.32209E-1,-1.2183675E0,-2.1277009E-1,3.3813584E-1,7.313382E-1,-7.725037E-1,-1.6617843E0,-1.7326835E-1,-1.4830884E0,2.8617156E-1,5.2476645E-1,8.6870444E-1,6.4959824E-1,-3.114836E-2,-1.7649001E-1,4.8207478E-3,-9.002458E-2,-1.1648134E-3,-2.08346E-2,-1.842423E-1,-3.529958E-2,4.980143E-3,1.858492E-2,2.7132196E-2,-4.4719484E-2,4.9266048E-2,4.169525E-2,3.252731E-2,-2.2312568E-1],"categories":[],"categories_nodes":[],"categories_segments":[],"categories_sizes":[],"default_left":[0,0,0,0,0,0,0,0,0,0,0,0,0,0,0,0,0,0,0,0,0,0,0,0,0,0,0,0,0,0,0],"id":8,"left_children":[1,3,5,7,9,11,13,15,17,19,21,23,25,27,29,-1,-1,-1,-1,-1,-1,-1,-1,-1,-1,-1,-1,-1,-1,-1,-1],"loss_changes":[7.259625E3,1.6523365E3,1.5812568E3,4.0754932E2,3.9069885E2,2.0085889E2,2.2622168E2,4.2371564E2,2.5281177E2,2.7588165E2,3.9919263E2,2.5869458E2,1.14982056E2,2.974414E1,6.42832E1,0E0,0E0,0E0,0E0,0E0,0E0,0E0,0E0,0E0,0E0,0E0,0E0,0E0,0E0,0E0,0E0],"parents":[2147483647,0,0,1,1,2,2,3,3,4,4,5,5,6,6,7,7,8,8,9,9,10,10,11,11,12,12,13,13,14,14],"right_children":[2,4,6,8,10,12,14,16,18,20,22,24,26,28,30,-1,-1,-1,-1,-1,-1,-1,-1,-1,-1,-1,-1,-1,-1,-1,-1],"split_conditions":[7.407824E-1,6.5897477E-1,8.5180396E-1,4.761902E-11,3.7336496E-1,3E-2,-3.7550318E-1,1.0591528E-12,4.7388434E-1,-5.0628786E-3,6E-1,7.790512E-1,4.119871E-1,-5.2549434E-1,1.0464121E-1,-3.114836E-2,-1.7649001E-1,4.8207478E-3,-9.002458E-2,-1.1648134E-3,-2.08346E-2,-1.842423E-1,-3.529958E-2,4.980143E-3,1.858492E-2,2.7132196E-2,-4.4719484E-2,4.9266048E-2,4.169525E-2,3.252731E-2,-2.2312568E-1],"split_indices":[38,38,38,5,40,10,40,8,37,27,35,38,40,40,40,0,0,0,0,0,0,0,0,0,0,0,0,0,0,0,0],"split_type":[0,0,0,0,0,0,0,0,0,0,0,0,0,0,0,0,0,0,0,0,0,0,0,0,0,0,0,0,0,0,0],"sum_hessian":[5.0779254E4,9.857015E3,4.092224E4,2.0669119E3,7.790103E3,2.072559E4,2.0196648E4,1.0319797E3,1.0349323E3,7.55627E3,2.3383292E2,1.6213684E4,4.5119062E3,7.5309907E3,1.2665657E4,9.800543E2,5.192537E1,7.5699524E1,9.592327E2,4.676313E3,2.8799573E3,6.0024097E1,1.7380882E2,5.0970703E3,1.1116613E4,4.4563853E3,5.5520622E1,1.7245468E3,5.806444E3,1.2664182E4,1.475508E0],"tree_param":{"num_deleted":"0","num_feature":"44","num_nodes":"31","size_leaf_vector":"1"}},{"base_weights":[3.386696E-1,-4.2644575E-1,5.2255046E-1,-9.5268834E-1,-1.4491826E-1,3.2806268E-1,7.251813E-1,-3.0742745E0,-8.803069E-1,-9.678713E-1,-3.489599E-2,-2.0572803E0,3.3256838E-1,8.576245E-1,6.484138E-1,-1.296842E-1,-2.1567503E-1,-3.6431476E-2,-9.2126034E-2,-4.1931916E-2,-2.2060394E-1,9.294732E-3,-1.7629374E-2,-3.071389E-1,-1.5675163E-2,2.9169722E-2,1.4388091E-2,4.8910175E-2,4.148506E-2,4.2847034E-2,3.131925E-2],"categories":[],"categories_nodes":[],"categories_segments":[],"categories_sizes":[],"default_left":[0,0,0,0,0,0,0,0,0,0,0,0,0,0,0,0,0,0,0,0,0,0,0,0,0,0,0,0,0,0,0],"id":9,"left_children":[1,3,5,7,9,11,13,15,17,19,21,23,25,27,29,-1,-1,-1,-1,-1,-1,-1,-1,-1,-1,-1,-1,-1,-1,-1,-1],"loss_changes":[7.0633247E3,1.4410991E3,1.5948965E3,5.1792065E2,5.739021E2,2.2267554E2,2.0098242E2,5.5186523E1,4.773396E2,3.2900464E2,3.9233038E2,2.7649365E2,2.3153711E2,2.366748E1,5.7125977E1,0E0,0E0,0E0,0E0,0E0,0E0,0E0,0E0,0E0,0E0,0E0,0E0,0E0,0E0,0E0,0E0],"parents":[2147483647,0,0,1,1,2,2,3,3,4,4,5,5,6,6,7,7,8,8,9,9,10,10,11,11,12,12,13,13,14,14],"right_children":[2,4,6,8,10,12,14,16,18,20,22,24,26,28,30,-1,-1,-1,-1,-1,-1,-1,-1,-1,-1,-1,-1,-1,-1,-1,-1],"split_conditions":[7.407824E-1,6.840639E-1,8.5180396E-1,-1.4876385E-1,9E-2,-4.3E-1,-3.7550318E-1,6.5897477E-1,5.7767723E-2,9.3947023E-1,9E-2,4.722222E-1,7.804258E-2,-5.403318E-1,6.8256414E-1,-1.296842E-1,-2.1567503E-1,-3.6431476E-2,-9.2126034E-2,-4.1931916E-2,-2.2060394E-1,9.294732E-3,-1.7629374E-2,-3.071389E-1,-1.5675163E-2,2.9169722E-2,1.4388091E-2,4.8910175E-2,4.148506E-2,4.2847034E-2,3.131925E-2],"split_indices":[38,38,38,8,9,10,40,38,8,41,25,7,32,40,37,0,0,0,0,0,0,0,0,0,0,0,0,0,0,0,0],"split_type":[0,0,0,0,0,0,0,0,0,0,0,0,0,0,0,0,0,0,0,0,0,0,0,0,0,0,0,0,0,0,0],"sum_hessian":[5.020227E4,9.727114E3,4.0475156E4,3.3893047E3,6.3378096E3,2.065389E4,1.9821266E4,1.104487E2,3.278856E3,7.464747E2,5.591335E3,3.8080822E1,2.0615809E4,7.2694585E3,1.2551808E4,8.1813255E1,2.8635448E1,2.8338958E3,4.4496027E2,7.2067706E2,2.579763E1,3.2989978E3,2.2923372E3,1.0636909E1,2.7443914E1,3.1227449E3,1.7493064E4,1.3604957E3,5.908963E3,1.1956597E3,1.1356147E4],"tree_param":{"num_deleted":"0","num_feature":"44","num_nodes":"31","size_leaf_vector":"1"}},{"base_weights":[3.2592425E-1,-3.62079E-1,5.1429105E-1,-8.894405E-1,-1.0798128E-1,3.23839E-1,7.0662916E-1,-2.8194404E0,-8.185533E-1,-2.7607014E-2,-6.48722E-1,-2.4560784E-1,3.2617447E-1,8.408334E-1,6.289692E-1,-1.2041725E-1,-1.9040863E-1,-9.924787E-2,-3.587045E-2,5.3027035E-3,-2.1645872E-2,-2.3829626E-1,-2.5693614E-2,1.2913666E-2,2.355783E-2,4.791473E-2,4.029889E-2,-1.9395085E-1,3.1517874E-2],"categories":[],"categories_nodes":[],"categories_segments":[],"categories_sizes":[],"default_left":[0,0,0,0,0,0,0,0,0,0,0,0,0,0,0,0,0,0,0,0,0,0,0,0,0,0,0,0,0],"id":10,"left_children":[1,3,5,7,9,11,13,15,17,19,21,-1,23,25,27,-1,-1,-1,-1,-1,-1,-1,-1,-1,-1,-1,-1,-1,-1],"loss_changes":[6.4064287E3,1.423735E3,1.4213359E3,4.7035474E2,3.1167462E2,2.4007129E2,2.0069824E2,4.0412292E1,3.9188623E2,3.383465E2,5.127758E2,0E0,1.9178076E2,2.8190918E1,7.901221E1,0E0,0E0,0E0,0E0,0E0,0E0,0E0,0E0,0E0,0E0,0E0,0E0,0E0,0E0],"parents":[2147483647,0,0,1,1,2,2,3,3,4,4,5,5,6,6,7,7,8,8,9,9,10,10,12,12,13,13,14,14],"right_children":[2,4,6,8,10,12,14,16,18,20,22,-1,24,26,28,-1,-1,-1,-1,-1,-1,-1,-1,-1,-1,-1,-1,-1,-1],"split_conditions":[7.447935E-1,6.840639E-1,8.5180396E-1,-1.388889E-1,3E-2,-4.8E-1,-3.7550318E-1,6.5897477E-1,4.7344953E-1,2.2222223E-2,-1.75E-1,-2.4560784E-1,8.228344E-1,-5.2549434E-1,-4.5E-1,-1.2041725E-1,-1.9040863E-1,-9.924787E-2,-3.587045E-2,5.3027035E-3,-2.1645872E-2,-2.3829626E-1,-2.5693614E-2,1.2913666E-2,2.355783E-2,4.791473E-2,4.029889E-2,-1.9395085E-1,3.1517874E-2],"split_indices":[38,38,38,8,26,10,40,38,38,7,8,0,38,40,16,0,0,0,0,0,0,0,0,0,0,0,0,0,0],"split_type":[0,0,0,0,0,0,0,0,0,0,0,0,0,0,0,0,0,0,0,0,0,0,0,0,0,0,0,0,0],"sum_hessian":[4.943103E4,1.0624499E4,3.880653E4,3.453828E3,7.170671E3,1.9500217E4,1.9306316E4,1.2098805E2,3.3328398E3,6.243678E3,9.2699274E2,7.7566667E0,1.9492459E4,7.0732334E3,1.2233083E4,8.7883575E1,3.3104477E1,2.644585E2,3.0683813E3,4.6958457E3,1.5478324E3,2.8309528E1,8.9868317E2,1.3277048E4,6.215411E3,1.6125497E3,5.4606836E3,2.9063468E0,1.2230177E4],"tree_param":{"num_deleted":"0","num_feature":"44","num_nodes":"29","size_leaf_vector":"1"}},{"base_weights":[3.0945742E-1,-3.1936854E-1,4.996342E-1,-8.3537745E-1,-1.0880626E-1,3.1210995E-1,6.8704885E-1,-1.1005484E-1,-7.561381E-1,-6.6626966E-1,-2.6883304E-2,2.5314736E-1,5.2911013E-1,8.380909E-1,6.0619086E-1,-4.8888467E-2,-7.2880248E-3,-4.8725866E-2,1.0803832E-2,-1.9980513E-1,-5.2865647E-4,2.6478475E-2,9.8522995E-3,2.6751027E-2,-2.6853225E-1,-2.3498248E-1,4.1988503E-2,4.09985E-2,2.9139075E-2],"categories":[],"categories_nodes":[],"categories_segments":[],"categories_sizes":[],"default_left":[0,0,0,0,0,0,0,0,0,0,0,0,0,0,0,0,0,0,0,0,0,0,0,0,0,0,0,0,0],"id":11,"left_children":[1,3,5,7,9,11,13,-1,15,17,19,21,23,25,27,-1,-1,-1,-1,-1,-1,-1,-1,-1,-1,-1,-1,-1,-1],"loss_changes":[5.814905E3,1.2267155E3,1.3118438E3,3.5243384E2,3.662523E2,2.3865515E2,2.2752148E2,0E0,4.1842944E2,2.7968542E2,4.5271045E2,2.2750537E2,1.4188647E2,6.4458496E1,6.0398926E1,0E0,0E0,0E0,0E0,0E0,0E0,0E0,0E0,0E0,0E0,0E0,0E0,0E0,0E0],"parents":[2147483647,0,0,1,1,2,2,3,3,4,4,5,5,6,6,8,8,9,9,10,10,11,11,12,12,13,13,14,14],"right_children":[2,4,6,8,10,12,14,-1,16,18,20,22,24,26,28,-1,-1,-1,-1,-1,-1,-1,-1,-1,-1,-1,-1,-1,-1],"split_conditions":[3.938706E-1,1.6046451E-1,7.710469E-1,1.3603423E-2,9E-2,3E-2,-3.839902E-1,-1.1005484E-1,8E-1,1.6666668E-2,-2.005905E0,7.804258E-2,6.785714E-1,-7.9E-1,6.8256414E-1,-4.8888467E-2,-7.2880248E-3,-4.8725866E-2,1.0803832E-2,-1.9980513E-1,-5.2865647E-4,2.6478475E-2,9.8522995E-3,2.6751027E-2,-2.6853225E-1,-2.3498248E-1,4.1988503E-2,4.09985E-2,2.9139075E-2],"split_indices":[39,39,39,39,9,10,40,0,9,4,43,32,5,10,37,0,0,0,0,0,0,0,0,0,0,0,0,0,0],"split_type":[0,0,0,0,0,0,0,0,0,0,0,0,0,0,0,0,0,0,0,0,0,0,0,0,0,0,0,0,0],"sum_hessian":[4.8622105E4,1.1290152E4,3.733195E4,3.2710564E3,8.019096E3,1.8661852E4,1.86701E4,1.7791145E2,3.093145E3,1.0265526E3,6.992544E3,1.4676239E4,3.9856125E3,6.5065503E3,1.2163549E4,2.2687488E3,8.2439624E2,7.6069824E2,2.658543E2,2.7617365E1,6.9649263E3,2.474663E3,1.2201576E4,3.982532E3,3.08041E0,1.1242177E0,6.5054263E3,1.1971282E3,1.0966421E4],"tree_param":{"num_deleted":"0","num_feature":"44","num_nodes":"29","size_leaf_vector":"1"}},{"base_weights":[3.0069563E-1,-2.1678519E-1,5.139061E-1,-8.2886225E-1,-3.216824E-2,3.884193E-1,7.371202E-1,-6.6226625E-1,-1.5886594E0,5.997436E-2,-3.5754976E-1,2.8540495E-1,4.77621E-1,-2.6353708E-1,7.383503E-1,-7.22223E-2,-2.348956E-2,-9.5138274E-2,6.786216E-3,1.1890507E-2,-5.804944E-3,-2.6086986E-1,-1.5649574E-2,9.311571E-3,2.6036909E-2,1.9724932E-2,2.8313754E-2,3.971591E-2,3.273041E-2],"categories":[],"categories_nodes":[],"categories_segments":[],"categories_sizes":[],"default_left":[0,0,0,0,0,0,0,0,0,0,0,0,0,0,0,0,0,0,0,0,0,0,0,0,0,0,0,0,0],"id":12,"left_children":[1,3,5,7,9,11,13,15,17,19,21,23,25,-1,27,-1,-1,-1,-1,-1,-1,-1,-1,-1,-1,-1,-1,-1,-1],"loss_changes":[5.3159927E3,1.58869E3,9.5548926E2,4.1133545E2,3.2389722E2,2.0059619E2,9.463037E1,4.0185803E2,3.1720947E2,2.6365652E2,5.1464246E2,2.365581E2,8.603784E1,0E0,5.701953E1,0E0,0E0,0E0,0E0,0E0,0E0,0E0,0E0,0E0,0E0,0E0,0E0,0E0,0E0],"parents":[2147483647,0,0,1,1,2,2,3,3,4,4,5,5,6,6,7,7,8,8,9,9,10,10,11,11,12,12,14,14],"right_children":[2,4,6,8,10,12,14,16,18,20,22,24,26,-1,28,-1,-1,-1,-1,-1,-1,-1,-1,-1,-1,-1,-1,-1,-1],"split_conditions":[7.599387E-1,6.7894053E-1,8.7087053E-1,1.42542E-2,2E-2,8.2395357E-1,6E-2,5.621241E-1,5E-1,-2.6666666E-3,-8.5714287E-1,1E-2,-6E-2,-2.6353708E-1,8.045176E-1,-7.22223E-2,-2.348956E-2,-9.5138274E-2,6.786216E-3,1.1890507E-2,-5.804944E-3,-2.6086986E-1,-1.5649574E-2,9.311571E-3,2.6036909E-2,1.9724932E-2,2.8313754E-2,3.971591E-2,3.273041E-2],"split_indices":[38,38,38,7,26,38,31,38,23,27,35,10,10,0,37,0,0,0,0,0,0,0,0,0,0,0,0,0,0],"split_type":[0,0,0,0,0,0,0,0,0,0,0,0,0,0,0,0,0,0,0,0,0,0,0,0,0,0,0,0,0],"sum_hessian":[4.8179617E4,1.4058463E4,3.4121152E4,3.2569421E3,1.08015205E4,2.1843742E4,1.227741E4,2.6727717E3,5.841703E2,8.41839E3,2.3831313E3,1.0138973E4,1.170477E4,1.6362885E0,1.2275774E4,5.2653516E2,2.1462366E3,4.940694E2,9.010092E1,4.1880576E3,4.2303315E3,2.0596882E1,2.3625344E3,7.1342617E3,3.0047107E3,6.04366E3,5.66111E3,7.3530063E3,4.922768E3],"tree_param":{"num_deleted":"0","num_feature":"44","num_nodes":"29","size_leaf_vector":"1"}},{"base_weights":[2.9073524E-1,-5.248131E-1,4.1846213E-1,-1.2444025E0,-3.857505E-1,2.0036952E-1,6.169123E-1,-1.9267112E0,-8.951078E-1,-4.697531E-1,4.3837476E-1,7.0004754E-2,2.9100838E-1,7.9297954E-1,5.3504527E-1,-1.03504576E-1,9.389117E-3,-2.2513395E-2,-8.0206536E-2,-1.8729854E-2,-6.5518565E-2,2.8601615E-2,-1.82278E-1,5.921146E-3,-3.5771012E-2,6.61057E-3,2.0140387E-2,4.4195622E-2,3.7053432E-2,2.3849621E-2,3.2333557E-2],"categories":[],"categories_nodes":[],"categories_segments":[],"categories_sizes":[],"default_left":[0,0,0,0,0,0,0,0,0,0,0,0,0,0,0,0,0,0,0,0,0,0,0,0,0,0,0,0,0,0,0],"id":13,"left_children":[1,3,5,7,9,11,13,15,17,19,21,23,25,27,29,-1,-1,-1,-1,-1,-1,-1,-1,-1,-1,-1,-1,-1,-1,-1,-1],"loss_changes":[4.952649E3,6.4377136E2,1.778958E3,2.4666833E2,3.7382587E2,2.314007E2,3.0979102E2,1.0711499E2,2.1728607E2,3.9131262E2,2.7486505E2,3.055962E2,2.0504352E2,3.157959E1,9.4910645E1,0E0,0E0,0E0,0E0,0E0,0E0,0E0,0E0,0E0,0E0,0E0,0E0,0E0,0E0,0E0,0E0],"parents":[2147483647,0,0,1,1,2,2,3,3,4,4,5,5,6,6,7,7,8,8,9,9,10,10,11,11,12,12,13,13,14,14],"right_children":[2,4,6,8,10,12,14,16,18,20,22,24,26,28,30,-1,-1,-1,-1,-1,-1,-1,-1,-1,-1,-1,-1,-1,-1,-1,-1],"split_conditions":[7.167011E-1,6.07462E-1,8.347097E-1,7.4E-1,7.9E-1,7.6225764E-1,-3.7181926E-1,5.7E-1,6.1824113E-2,1.1E-1,2.3080026E-1,7.375E-1,-2E-2,-4.8054892E-1,8.738857E-1,-1.03504576E-1,9.389117E-3,-2.2513395E-2,-8.0206536E-2,-1.8729854E-2,-6.5518565E-2,2.8601615E-2,-1.82278E-1,5.921146E-3,-3.5771012E-2,6.61057E-3,2.0140387E-2,4.4195622E-2,3.7053432E-2,2.3849621E-2,3.2333557E-2],"split_indices":[38,38,38,9,9,38,40,10,32,25,32,15,10,40,38,0,0,0,0,0,0,0,0,0,0,0,0,0,0,0,0],"split_type":[0,0,0,0,0,0,0,0,0,0,0,0,0,0,0,0,0,0,0,0,0,0,0,0,0,0,0,0,0,0,0],"sum_hessian":[4.7541973E4,6.437135E3,4.110484E4,1.0412361E3,5.3958984E3,1.958421E4,2.1520629E4,3.5102722E2,6.9020886E2,4.8971636E3,4.987349E2,8.032679E3,1.1551531E4,6.827781E3,1.4692848E4,3.2875586E2,2.2271385E1,4.2512262E2,2.6508627E2,4.400485E3,4.9667892E2,4.8376242E2,1.4972472E1,7.5670513E3,4.6562784E2,4.7735234E3,6.7780083E3,2.4754583E3,4.3523228E3,9.669392E3,5.0234556E3],"tree_param":{"num_deleted":"0","num_feature":"44","num_nodes":"31","size_leaf_vector":"1"}},{"base_weights":[2.819411E-1,-3.1768283E-1,4.440176E-1,-1.1309304E0,-2.0852044E-1,2.7078304E-1,6.395229E-1,-2.004603E0,-7.1665955E-1,-4.884088E-2,-4.873033E-1,1.7113172E-1,4.0853706E-1,7.907083E-1,5.52727E-1,-4.1906968E-2,-1.05845116E-1,-1.0222971E-1,-2.576684E-2,-1.3723866E-3,-1.08082704E-1,-6.7921154E-2,-1.6484147E-2,8.750359E-3,-2.7708435E-1,-1.2267678E-1,2.0774554E-2,4.413251E-2,3.676009E-2,3.3485916E-2,2.5119534E-2],"categories":[],"categories_nodes":[],"categories_segments":[],"categories_sizes":[],"default_left":[0,0,0,0,0,0,0,0,0,0,0,0,0,0,0,0,0,0,0,0,0,0,0,0,0,0,0,0,0,0,0],"id":14,"left_children":[1,3,5,7,9,11,13,15,17,19,21,23,25,27,29,-1,-1,-1,-1,-1,-1,-1,-1,-1,-1,-1,-1,-1,-1,-1,-1],"loss_changes":[4.568685E3,8.878107E2,1.2531733E3,4.2695325E2,3.9263428E2,2.692959E2,2.2769385E2,4.8023193E1,2.1401071E2,2.5348541E2,4.406056E2,2.5308987E2,1.6493713E2,3.169751E1,6.472241E1,0E0,0E0,0E0,0E0,0E0,0E0,0E0,0E0,0E0,0E0,0E0,0E0,0E0,0E0,0E0,0E0],"parents":[2147483647,0,0,1,1,2,2,3,3,4,4,5,5,6,6,7,7,8,8,9,9,10,10,11,11,12,12,13,13,14,14],"right_children":[2,4,6,8,10,12,14,16,18,20,22,24,26,28,30,-1,-1,-1,-1,-1,-1,-1,-1,-1,-1,-1,-1,-1,-1,-1,-1],"split_conditions":[3.575657E-1,7.047935E-2,7.710469E-1,7.2E-1,-5.0628786E-3,3.75E-1,-3.7550318E-1,-1.0292358E-1,1.3603423E-2,1.25E-1,1.6046451E-1,3.1101272E-1,-4.2E-1,-4.8054892E-1,7.7665603E-1,-4.1906968E-2,-1.05845116E-1,-1.0222971E-1,-2.576684E-2,-1.3723866E-3,-1.08082704E-1,-6.7921154E-2,-1.6484147E-2,8.750359E-3,-2.7708435E-1,-1.2267678E-1,2.0774554E-2,4.413251E-2,3.676009E-2,3.3485916E-2,2.5119534E-2],"split_indices":[39,39,39,9,27,23,40,40,39,24,39,40,10,40,37,0,0,0,0,0,0,0,0,0,0,0,0,0,0,0,0],"split_type":[0,0,0,0,0,0,0,0,0,0,0,0,0,0,0,0,0,0,0,0,0,0,0,0,0,0,0,0,0,0,0],"sum_hessian":[4.7007758E4,1.0002223E4,3.7005535E4,1.1826029E3,8.81962E3,1.9621543E4,1.7383994E4,3.7915308E2,8.034498E2,5.608431E3,3.2111885E3,1.1386665E4,8.234877E3,6.337285E3,1.1046709E4,3.404004E1,3.4511304E2,1.0456676E2,6.988831E2,5.5532153E3,5.5215725E1,4.9084116E2,2.7203474E3,1.1379915E4,6.7505183E0,1.9107117E1,8.21577E3,2.3800422E3,3.9572427E3,3.319425E3,7.727284E3],"tree_param":{"num_deleted":"0","num_feature":"44","num_nodes":"31","size_leaf_vector":"1"}},{"base_weights":[2.6722628E-1,-2.6681283E-1,4.3271276E-1,-8.656815E-1,-1.16109416E-1,2.2740355E-1,5.819589E-1,-1.4827683E0,-5.893941E-1,-9.995319E-2,-2.0254865E0,1.5186295E-1,4.070042E-1,7.6283455E-1,5.00524E-1,-2.0471971E-2,-8.803215E-2,-8.778729E-2,-1.9171715E-2,5.687554E-4,-1.9052861E-2,-1.856383E-1,-2.1281086E-2,2.4728093E-2,5.606662E-3,2.2689676E-2,-5.297545E-3,4.2780608E-2,3.5583828E-2,-1.9691217E-1,2.5091896E-2],"categories":[],"categories_nodes":[],"categories_segments":[],"categories_sizes":[],"default_left":[0,0,0,0,0,0,0,0,0,0,0,0,0,0,0,0,0,0,0,0,0,0,0,0,0,0,0,0,0,0,0],"id":15,"left_children":[1,3,5,7,9,11,13,15,17,19,21,23,25,27,29,-1,-1,-1,-1,-1,-1,-1,-1,-1,-1,-1,-1,-1,-1,-1,-1],"loss_changes":[4.0906426E3,9.881838E2,1.0826206E3,3.744563E2,2.6971707E2,2.0176227E2,3.0100146E2,2.0213843E2,3.6500983E2,2.7156613E2,1.9646054E2,1.4254016E2,1.0574249E2,2.9531494E1,8.428198E1,0E0,0E0,0E0,0E0,0E0,0E0,0E0,0E0,0E0,0E0,0E0,0E0,0E0,0E0,0E0,0E0],"parents":[2147483647,0,0,1,1,2,2,3,3,4,4,5,5,6,6,7,7,8,8,9,9,10,10,11,11,12,12,13,13,14,14],"right_children":[2,4,6,8,10,12,14,16,18,20,22,24,26,28,30,-1,-1,-1,-1,-1,-1,-1,-1,-1,-1,-1,-1,-1,-1,-1,-1],"split_conditions":[7.447935E-1,6.5897477E-1,8.347097E-1,5.1E-1,1.25E-1,1E-2,-3.7181926E-1,1.0000001E-9,4.7344953E-1,5.9256546E-2,6.25E-1,0E0,1.25E-1,-4.8054892E-1,-4.5E-1,-2.0471971E-2,-8.803215E-2,-8.778729E-2,-1.9171715E-2,5.687554E-4,-1.9052861E-2,-1.856383E-1,-2.1281086E-2,2.4728093E-2,5.606662E-3,2.2689676E-2,-5.297545E-3,4.2780608E-2,3.5583828E-2,-1.9691217E-1,2.5091896E-2],"split_indices":[38,38,38,9,24,10,40,5,38,27,1,12,24,40,16,0,0,0,0,0,0,0,0,0,0,0,0,0,0,0,0],"split_type":[0,0,0,0,0,0,0,0,0,0,0,0,0,0,0,0,0,0,0,0,0,0,0,0,0,0,0,0,0,0,0],"sum_hessian":[4.6284363E4,1.0949329E4,3.5335035E4,2.200437E3,8.748892E3,1.487495E4,2.0460086E4,6.7916296E2,1.521274E3,8.676527E3,7.236424E1,1.0472169E4,4.4027812E3,6.3492817E3,1.4110805E4,1.4017839E2,5.3898456E2,2.2718712E2,1.2940869E3,6.215789E3,2.4607383E3,3.4577156E1,3.7787083E1,1.0867427E3,9.385427E3,4.0348562E3,3.6792502E2,2.2510896E3,4.098192E3,3.2891757E0,1.4107516E4],"tree_param":{"num_deleted":"0","num_feature":"44","num_nodes":"31","size_leaf_vector":"1"}},{"base_weights":[2.5625116E-1,-2.7462107E-1,4.2231208E-1,-1.0404623E0,-1.797345E-1,2.5091022E-1,6.108222E-1,-1.9168451E0,-7.6506007E-1,-1.5926258E-1,-1.7825394E0,1.872393E-1,4.353208E-1,7.714001E-1,5.3306925E-1,-8.7781124E-2,-1.0433241E-1,-5.5862147E-2,-1.3095762E-2,9.515169E-3,-1.2192428E-2,-1.6844973E-1,-9.792493E-3,2.394592E-2,6.1314395E-3,2.2002855E-2,-2.336003E-1,4.4991057E-2,3.6560908E-2,-1.633628E-1,2.6728436E-2],"categories":[],"categories_nodes":[],"categories_segments":[],"categories_sizes":[],"default_left":[0,0,0,0,0,0,0,0,0,0,0,0,0,0,0,0,0,0,0,0,0,0,0,0,0,0,0,0,0,0,0],"id":16,"left_children":[1,3,5,7,9,11,13,15,17,19,21,23,25,27,29,-1,-1,-1,-1,-1,-1,-1,-1,-1,-1,-1,-1,-1,-1,-1,-1],"loss_changes":[4.0252036E3,7.904223E2,1.123603E3,2.8796313E2,3.173924E2,2.1382678E2,2.0637646E2,4.168213E0,1.6168567E2,2.8273682E2,3.064419E2,2.5518607E2,1.1514221E2,2.721289E1,6.535498E1,0E0,0E0,0E0,0E0,0E0,0E0,0E0,0E0,0E0,0E0,0E0,0E0,0E0,0E0,0E0,0E0],"parents":[2147483647,0,0,1,1,2,2,3,3,4,4,5,5,6,6,7,7,8,8,9,9,10,10,11,11,12,12,13,13,14,14],"right_children":[2,4,6,8,10,12,14,16,18,20,22,24,26,28,30,-1,-1,-1,-1,-1,-1,-1,-1,-1,-1,-1,-1,-1,-1,-1,-1],"split_conditions":[7.447935E-1,6.169796E-1,8.5180396E-1,6.5E-1,4.6451208E-1,1E-2,-3.8776636E-1,3.75E-1,5.621241E-1,1.4285717E-10,9.0909094E-1,8.153547E-2,6.857143E-1,-5.2549434E-1,-4.5E-1,-8.7781124E-2,-1.0433241E-1,-5.5862147E-2,-1.3095762E-2,9.515169E-3,-1.2192428E-2,-1.6844973E-1,-9.792493E-3,2.394592E-2,6.1314395E-3,2.2002855E-2,-2.336003E-1,4.4991057E-2,3.6560908E-2,-1.633628E-1,2.6728436E-2],"split_indices":[38,38,38,9,40,10,40,1,38,5,34,32,5,40,16,0,0,0,0,0,0,0,0,0,0,0,0,0,0,0,0],"split_type":[0,0,0,0,0,0,0,0,0,0,0,0,0,0,0,0,0,0,0,0,0,0,0,0,0,0,0,0,0,0,0],"sum_hessian":[4.565711E4,1.0878739E4,3.477837E4,1.1981727E3,9.680566E3,1.8216996E4,1.6561375E4,2.850688E2,9.1310394E2,9.559565E3,1.2100073E2,1.3543043E4,4.6739526E3,5.400067E3,1.1161309E4,1.5204547E2,1.3302332E2,5.3641364E2,3.7669034E2,1.86225E3,7.6973154E3,5.994315E1,6.1057583E1,2.454769E3,1.1088273E4,4.670535E3,3.417401E0,1.2818613E3,4.1182056E3,3.5431445E0,1.1157766E4],"tree_param":{"num_deleted":"0","num_feature":"44","num_nodes":"31","size_leaf_vector":"1"}},{"base_weights":[2.4424414E-1,-4.543525E-1,3.6212412E-1,-1.0058304E0,-3.3126265E-1,2.0264632E-1,5.8619213E-1,-1.8313344E0,-7.485769E-1,-3.0480623E-1,-3.6217003E0,2.0760545E-1,-3.4724188E0,7.4994856E-1,5.0758517E-1,-7.8331135E-2,-9.536243E-2,-3.0693695E-2,-1.3033225E-1,-4.8617177E-2,-1.0836202E-2,-1.2736213E-1,-2.1219528E-1,5.241918E-3,1.5200234E-2,4.6985716E-2,-2.4444914E-1,4.18037E-2,3.44842E-2,2.908281E-2,2.1185985E-2],"categories":[],"categories_nodes":[],"categories_segments":[],"categories_sizes":[],"default_left":[0,0,0,0,0,0,0,0,0,0,0,0,0,0,0,0,0,0,0,0,0,0,0,0,0,0,0,0,0,0,0],"id":17,"left_children":[1,3,5,7,9,11,13,15,17,19,21,23,25,27,29,-1,-1,-1,-1,-1,-1,-1,-1,-1,-1,-1,-1,-1,-1,-1,-1],"loss_changes":[3.7150164E3,4.4179785E2,1.3791343E3,2.5091809E2,4.6256647E2,4.1170667E2,2.0620068E2,2.670227E0,2.2551956E2,3.1053162E2,1.7530212E1,2.2307666E2,1.9487793E2,2.6428223E1,6.713159E1,0E0,0E0,0E0,0E0,0E0,0E0,0E0,0E0,0E0,0E0,0E0,0E0,0E0,0E0,0E0,0E0],"parents":[2147483647,0,0,1,1,2,2,3,3,4,4,5,5,6,6,7,7,8,8,9,9,10,10,11,11,12,12,13,13,14,14],"right_children":[2,4,6,8,10,12,14,16,18,20,22,24,26,28,30,-1,-1,-1,-1,-1,-1,-1,-1,-1,-1,-1,-1,-1,-1,-1,-1],"split_conditions":[7.167011E-1,6.169796E-1,8.5180396E-1,6.5E-1,6.875E-1,5.788794E-1,-3.8776636E-1,4.7344953E-1,5E-2,-9.89011E-2,6.5897477E-1,7.790512E-1,8.333334E-3,-4.8054892E-1,2.8575304E-1,-7.8331135E-2,-9.536243E-2,-3.0693695E-2,-1.3033225E-1,-4.8617177E-2,-1.0836202E-2,-1.2736213E-1,-2.1219528E-1,5.241918E-3,1.5200234E-2,4.6985716E-2,-2.4444914E-1,4.18037E-2,3.44842E-2,2.908281E-2,2.1185985E-2],"split_indices":[38,38,38,9,36,40,40,38,26,7,38,38,4,40,32,0,0,0,0,0,0,0,0,0,0,0,0,0,0,0,0],"split_type":[0,0,0,0,0,0,0,0,0,0,0,0,0,0,0,0,0,0,0,0,0,0,0,0,0,0,0,0,0,0,0],"sum_hessian":[4.5109215E4,6.5122944E3,3.8596918E4,1.187004E3,5.3252905E3,2.2549486E4,1.6047432E4,2.8056778E2,9.064363E2,5.2838984E3,4.139198E1,2.2520043E4,2.9445045E1,5.201974E3,1.0845457E4,6.735138E1,2.132164E2,8.4640546E2,6.003083E1,6.1477136E2,4.669127E3,1.7047436E1,2.4344542E1,1.0901019E4,1.1619023E4,7.2379203E0,2.2207125E1,2.1362058E3,3.0657683E3,5.755869E3,5.089588E3],"tree_param":{"num_deleted":"0","num_feature":"44","num_nodes":"31","size_leaf_vector":"1"}},{"base_weights":[2.4176754E-1,-1.5575299E-1,4.2638606E-1,-7.3170245E-1,-4.8965205E-2,3.1545687E-1,6.404197E-1,-4.7231156E-1,-1.4496007E0,8.0326304E-2,-2.2114867E-1,-5.4112333E-1,3.2410106E-1,7.808136E-1,5.73694E-1,-1.6325414E-2,-8.8571385E-2,-8.769218E-2,-2.1974076E-2,4.5061926E-3,-2.2774588E-1,-1.0304248E-2,-1.7016554E-1,9.001526E-3,-1.3426745E-1,1.2171405E-2,2.0742057E-2,8.777358E-3,3.9555803E-2,2.8899267E-2,-1.14224665E-1],"categories":[],"categories_nodes":[],"categories_segments":[],"categories_sizes":[],"default_left":[0,0,0,0,0,0,0,0,0,0,0,0,0,0,0,0,0,0,0,0,0,0,0,0,0,0,0,0,0,0,0],"id":18,"left_children":[1,3,5,7,9,11,13,15,17,19,21,23,25,27,29,-1,-1,-1,-1,-1,-1,-1,-1,-1,-1,-1,-1,-1,-1,-1,-1],"loss_changes":[3.298464E3,8.7665204E2,7.284707E2,4.144707E2,2.6773102E2,1.498634E2,9.768555E1,3.0990695E2,1.809325E2,3.1236072E2,2.4653032E2,3.1337503E2,1.4641187E2,2.088794E1,8.846069E1,0E0,0E0,0E0,0E0,0E0,0E0,0E0,0E0,0E0,0E0,0E0,0E0,0E0,0E0,0E0,0E0],"parents":[2147483647,0,0,1,1,2,2,3,3,4,4,5,5,6,6,7,7,8,8,9,9,10,10,11,11,12,12,13,13,14,14],"right_children":[2,4,6,8,10,12,14,16,18,20,22,24,26,28,30,-1,-1,-1,-1,-1,-1,-1,-1,-1,-1,-1,-1,-1,-1,-1,-1],"split_conditions":[7.599387E-1,6.5897477E-1,8.7087053E-1,1.3E-3,-3.7484963E-3,-3.7E-1,-4.3050393E-1,4E-2,8E-1,4.7800365E-1,5.788794E-1,4.375E-1,8.3053833E-1,-3.836882E-1,-4.2575423E-2,-1.6325414E-2,-8.8571385E-2,-8.769218E-2,-2.1974076E-2,4.5061926E-3,-2.2774588E-1,-1.0304248E-2,-1.7016554E-1,9.001526E-3,-1.3426745E-1,1.2171405E-2,2.0742057E-2,8.777358E-3,3.9555803E-2,2.8899267E-2,-1.14224665E-1],"split_indices":[38,38,38,28,27,10,40,26,9,32,40,1,38,27,40,0,0,0,0,0,0,0,0,0,0,0,0,0,0,0,0],"split_type":[0,0,0,0,0,0,0,0,0,0,0,0,0,0,0,0,0,0,0,0,0,0,0,0,0,0,0,0,0,0,0],"sum_hessian":[4.4942625E4,1.4253073E4,3.0689553E4,2.2284255E3,1.2024647E4,2.0215008E4,1.0474545E4,1.6381775E3,5.9024817E2,6.868024E3,5.1566235E3,2.0134639E2,2.0013662E4,3.3710342E3,7.103511E3,1.473998E3,1.6417938E2,4.5305423E2,1.3719397E2,6.854516E3,1.3507894E1,5.1333877E3,2.3235664E1,1.5135736E2,4.9989025E1,1.0596482E4,9.417179E3,5.672107E1,3.3143132E3,7.093658E3,9.852811E0],"tree_param":{"num_deleted":"0","num_feature":"44","num_nodes":"31","size_leaf_vector":"1"}},{"base_weights":[2.2818919E-1,-1.4863865E-1,4.073891E-1,-5.024139E-1,-1.8843753E-2,2.9091838E-1,6.330749E-1,-2.139147E0,-4.4861546E-1,5.2385096E-2,-4.2775843E-1,5.2092886E-1,2.5376037E-1,7.373293E-1,5.482192E-1,-9.060593E-2,-1.4149788E-1,-8.502309E-2,-1.9706786E-2,8.86749E-3,-1.2539208E-2,-2.0799232E-1,-1.865513E-2,2.653792E-2,-2.8892085E-1,-5.9079856E-2,1.3108169E-2,4.4759683E-2,3.5101384E-2,4.3797974E-2,2.536772E-2],"categories":[],"categories_nodes":[],"categories_segments":[],"categories_sizes":[],"default_left":[0,0,0,0,0,0,0,0,0,0,0,0,0,0,0,0,0,0,0,0,0,0,0,0,0,0,0,0,0,0,0],"id":19,"left_children":[1,3,5,7,9,11,13,15,17,19,21,23,25,27,29,-1,-1,-1,-1,-1,-1,-1,-1,-1,-1,-1,-1,-1,-1,-1,-1],"loss_changes":[2.9972554E3,6.568657E2,7.905044E2,3.3713593E2,3.048803E2,1.6945947E2,9.017285E1,2.2416565E1,2.5294763E2,3.3778754E2,3.1519498E2,1.7389117E2,2.0637793E2,2.4957764E1,7.520398E1,0E0,0E0,0E0,0E0,0E0,0E0,0E0,0E0,0E0,0E0,0E0,0E0,0E0,0E0,0E0,0E0],"parents":[2147483647,0,0,1,1,2,2,3,3,4,4,5,5,6,6,7,7,8,8,9,9,10,10,11,11,12,12,13,13,14,14],"right_children":[2,4,6,8,10,12,14,16,18,20,22,24,26,28,30,-1,-1,-1,-1,-1,-1,-1,-1,-1,-1,-1,-1,-1,-1,-1,-1],"split_conditions":[7.599387E-1,6.840639E-1,8.7087053E-1,-1.4876385E-1,3E-2,7.804258E-2,-3.8776636E-1,6.5897477E-1,4.3493712E-1,2.2222223E-2,-8.5714287E-1,5.898637E-1,-3.7E-1,-5.542672E-1,6.8256414E-1,-9.060593E-2,-1.4149788E-1,-8.502309E-2,-1.9706786E-2,8.86749E-3,-1.2539208E-2,-2.0799232E-1,-1.865513E-2,2.653792E-2,-2.8892085E-1,-5.9079856E-2,1.3108169E-2,4.4759683E-2,3.5101384E-2,4.3797974E-2,2.536772E-2],"split_indices":[38,38,38,8,26,32,40,38,38,7,35,27,10,40,37,0,0,0,0,0,0,0,0,0,0,0,0,0,0,0,0],"split_type":[0,0,0,0,0,0,0,0,0,0,0,0,0,0,0,0,0,0,0,0,0,0,0,0,0,0,0,0,0,0,0],"sum_hessian":[4.438379E4,1.4304325E4,3.0079463E4,3.8386482E3,1.0465678E4,1.9841865E4,1.0237598E4,1.2092536E2,3.717723E3,8.913847E3,1.551831E3,2.757812E3,1.7084053E4,4.5902666E3,5.647331E3,8.453147E1,3.639389E1,1.537859E2,3.563937E3,6.3123467E3,2.6014998E3,2.13142E1,1.5305168E3,2.7544297E3,3.3822725E0,9.862036E1,1.6985434E4,8.344317E2,3.755835E3,6.238174E2,5.0235137E3],"tree_param":{"num_deleted":"0","num_feature":"44","num_nodes":"31","size_leaf_vector":"1"}},{"base_weights":[2.1960391E-1,5.245693E-1,3.945393E-2,7.0394003E-1,4.4445524E-1,6.423778E-2,-6.529999E-1,1.24528274E-1,7.173739E-1,2.8344503E-1,5.079389E-1,-5.0353687E-3,3.5082924E-1,-3.4034579E0,-4.985556E-1,1.2346544E-2,-3.2612088E-1,4.3665797E-2,3.343194E-2,-1.4228788E-1,1.4985663E-2,2.553286E-2,-1.6720013E-1,1.310778E-4,-7.4468076E-2,3.1113356E-2,1.3782169E-2,-1.9090246E-1,-1.1165728E-1,-9.597555E-3,-6.868609E-2],"categories":[],"categories_nodes":[],"categories_segments":[],"categories_sizes":[],"default_left":[0,0,0,0,0,0,0,0,0,0,0,0,0,0,0,0,0,0,0,0,0,0,0,0,0,0,0,0,0,0,0],"id":20,"left_children":[1,3,5,7,9,11,13,15,17,19,21,23,25,27,29,-1,-1,-1,-1,-1,-1,-1,-1,-1,-1,-1,-1,-1,-1,-1,-1],"loss_changes":[2.40478E3,2.3327051E2,4.7229672E2,3.8960693E1,1.1473535E2,5.274595E2,4.0226486E2,9.508681E1,3.667749E1,1.6276042E2,8.609619E1,2.4319162E2,1.0537579E2,1.5922119E1,2.4165573E2,0E0,0E0,0E0,0E0,0E0,0E0,0E0,0E0,0E0,0E0,0E0,0E0,0E0,0E0,0E0,0E0],"parents":[2147483647,0,0,1,1,2,2,3,3,4,4,5,5,6,6,7,7,8,8,9,9,10,10,11,11,12,12,13,13,14,14],"right_children":[2,4,6,8,10,12,14,16,18,20,22,24,26,28,30,-1,-1,-1,-1,-1,-1,-1,-1,-1,-1,-1,-1,-1,-1,-1,-1],"split_conditions":[-2.0012246E-1,-3.8776636E-1,3.2441196E-1,-5E-1,2.5E-1,8.333334E-3,2.2222222E-1,-4.6708947E-1,-5.2549434E-1,3.6424932E-1,6.4272726E-1,1.2623124E0,0E0,4.9E-1,8.503245E-2,1.2346544E-2,-3.2612088E-1,4.3665797E-2,3.343194E-2,-1.4228788E-1,1.4985663E-2,2.553286E-2,-1.6720013E-1,1.310778E-4,-7.4468076E-2,3.1113356E-2,1.3782169E-2,-1.9090246E-1,-1.1165728E-1,-9.597555E-3,-6.868609E-2],"split_indices":[40,40,40,10,23,4,35,43,40,37,31,41,24,9,28,0,0,0,0,0,0,0,0,0,0,0,0,0,0,0,0],"split_type":[0,0,0,0,0,0,0,0,0,0,0,0,0,0,0,0,0,0,0,0,0,0,0,0,0,0,0,0,0,0,0],"sum_hessian":[4.377079E4,1.6253788E4,2.7517E4,5.015836E3,1.1237951E4,2.6567037E4,9.499626E2,1.1389162E2,4.9019443E3,3.1794785E3,8.058473E3,2.1396248E4,5.170789E3,4.938798E1,9.005746E2,1.1277768E2,1.1139351E0,1.1631604E3,3.7387842E3,1.5544591E1,3.1639338E3,8.0536567E3,4.8159976E0,2.1287436E4,1.0881341E2,1.1200131E3,4.050776E3,3.47981E1,1.458988E1,6.67828E2,2.327466E2],"tree_param":{"num_deleted":"0","num_feature":"44","num_nodes":"31","size_leaf_vector":"1"}},{"base_weights":[2.1770488E-1,-4.155208E-2,4.4402587E-1,-4.9816957E-1,6.781823E-2,3.3182433E-1,6.0070515E-1,-2.108945E0,-4.4598895E-1,8.676851E-2,-1.1389159E0,3.3392528E-1,-2.528048E-1,-2.5541553E-1,6.022331E-1,-8.619516E-2,-1.3832788E-1,-4.3377068E-2,-1.4663368E-2,1.4381871E-3,2.1642705E-2,-3.535931E-2,-2.075194E-1,2.4785856E-2,1.3900672E-2,3.5163052E-2,2.6144141E-2],"categories":[],"categories_nodes":[],"categories_segments":[],"categories_sizes":[],"default_left":[0,0,0,0,0,0,0,0,0,0,0,0,0,0,0,0,0,0,0,0,0,0,0,0,0,0,0],"id":21,"left_children":[1,3,5,7,9,11,13,15,17,19,21,23,-1,-1,25,-1,-1,-1,-1,-1,-1,-1,-1,-1,-1,-1,-1],"loss_changes":[2.5568582E3,1.01437885E3,4.088086E2,3.2896033E2,3.748384E2,1.5517676E2,8.7756836E1,2.634784E1,2.4459009E2,3.2388507E2,3.265618E2,1.2248352E2,0E0,0E0,7.743921E1,0E0,0E0,0E0,0E0,0E0,0E0,0E0,0E0,0E0,0E0,0E0,0E0],"parents":[2147483647,0,0,1,1,2,2,3,3,4,4,5,5,6,6,7,7,8,8,9,9,10,10,11,11,14,14],"right_children":[2,4,6,8,10,12,14,16,18,20,22,24,-1,-1,26,-1,-1,-1,-1,-1,-1,-1,-1,-1,-1,-1,-1],"split_conditions":[8.009347E-1,6.8602717E-1,8.7087053E-1,-1.4876385E-1,1.25E-1,2.7792832E-1,6E-2,6.5897477E-1,6.07462E-1,3.75E-2,2.3076923E-1,7.500933E-1,-2.528048E-1,-2.5541553E-1,-3.8776636E-1,-8.619516E-2,-1.3832788E-1,-4.3377068E-2,-1.4663368E-2,1.4381871E-3,2.1642705E-2,-3.535931E-2,-2.075194E-1,2.4785856E-2,1.3900672E-2,3.5163052E-2,2.6144141E-2],"split_indices":[38,38,38,8,24,40,31,38,38,18,5,37,0,0,40,0,0,0,0,0,0,0,0,0,0,0,0],"split_type":[0,0,0,0,0,0,0,0,0,0,0,0,0,0,0,0,0,0,0,0,0,0,0,0,0,0,0],"sum_hessian":[4.3575086E4,2.031011E4,2.3264975E4,3.9239966E3,1.6386113E4,1.3558527E4,9.706447E3,1.218913E2,3.8021055E3,1.6133682E4,2.5243155E2,1.355418E4,4.347185E0,1.7028869E0,9.704744E3,7.9162155E1,4.2729137E1,1.0098817E3,2.7922236E3,1.3818716E4,2.3149663E3,2.2186014E2,3.057141E1,3.4790374E3,1.0075143E4,4.265762E3,5.438982E3],"tree_param":{"num_deleted":"0","num_feature":"44","num_nodes":"27","size_leaf_vector":"1"}},{"base_weights":[2.0934805E-1,-1.2911835E-1,3.8235334E-1,-3.4223568E-1,4.507267E-2,2.8341943E-1,5.9747374E-1,-2.0367533E-1,-6.348452E-1,1.18135154E-1,-3.56989E-1,2.8555802E-1,-2.9356086E-1,6.9563675E-1,5.1411134E-1,-5.480304E-2,-7.112088E-3,-5.7757404E-2,-1.3987096E-2,1.2753188E-2,-8.6117415E-3,-1.9585557E-1,-1.4631209E-2,2.5057612E-2,1.2583144E-2,4.293054E-2,3.296038E-2,4.221679E-2,2.376132E-2],"categories":[],"categories_nodes":[],"categories_segments":[],"categories_sizes":[],"default_left":[0,0,0,0,0,0,0,0,0,0,0,0,0,0,0,0,0,0,0,0,0,0,0,0,0,0,0,0,0],"id":22,"left_children":[1,3,5,7,9,11,13,15,17,19,21,23,-1,25,27,-1,-1,-1,-1,-1,-1,-1,-1,-1,-1,-1,-1,-1,-1],"loss_changes":[2.5337524E3,5.4337256E2,6.092344E2,2.6676825E2,2.3665451E2,2.5985962E2,7.3448975E1,2.4483995E2,3.9044745E2,2.7108154E2,2.82736E2,1.4317273E2,0E0,2.4008179E1,6.22771E1,0E0,0E0,0E0,0E0,0E0,0E0,0E0,0E0,0E0,0E0,0E0,0E0,0E0,0E0],"parents":[2147483647,0,0,1,1,2,2,3,3,4,4,5,5,6,6,7,7,8,8,9,9,10,10,11,11,13,13,14,14],"right_children":[2,4,6,8,10,12,14,16,18,20,22,24,-1,26,28,-1,-1,-1,-1,-1,-1,-1,-1,-1,-1,-1,-1,-1,-1],"split_conditions":[7.6225764E-1,7.1564686E-1,8.72732E-1,9E-2,3E-2,1.0961958E0,-3.8776636E-1,5.0459814E-1,5.1E-1,2.2222223E-2,-8.5714287E-1,7.804258E-2,-2.9356086E-1,-5.542672E-1,6.8256414E-1,-5.480304E-2,-7.112088E-3,-5.7757404E-2,-1.3987096E-2,1.2753188E-2,-8.6117415E-3,-1.9585557E-1,-1.4631209E-2,2.5057612E-2,1.2583144E-2,4.293054E-2,3.296038E-2,4.221679E-2,2.376132E-2],"split_indices":[38,38,38,25,26,27,40,38,9,7,35,32,0,40,37,0,0,0,0,0,0,0,0,0,0,0,0,0,0],"split_type":[0,0,0,0,0,0,0,0,0,0,0,0,0,0,0,0,0,0,0,0,0,0,0,0,0,0,0,0,0],"sum_hessian":[4.326839E4,1.4635619E4,2.8632773E4,6.5819014E3,8.0537173E3,1.9614416E4,9.018357E3,4.4678984E3,2.114003E3,6.81585E3,1.2378673E3,1.9608557E4,5.8599076E0,4.138151E3,4.880206E3,2.8668365E2,4.181215E3,8.566188E2,1.2573842E3,4.6317812E3,2.1840688E3,2.0919468E1,1.2169479E3,2.662109E3,1.6946447E4,7.5187885E2,3.3862722E3,5.119375E2,4.3682686E3],"tree_param":{"num_deleted":"0","num_feature":"44","num_nodes":"29","size_leaf_vector":"1"}},{"base_weights":[2.0209026E-1,-6.801327E-2,4.1025022E-1,-8.9889413E-1,-1.3138389E-2,3.0809394E-1,5.865204E-1,-1.8732878E0,-6.8582517E-1,-2.2862573E-1,8.70128E-2,4.6218392E-1,2.657108E-1,7.7776444E-1,5.3996587E-1,-7.759296E-2,-9.991794E-2,-8.129037E-2,-2.4712333E-2,-1.737189E-2,1.0689182E-2,-1.1639382E-2,8.066335E-3,2.3311151E-2,-2.7310935E-1,-3.1734672E-3,1.6359193E-2,-1.0092969E-2,3.92552E-2,-2.18394E-1,2.7094547E-2],"categories":[],"categories_nodes":[],"categories_segments":[],"categories_sizes":[],"default_left":[0,0,0,0,0,0,0,0,0,0,0,0,0,0,0,0,0,0,0,0,0,0,0,0,0,0,0,0,0,0,0],"id":23,"left_children":[1,3,5,7,9,11,13,15,17,19,21,23,25,27,29,-1,-1,-1,-1,-1,-1,-1,-1,-1,-1,-1,-1,-1,-1,-1,-1],"loss_changes":[2.4145244E3,8.522271E2,4.3654443E2,2.3912811E2,3.7844223E2,1.00167725E2,7.879663E1,5.2285767E0,1.7059393E2,2.925375E2,2.8455307E2,8.178345E1,2.4378345E2,1.2666382E1,7.0004395E1,0E0,0E0,0E0,0E0,0E0,0E0,0E0,0E0,0E0,0E0,0E0,0E0,0E0,0E0,0E0,0E0],"parents":[2147483647,0,0,1,1,2,2,3,3,4,4,5,5,6,6,7,7,8,8,9,9,10,10,11,11,12,12,13,13,14,14],"right_children":[2,4,6,8,10,12,14,16,18,20,22,24,26,28,30,-1,-1,-1,-1,-1,-1,-1,-1,-1,-1,-1,-1,-1,-1,-1,-1],"split_conditions":[7.885843E-1,6.169796E-1,8.72732E-1,-1.956213E-13,7.167011E-1,7.351571E-1,-4.8054892E-1,4.7344953E-1,6.5E-1,6E-1,-1E-2,9.344442E-1,3.2083333E-1,-2.09689E0,5.5454545E-2,-7.759296E-2,-9.991794E-2,-8.129037E-2,-2.4712333E-2,-1.737189E-2,1.0689182E-2,-1.1639382E-2,8.066335E-3,2.3311151E-2,-2.7310935E-1,-3.1734672E-3,1.6359193E-2,-1.0092969E-2,3.92552E-2,-2.18394E-1,2.7094547E-2],"split_indices":[38,38,38,6,38,37,40,38,9,9,10,27,3,43,31,0,0,0,0,0,0,0,0,0,0,0,0,0,0,0,0],"split_type":[0,0,0,0,0,0,0,0,0,0,0,0,0,0,0,0,0,0,0,0,0,0,0,0,0,0,0,0,0,0,0],"sum_hessian":[4.2942668E4,1.8690709E4,2.4251959E4,1.1569854E3,1.7533723E4,1.5355514E4,8.896445E3,2.0620222E2,9.5078314E2,5.562992E3,1.197073E4,3.310349E3,1.2045165E4,1.7386086E3,7.1578364E3,6.1515915E1,1.4468631E2,1.5970454E2,7.9107855E2,4.3854614E3,1.1775309E3,2.2567898E3,9.713941E3,3.3090146E3,1.3346832E0,1.8954176E3,1.0149747E4,1.2732099E1,1.7258765E3,1.917321E0,7.155919E3],"tree_param":{"num_deleted":"0","num_feature":"44","num_nodes":"31","size_leaf_vector":"1"}},{"base_weights":[1.9069694E-1,-1.2857047E-2,4.3818924E-1,-5.883404E-1,4.906421E-2,6.4179796E-1,3.647398E-1,-3.1223035E-1,-1.0682594E0,6.620434E-2,-6.674246E-1,-1.0830444E-2,6.556493E-1,3.2126823E-1,5.492805E-1,1.539501E-2,-2.7410233E-2,-1.0077363E-1,-3.94769E-2,1.9792544E-2,1.0248732E-3,-1.0529613E-1,-2.2843708E-3,9.85692E-3,-3.614627E-1,-6.342976E-2,3.2960158E-2,1.6279517E-2,-1.0354675E-1,-5.3841498E-2,2.8296864E-2],"categories":[],"categories_nodes":[],"categories_segments":[],"categories_sizes":[],"default_left":[0,0,0,0,0,0,0,0,0,0,0,0,0,0,0,0,0,0,0,0,0,0,0,0,0,0,0,0,0,0,0],"id":24,"left_children":[1,3,5,7,9,11,13,15,17,19,21,23,25,27,29,-1,-1,-1,-1,-1,-1,-1,-1,-1,-1,-1,-1,-1,-1,-1,-1],"loss_changes":[2.136684E3,8.2936206E2,2.8601318E2,2.9926935E2,2.5810178E2,4.5865723E1,1.126864E2,2.1040166E2,2.1630017E2,3.092174E2,4.3906763E2,1.6117511E2,3.4806152E1,1.1842688E2,7.322211E1,0E0,0E0,0E0,0E0,0E0,0E0,0E0,0E0,0E0,0E0,0E0,0E0,0E0,0E0,0E0,0E0],"parents":[2147483647,0,0,1,1,2,2,3,3,4,4,5,5,6,6,7,7,8,8,9,9,10,10,11,11,12,12,13,13,14,14],"right_children":[2,4,6,8,10,12,14,16,18,20,22,24,26,28,30,-1,-1,-1,-1,-1,-1,-1,-1,-1,-1,-1,-1,-1,-1,-1,-1],"split_conditions":[8.228344E-1,6.5897477E-1,-3.7181926E-1,3.359091E-1,1.25E-1,-5E-1,-2E-2,3.2258064E-2,0E0,0E0,4.1E-1,2.8379577E-1,8.293922E-1,4.5833334E-1,-1.962187E0,1.539501E-2,-2.7410233E-2,-1.0077363E-1,-3.94769E-2,1.9792544E-2,1.0248732E-3,-1.0529613E-1,-2.2843708E-3,9.85692E-3,-3.614627E-1,-6.342976E-2,3.2960158E-2,1.6279517E-2,-1.0354675E-1,-5.3841498E-2,2.8296864E-2],"split_indices":[38,38,40,31,24,10,10,0,10,16,9,32,38,4,43,0,0,0,0,0,0,0,0,0,0,0,0,0,0,0,0],"split_type":[0,0,0,0,0,0,0,0,0,0,0,0,0,0,0,0,0,0,0,0,0,0,0,0,0,0,0,0,0,0,0],"sum_hessian":[4.2411883E4,2.3272223E4,1.913966E4,2.2599756E3,2.1012246E4,5.071965E3,1.4067696E4,1.4356556E3,8.2432E2,2.0522215E4,4.9003278E2,1.0541433E2,4.9665503E3,1.1387846E4,2.6798508E3,3.9563605E2,1.0400197E3,1.859959E2,6.383241E2,2.498062E3,1.8024152E4,1.4716158E2,3.4287122E2,1.0340775E2,2.0065744E0,8.4994135E0,4.9580513E3,1.136817E4,1.9675373E1,2.652682E1,2.653324E3],"tree_param":{"num_deleted":"0","num_feature":"44","num_nodes":"31","size_leaf_vector":"1"}},{"base_weights":[1.7935134E-1,-5.0525606E-2,3.8935536E-1,-4.8707697E-1,3.793735E-2,2.883311E-1,5.5273587E-1,-1.2547153E0,-3.9332974E-1,5.366343E-2,-8.7033397E-1,2.901849E-1,-1.9754173E-1,6.5959704E-1,4.655271E-1,-1.8586274E-4,-7.606219E-2,-3.165796E-2,5.0267493E-3,1.8886324E-2,1.4740431E-4,-1.1045452E-1,-1.1867297E-2,2.2314461E-2,1.2178396E-2,8.390503E-3,3.3571E-2,-1.9306038E-1,2.3421284E-2],"categories":[],"categories_nodes":[],"categories_segments":[],"categories_sizes":[],"default_left":[0,0,0,0,0,0,0,0,0,0,0,0,0,0,0,0,0,0,0,0,0,0,0,0,0,0,0,0,0],"id":25,"left_children":[1,3,5,7,9,11,13,15,17,19,21,23,-1,25,27,-1,-1,-1,-1,-1,-1,-1,-1,-1,-1,-1,-1,-1,-1],"loss_changes":[2.022316E3,7.723972E2,3.6117603E2,2.420268E2,2.3759831E2,1.0746838E2,7.763403E1,1.2213312E2,3.5595172E2,2.6869452E2,2.3939085E2,9.831091E1,0E0,2.1725342E1,5.960614E1,0E0,0E0,0E0,0E0,0E0,0E0,0E0,0E0,0E0,0E0,0E0,0E0,0E0,0E0],"parents":[2147483647,0,0,1,1,2,2,3,3,4,4,5,5,6,6,7,7,8,8,9,9,10,10,11,11,13,13,14,14],"right_children":[2,4,6,8,10,12,14,16,18,20,22,24,-1,26,28,-1,-1,-1,-1,-1,-1,-1,-1,-1,-1,-1,-1,-1,-1],"split_conditions":[8.009347E-1,6.7894053E-1,8.72732E-1,5.0459814E-1,1.25E-1,2.7792832E-1,-3.8776636E-1,-1.05145834E-1,7.2E-1,0E0,4.1E-1,7.4429566E-1,-1.9754173E-1,-2.040471E0,6E-2,-1.8586274E-4,-7.606219E-2,-3.165796E-2,5.0267493E-3,1.8886324E-2,1.4740431E-4,-1.1045452E-1,-1.1867297E-2,2.2314461E-2,1.2178396E-2,8.390503E-3,3.3571E-2,-1.9306038E-1,2.3421284E-2],"split_indices":[38,38,38,38,24,40,40,27,9,16,9,37,0,43,31,0,0,0,0,0,0,0,0,0,0,0,0,0,0],"split_type":[0,0,0,0,0,0,0,0,0,0,0,0,0,0,0,0,0,0,0,0,0,0,0,0,0,0,0,0,0],"sum_hessian":[4.189011E4,1.9999162E4,2.189095E4,3.3690251E3,1.6630137E4,1.3528524E4,8.362425E3,3.6531357E2,3.0037114E3,1.6348023E4,2.821136E2,1.3523542E4,4.9823027E0,3.754855E3,4.6075693E3,6.433937E1,3.0097418E2,2.0216703E3,9.820412E2,2.2113564E3,1.4136667E4,8.976743E1,1.9234616E2,3.1078474E3,1.0415694E4,8.850724E1,3.6663477E3,2.193495E0,4.605376E3],"tree_param":{"num_deleted":"0","num_feature":"44","num_nodes":"29","size_leaf_vector":"1"}},{"base_weights":[1.71894E-1,-7.3132957E-3,4.2126393E-1,-3.4285057E-1,8.917E-2,3.1195748E-1,5.5075514E-1,-1.4178078E0,-2.8845814E-1,9.495857E-2,-2.1006777E0,5.3644013E-1,2.8113732E-1,7.350891E-1,5.05594E-1,8.926007E-3,-1.0131594E-1,-1.1978942E-2,-6.0053725E-2,9.255692E-3,-2.2057944E-3,-1.7568234E-1,3.2137927E-2,-4.7164395E-2,2.8796935E-2,3.7480951E-3,1.7139254E-2,1.2955502E-2,3.7722673E-2,2.9563278E-2,2.0306338E-2],"categories":[],"categories_nodes":[],"categories_segments":[],"categories_sizes":[],"default_left":[0,0,0,0,0,0,0,0,0,0,0,0,0,0,0,0,0,0,0,0,0,0,0,0,0,0,0,0,0,0,0],"id":26,"left_children":[1,3,5,7,9,11,13,15,17,19,21,23,25,27,29,-1,-1,-1,-1,-1,-1,-1,-1,-1,-1,-1,-1,-1,-1,-1,-1],"loss_changes":[1.853152E3,7.811838E2,2.4525635E2,3.1468286E2,2.3776488E2,6.491791E1,6.569043E1,2.5223419E2,2.2858286E2,2.3438373E2,1.9395586E2,6.683746E1,1.0510895E2,1.4177612E1,5.4103516E1,0E0,0E0,0E0,0E0,0E0,0E0,0E0,0E0,0E0,0E0,0E0,0E0,0E0,0E0,0E0,0E0],"parents":[2147483647,0,0,1,1,2,2,3,3,4,4,5,5,6,6,7,7,8,8,9,9,10,10,11,11,12,12,13,13,14,14],"right_children":[2,4,6,8,10,12,14,16,18,20,22,24,26,28,30,-1,-1,-1,-1,-1,-1,-1,-1,-1,-1,-1,-1,-1,-1,-1,-1],"split_conditions":[8.293922E-1,7.0387816E-1,8.738857E-1,-1.5E-1,5.788794E-1,6.8256414E-1,-4.8054892E-1,7.7560425E-1,7.5E-1,2.3809524E-2,4.6666667E-1,5E-2,3.625E-1,-2.6813912E-1,2.8438935E-1,8.926007E-3,-1.0131594E-1,-1.1978942E-2,-6.0053725E-2,9.255692E-3,-2.2057944E-3,-1.7568234E-1,3.2137927E-2,-4.7164395E-2,2.8796935E-2,3.7480951E-3,1.7139254E-2,1.2955502E-2,3.7722673E-2,2.9563278E-2,2.0306338E-2],"split_indices":[38,38,38,6,40,37,40,37,11,7,5,9,3,27,32,0,0,0,0,0,0,0,0,0,0,0,0,0,0,0,0],"split_type":[0,0,0,0,0,0,0,0,0,0,0,0,0,0,0,0,0,0,0,0,0,0,0,0,0,0,0,0,0,0,0],"sum_hessian":[4.1466766E4,2.412822E4,1.7338545E4,5.3879937E3,1.8740229E4,9.403906E3,7.934638E3,2.582925E2,5.129701E3,1.8691775E4,4.845256E1,1.1332592E3,8.270646E3,1.5584102E3,6.376228E3,7.148088E1,1.8681161E2,4.8701226E3,2.5957892E2,1.1340163E4,7.351612E3,3.1795818E1,1.6656744E1,2.8868856E1,1.1043903E3,1.9042533E3,6.3663936E3,6.1484486E1,1.4969257E3,3.4230215E3,2.9532063E3],"tree_param":{"num_deleted":"0","num_feature":"44","num_nodes":"31","size_leaf_vector":"1"}},{"base_weights":[1.6426858E-1,-1.14946984E-1,3.1765687E-1,-1.3450743E0,-9.305516E-2,2.2676647E-1,5.258285E-1,5.25605E-1,-1.5380265E0,-3.8584314E-2,-4.5310414E-1,1.8150385E-1,4.8204106E-1,7.290726E-1,4.8555702E-1,6.875181E-2,-7.7573486E-2,-6.617793E-2,-8.017939E-2,4.3412815E-3,-1.0303672E-2,-1.4534861E-2,-6.49267E-2,9.17167E-3,-3.2169846E-1,2.4367878E-2,-2.786084E-1,1.9675773E-2,3.8443413E-2,-3.4526992E-1,2.4405314E-2],"categories":[],"categories_nodes":[],"categories_segments":[],"categories_sizes":[],"default_left":[0,0,0,0,0,0,0,0,0,0,0,0,0,0,0,0,0,0,0,0,0,0,0,0,0,0,0,0,0,0,0],"id":27,"left_children":[1,3,5,7,9,11,13,15,17,19,21,23,25,27,29,-1,-1,-1,-1,-1,-1,-1,-1,-1,-1,-1,-1,-1,-1,-1,-1],"loss_changes":[1.7605519E3,3.9239658E2,5.018777E2,9.2773926E1,2.8086786E2,2.1332037E2,6.563818E1,4.547967E1,1.1286621E0,2.6134018E2,2.5801672E2,2.0145752E2,9.2230225E1,1.7476196E1,1.3021704E2,0E0,0E0,0E0,0E0,0E0,0E0,0E0,0E0,0E0,0E0,0E0,0E0,0E0,0E0,0E0,0E0],"parents":[2147483647,0,0,1,1,2,2,3,3,4,4,5,5,6,6,7,7,8,8,9,9,10,10,11,11,12,12,13,13,14,14],"right_children":[2,4,6,8,10,12,14,16,18,20,22,24,26,28,30,-1,-1,-1,-1,-1,-1,-1,-1,-1,-1,-1,-1,-1,-1,-1,-1],"split_conditions":[7.6225764E-1,4.7344953E-1,8.72732E-1,-8.333333E-1,4E-2,3E-2,6.8256414E-1,-1E-2,6.8E-1,-2.6666666E-3,7.058117E-1,9.248208E-1,7.875E-1,4.3306038E-1,1.5416667E-1,6.875181E-2,-7.7573486E-2,-6.617793E-2,-8.017939E-2,4.3412815E-3,-1.0303672E-2,-1.4534861E-2,-6.49267E-2,9.17167E-3,-3.2169846E-1,2.4367878E-2,-2.786084E-1,1.9675773E-2,3.8443413E-2,-3.4526992E-1,2.4405314E-2],"split_indices":[38,38,38,35,26,10,37,10,9,27,41,37,16,37,3,0,0,0,0,0,0,0,0,0,0,0,0,0,0,0,0],"split_type":[0,0,0,0,0,0,0,0,0,0,0,0,0,0,0,0,0,0,0,0,0,0,0,0,0,0,0,0,0,0,0],"sum_hessian":[4.110526E4,1.4574776E4,2.6530486E4,2.5378627E2,1.432099E4,1.8468842E4,8.0616455E3,2.3568134E1,2.3021814E2,1.2440072E4,1.8809178E3,1.5688782E4,2.7800588E3,1.3303684E3,6.7312773E3,1.696727E1,6.600865E0,5.886013E1,1.71358E2,7.1139097E3,5.3261626E3,1.5789463E3,3.0197153E2,1.568518E4,3.602637E0,2.7785383E3,1.5204735E0,1.4220291E2,1.1881654E3,1.3872944E0,6.7298896E3],"tree_param":{"num_deleted":"0","num_feature":"44","num_nodes":"31","size_leaf_vector":"1"}},{"base_weights":[1.6521633E-1,9.130719E-3,4.0638235E-1,-2.3238574E-1,1.024146E-1,5.7828116E-1,3.4329462E-1,-6.589473E-1,-1.468339E-1,2.6859693E-2,2.5677013E-1,-5.4890733E-2,5.930863E-1,4.2350206E-1,2.4830921E-1,-8.766967E-2,-2.1959078E-2,-1.2504778E-2,1.2201687E-2,1.797445E-2,-1.8619979E-3,1.4918138E-2,-2.8088331E-2,-3.373991E-1,4.5534833E-3,3.9556324E-2,2.7492447E-2,2.127967E-2,-2.884241E-1,2.3530958E-2,6.724955E-3],"categories":[],"categories_nodes":[],"categories_segments":[],"categories_sizes":[],"default_left":[0,0,0,0,0,0,0,0,0,0,0,0,0,0,0,0,0,0,0,0,0,0,0,0,0,0,0,0,0,0,0],"id":28,"left_children":[1,3,5,7,9,11,13,15,17,19,21,23,25,27,29,-1,-1,-1,-1,-1,-1,-1,-1,-1,-1,-1,-1,-1,-1,-1,-1],"loss_changes":[1.5486759E3,5.6275916E2,1.7510742E2,2.5388455E2,2.1013531E2,4.0701904E1,9.0004395E1,2.7880676E2,2.3409094E2,2.579709E2,2.0176181E2,9.834729E1,3.5865967E1,8.547925E1,1.3700314E2,0E0,0E0,0E0,0E0,0E0,0E0,0E0,0E0,0E0,0E0,0E0,0E0,0E0,0E0,0E0,0E0],"parents":[2147483647,0,0,1,1,2,2,3,3,4,4,5,5,6,6,7,7,8,8,9,9,10,10,11,11,12,12,13,13,14,14],"right_children":[2,4,6,8,10,12,14,16,18,20,22,24,26,28,30,-1,-1,-1,-1,-1,-1,-1,-1,-1,-1,-1,-1,-1,-1,-1,-1],"split_conditions":[8.347097E-1,7.167011E-1,-3.7550318E-1,6.169796E-1,1E-2,-5E-1,2.8575304E-1,-1.956213E-13,6E-1,6.924129E-2,3.4719402E-1,4.3333334E-1,-5.403318E-1,2.4E-1,2.5E-1,-8.766967E-2,-2.1959078E-2,-1.2504778E-2,1.2201687E-2,1.797445E-2,-1.8619979E-3,1.4918138E-2,-2.8088331E-2,-3.373991E-1,4.5534833E-3,3.9556324E-2,2.7492447E-2,2.127967E-2,-2.884241E-1,2.3530958E-2,6.724955E-3],"split_indices":[38,38,40,38,10,10,32,6,9,32,40,3,40,26,1,0,0,0,0,0,0,0,0,0,0,0,0,0,0,0,0],"split_type":[0,0,0,0,0,0,0,0,0,0,0,0,0,0,0,0,0,0,0,0,0,0,0,0,0,0,0,0,0,0,0],"sum_hessian":[4.1140734E4,2.4976607E4,1.6164127E4,6.9587017E3,1.8017904E4,4.3374517E3,1.1826676E4,1.1613765E3,5.797325E3,1.2097514E4,5.920392E3,9.904108E1,4.2384106E3,6.410269E3,5.4164067E3,1.9304129E2,9.683352E2,4.5861025E3,1.2112228E3,1.9538553E3,1.0143658E4,5.634709E3,2.8568298E2,1.1484126E0,9.789266E1,7.564314E2,3.4819792E3,6.4090356E3,1.2334166E0,1.8329314E3,3.5834753E3],"tree_param":{"num_deleted":"0","num_feature":"44","num_nodes":"31","size_leaf_vector":"1"}},{"base_weights":[1.5380272E-1,-4.5484807E-2,3.455382E-1,-7.210825E-1,-4.362255E-3,4.503734E-1,1.9735019E-1,-1.4685994E0,-3.7843618E-1,4.5809934E-1,-3.7748363E-2,6.2948227E-1,3.9871714E-1,4.2350876E-1,1.5040454E-1,-2.1280518E-2,-7.9429984E-2,-7.816939E-3,-8.030649E-2,-1.9107823E-1,2.4681643E-2,-8.983791E-4,-5.215291E-2,3.993348E-2,2.8955622E-2,1.7616572E-2,2.9944152E-2,2.213227E-2,-8.15925E-2,9.052766E-3,-9.364771E-2],"categories":[],"categories_nodes":[],"categories_segments":[],"categories_sizes":[],"default_left":[0,0,0,0,0,0,0,0,0,0,0,0,0,0,0,0,0,0,0,0,0,0,0,0,0,0,0,0,0,0,0],"id":29,"left_children":[1,3,5,7,9,11,13,15,17,19,21,23,25,27,29,-1,-1,-1,-1,-1,-1,-1,-1,-1,-1,-1,-1,-1,-1,-1,-1],"loss_changes":[1.5549363E3,5.543841E2,3.2211157E2,2.9269574E2,2.904518E2,1.1212427E2,9.1190094E1,4.431952E1,2.1417648E2,1.9450504E2,3.4888074E2,2.2692627E1,8.734326E1,5.8812195E1,4.418446E2,0E0,0E0,0E0,0E0,0E0,0E0,0E0,0E0,0E0,0E0,0E0,0E0,0E0,0E0,0E0,0E0],"parents":[2147483647,0,0,1,1,2,2,3,3,4,4,5,5,6,6,7,7,8,8,9,9,10,10,11,11,12,12,13,13,14,14],"right_children":[2,4,6,8,10,12,14,16,18,20,22,24,26,28,30,-1,-1,-1,-1,-1,-1,-1,-1,-1,-1,-1,-1,-1,-1,-1,-1],"split_conditions":[5.942897E-1,7.047935E-2,-2.1596494E-1,7.4E-1,0E0,-4.2642197E-1,2.15E-1,-1.0292358E-1,4E-2,6E-2,3.2441196E-1,-5.542672E-1,-2E-2,3.9E-1,4.388484E-2,-2.1280518E-2,-7.9429984E-2,-7.816939E-3,-8.030649E-2,-1.9107823E-1,2.4681643E-2,-8.983791E-4,-5.215291E-2,3.993348E-2,2.8955622E-2,1.7616572E-2,2.9944152E-2,2.213227E-2,-8.15925E-2,9.052766E-3,-9.364771E-2],"split_indices":[39,39,40,9,24,40,31,40,26,9,40,40,10,13,40,0,0,0,0,0,0,0,0,0,0,0,0,0,0,0,0],"split_type":[0,0,0,0,0,0,0,0,0,0,0,0,0,0,0,0,0,0,0,0,0,0,0,0,0,0,0,0,0,0,0],"sum_hessian":[4.069255E4,1.9953691E4,2.0738861E4,1.1439146E3,1.8809775E4,1.2144926E4,8.593936E3,3.5850793E2,7.854067E2,1.2656316E3,1.7544145E4,2.7161116E3,9.428813E3,1.4758882E3,7.1180474E3,3.7460934E1,3.21047E2,6.660427E2,1.1936392E2,9.54448E0,1.2560872E3,1.72066E4,3.3754443E2,6.197103E2,2.0964011E3,7.6571367E3,1.7716774E3,1.463051E3,1.2837237E1,7.0127256E3,1.0532147E2],"tree_param":{"num_deleted":"0","num_feature":"44","num_nodes":"31","size_leaf_vector":"1"}},{"base_weights":[1.4656052E-1,-7.012118E-2,3.1104797E-1,-2.6023278E-1,5.0623775E-2,2.2135131E-1,4.7850874E-1,-2.4073374E-1,-2.1586707E0,1.269583E-1,-2.8170708E-1,-7.9524547E-1,2.312849E-1,6.9126004E-1,4.3237957E-1,-1.111893E-2,-1.1382482E-1,-1.3712394E-1,4.669802E-2,-1.4806096E-2,9.27526E-3,-5.0847544E-3,-8.592189E-2,-1.9660002E-2,-3.0699167E-1,2.2678785E-2,9.837706E-3,4.5416425E-3,3.5393815E-2,3.5176296E-2,1.959428E-2],"categories":[],"categories_nodes":[],"categories_segments":[],"categories_sizes":[],"default_left":[0,0,0,0,0,0,0,0,0,0,0,0,0,0,0,0,0,0,0,0,0,0,0,0,0,0,0,0,0,0,0],"id":30,"left_children":[1,3,5,7,9,11,13,15,17,19,21,23,25,27,29,-1,-1,-1,-1,-1,-1,-1,-1,-1,-1,-1,-1,-1,-1,-1,-1],"loss_changes":[1.4387853E3,3.9990952E2,3.4458667E2,2.499751E2,2.703346E2,1.5111035E2,7.824646E1,2.4982175E2,1.2654761E2,2.146979E2,5.146391E2,3.088364E2,1.1352643E2,1.4147034E1,7.19707E1,0E0,0E0,0E0,0E0,0E0,0E0,0E0,0E0,0E0,0E0,0E0,0E0,0E0,0E0,0E0,0E0],"parents":[2147483647,0,0,1,1,2,2,3,3,4,4,5,5,6,6,7,7,8,8,9,9,10,10,11,11,12,12,13,13,14,14],"right_children":[2,4,6,8,10,12,14,16,18,20,22,24,26,28,30,-1,-1,-1,-1,-1,-1,-1,-1,-1,-1,-1,-1,-1,-1,-1,-1],"split_conditions":[7.790512E-1,7.167011E-1,8.7087053E-1,6.875E-1,3E-2,-3.8E-1,-4.8054892E-1,1E-1,1.7874241E-1,-1E-2,4.940909E-1,-1.3024852E0,7.804258E-2,-3.1906942E-1,6.8256414E-1,-1.111893E-2,-1.1382482E-1,-1.3712394E-1,4.669802E-2,-1.4806096E-2,9.27526E-3,-5.0847544E-3,-8.592189E-2,-1.9660002E-2,-3.0699167E-1,2.2678785E-2,9.837706E-3,4.5416425E-3,3.5393815E-2,3.5176296E-2,1.959428E-2],"split_indices":[38,38,38,36,26,10,40,26,43,10,31,43,32,27,37,0,0,0,0,0,0,0,0,0,0,0,0,0,0,0,0],"split_type":[0,0,0,0,0,0,0,0,0,0,0,0,0,0,0,0,0,0,0,0,0,0,0,0,0,0,0,0,0,0,0],"sum_hessian":[4.0366742E4,1.741987E4,2.2946873E4,6.7658916E3,1.0653978E4,1.4944503E4,8.002369E3,6.6982207E3,6.767126E1,8.664426E3,1.9895518E3,1.438508E2,1.4800652E4,1.4234276E3,6.578942E3,6.639466E3,5.875451E1,5.7020493E1,1.0650764E1,1.0527603E3,7.611666E3,1.7689818E3,2.2056987E2,1.3478517E2,9.065616E0,1.9883812E3,1.2812271E4,3.850532E1,1.3849222E3,8.527284E2,5.7262134E3],"tree_param":{"num_deleted":"0","num_feature":"44","num_nodes":"31","size_leaf_vector":"1"}},{"base_weights":[1.421239E-1,-8.740666E-3,3.451971E-1,-2.78144E-1,6.1655946E-2,5.654357E-1,2.8423235E-1,-8.242218E-1,-1.8109871E-1,6.78578E-2,-2.3683362E0,-1.0802193E-1,5.781373E-1,5.465542E-1,2.5504932E-1,-6.2005974E-2,1.7994205E-2,-7.100662E-2,-6.8904064E-3,2.6092175E-2,2.0703461E-3,-1.5249167E-1,5.2140333E-2,-4.6753702E-1,1.55657185E-2,3.871213E-2,2.7020538E-2,2.7805854E-2,-2.8170452E-1,3.03816E-3,1.5578883E-2],"categories":[],"categories_nodes":[],"categories_segments":[],"categories_sizes":[],"default_left":[0,0,0,0,0,0,0,0,0,0,0,0,0,0,0,0,0,0,0,0,0,0,0,0,0,0,0,0,0,0,0],"id":31,"left_children":[1,3,5,7,9,11,13,15,17,19,21,23,25,27,29,-1,-1,-1,-1,-1,-1,-1,-1,-1,-1,-1,-1,-1,-1,-1,-1],"loss_changes":[1.230944E3,4.3723334E2,2.2978772E2,2.529643E2,2.7562622E2,3.1814209E1,1.0255847E2,3.5523846E2,2.1740514E2,2.1892542E2,1.1141702E2,2.7249033E2,2.6536621E1,8.2459564E1,1.3258612E2,0E0,0E0,0E0,0E0,0E0,0E0,0E0,0E0,0E0,0E0,0E0,0E0,0E0,0E0,0E0,0E0],"parents":[2147483647,0,0,1,1,2,2,3,3,4,4,5,5,6,6,7,7,8,8,9,9,10,10,11,11,12,12,13,13,14,14],"right_children":[2,4,6,8,10,12,14,16,18,20,22,24,26,28,30,-1,-1,-1,-1,-1,-1,-1,-1,-1,-1,-1,-1,-1,-1,-1,-1],"split_conditions":[8.228344E-1,6.9587004E-1,-3.8776636E-1,-6.29845E-2,5.788794E-1,-2.09689E0,6.8256414E-1,5.9E-1,4.3493712E-1,0E0,6.4243335E-1,6.0437155E-1,-5.542672E-1,8.958333E-1,3.625E-1,-6.2005974E-2,1.7994205E-2,-7.100662E-2,-6.8904064E-3,2.6092175E-2,2.0703461E-3,-1.5249167E-1,5.2140333E-2,-4.6753702E-1,1.55657185E-2,3.871213E-2,2.7020538E-2,2.7805854E-2,-2.8170452E-1,3.03816E-3,1.5578883E-2],"split_indices":[38,38,40,7,40,43,37,31,38,24,27,37,40,3,3,0,0,0,0,0,0,0,0,0,0,0,0,0,0,0,0],"split_type":[0,0,0,0,0,0,0,0,0,0,0,0,0,0,0,0,0,0,0,0,0,0,0,0,0,0,0,0,0,0,0],"sum_hessian":[4.0177836E4,2.3052744E4,1.7125092E4,4.7752427E3,1.82775E4,3.710919E3,1.3414173E4,7.194388E2,4.055804E3,1.8231941E4,4.5559723E1,6.855437E1,3.6423645E3,1.3411394E3,1.2073033E4,5.323961E2,1.8704265E2,1.358481E2,3.9199558E3,1.00274536E3,1.7229195E4,3.8061504E1,7.498217E0,2.0509021E0,6.650346E1,5.845109E2,3.0578535E3,1.3399762E3,1.1632171E0,2.7214763E3,9.351557E3],"tree_param":{"num_deleted":"0","num_feature":"44","num_nodes":"31","size_leaf_vector":"1"}},{"base_weights":[1.3072228E-1,-1.0146439E-1,2.6596203E-1,-7.62106E-1,-5.4332927E-2,3.881984E-1,1.4816616E-1,-2.8932935E-1,-1.2750186E0,4.2835552E-1,-9.055884E-2,5.803562E-1,3.3898842E-1,9.075173E-2,3.8066018E-1,-4.0031936E-2,4.0719286E-2,-1.7341087E-2,-7.588818E-2,2.3553113E-2,-1.574985E-1,-2.7514237E-3,-3.546844E-2,-1.6064318E-1,2.9215947E-2,1.7021602E-2,-3.1790927E-1,4.742404E-3,-2.518235E-1,1.932978E-2,-3.4521613E-1],"categories":[],"categories_nodes":[],"categories_segments":[],"categories_sizes":[],"default_left":[0,0,0,0,0,0,0,0,0,0,0,0,0,0,0,0,0,0,0,0,0,0,0,0,0,0,0,0,0,0,0],"id":32,"left_children":[1,3,5,7,9,11,13,15,17,19,21,23,25,27,29,-1,-1,-1,-1,-1,-1,-1,-1,-1,-1,-1,-1,-1,-1,-1,-1],"loss_changes":[1.2434519E3,4.5380646E2,3.6025598E2,2.3498181E2,2.3795605E2,1.15921265E2,1.700906E2,2.863919E2,1.0429474E2,1.4666801E2,2.7825015E2,3.9489563E1,9.670618E1,2.1517236E2,1.1179364E2,0E0,0E0,0E0,0E0,0E0,0E0,0E0,0E0,0E0,0E0,0E0,0E0,0E0,0E0,0E0,0E0],"parents":[2147483647,0,0,1,1,2,2,3,3,4,4,5,5,6,6,7,7,8,8,9,9,10,10,11,11,12,12,13,13,14,14],"right_children":[2,4,6,8,10,12,14,16,18,20,22,24,26,28,30,-1,-1,-1,-1,-1,-1,-1,-1,-1,-1,-1,-1,-1,-1,-1,-1],"split_conditions":[4.671789E-1,6.319742E-2,-2.0778698E-1,6.1824113E-2,0E0,-4.2642197E-1,3E-2,2.4856128E-2,1.09890985E-11,6.086956E-1,2.4853207E-1,5.942897E-1,9.7083336E-1,2.7792832E-1,9.28892E-1,-4.0031936E-2,4.0719286E-2,-1.7341087E-2,-7.588818E-2,2.3553113E-2,-1.574985E-1,-2.7514237E-3,-3.546844E-2,-1.6064318E-1,2.9215947E-2,1.7021602E-2,-3.1790927E-1,4.742404E-3,-2.518235E-1,1.932978E-2,-3.4521613E-1],"split_indices":[39,39,40,32,24,40,10,32,5,5,40,39,3,40,39,0,0,0,0,0,0,0,0,0,0,0,0,0,0,0,0],"split_type":[0,0,0,0,0,0,0,0,0,0,0,0,0,0,0,0,0,0,0,0,0,0,0,0,0,0,0,0,0,0,0],"sum_hessian":[3.959743E4,1.4574836E4,2.5022592E4,9.695458E2,1.3605291E4,1.2278715E4,1.2743878E4,5.0532602E2,4.6421973E2,9.4904285E2,1.2656248E4,2.5011812E3,9.777533E3,1.0221152E4,2.522725E3,3.455298E2,1.5979625E2,9.673974E1,3.6747998E2,9.387079E2,1.0334969E1,1.1970049E4,6.861985E2,1.7651999E0,2.499416E3,9.776375E3,1.1582177E0,1.0213974E4,7.1788597E0,2.5216177E3,1.1075497E0],"tree_param":{"num_deleted":"0","num_feature":"44","num_nodes":"31","size_leaf_vector":"1"}},{"base_weights":[1.3336036E-1,-1.8045023E-1,2.2097306E-1,-5.48485E-1,-9.0526596E-2,1.5181907E-1,4.3702972E-1,-1.277638E0,-3.0626002E-1,-7.806501E-2,-3.3019013E0,1.593475E-1,-8.2842255E-1,6.656257E-1,3.931818E-1,-2.1985643E-2,-8.035894E-2,-1.0391633E-2,-1.05852835E-1,3.2977224E-3,-1.690214E-2,-7.816081E-2,-1.7189477E-1,1.8421205E-2,6.40082E-3,-1.2478371E-1,-1.0644227E-2,1.199609E-2,3.573656E-2,-3.2561973E-1,1.9825669E-2],"categories":[],"categories_nodes":[],"categories_segments":[],"categories_sizes":[],"default_left":[0,0,0,0,0,0,0,0,0,0,0,0,0,0,0,0,0,0,0,0,0,0,0,0,0,0,0,0,0,0,0],"id":33,"left_children":[1,3,5,7,9,11,13,15,17,19,21,23,25,27,29,-1,-1,-1,-1,-1,-1,-1,-1,-1,-1,-1,-1,-1,-1,-1,-1],"loss_changes":[1.0887471E3,2.8599335E2,4.6245605E2,2.993202E2,2.777589E2,1.7319958E2,7.496741E1,1.1605139E2,2.2682361E2,2.5916916E2,9.6969604E-1,1.5241156E2,1.8306949E2,2.5049377E1,1.4751935E2,0E0,0E0,0E0,0E0,0E0,0E0,0E0,0E0,0E0,0E0,0E0,0E0,0E0,0E0,0E0,0E0],"parents":[2147483647,0,0,1,1,2,2,3,3,4,4,5,5,6,6,7,7,8,8,9,9,10,10,11,11,12,12,13,13,14,14],"right_children":[2,4,6,8,10,12,14,16,18,20,22,24,26,28,30,-1,-1,-1,-1,-1,-1,-1,-1,-1,-1,-1,-1,-1,-1,-1,-1],"split_conditions":[7.295755E-1,6.452603E-1,8.7087053E-1,5.4E-1,4.7800365E-1,3.1965249E0,6.8256414E-1,-7.180851E-2,7E-2,-5.0628786E-3,6.5897477E-1,7.804258E-2,7.961572E-1,4.3306038E-1,1.5416667E-1,-2.1985643E-2,-8.035894E-2,-1.0391633E-2,-1.05852835E-1,3.2977224E-3,-1.690214E-2,-7.816081E-2,-1.7189477E-1,1.8421205E-2,6.40082E-3,-1.2478371E-1,-1.0644227E-2,1.199609E-2,3.573656E-2,-3.2561973E-1,1.9825669E-2],"split_indices":[38,38,38,9,32,42,37,7,26,27,38,32,38,37,3,0,0,0,0,0,0,0,0,0,0,0,0,0,0,0,0],"split_type":[0,0,0,0,0,0,0,0,0,0,0,0,0,0,0,0,0,0,0,0,0,0,0,0,0,0,0,0,0,0,0],"sum_hessian":[3.959729E4,8.642082E3,3.0955207E4,1.6959374E3,6.946144E3,2.34509E4,7.504306E3,4.2183682E2,1.2741006E3,6.9203145E3,2.5829653E1,2.3272998E4,1.779034E2,1.2054834E3,6.2988228E3,1.1973082E2,3.0210602E2,1.2094734E3,6.462716E1,4.453798E3,2.4665166E3,2.7801523E0,2.3049501E1,3.0316494E3,2.0241348E4,4.714678E1,1.3075662E2,1.2528177E2,1.0802015E3,2.095269E0,6.2967275E3],"tree_param":{"num_deleted":"0","num_feature":"44","num_nodes":"31","size_leaf_vector":"1"}},{"base_weights":[1.2867136E-1,-1.8725401E-1,2.167093E-1,-1.7900352E0,-1.703757E-1,1.2474256E-1,3.8252887E-1,-2.2437677E0,3.798713E-1,-1.5996356E-1,-2.8010905E0,5.7842012E-2,3.016932E-1,5.2722454E-1,3.191631E-1,-8.350728E-2,-1.3485342E-1,-8.320729E-2,6.187432E-2,-2.5388513E-2,-4.5777275E-3,-7.8520864E-2,-1.5397324E-1,3.8130246E-3,-3.8337734E-2,1.6716419E-2,-2.853932E-2,-1.203476E-2,2.6992423E-2,3.0797942E-2,1.4428945E-2],"categories":[],"categories_nodes":[],"categories_segments":[],"categories_sizes":[],"default_left":[0,0,0,0,0,0,0,0,0,0,0,0,0,0,0,0,0,0,0,0,0,0,0,0,0,0,0,0,0,0,0],"id":34,"left_children":[1,3,5,7,9,11,13,15,17,19,21,23,25,27,29,-1,-1,-1,-1,-1,-1,-1,-1,-1,-1,-1,-1,-1,-1,-1,-1],"loss_changes":[1.0944932E3,2.3170187E2,4.6926062E2,8.8740875E1,2.320495E2,2.3434177E2,1.0049097E2,1.4730469E1,3.0620785E1,2.0113826E2,6.6069336E0,2.1826125E2,1.5483286E2,3.252777E1,6.914996E1,0E0,0E0,0E0,0E0,0E0,0E0,0E0,0E0,0E0,0E0,0E0,0E0,0E0,0E0,0E0,0E0],"parents":[2147483647,0,0,1,1,2,2,3,3,4,4,5,5,6,6,7,7,8,8,9,9,10,10,11,11,12,12,13,13,14,14],"right_children":[2,4,6,8,10,12,14,16,18,20,22,24,26,28,30,-1,-1,-1,-1,-1,-1,-1,-1,-1,-1,-1,-1,-1,-1,-1,-1],"split_conditions":[3.1520125E-1,-2.7E-1,7.898018E-1,-1.3451941E0,4.7800365E-1,1E-2,-3.8776636E-1,1.1727931E-1,7.741935E-1,8.396053E-2,1.1727931E-1,1.0167876E0,3.4719402E-1,-2.09689E0,6.8256414E-1,-8.350728E-2,-1.3485342E-1,-8.320729E-2,6.187432E-2,-2.5388513E-2,-4.5777275E-3,-7.8520864E-2,-1.5397324E-1,3.8130246E-3,-3.8337734E-2,1.6716419E-2,-2.853932E-2,-1.203476E-2,2.6992423E-2,3.0797942E-2,1.4428945E-2],"split_indices":[39,10,39,43,32,10,40,39,0,39,39,41,40,43,37,0,0,0,0,0,0,0,0,0,0,0,0,0,0,0,0],"split_type":[0,0,0,0,0,0,0,0,0,0,0,0,0,0,0,0,0,0,0,0,0,0,0,0,0,0,0,0,0,0,0],"sum_hessian":[3.934881E4,8.575255E3,3.0773553E4,8.826708E1,8.486987E3,1.979604E4,1.0977513E4,7.297401E1,1.5293074E1,8.454586E3,3.2401703E1,1.4365961E4,5.4300786E3,3.3410066E3,7.6365063E3,3.427971E1,3.86943E1,4.2421093E0,1.1050964E1,1.3885363E3,7.0660493E3,7.2022834E0,2.5199419E1,1.4052977E4,3.1298474E2,5.234884E3,1.9519455E2,5.374265E1,3.287264E3,7.116237E2,6.9248823E3],"tree_param":{"num_deleted":"0","num_feature":"44","num_nodes":"31","size_leaf_vector":"1"}},{"base_weights":[1.20703936E-1,-1.6481392E-2,3.1167468E-1,-1.1727327E0,-5.197113E-3,2.3734155E-1,4.3095744E-1,-7.245249E-2,-4.791402E-1,1.1754389E-2,-7.036811E-1,1.2824133E-1,3.3296672E-1,-2.8406487E0,4.3451023E-1,1.0992402E-1,-6.599136E-2,-3.8077428E-3,8.530856E-3,-8.163641E-3,-8.692697E-2,1.3824451E-2,-1.5267362E-3,-5.5892456E-2,1.7008323E-2,4.115006E-2,-3.2725286E-1,2.0961186E-2,4.4219226E-2],"categories":[],"categories_nodes":[],"categories_segments":[],"categories_sizes":[],"default_left":[0,0,0,0,0,0,0,0,0,0,0,0,0,0,0,0,0,0,0,0,0,0,0,0,0,0,0,0,0],"id":35,"left_children":[1,3,5,7,9,11,13,-1,15,17,19,21,23,25,27,-1,-1,-1,-1,-1,-1,-1,-1,-1,-1,-1,-1,-1,-1],"loss_changes":[1.0243252E3,2.9688132E2,1.448247E2,4.1453278E1,2.6683658E2,1.0503729E2,7.415967E1,0E0,1.472976E2,3.0728934E2,2.9833762E2,1.1078452E2,5.644037E1,9.955447E1,4.2735107E1,0E0,0E0,0E0,0E0,0E0,0E0,0E0,0E0,0E0,0E0,0E0,0E0,0E0,0E0],"parents":[2147483647,0,0,1,1,2,2,3,3,4,4,5,5,6,6,8,8,9,9,10,10,11,11,12,12,13,13,14,14],"right_children":[2,4,6,8,10,12,14,-1,16,18,20,22,24,26,28,-1,-1,-1,-1,-1,-1,-1,-1,-1,-1,-1,-1,-1,-1],"split_conditions":[8.228344E-1,4.7344953E-1,8.758919E-1,2.78812E-1,1.25E-1,-7E-2,1.5416667E-1,-7.245249E-2,2.8231865E-1,1E-2,1.2415221E-1,2.3584223E-1,7.3994005E-1,9.3333334E-2,6.068182E-1,1.0992402E-1,-6.599136E-2,-3.8077428E-3,8.530856E-3,-8.163641E-3,-8.692697E-2,1.3824451E-2,-1.5267362E-3,-5.5892456E-2,1.7008323E-2,4.115006E-2,-3.2725286E-1,2.0961186E-2,4.4219226E-2],"split_indices":[38,38,38,32,24,10,3,0,32,10,32,32,42,5,31,0,0,0,0,0,0,0,0,0,0,0,0,0,0],"split_type":[0,0,0,0,0,0,0,0,0,0,0,0,0,0,0,0,0,0,0,0,0,0,0,0,0,0,0,0,0],"sum_hessian":[3.9097598E4,2.2753418E4,1.6344182E4,2.1891794E2,2.25345E4,1.0071154E4,6.273027E3,1.557716E2,6.3146336E1,2.2001527E4,5.329717E2,4.7052285E3,5.3659263E3,5.938569E0,6.2670884E3,1.4702666E1,4.844367E1,1.416411E4,7.837418E3,3.508919E2,1.8207979E2,2.432906E3,2.2723225E3,2.5735348E1,5.340191E3,3.3767774E0,2.5617917E0,6.0630015E3,2.0408653E2],"tree_param":{"num_deleted":"0","num_feature":"44","num_nodes":"29","size_leaf_vector":"1"}},{"base_weights":[1.15745105E-1,-1.15348645E-1,2.1598469E-1,-1.1471959E0,-9.557858E-2,3.5142547E-1,1.2059145E-1,-7.074969E-2,-4.7098655E-1,-1.2664251E0,-8.0222175E-2,5.419692E-1,3.0068004E-1,-2.1599977E-1,1.6296676E-1,1.01992145E-1,-6.442248E-2,-1.5125351E-2,-1.16434835E-1,3.3025069E-3,-9.218419E-3,3.616966E-2,2.4365736E-2,-5.494379E-2,1.5478596E-2,1.7800275E-3,-4.367475E-2,5.443277E-3,1.7855857E-2],"categories":[],"categories_nodes":[],"categories_segments":[],"categories_sizes":[],"default_left":[0,0,0,0,0,0,0,0,0,0,0,0,0,0,0,0,0,0,0,0,0,0,0,0,0,0,0,0,0],"id":36,"left_children":[1,3,5,7,9,11,13,-1,15,17,19,21,23,25,27,-1,-1,-1,-1,-1,-1,-1,-1,-1,-1,-1,-1,-1,-1],"loss_changes":[8.9849634E2,2.3927625E2,3.4947803E2,3.9266785E1,2.0694284E2,1.079292E2,2.2645396E2,0E0,1.3410426E2,1.518705E2,1.7317763E2,2.2947327E1,1.1022937E2,2.9374045E2,1.480633E2,0E0,0E0,0E0,0E0,0E0,0E0,0E0,0E0,0E0,0E0,0E0,0E0,0E0,0E0],"parents":[2147483647,0,0,1,1,2,2,3,3,4,4,5,5,6,6,8,8,9,9,10,10,11,11,12,12,13,13,14,14],"right_children":[2,4,6,8,10,12,14,-1,16,18,20,22,24,26,28,-1,-1,-1,-1,-1,-1,-1,-1,-1,-1,-1,-1,-1,-1],"split_conditions":[7.4745864E-1,4.7344953E-1,-2.1596494E-1,2.78812E-1,-2.5E-1,-4.2642197E-1,2.5416666E-1,-7.074969E-2,2.8231865E-1,7.777778E-1,2.5389338E-1,-5.542672E-1,7.7201325E-1,4.8780486E-2,3E-2,1.01992145E-1,-6.442248E-2,-1.5125351E-2,-1.16434835E-1,3.3025069E-3,-9.218419E-3,3.616966E-2,2.4365736E-2,-5.494379E-2,1.5478596E-2,1.7800275E-3,-4.367475E-2,5.443277E-3,1.7855857E-2],"split_indices":[38,38,40,32,10,40,3,0,32,34,32,40,38,7,10,0,0,0,0,0,0,0,0,0,0,0,0,0,0],"split_type":[0,0,0,0,0,0,0,0,0,0,0,0,0,0,0,0,0,0,0,0,0,0,0,0,0,0,0,0,0],"sum_hessian":[3.8785164E4,1.1733783E4,2.705138E4,2.1951917E2,1.1514264E4,1.1178001E4,1.587338E4,1.5646294E2,6.3056217E1,1.480073E2,1.1366257E4,2.3488047E3,8.829196E3,1.7744727E3,1.4098907E4,1.5119989E1,4.793623E1,7.826944E1,6.973786E1,4.7272485E3,6.639008E3,5.409386E2,1.807866E3,5.49671E1,8.774229E3,1.2840555E3,4.9041714E2,1.1027567E4,3.07134E3],"tree_param":{"num_deleted":"0","num_feature":"44","num_nodes":"29","size_leaf_vector":"1"}},{"base_weights":[1.212106E-1,-1.8102148E-1,1.8572952E-1,-1.5954219E-1,-2.0118833E0,1.2727243E-1,3.910753E-1,-2.2753991E-1,2.1440066E-1,-8.109702E-2,-1.15797356E-1,1.3057423E-1,-2.0876198E0,3.9539003E-1,-2.9298375E0,-2.5154412E-2,-5.803495E-3,-2.8425837E-2,2.4464E-2,4.245765E-3,1.332132E-2,4.860746E-2,-1.4555421E-1,2.8493604E-2,1.7486282E-2,-4.1208968E-1,4.6921447E-2],"categories":[],"categories_nodes":[],"categories_segments":[],"categories_sizes":[],"default_left":[0,0,0,0,0,0,0,0,0,0,0,0,0,0,0,0,0,0,0,0,0,0,0,0,0,0,0],"id":37,"left_children":[1,3,5,7,9,11,13,15,17,-1,-1,19,21,23,25,-1,-1,-1,-1,-1,-1,-1,-1,-1,-1,-1,-1],"loss_changes":[7.614743E2,2.6984564E2,3.8623474E2,1.7273589E2,5.678894E0,1.8346973E2,1.0332837E2,1.7646167E2,2.2526791E2,0E0,0E0,1.5513681E2,9.692905E1,5.6546265E1,2.0029204E2,0E0,0E0,0E0,0E0,0E0,0E0,0E0,0E0,0E0,0E0,0E0,0E0],"parents":[2147483647,0,0,1,1,2,2,3,3,4,4,5,5,6,6,7,7,8,8,11,11,12,12,13,13,14,14],"right_children":[2,4,6,8,10,12,14,16,18,-1,-1,20,22,24,26,-1,-1,-1,-1,-1,-1,-1,-1,-1,-1,-1,-1],"split_conditions":[2.6576442E-1,1.25E-1,8.616083E-1,1E0,9.756396E-2,5.788794E-1,-4.2575423E-2,1.1727931E-1,-3.1135531E-2,-8.109702E-2,-1.15797356E-1,1E-2,8.333334E-3,7.169581E-1,3.548387E-1,-2.5154412E-2,-5.803495E-3,-2.8425837E-2,2.4464E-2,4.245765E-3,1.332132E-2,4.860746E-2,-1.4555421E-1,2.8493604E-2,1.7486282E-2,-4.1208968E-1,4.6921447E-2],"split_indices":[39,24,39,1,39,40,40,39,7,0,0,10,4,37,0,0,0,0,0,0,0,0,0,0,0,0,0],"split_type":[0,0,0,0,0,0,0,0,0,0,0,0,0,0,0,0,0,0,0,0,0,0,0,0,0,0,0],"sum_hessian":[3.904787E4,6.868992E3,3.2178877E4,6.790416E3,7.857661E1,2.5049498E4,7.12938E3,5.7459624E3,1.0444535E3,3.7201824E1,4.1374783E1,2.501315E4,3.6346653E1,7.121009E3,8.371087E0,1.6539548E3,4.0920076E3,2.7113437E2,7.7331915E2,1.8722336E4,6.2908154E3,7.669251E0,2.8677402E1,1.4747107E3,5.646298E3,3.0509133E0,5.3201733E0],"tree_param":{"num_deleted":"0","num_feature":"44","num_nodes":"27","size_leaf_vector":"1"}},{"base_weights":[9.545708E-2,-4.708214E-2,2.4652378E-1,-3.0678552E-2,-9.5023024E-1,3.3741134E-1,1.2447919E-1,4.695736E-2,-1.9638325E-1,-8.015031E-1,-4.022008E0,2.9704943E-1,5.449058E-1,3.260355E-1,6.569888E-2,8.447941E-3,-7.131662E-3,-4.3198384E-2,-5.418861E-3,-8.30006E-2,-7.260691E-3,-8.887288E-2,-2.968813E-1,2.4256583E-2,1.202212E-2,-2.9434773E-1,2.7619392E-2,1.6672341E-2,-2.7453816E-1,-1.0811621E-1,3.958218E-3],"categories":[],"categories_nodes":[],"categories_segments":[],"categories_sizes":[],"default_left":[0,0,0,0,0,0,0,0,0,0,0,0,0,0,0,0,0,0,0,0,0,0,0,0,0,0,0,0,0,0,0],"id":38,"left_children":[1,3,5,7,9,11,13,15,17,19,21,23,25,27,29,-1,-1,-1,-1,-1,-1,-1,-1,-1,-1,-1,-1,-1,-1,-1,-1],"loss_changes":[8.2021545E2,2.9033243E2,2.0508142E2,2.4766293E2,1.5649014E2,8.859924E1,9.3512825E1,3.0325696E2,3.6075717E2,1.883374E2,5.7793182E1,9.437152E1,8.6250916E1,7.866527E1,1.8358572E2,0E0,0E0,0E0,0E0,0E0,0E0,0E0,0E0,0E0,0E0,0E0,0E0,0E0,0E0,0E0,0E0],"parents":[2147483647,0,0,1,1,2,2,3,3,4,4,5,5,6,6,7,7,8,8,9,9,10,10,11,11,12,12,13,13,14,14],"right_children":[2,4,6,8,10,12,14,16,18,20,22,24,26,28,30,-1,-1,-1,-1,-1,-1,-1,-1,-1,-1,-1,-1,-1,-1,-1,-1],"split_conditions":[8.009347E-1,1.25E-1,-2.1361785E-1,5.125E-1,-3.6131833E-2,-2E-2,7.788896E-1,7.640518E-2,-2.1129723E-1,-1.2042559E0,7.3851335E-1,-4.2642197E-1,1.07727274E-1,6.7741936E-1,-1.1854856E0,8.447941E-3,-7.131662E-3,-4.3198384E-2,-5.418861E-3,-8.30006E-2,-7.260691E-3,-8.887288E-2,-2.968813E-1,2.4256583E-2,1.202212E-2,-2.9434773E-1,2.7619392E-2,1.6672341E-2,-2.7453816E-1,-1.0811621E-1,3.958218E-3],"split_indices":[38,24,40,15,41,10,37,27,27,43,38,40,31,0,41,0,0,0,0,0,0,0,0,0,0,0,0,0,0,0,0],"split_type":[0,0,0,0,0,0,0,0,0,0,0,0,0,0,0,0,0,0,0,0,0,0,0,0,0,0,0,0,0,0,0],"sum_hessian":[3.8089676E4,1.959833E4,1.8491346E4,1.9249738E4,3.4859286E2,1.0597522E4,7.8938223E3,1.3108748E4,6.1409897E3,3.3369708E2,1.4895776E1,8.873816E3,1.7237065E3,1.7812864E3,6.112536E3,7.976185E3,5.1325625E3,7.142337E2,5.426756E3,1.4391231E2,1.8978477E2,7.746728E0,7.1490483E0,2.0511401E3,6.8226763E3,1.0897701E0,1.7226168E3,1.7799612E3,1.3252069E0,3.5761654E1,6.0767744E3],"tree_param":{"num_deleted":"0","num_feature":"44","num_nodes":"31","size_leaf_vector":"1"}},{"base_weights":[9.856316E-2,-8.9755505E-2,2.0565568E-1,-4.474644E-1,-4.147606E-2,1.1364557E-1,3.1575486E-1,-3.8357452E-1,-3.3811092E0,-2.5012405E0,-2.9194273E-2,5.0066173E-2,3.3586445E-1,4.338828E-1,2.4563695E-1,2.0677822E-2,-2.9340765E-2,-1.2874936E-1,-2.0873232E-1,-1.5116666E-1,4.0413503E-2,2.6481503E-3,-1.2639262E-2,1.58599E-2,-3.139133E-4,2.2192737E-2,-2.0168848E-4,3.2382045E-2,1.9660976E-2,-1.5542539E-2,1.3478713E-2],"categories":[],"categories_nodes":[],"categories_segments":[],"categories_sizes":[],"default_left":[0,0,0,0,0,0,0,0,0,0,0,0,0,0,0,0,0,0,0,0,0,0,0,0,0,0,0,0,0,0,0],"id":39,"left_children":[1,3,5,7,9,11,13,15,17,19,21,23,25,27,29,-1,-1,-1,-1,-1,-1,-1,-1,-1,-1,-1,-1,-1,-1,-1,-1],"loss_changes":[7.676106E2,2.382815E2,2.4575708E2,3.0623734E2,3.6724536E2,1.8674854E2,9.138013E1,2.6058374E2,1.1539703E1,1.0680011E2,2.2227332E2,1.5472208E2,1.0793707E2,3.549475E1,9.244284E1,0E0,0E0,0E0,0E0,0E0,0E0,0E0,0E0,0E0,0E0,0E0,0E0,0E0,0E0,0E0,0E0],"parents":[2147483647,0,0,1,1,2,2,3,3,4,4,5,5,6,6,7,7,8,8,9,9,10,10,11,11,12,12,13,13,14,14],"right_children":[2,4,6,8,10,12,14,16,18,20,22,24,26,28,30,-1,-1,-1,-1,-1,-1,-1,-1,-1,-1,-1,-1,-1,-1,-1,-1],"split_conditions":[7.5804764E-1,9E-2,8.5180396E-1,1.0167876E0,-2.005905E0,1E-2,-3.5162437E-1,5.6958334E-3,7.167011E-1,7.571477E-1,5.487167E-1,8.153547E-2,1.1390643E-1,-5.2549434E-1,4E-2,2.0677822E-2,-2.9340765E-2,-1.2874936E-1,-2.0873232E-1,-1.5116666E-1,4.0413503E-2,2.6481503E-3,-1.2639262E-2,1.58599E-2,-3.139133E-4,2.2192737E-2,-2.0168848E-4,3.2382045E-2,1.9660976E-2,-1.5542539E-2,1.3478713E-2],"split_indices":[38,9,38,41,43,10,40,27,38,38,41,32,40,40,9,0,0,0,0,0,0,0,0,0,0,0,0,0,0,0,0],"split_type":[0,0,0,0,0,0,0,0,0,0,0,0,0,0,0,0,0,0,0,0,0,0,0,0,0,0,0,0,0,0,0],"sum_hessian":[3.8059805E4,1.3797507E4,2.4262297E4,1.6397931E3,1.2157714E4,1.3218011E4,1.1044286E4,1.6059489E3,3.384414E1,5.9395924E1,1.2098317E4,1.0278452E4,2.9395588E3,4.11185E3,6.932436E3,3.260628E2,1.2798861E3,1.8894712E1,1.4949426E1,5.1377346E1,8.018578E0,8.84795E3,3.2503677E3,1.789537E3,8.488915E3,2.2305706E3,7.0898834E2,6.547968E2,3.457053E3,2.854063E2,6.64703E3],"tree_param":{"num_deleted":"0","num_feature":"44","num_nodes":"31","size_leaf_vector":"1"}},{"base_weights":[1.0173091E-1,-1.6193773E-3,2.7357736E-1,-1.6233408E-1,6.657266E-2,4.4397363E-1,2.1428435E-1,-1.439821E-1,-1.9711512E0,7.657432E-2,-8.3912677E-1,6.503567E-1,3.9908484E-1,3.5361317E-1,1.5841301E-1,-3.732267E-3,-3.186844E-2,-1.248006E-1,3.524955E-2,-3.955693E-3,6.8504275E-3,8.183549E-3,-1.014298E-1,-2.5256315E-2,3.3338707E-2,2.664504E-2,1.46795185E-2,9.162412E-3,2.4883522E-2,8.058804E-3,-3.9653787E-1],"categories":[],"categories_nodes":[],"categories_segments":[],"categories_sizes":[],"default_left":[0,0,0,0,0,0,0,0,0,0,0,0,0,0,0,0,0,0,0,0,0,0,0,0,0,0,0,0,0,0,0],"id":40,"left_children":[1,3,5,7,9,11,13,15,17,19,21,23,25,27,29,-1,-1,-1,-1,-1,-1,-1,-1,-1,-1,-1,-1,-1,-1,-1,-1],"loss_changes":[6.7869543E2,2.615441E2,1.4490027E2,2.3571422E2,1.5184245E2,3.4053284E1,8.283728E1,2.4075655E2,1.01946106E2,1.5594675E2,2.1872389E2,1.2858551E1,4.2825043E1,7.469095E1,1.7120059E2,0E0,0E0,0E0,0E0,0E0,0E0,0E0,0E0,0E0,0E0,0E0,0E0,0E0,0E0,0E0,0E0],"parents":[2147483647,0,0,1,1,2,2,3,3,4,4,5,5,6,6,7,7,8,8,9,9,10,10,11,11,12,12,13,13,14,14],"right_children":[2,4,6,8,10,12,14,16,18,20,22,24,26,28,30,-1,-1,-1,-1,-1,-1,-1,-1,-1,-1,-1,-1,-1,-1,-1,-1],"split_conditions":[8.3053833E-1,7.1808964E-1,-3.6802703E-1,6.875E-1,3.1965249E0,-5.2549434E-1,7.7665603E-1,1.2E-1,6.4166665E-1,-2E-2,3.5045454E-1,-5.9E-1,3.659091E-1,2.5E-1,4.4063294E-1,-3.732267E-3,-3.186844E-2,-1.248006E-1,3.524955E-2,-3.955693E-3,6.8504275E-3,8.183549E-3,-1.014298E-1,-2.5256315E-2,3.3338707E-2,2.664504E-2,1.46795185E-2,9.162412E-3,2.4883522E-2,8.058804E-3,-3.9653787E-1],"split_indices":[38,38,40,36,42,40,37,25,3,10,31,10,31,23,32,0,0,0,0,0,0,0,0,0,0,0,0,0,0,0,0],"split_type":[0,0,0,0,0,0,0,0,0,0,0,0,0,0,0,0,0,0,0,0,0,0,0,0,0,0,0,0,0,0,0],"sum_hessian":[3.821299E4,2.3862697E4,1.4350291E4,7.108361E3,1.6754336E4,3.7027725E3,1.064752E4,7.0380337E3,7.032725E1,1.6572244E4,1.8209224E2,6.59077E2,3.0436953E3,3.0460708E3,7.601448E3,6.171842E3,8.661917E2,5.885213E1,1.1475119E1,4.634004E3,1.1938239E4,9.92666E1,8.282564E1,8.816158E0,6.5026086E2,1.3399567E3,1.7037386E3,1.396644E3,1.6494266E3,7.5998325E3,1.6158553E0],"tree_param":{"num_deleted":"0","num_feature":"44","num_nodes":"31","size_leaf_vector":"1"}},{"base_weights":[9.0257995E-2,-8.034938E-3,2.5574672E-1,-1.6696373E-1,5.795835E-2,4.282964E-1,2.0992142E-1,-1.243072E0,-1.3337405E-1,-1.1014955E-1,1.20691575E-1,-3.758873E-1,4.4944593E-1,4.7002447E-1,1.834987E-1,-8.7189786E-2,-4.659168E-3,-5.4624896E-2,-5.217507E-3,-2.0762939E-2,6.0937805E-3,6.223856E-3,-2.4780639E-1,-8.928432E-3,-3.6086634E-1,3.2461565E-2,1.9688312E-2,-8.28522E-2,2.5158444E-2,-6.684851E-4,1.1971029E-2],"categories":[],"categories_nodes":[],"categories_segments":[],"categories_sizes":[],"default_left":[0,0,0,0,0,0,0,0,0,0,0,0,0,0,0,0,0,0,0,0,0,0,0,0,0,0,0,0,0,0,0],"id":41,"left_children":[1,3,5,7,9,11,13,15,17,19,21,23,25,27,29,-1,-1,-1,-1,-1,-1,-1,-1,-1,-1,-1,-1,-1,-1,-1,-1],"loss_changes":[6.153469E2,2.4893654E2,1.1137189E2,2.5155255E2,1.7687952E2,5.046393E1,7.647644E1,1.2113739E2,1.879074E2,3.2273938E2,2.3534819E2,1.0174158E2,3.180133E1,7.321553E1,1.1135684E2,0E0,0E0,0E0,0E0,0E0,0E0,0E0,0E0,0E0,0E0,0E0,0E0,0E0,0E0,0E0,0E0],"parents":[2147483647,0,0,1,1,2,2,3,3,4,4,5,5,6,6,7,7,8,8,9,9,10,10,11,11,12,12,13,13,14,14],"right_children":[2,4,6,8,10,12,14,16,18,20,22,24,26,28,30,-1,-1,-1,-1,-1,-1,-1,-1,-1,-1,-1,-1,-1,-1,-1,-1],"split_conditions":[8.3053833E-1,7.167011E-1,-3.8776636E-1,-3.2421342E-1,-2E-2,-5E-1,6.8256414E-1,5.938636E-1,-1.7119566E-1,4.1E-1,7.407407E-1,-5.3E-1,-5.2549434E-1,-2.2519014E0,3.625E-1,-8.7189786E-2,-4.659168E-3,-5.4624896E-2,-5.217507E-3,-2.0762939E-2,6.0937805E-3,6.223856E-3,-2.4780639E-1,-8.928432E-3,-3.6086634E-1,3.2461565E-2,1.9688312E-2,-8.28522E-2,2.5158444E-2,-6.684851E-4,1.1971029E-2],"split_indices":[38,38,40,28,10,10,37,43,6,9,5,10,40,43,3,0,0,0,0,0,0,0,0,0,0,0,0,0,0,0,0],"split_type":[0,0,0,0,0,0,0,0,0,0,0,0,0,0,0,0,0,0,0,0,0,0,0,0,0,0,0,0,0,0,0],"sum_hessian":[3.7828266E4,2.373292E4,1.4095347E4,6.962911E3,1.6770008E4,2.9561125E3,1.1139234E4,2.096718E2,6.7532393E3,4.5572E3,1.2212808E4,7.5321976E1,2.8807905E3,1.0256853E3,1.0113549E4,1.4570671E2,6.3965088E1,1.9728021E2,6.555959E3,1.9682261E3,2.5889744E3,1.2204683E4,8.12497E0,7.42078E1,1.114177E0,6.255573E2,2.2552332E3,1.4985479E1,1.01069977E3,2.2374727E3,7.876076E3],"tree_param":{"num_deleted":"0","num_feature":"44","num_nodes":"31","size_leaf_vector":"1"}},{"base_weights":[9.081649E-2,-4.5323126E-2,2.0564948E-1,-2.966747E-2,-1.2670771E0,2.9893857E-1,1.0798338E-1,2.1909231E-2,-3.3216578E-1,-7.5711644E-1,-2.9101553E0,-7.4972284E-1,3.0646652E-1,-2.1215293E-1,1.4886552E-1,-4.246589E-3,8.50041E-3,-1.8723164E-1,-1.508659E-2,-8.187237E-2,1.0565727E-2,-1.002172E-1,-2.5965905E-1,-2.699353E-1,-1.1484641E-2,2.7529761E-2,1.3823162E-2,-8.335987E-3,-3.9548206E-1,7.5183124E-3,-2.3772517E-1],"categories":[],"categories_nodes":[],"categories_segments":[],"categories_sizes":[],"default_left":[0,0,0,0,0,0,0,0,0,0,0,0,0,0,0,0,0,0,0,0,0,0,0,0,0,0,0,0,0,0,0],"id":42,"left_children":[1,3,5,7,9,11,13,15,17,19,21,23,25,27,29,-1,-1,-1,-1,-1,-1,-1,-1,-1,-1,-1,-1,-1,-1,-1,-1],"loss_changes":[5.875492E2,3.2889142E2,1.8571515E2,2.6493054E2,1.8008215E2,8.253894E1,1.304036E2,2.2957083E2,2.5575598E2,1.4303795E2,9.542288E1,1.791241E2,7.5679016E1,3.933213E2,6.571959E1,0E0,0E0,0E0,0E0,0E0,0E0,0E0,0E0,0E0,0E0,0E0,0E0,0E0,0E0,0E0,0E0],"parents":[2147483647,0,0,1,1,2,2,3,3,4,4,5,5,6,6,7,7,8,8,9,9,10,10,11,11,12,12,13,13,14,14],"right_children":[2,4,6,8,10,12,14,16,18,20,22,24,26,28,30,-1,-1,-1,-1,-1,-1,-1,-1,-1,-1,-1,-1,-1,-1,-1,-1],"split_conditions":[7.790512E-1,1.25E-1,-2.1361785E-1,4E-2,1.6540542E0,-2.3610883E0,2.5416666E-1,1E-2,-1.9844602E0,1.3862619E0,7.3851335E-1,2.8125E-1,-4.8054892E-1,3.4375E-1,3.2713013E0,-4.246589E-3,8.50041E-3,-1.8723164E-1,-1.508659E-2,-8.187237E-2,1.0565727E-2,-1.002172E-1,-2.5965905E-1,-2.699353E-1,-1.1484641E-2,2.7529761E-2,1.3823162E-2,-8.335987E-3,-3.9548206E-1,7.5183124E-3,-2.3772517E-1],"split_indices":[38,24,40,26,42,43,3,10,43,42,38,1,40,8,42,0,0,0,0,0,0,0,0,0,0,0,0,0,0,0,0],"split_type":[0,0,0,0,0,0,0,0,0,0,0,0,0,0,0,0,0,0,0,0,0,0,0,0,0,0,0,0,0,0,0],"sum_hessian":[3.7581535E4,1.719578E4,2.0385756E4,1.697923E4,2.16549E2,1.0425462E4,9.960294E3,1.4506727E4,2.4725046E3,1.663728E2,5.017618E1,7.360429E1,1.0351858E4,1.1274406E3,8.832853E3,8.427451E3,6.0792744E3,2.077724E1,2.4517275E3,8.6788666E1,7.9584145E1,3.7267788E1,1.2908397E1,6.461149E0,6.7143135E1,1.1310934E3,9.220765E3,1.1218408E3,5.5998282E0,8.831119E3,1.7335101E0],"tree_param":{"num_deleted":"0","num_feature":"44","num_nodes":"31","size_leaf_vector":"1"}},{"base_weights":[8.315862E-2,-7.6529426E-3,2.4765863E-1,-4.8590678E-1,1.2427516E-2,4.1769466E-1,1.8957594E-1,-1.228059E0,-2.163485E-1,2.7205768E-1,-3.179482E-2,6.2580967E-1,3.7217623E-1,2.515883E-1,5.2749585E-2,-7.146422E-2,5.580857E-2,4.731412E-3,-5.133469E-2,1.4022722E-2,-2.3015161E-1,-1.4980055E-2,1.0709782E-3,-4.1620564E-2,3.2125026E-2,1.3564537E-2,2.5040371E-2,3.3320777E-2,1.1371263E-2,3.0264712E-3,-3.9133546E-1],"categories":[],"categories_nodes":[],"categories_segments":[],"categories_sizes":[],"default_left":[0,0,0,0,0,0,0,0,0,0,0,0,0,0,0,0,0,0,0,0,0,0,0,0,0,0,0,0,0,0,0],"id":43,"left_children":[1,3,5,7,9,11,13,15,17,19,21,23,25,27,29,-1,-1,-1,-1,-1,-1,-1,-1,-1,-1,-1,-1,-1,-1,-1,-1],"loss_changes":[5.5965234E2,2.318281E2,1.3152478E2,1.9432957E2,2.6600485E2,3.1900085E1,8.427936E1,1.2374924E2,1.8021614E2,1.3931808E2,2.8213065E2,1.5315598E1,3.6014893E1,6.8367645E1,1.9047784E2,0E0,0E0,0E0,0E0,0E0,0E0,0E0,0E0,0E0,0E0,0E0,0E0,0E0,0E0,0E0,0E0],"parents":[2147483647,0,0,1,1,2,2,3,3,4,4,5,5,6,6,7,7,8,8,9,9,10,10,11,11,12,12,13,13,14,14],"right_children":[2,4,6,8,10,12,14,16,18,20,22,24,26,28,30,-1,-1,-1,-1,-1,-1,-1,-1,-1,-1,-1,-1,-1,-1,-1,-1],"split_conditions":[8.347097E-1,6.07462E-1,-3.7181926E-1,7.4E-1,7.804258E-2,-5.2549434E-1,3.192623E-1,5.7E-1,5.875E-1,3.1889803E0,-3E-2,-5.5E-1,1E-1,6.8256414E-1,8.965095E-1,-7.146422E-2,5.580857E-2,4.731412E-3,-5.133469E-2,1.4022722E-2,-2.3015161E-1,-1.4980055E-2,1.0709782E-3,-4.1620564E-2,3.2125026E-2,1.3564537E-2,2.5040371E-2,3.3320777E-2,1.1371263E-2,3.0264712E-3,-3.9133546E-1],"split_indices":[38,38,40,9,32,40,32,10,15,42,10,10,9,37,37,0,0,0,0,0,0,0,0,0,0,0,0,0,0,0,0],"split_type":[0,0,0,0,0,0,0,0,0,0,0,0,0,0,0,0,0,0,0,0,0,0,0,0,0,0,0,0,0,0,0],"sum_hessian":[3.746262E4,2.4138188E4,1.3324435E4,9.717173E2,2.316647E4,3.3910386E3,9.933396E3,2.5795514E2,7.1376215E2,3.370871E3,1.97956E4,6.0628644E2,2.784752E3,6.8348643E3,3.0985322E3,2.3792252E2,2.0032616E1,5.1645245E2,1.9730971E2,3.3660159E3,4.8550777E0,3.2806743E3,1.6514924E4,6.307999E0,5.999784E2,1.5624393E3,1.2223126E3,3.7474387E2,6.46012E3,3.0964673E3,2.0649998E0],"tree_param":{"num_deleted":"0","num_feature":"44","num_nodes":"31","size_leaf_vector":"1"}},{"base_weights":[8.514801E-2,-8.5810274E-2,1.6329367E-1,-5.297456E-1,-3.0432815E-2,2.569157E-1,8.8442236E-2,-7.192178E-1,3.3837616E-1,-2.3619552E0,-1.9142468E-2,3.7567395E-1,1.7901398E-1,2.3051139E-2,2.6057842E-1,5.1379423E-3,-4.899802E-2,2.35735E-2,-1.8943928E-1,-1.0091013E-1,-1.4632718E-1,6.7962595E-4,-3.3118617E-2,1.2955288E-2,2.4733288E-2,-1.20479666E-1,9.42283E-3,1.4137351E-3,-3.6205634E-1,-9.448617E-2,1.3611105E-2],"categories":[],"categories_nodes":[],"categories_segments":[],"categories_sizes":[],"default_left":[0,0,0,0,0,0,0,0,0,0,0,0,0,0,0,0,0,0,0,0,0,0,0,0,0,0,0,0,0,0,0],"id":44,"left_children":[1,3,5,7,9,11,13,15,17,19,21,23,25,27,29,-1,-1,-1,-1,-1,-1,-1,-1,-1,-1,-1,-1,-1,-1,-1,-1],"loss_changes":[5.0134152E2,2.8940326E2,1.8045337E2,2.1499734E2,2.7551266E2,1.057854E2,1.6110504E2,2.2986243E2,1.3064441E2,3.882721E0,2.1938464E2,6.2725586E1,1.6938853E2,3.9383853E2,9.916922E1,0E0,0E0,0E0,0E0,0E0,0E0,0E0,0E0,0E0,0E0,0E0,0E0,0E0,0E0,0E0,0E0],"parents":[2147483647,0,0,1,1,2,2,3,3,4,4,5,5,6,6,7,7,8,8,9,9,10,10,11,11,12,12,13,13,14,14],"right_children":[2,4,6,8,10,12,14,16,18,20,22,24,26,28,30,-1,-1,-1,-1,-1,-1,-1,-1,-1,-1,-1,-1,-1,-1,-1,-1],"split_conditions":[7.4745864E-1,9E-2,-1.9759583E-1,3.0952382E-1,-2.005905E0,3.659091E-1,1E-2,5.6958334E-3,7.3070025E-1,7.167011E-1,5E-1,1.6666667E-1,7.647487E-1,2.7083334E-1,-8.2435805E-1,5.1379423E-3,-4.899802E-2,2.35735E-2,-1.8943928E-1,-1.0091013E-1,-1.4632718E-1,6.7962595E-4,-3.3118617E-2,1.2955288E-2,2.4733288E-2,-1.20479666E-1,9.42283E-3,1.4137351E-3,-3.6205634E-1,-9.448617E-2,1.3611105E-2],"split_indices":[38,9,40,7,43,31,10,27,38,38,20,8,38,4,41,0,0,0,0,0,0,0,0,0,0,0,0,0,0,0,0],"split_type":[0,0,0,0,0,0,0,0,0,0,0,0,0,0,0,0,0,0,0,0,0,0,0,0,0,0,0,0,0,0,0],"sum_hessian":[3.7524496E4,1.1771669E4,2.5752828E4,1.3046146E3,1.0467055E4,1.1440701E4,1.4312127E4,1.0710284E3,2.3358617E2,4.9438873E1,1.0417616E4,4.5304204E3,6.9102803E3,1.037283E4,3.9392966E3,2.580731E2,8.129554E2,2.2714685E2,6.4393272E0,3.3572647E1,1.5866223E1,9.914053E3,5.03563E2,2.290122E3,2.2402986E3,2.4191656E1,6.8860884E3,1.0366372E4,6.4581966E0,2.0347313E1,3.9189495E3],"tree_param":{"num_deleted":"0","num_feature":"44","num_nodes":"31","size_leaf_vector":"1"}},{"base_weights":[7.206066E-2,-4.9673185E-2,1.7819427E-1,8.5044355E-4,-3.304928E-1,3.458457E-1,1.2188683E-1,-8.1814915E-1,2.1848865E-2,-9.8771846E-1,-1.3834335E-1,2.175561E-1,4.6259984E-1,-3.6348286E-1,1.5630783E-1,-9.868742E-3,-7.539995E-2,1.6959725E-2,-2.1812054E-3,-1.5920027E-1,-2.961096E-2,-1.6501468E-1,-4.9653235E-3,-2.6327586E-1,1.1177298E-2,2.3433922E-2,-8.0816336E-2,-1.6637152E-2,-3.542033E-1,-6.576731E-2,8.157084E-3],"categories":[],"categories_nodes":[],"categories_segments":[],"categories_sizes":[],"default_left":[0,0,0,0,0,0,0,0,0,0,0,0,0,0,0,0,0,0,0,0,0,0,0,0,0,0,0,0,0,0,0],"id":45,"left_children":[1,3,5,7,9,11,13,15,17,19,21,23,25,27,29,-1,-1,-1,-1,-1,-1,-1,-1,-1,-1,-1,-1,-1,-1,-1,-1],"loss_changes":[4.7986853E2,2.4544983E2,1.8726605E2,2.5218553E2,3.32991E2,7.461255E1,2.4823524E2,1.5668315E2,2.9707785E2,5.163328E2,2.5175877E2,7.929441E1,3.374713E1,2.0092734E2,1.3972421E2,0E0,0E0,0E0,0E0,0E0,0E0,0E0,0E0,0E0,0E0,0E0,0E0,0E0,0E0,0E0,0E0],"parents":[2147483647,0,0,1,1,2,2,3,3,4,4,5,5,6,6,7,7,8,8,9,9,10,10,11,11,12,12,13,13,14,14],"right_children":[2,4,6,8,10,12,14,16,18,20,22,24,26,28,30,-1,-1,-1,-1,-1,-1,-1,-1,-1,-1,-1,-1,-1,-1,-1,-1],"split_conditions":[7.790512E-1,4E-2,7.458805E-1,5.3653926E-1,-5.263158E-2,2.5E-1,2.5416666E-1,-8.592917E-2,1.4285717E-10,2.5E-1,