{"learner":{"attributes":{},"feature_names":["candidate_index_norm","valid_candidates_norm","is_j_total","energy_norm","energy_delta","fragmentation_after","fragmentation_delta","delta_fragmentation","delta_fragmentation_delta","largest_free_block_norm","largest_free_block_delta_norm","small_gap_penalty","small_gap_delta","delay_norm","delay_delta_norm","qot_margin","qot_margin_delta","qot_risk","qot_risk_delta","compactness","compactness_delta","route_length_norm","route_length_delta_norm","hop_count_norm","hop_count_delta_norm","width_norm","width_delta_norm","j_total","j_total_delta","request_bit_rate_norm","request_holding_norm","global_load","global_fragmentation","is_base_runtime","energy_rank_norm","energy_rank_delta","pool_size_norm"],"feature_types":[],"gradient_booster":{"model":{"cats":{"enc":[],"feature_segments":[],"sorted_idx":[]},"gbtree_model_param":{"num_parallel_tree":"1","num_trees":"60"},"iteration_indptr":[0,1,2,3,4,5,6,7,8,9,10,11,12,13,14,15,16,17,18,19,20,21,22,23,24,25,26,27,28,29,30,31,32,33,34,35,36,37,38,39,40,41,42,43,44,45,46,47,48,49,50,51,52,53,54,55,56,57,58,59,60],"tree_info":[0,0,0,0,0,0,0,0,0,0,0,0,0,0,0,0,0,0,0,0,0,0,0,0,0,0,0,0,0,0,0,0,0,0,0,0,0,0,0,0,0,0,0,0,0,0,0,0,0,0,0,0,0,0,0,0,0,0,0,0],"trees":[{"base_weights":[-1.5124022E-3,-9.0533346E-2,2.614939E-1,-4.6219286E-2,-3.5660172E-1,1.3373541E0,2.3442687E-1,3.738093E-2,-1.9037713E-1,3.740395E-1,-3.8564453E-1,1.9808314E0,1.1254028E0,5.0424504E-1,1.6482213E-1,5.9637963E-3,-3.574313E-3,1.4380536E-2,-1.1154155E-2,6.3402453E-3,5.7920154E-2,-1.5800238E-2,-2.449941E-2,4.7845893E-2,1.348007E-1,5.9226867E-2,-3.4909658E-2,3.5150483E-2,1.2720095E-2,1.166503E-2,-1.0033653E-2],"categories":[],"categories_nodes":[],"categories_segments":[],"categories_sizes":[],"default_left":[0,0,0,0,0,0,0,0,0,0,0,0,0,0,0,0,0,0,0,0,0,0,0,0,0,0,0,0,0,0,0],"id":0,"left_children":[1,3,5,7,9,11,13,15,17,19,21,23,25,27,29,-1,-1,-1,-1,-1,-1,-1,-1,-1,-1,-1,-1,-1,-1,-1,-1],"loss_changes":[2.3238232E3,8.743015E2,7.305847E2,7.66105E2,2.2479907E2,8.175037E1,4.597511E2,3.5873755E2,3.6483417E2,7.843992E1,7.383801E1,1.08178345E2,5.102533E1,2.4913904E2,4.8722772E2,0E0,0E0,0E0,0E0,0E0,0E0,0E0,0E0,0E0,0E0,0E0,0E0,0E0,0E0,0E0,0E0],"parents":[2147483647,0,0,1,1,2,2,3,3,4,4,5,5,6,6,7,7,8,8,9,9,10,10,11,11,12,12,13,13,14,14],"right_children":[2,4,6,8,10,12,14,16,18,20,22,24,26,28,30,-1,-1,-1,-1,-1,-1,-1,-1,-1,-1,-1,-1,-1,-1,-1,-1],"split_conditions":[1E-2,1.25E-1,-2.5E-1,4E-2,6.0909092E-2,1.4636756E-1,2.7818182E-1,1.3333334E-1,1.4141414E-2,5.625E-1,5E-1,2.5E-1,5E-1,5E-1,1.25E-1,5.9637963E-3,-3.574313E-3,1.4380536E-2,-1.1154155E-2,6.3402453E-3,5.7920154E-2,-1.5800238E-2,-2.449941E-2,4.7845893E-2,1.348007E-1,5.9226867E-2,-3.4909658E-2,3.5150483E-2,1.2720095E-2,1.166503E-2,-1.0033653E-2],"split_indices":[10,24,24,26,31,32,31,8,32,36,29,10,10,9,24,0,0,0,0,0,0,0,0,0,0,0,0,0,0,0,0],"split_type":[0,0,0,0,0,0,0,0,0,0,0,0,0,0,0,0,0,0,0,0,0,0,0,0,0,0,0,0,0,0,0],"sum_hessian":[9.925125E4,7.4153E4,2.509825E4,6.3567E4,1.0586E4,6.1475E2,2.44835E4,4.023475E4,2.333225E4,4.0425E2,1.018175E4,1.5025E2,4.645E2,5.0195E3,1.9464E4,2.296175E4,1.7273E4,1.49375E3,2.18385E4,3.0825E2,9.6E1,6.10875E3,4.073E3,6.275E1,8.75E1,4.5025E2,1.425E1,2.7945E3,2.225E3,1.6393E4,3.071E3],"tree_param":{"num_deleted":"0","num_feature":"37","num_nodes":"31","size_leaf_vector":"1"}},{"base_weights":[-1.238022E-3,-1.5061738E-1,1.4428796E-1,2.6508808E-1,-1.862698E-1,5.9668744E-1,1.0689131E-1,2.5627073E-2,3.8806987E-1,-3.2867163E-1,-1.2340948E-1,-3.45455E-1,7.1418506E-1,1.6392373E-1,-3.0256549E-2,-4.1644373E-3,4.46159E-2,1.340638E-2,3.070565E-2,-2.3809332E-2,-9.715209E-3,-4.8168264E-3,-2.1054069E-2,-2.1601014E-1,-7.1954364E-3,7.509975E-2,2.4774158E-2,1.0636098E-2,-3.1950064E-3,1.2143777E-4,-1.9665344E-2],"categories":[],"categories_nodes":[],"categories_segments":[],"categories_sizes":[],"default_left":[0,0,0,0,0,0,0,0,0,0,0,0,0,0,0,0,0,0,0,0,0,0,0,0,0,0,0,0,0,0,0],"id":1,"left_children":[1,3,5,7,9,11,13,15,17,19,21,23,25,27,29,-1,-1,-1,-1,-1,-1,-1,-1,-1,-1,-1,-1,-1,-1,-1,-1],"loss_changes":[2.15363E3,7.2460645E2,8.489264E2,1.1372339E2,4.0301086E2,4.24364E2,3.625625E2,1.2387513E2,6.90119E1,2.7321228E2,2.5171008E2,3.4024442E2,5.8622363E2,3.639751E2,1.6155916E2,0E0,0E0,0E0,0E0,0E0,0E0,0E0,0E0,0E0,0E0,0E0,0E0,0E0,0E0,0E0,0E0],"parents":[2147483647,0,0,1,1,2,2,3,3,4,4,5,5,6,6,7,7,8,8,9,9,10,10,11,11,12,12,13,13,14,14],"right_children":[2,4,6,8,10,12,14,16,18,20,22,24,26,28,30,-1,-1,-1,-1,-1,-1,-1,-1,-1,-1,-1,-1,-1,-1,-1,-1],"split_conditions":[-2E-2,1.4141414E-2,0E0,5E-1,1E-1,1.3954546E-1,5.125E-1,3.9E-1,5.625E-1,-7E-2,2.5E-1,-1.1282051E-1,1.4796568E-1,1.25E-1,3.75E-1,-4.1644373E-3,4.46159E-2,1.340638E-2,3.070565E-2,-2.3809332E-2,-9.715209E-3,-4.8168264E-3,-2.1054069E-2,-2.1601014E-1,-7.1954364E-3,7.509975E-2,2.4774158E-2,1.0636098E-2,-3.1950064E-3,1.2143777E-4,-1.9665344E-2],"split_indices":[10,32,24,1,9,31,15,13,36,10,24,8,32,24,23,0,0,0,0,0,0,0,0,0,0,0,0,0,0,0,0],"split_type":[0,0,0,0,0,0,0,0,0,0,0,0,0,0,0,0,0,0,0,0,0,0,0,0,0,0,0,0,0,0,0],"sum_hessian":[9.90675E4,4.88865E4,5.0181E4,3.861E3,4.50255E4,3.83025E3,4.635075E4,1.3105E3,2.5505E3,1.37875E4,3.1238E4,4.245E2,3.40575E3,3.2737E4,1.361375E4,1.165E3,1.455E2,1.66775E3,8.8275E2,6.571E3,7.2165E3,2.8635E4,2.603E3,1.95E1,4.05E2,7.3875E2,2.667E3,2.6962E4,5.775E3,1.249025E4,1.1235E3],"tree_param":{"num_deleted":"0","num_feature":"37","num_nodes":"31","size_leaf_vector":"1"}},{"base_weights":[-3.5186256E-3,-8.3995976E-2,2.3673855E-1,-4.5088757E-2,-3.16708E-1,6.365873E-1,1.7240576E-1,4.5178298E-2,-1.3942759E-1,2.966818E-1,-3.4094033E-1,1.2499815E0,5.139966E-1,4.1145864E-1,1.2361861E-1,4.389796E-2,1.653157E-3,-1.6048862E-2,-3.337799E-3,-1.1376954E-2,3.865415E-2,-1.5805775E-2,-3.342911E-2,5.428801E-2,9.020633E-2,4.3884095E-2,1.6849922E-2,1.7827084E-2,6.73449E-2,9.291261E-3,-8.605412E-3],"categories":[],"categories_nodes":[],"categories_segments":[],"categories_sizes":[],"default_left":[0,0,0,0,0,0,0,0,0,0,0,0,0,0,0,0,0,0,0,0,0,0,0,0,0,0,0,0,0,0,0],"id":2,"left_children":[1,3,5,7,9,11,13,15,17,19,21,23,25,27,29,-1,-1,-1,-1,-1,-1,-1,-1,-1,-1,-1,-1,-1,-1,-1,-1],"loss_changes":[1.9118856E3,6.706286E2,6.381067E2,5.404225E2,1.5780298E2,2.579016E2,2.492221E2,3.2717868E2,4.0938623E2,1.01008194E2,8.280884E1,5.009442E1,1.8427374E2,1.856001E2,3.266053E2,0E0,0E0,0E0,0E0,0E0,0E0,0E0,0E0,0E0,0E0,0E0,0E0,0E0,0E0,0E0,0E0],"parents":[2147483647,0,0,1,1,2,2,3,3,4,4,5,5,6,6,7,7,8,8,9,9,10,10,11,11,12,12,13,13,14,14],"right_children":[2,4,6,8,10,12,14,16,18,20,22,24,26,28,30,-1,-1,-1,-1,-1,-1,-1,-1,-1,-1,-1,-1,-1,-1,-1,-1],"split_conditions":[1E-2,1.25E-1,0E0,5.125E-1,6.0909092E-2,-2.5E-1,2.668182E-1,-1.5E-1,1.1E-1,1E-1,4.017116E-1,1.1E-1,2.7818182E-1,2.5603864E-1,1.25E-1,4.389796E-2,1.653157E-3,-1.6048862E-2,-3.337799E-3,-1.1376954E-2,3.865415E-2,-1.5805775E-2,-3.342911E-2,5.428801E-2,9.020633E-2,4.3884095E-2,1.6849922E-2,1.7827084E-2,6.73449E-2,9.291261E-3,-8.605412E-3],"split_indices":[10,24,24,15,31,24,31,16,9,15,32,25,31,8,24,0,0,0,0,0,0,0,0,0,0,0,0,0,0,0,0],"split_type":[0,0,0,0,0,0,0,0,0,0,0,0,0,0,0,0,0,0,0,0,0,0,0,0,0,0,0,0,0,0,0],"sum_hessian":[9.887875E4,7.4069E4,2.480975E4,6.346025E4,1.060875E4,3.43725E3,2.13725E4,3.243025E4,3.103E4,4.0275E2,1.0206E4,5.71E2,2.86625E3,3.62125E3,1.775125E4,4.64E2,3.196625E4,8.86925E3,2.216075E4,1.92E2,2.1075E2,9.489E3,7.17E2,4.4275E2,1.2825E2,9.37E2,1.92925E3,3.42175E3,1.995E2,1.46665E4,3.08475E3],"tree_param":{"num_deleted":"0","num_feature":"37","num_nodes":"31","size_leaf_vector":"1"}},{"base_weights":[7.99237E-4,-1.4677013E-1,1.2599567E-1,2.2750479E-1,-1.8040405E-1,5.4310435E-1,9.3483865E-2,-8.279238E-3,3.5416245E-1,-1.451496E-1,-3.3724034E-1,1.1549623E0,4.3185723E-1,1.4237407E-1,-1.9432299E-2,5.028043E-2,-6.076112E-3,-4.9427178E-2,1.8818278E-2,-1.9923437E-3,-1.0559471E-2,-1.603636E-2,-4.512589E-2,8.739125E-2,4.8945125E-2,-1.6619058E-2,2.6438957E-2,9.414258E-3,-3.3596975E-3,7.037418E-4,-1.6835375E-2],"categories":[],"categories_nodes":[],"categories_segments":[],"categories_sizes":[],"default_left":[0,0,0,0,0,0,0,0,0,0,0,0,0,0,0,0,0,0,0,0,0,0,0,0,0,0,0,0,0,0,0],"id":3,"left_children":[1,3,5,7,9,11,13,15,17,19,21,23,25,27,29,-1,-1,-1,-1,-1,-1,-1,-1,-1,-1,-1,-1,-1,-1,-1,-1],"loss_changes":[1.8322554E3,5.730587E2,7.275521E2,1.1210437E2,2.3088818E2,2.6356873E2,2.7478952E2,1.508465E2,7.317355E1,2.3715149E2,7.125726E1,6.0525208E1,2.4344495E2,3.342249E2,1.599027E2,0E0,0E0,0E0,0E0,0E0,0E0,0E0,0E0,0E0,0E0,0E0,0E0,0E0,0E0,0E0,0E0],"parents":[2147483647,0,0,1,1,2,2,3,3,4,4,5,5,6,6,7,7,8,8,9,9,10,10,11,11,12,12,13,13,14,14],"right_children":[2,4,6,8,10,12,14,16,18,20,22,24,26,28,30,-1,-1,-1,-1,-1,-1,-1,-1,-1,-1,-1,-1,-1,-1,-1,-1],"split_conditions":[-3E-2,1.4141414E-2,0E0,5E-1,1.25E-1,-2.5E-1,5.125E-1,-1.25E-1,0E0,4.375E-1,4.5463607E-1,1.4636756E-1,1.3954546E-1,1.25E-1,3.75E-1,5.028043E-2,-6.076112E-3,-4.9427178E-2,1.8818278E-2,-1.9923437E-3,-1.0559471E-2,-1.603636E-2,-4.512589E-2,8.739125E-2,4.8945125E-2,-1.6619058E-2,2.6438957E-2,9.414258E-3,-3.3596975E-3,7.037418E-4,-1.6835375E-2],"split_indices":[10,32,24,1,24,24,15,24,24,15,32,32,31,24,23,0,0,0,0,0,0,0,0,0,0,0,0,0,0,0,0],"split_type":[0,0,0,0,0,0,0,0,0,0,0,0,0,0,0,0,0,0,0,0,0,0,0,0,0,0,0,0,0,0,0],"sum_hessian":[9.9172E4,4.551875E4,5.365325E4,3.75275E3,4.1766E4,3.8785E3,4.977475E4,1.31175E3,2.441E3,3.410225E4,7.66375E3,5.9525E2,3.28325E3,3.4735E4,1.503975E4,1.31E2,1.18075E3,3.9E1,2.402E3,1.31445E4,2.095775E4,7.44775E3,2.16E2,1.3425E2,4.61E2,3.6925E2,2.914E3,2.8493E4,6.242E3,1.3604E4,1.43575E3],"tree_param":{"num_deleted":"0","num_feature":"37","num_nodes":"31","size_leaf_vector":"1"}},{"base_weights":[-1.8593802E-3,-1.2784028E-1,1.2225984E-1,2.732651E-1,-1.6195495E-1,5.360275E-1,8.74093E-2,1.7878044E-1,5.600485E-1,-2.9533353E-1,-1.0265908E-1,-3.2986835E-1,6.402583E-1,1.3437928E-1,-2.4538217E-2,4.7575206E-2,7.3252455E-3,2.3677338E-2,1.2371092E-1,-2.116883E-2,-8.849194E-3,-4.114605E-3,-2.037431E-2,-2.2229128E-1,-6.6460134E-3,6.4229056E-2,2.2367515E-2,8.930455E-3,-3.729842E-3,1.7594667E-3,-1.0288276E-2],"categories":[],"categories_nodes":[],"categories_segments":[],"categories_sizes":[],"default_left":[0,0,0,0,0,0,0,0,0,0,0,0,0,0,0,0,0,0,0,0,0,0,0,0,0,0,0,0,0,0,0],"id":4,"left_children":[1,3,5,7,9,11,13,15,17,19,21,23,25,27,29,-1,-1,-1,-1,-1,-1,-1,-1,-1,-1,-1,-1,-1,-1,-1,-1],"loss_changes":[1.5476102E3,6.721576E2,7.1886334E2,1.0423547E2,3.579912E2,3.4973877E2,2.417912E2,7.2130684E1,1.5674942E2,2.1103333E2,1.9453015E2,3.3723907E2,4.2911316E2,2.9941632E2,1.4712791E2,0E0,0E0,0E0,0E0,0E0,0E0,0E0,0E0,0E0,0E0,0E0,0E0,0E0,0E0,0E0,0E0],"parents":[2147483647,0,0,1,1,2,2,3,3,4,4,5,5,6,6,7,7,8,8,9,9,10,10,11,11,12,12,13,13,14,14],"right_children":[2,4,6,8,10,12,14,16,18,20,22,24,26,28,30,-1,-1,-1,-1,-1,-1,-1,-1,-1,-1,-1,-1,-1,-1,-1,-1],"split_conditions":[-2E-2,1.4141414E-2,0E0,5.625E-1,1E-1,1.3954546E-1,5.125E-1,-1.25E-1,3.75E-1,-7E-2,1.3E-1,-1.13953486E-1,1.4796568E-1,1.25E-1,3.25E-1,4.7575206E-2,7.3252455E-3,2.3677338E-2,1.2371092E-1,-2.116883E-2,-8.849194E-3,-4.114605E-3,-2.037431E-2,-2.2229128E-1,-6.6460134E-3,6.4229056E-2,2.2367515E-2,8.930455E-3,-3.729842E-3,1.7594667E-3,-1.0288276E-2],"split_indices":[10,32,24,36,9,31,15,24,24,10,26,7,32,24,3,0,0,0,0,0,0,0,0,0,0,0,0,0,0,0,0],"split_type":[0,0,0,0,0,0,0,0,0,0,0,0,0,0,0,0,0,0,0,0,0,0,0,0,0,0,0,0,0,0,0],"sum_hessian":[9.897125E4,4.911725E4,4.9854E4,3.8495E3,4.526775E4,3.87175E3,4.598225E4,2.89675E3,9.5275E2,1.393E4,3.133775E4,4.1575E2,3.456E3,3.23915E4,1.359075E4,1.15E2,2.78175E3,9.1275E2,4E1,6.68975E3,7.24025E3,2.937625E4,1.9615E3,1.8E1,3.9775E2,7.95E2,2.661E3,2.67335E4,5.658E3,1.02225E4,3.36825E3],"tree_param":{"num_deleted":"0","num_feature":"37","num_nodes":"31","size_leaf_vector":"1"}},{"base_weights":[1.2727855E-3,-6.7908525E-2,2.0796926E-1,3.0819407E-1,-8.730069E-2,4.5381537E-1,1.4322157E-1,1.8295212E-1,6.655647E-1,-5.3105865E-2,-2.9014954E-1,6.9896424E-1,2.0969504E-1,8.58609E-1,1.1761944E-1,4.7637675E-2,7.0503834E-3,3.084458E-3,4.294817E-2,1.0109722E-3,-9.018507E-3,-1.7975807E-2,-9.360815E-3,2.4857221E-2,5.4725822E-2,4.6761786E-3,2.546095E-2,7.357363E-2,3.4756035E-2,8.539209E-3,-8.081242E-3],"categories":[],"categories_nodes":[],"categories_segments":[],"categories_sizes":[],"default_left":[0,0,0,0,0,0,0,0,0,0,0,0,0,0,0,0,0,0,0,0,0,0,0,0,0,0,0,0,0,0,0],"id":5,"left_children":[1,3,5,7,9,11,13,15,17,19,21,23,25,27,29,-1,-1,-1,-1,-1,-1,-1,-1,-1,-1,-1,-1,-1,-1,-1,-1],"loss_changes":[1.4175339E3,5.4172925E2,3.9563977E2,1.6288611E2,4.8991162E2,3.0995947E2,3.6031497E2,8.698917E1,1.1028317E2,5.640461E2,7.268176E1,2.0581714E2,9.034404E1,6.708539E1,2.820932E2,0E0,0E0,0E0,0E0,0E0,0E0,0E0,0E0,0E0,0E0,0E0,0E0,0E0,0E0,0E0,0E0],"parents":[2147483647,0,0,1,1,2,2,3,3,4,4,5,5,6,6,7,7,8,8,9,9,10,10,11,11,12,12,13,13,14,14],"right_children":[2,4,6,8,10,12,14,16,18,20,22,24,26,28,30,-1,-1,-1,-1,-1,-1,-1,-1,-1,-1,-1,-1,-1,-1,-1,-1],"split_conditions":[1E-2,6.5717413E-3,2.7818182E-1,1.16264975E-11,1.25E-1,4.5E-1,-1.25E-1,-1.25E-1,5E-1,4E-2,2.9076064E-1,8.333333E-1,1.8E-1,-4.814815E-1,1.25E-1,4.7637675E-2,7.0503834E-3,3.084458E-3,4.294817E-2,1.0109722E-3,-9.018507E-3,-1.7975807E-2,-9.360815E-3,2.4857221E-2,5.4725822E-2,4.6761786E-3,2.546095E-2,7.357363E-2,3.4756035E-2,8.539209E-3,-8.081242E-3],"split_indices":[10,32,31,32,24,9,24,24,1,26,32,3,10,6,24,0,0,0,0,0,0,0,0,0,0,0,0,0,0,0,0],"split_type":[0,0,0,0,0,0,0,0,0,0,0,0,0,0,0,0,0,0,0,0,0,0,0,0,0,0,0,0,0,0,0],"sum_hessian":[9.91295E4,7.42715E4,2.4858E4,3.641E3,7.06305E4,5.18075E3,1.967725E4,2.69725E3,9.4375E2,6.044275E4,1.018775E4,2.584E3,2.59675E3,6.7875E2,1.89985E4,1.3825E2,2.559E3,2.2925E2,7.145E2,3.83485E4,2.209425E4,6.08475E3,4.103E3,1.7125E3,8.715E2,1.872E3,7.2475E2,1.4125E2,5.375E2,1.596025E4,3.03825E3],"tree_param":{"num_deleted":"0","num_feature":"37","num_nodes":"31","size_leaf_vector":"1"}},{"base_weights":[1.4687735E-3,-6.80487E-2,2.0703974E-1,2.960437E-1,-8.6912915E-2,1.0924305E0,1.8475474E-1,1.7170213E-1,6.44415E-1,-5.362718E-2,-2.819097E-1,1.623597E0,9.207761E-1,4.3539917E-1,1.203292E-1,4.5250125E-2,6.3402443E-3,-4.172631E-4,4.312698E-2,-5.9453216E-3,1.8025221E-3,-1.6636448E-2,-8.194371E-3,3.6955442E-2,1.11369565E-1,4.0448166E-2,8.35441E-2,3.2562044E-2,1.0702895E-2,8.349142E-3,-6.763616E-3],"categories":[],"categories_nodes":[],"categories_segments":[],"categories_sizes":[],"default_left":[0,0,0,0,0,0,0,0,0,0,0,0,0,0,0,0,0,0,0,0,0,0,0,0,0,0,0,0,0,0,0],"id":6,"left_children":[1,3,5,7,9,11,13,15,17,19,21,23,25,27,29,-1,-1,-1,-1,-1,-1,-1,-1,-1,-1,-1,-1,-1,-1,-1,-1],"loss_changes":[1.4250652E3,5.1184738E2,4.9701794E2,1.5890619E2,4.5983978E2,5.489801E1,3.9690338E2,8.900002E1,1.374425E2,3.542937E2,6.1904297E1,7.8327545E1,3.8046936E1,2.3998804E2,2.3323776E2,0E0,0E0,0E0,0E0,0E0,0E0,0E0,0E0,0E0,0E0,0E0,0E0,0E0,0E0,0E0,0E0],"parents":[2147483647,0,0,1,1,2,2,3,3,4,4,5,5,6,6,7,7,8,8,9,9,10,10,11,11,12,12,13,13,14,14],"right_children":[2,4,6,8,10,12,14,16,18,20,22,24,26,28,30,-1,-1,-1,-1,-1,-1,-1,-1,-1,-1,-1,-1,-1,-1,-1,-1],"split_conditions":[1E-2,6.5717413E-3,-2.5E-1,1.16264975E-11,1.25E-1,1.4636756E-1,2.7818182E-1,-1.25E-1,3.75E-1,-3E-2,4.3363637E-1,2.5E-1,5.072727E-1,4.5E-1,1.25E-1,4.5250125E-2,6.3402443E-3,-4.172631E-4,4.312698E-2,-5.9453216E-3,1.8025221E-3,-1.6636448E-2,-8.194371E-3,3.6955442E-2,1.11369565E-1,4.0448166E-2,8.35441E-2,3.2562044E-2,1.0702895E-2,8.349142E-3,-6.763616E-3],"split_indices":[10,32,24,32,24,32,31,24,23,10,31,10,31,9,24,0,0,0,0,0,0,0,0,0,0,0,0,0,0,0,0],"split_type":[0,0,0,0,0,0,0,0,0,0,0,0,0,0,0,0,0,0,0,0,0,0,0,0,0,0,0,0,0,0,0],"sum_hessian":[9.971725E4,7.451825E4,2.5199E4,3.67E3,7.084825E4,6.175E2,2.45815E4,2.70575E3,9.6425E2,6.0519E4,1.032925E4,1.4875E2,4.6875E2,5.02525E3,1.955625E4,1.55E2,2.55075E3,2.4175E2,7.225E2,3.502375E4,2.549525E4,7.219E3,3.11025E3,6.125E1,8.75E1,4.0975E2,5.9E1,2.54325E3,2.482E3,1.6538E4,3.01825E3],"tree_param":{"num_deleted":"0","num_feature":"37","num_nodes":"31","size_leaf_vector":"1"}},{"base_weights":[9.637831E-4,-6.446624E-2,1.9530115E-1,2.5980946E-1,-8.652924E-2,4.2907745E-1,1.3467075E-1,5.9589267E-2,3.6857015E-1,-1.510113E-1,9.829123E-3,3.6728206E-1,1.0811844E0,2.5897348E-1,5.9116643E-2,1.624805E-2,-1.8486347E-2,1.0374217E-2,2.9097E-2,-1.3893734E-2,-4.5280717E-3,-2.6466548E-2,1.2119015E-3,2.5973637E-2,1.2012572E-2,2.573179E-2,8.469026E-2,4.009244E-3,2.2937037E-2,5.763419E-3,-1.156122E-2],"categories":[],"categories_nodes":[],"categories_segments":[],"categories_sizes":[],"default_left":[0,0,0,0,0,0,0,0,0,0,0,0,0,0,0,0,0,0,0,0,0,0,0,0,0,0,0,0,0,0,0],"id":7,"left_children":[1,3,5,7,9,11,13,15,17,19,21,23,25,27,29,-1,-1,-1,-1,-1,-1,-1,-1,-1,-1,-1,-1,-1,-1,-1,-1],"loss_changes":[1.2610658E3,5.3085205E2,3.540111E2,1.0290814E2,4.3164227E2,2.0689172E2,1.862879E2,1.8981087E2,1.0514862E2,3.1914368E2,2.1638495E2,9.074451E1,1.5349188E2,2.6779825E2,2.0119533E2,0E0,0E0,0E0,0E0,0E0,0E0,0E0,0E0,0E0,0E0,0E0,0E0,0E0,0E0,0E0,0E0],"parents":[2147483647,0,0,1,1,2,2,3,3,4,4,5,5,6,6,7,7,8,8,9,9,10,10,11,11,12,12,13,13,14,14],"right_children":[2,4,6,8,10,12,14,16,18,20,22,24,26,28,30,-1,-1,-1,-1,-1,-1,-1,-1,-1,-1,-1,-1,-1,-1,-1,-1],"split_conditions":[1E-2,1.4141414E-2,2.7818182E-1,5E-1,-3E-2,2.3620689E-1,2.8125E-1,3.75E-1,1.16264975E-11,1.1E-1,1.6409092E-1,4.5E-1,8.2916665E-1,5E-2,5E-2,1.624805E-2,-1.8486347E-2,1.0374217E-2,2.9097E-2,-1.3893734E-2,-4.5280717E-3,-2.6466548E-2,1.2119015E-3,2.5973637E-2,1.2012572E-2,2.573179E-2,8.469026E-2,4.009244E-3,2.2937037E-2,5.763419E-3,-1.156122E-2],"split_indices":[10,32,31,1,10,8,1,1,32,9,31,9,3,22,26,0,0,0,0,0,0,0,0,0,0,0,0,0,0,0,0],"split_type":[0,0,0,0,0,0,0,0,0,0,0,0,0,0,0,0,0,0,0,0,0,0,0,0,0,0,0,0,0,0,0],"sum_hessian":[9.91735E4,7.419425E4,2.497925E4,4.72575E3,6.94685E4,5.143E3,1.983625E4,1.664E3,3.06175E3,4.161775E4,2.785075E4,4.69925E3,4.4375E2,7.498E3,1.233825E4,1.0285E3,6.355E2,1.74575E3,1.316E3,1.342975E4,2.8188E4,7.24E2,2.712675E4,2.1365E3,2.56275E3,2.315E2,2.1225E2,3.9575E3,3.5405E3,1.033925E4,1.999E3],"tree_param":{"num_deleted":"0","num_feature":"37","num_nodes":"31","size_leaf_vector":"1"}},{"base_weights":[9.1476564E-4,-6.282026E-2,1.9047995E-1,2.5487056E-1,-8.223663E-2,4.364284E-1,1.2567295E-1,2.3913756E-1,1.8159739E0,-5.0299868E-2,-2.694375E-1,3.7282658E-1,1.2007874E0,7.8128123E-1,1.0429522E-1,7.773546E-3,2.3670552E-2,4.1953456E-2,1.20942555E-1,7.521036E-4,-8.16788E-3,-1.0071321E-2,-2.0042809E-2,9.666389E-3,2.4817025E-2,2.3076488E-2,8.5775875E-2,8.394911E-2,3.364485E-2,7.4627423E-3,-6.602728E-3],"categories":[],"categories_nodes":[],"categories_segments":[],"categories_sizes":[],"default_left":[0,0,0,0,0,0,0,0,0,0,0,0,0,0,0,0,0,0,0,0,0,0,0,0,0,0,0,0,0,0,0],"id":8,"left_children":[1,3,5,7,9,11,13,15,17,19,21,23,25,27,29,-1,-1,-1,-1,-1,-1,-1,-1,-1,-1,-1,-1,-1,-1,-1,-1],"loss_changes":[1.1981177E3,4.578029E2,3.976596E2,1.0455722E2,4.1813055E2,2.5250635E2,2.767197E2,8.2901825E1,2.3000961E1,4.4138907E2,9.102136E1,1.0643378E2,1.5113007E2,5.9534637E1,2.0326967E2,0E0,0E0,0E0,0E0,0E0,0E0,0E0,0E0,0E0,0E0,0E0,0E0,0E0,0E0,0E0,0E0],"parents":[2147483647,0,0,1,1,2,2,3,3,4,4,5,5,6,6,7,7,8,8,9,9,10,10,11,11,12,12,13,13,14,14],"right_children":[2,4,6,8,10,12,14,16,18,20,22,24,26,28,30,-1,-1,-1,-1,-1,-1,-1,-1,-1,-1,-1,-1,-1,-1,-1,-1],"split_conditions":[1E-2,1.1523342E-2,2.7818182E-1,2.4954545E-1,1.25E-1,2.5603864E-1,-1.25E-1,5.625E-1,1.5E-1,4E-2,1.1E-1,1.8545455E-1,8.2916665E-1,1.254298E-1,1.25E-1,7.773546E-3,2.3670552E-2,4.1953456E-2,1.20942555E-1,7.521036E-4,-8.16788E-3,-1.0071321E-2,-2.0042809E-2,9.666389E-3,2.4817025E-2,2.3076488E-2,8.5775875E-2,8.394911E-2,3.364485E-2,7.4627423E-3,-6.602728E-3],"split_indices":[10,32,31,31,24,8,24,36,9,26,25,31,3,32,24,0,0,0,0,0,0,0,0,0,0,0,0,0,0,0,0],"split_type":[0,0,0,0,0,0,0,0,0,0,0,0,0,0,0,0,0,0,0,0,0,0,0,0,0,0,0,0,0,0,0],"sum_hessian":[9.9164E4,7.4213E4,2.4951E4,4.27375E3,6.993925E4,5.20225E3,1.974875E4,4.23225E3,4.15E1,5.97475E4,1.019175E4,4.804E3,3.9825E2,6.225E2,1.912625E4,3.11975E3,1.1125E3,1.675E1,2.475E1,3.78645E4,2.1883E4,6.71775E3,3.474E3,1.95925E3,2.84475E3,1.6425E2,2.34E2,6.55E1,5.57E2,1.606975E4,3.0565E3],"tree_param":{"num_deleted":"0","num_feature":"37","num_nodes":"31","size_leaf_vector":"1"}},{"base_weights":[3.2288006E-3,-1.09160006E-1,9.835046E-2,2.2180724E-1,-1.3830984E-1,5.4718167E-2,3.130068E-1,2.2072937E-2,3.265459E-1,-2.6813108E-1,-8.47878E-2,4.642324E-1,4.138945E-2,9.509325E-1,2.711594E-1,1.3440977E-2,-1.8170988E-2,1.8079994E-2,-2.6075548E-2,-1.8169886E-2,-7.6552145E-3,-3.2999602E-3,-1.7551806E-2,2.063401E-2,8.804911E-2,3.4422204E-3,-9.7237555E-3,7.349621E-2,3.8622316E-2,1.5741967E-2,-2.5963038E-3],"categories":[],"categories_nodes":[],"categories_segments":[],"categories_sizes":[],"default_left":[0,0,0,0,0,0,0,0,0,0,0,0,0,0,0,0,0,0,0,0,0,0,0,0,0,0,0,0,0,0,0],"id":9,"left_children":[1,3,5,7,9,11,13,15,17,19,21,23,25,27,29,-1,-1,-1,-1,-1,-1,-1,-1,-1,-1,-1,-1,-1,-1,-1,-1],"loss_changes":[1.0603802E3,4.386823E2,5.0312854E2,7.699373E1,2.9032916E2,2.4367744E2,2.4199738E2,1.20637276E2,7.196628E1,1.3361548E2,1.4800003E2,9.334836E1,2.8002542E2,5.0576904E1,1.2021832E2,0E0,0E0,0E0,0E0,0E0,0E0,0E0,0E0,0E0,0E0,0E0,0E0,0E0,0E0,0E0,0E0],"parents":[2147483647,0,0,1,1,2,2,3,3,4,4,5,5,6,6,7,7,8,8,9,9,10,10,11,11,12,12,13,13,14,14],"right_children":[2,4,6,8,10,12,14,16,18,20,22,24,26,28,30,-1,-1,-1,-1,-1,-1,-1,-1,-1,-1,-1,-1,-1,-1,-1,-1],"split_conditions":[-3E-2,1.4141414E-2,8E-2,5E-1,1E-1,9.95005E-3,-2.5E-1,3.75E-1,8.75E-1,-7E-2,1.3E-1,2.1954545E-1,1.25E-1,1.4636756E-1,3.6E-1,1.3440977E-2,-1.8170988E-2,1.8079994E-2,-2.6075548E-2,-1.8169886E-2,-7.6552145E-3,-3.2999602E-3,-1.7551806E-2,2.063401E-2,8.804911E-2,3.4422204E-3,-9.7237555E-3,7.349621E-2,3.8622316E-2,1.5741967E-2,-2.5963038E-3],"split_indices":[10,32,10,1,9,32,24,1,35,10,26,31,24,32,13,0,0,0,0,0,0,0,0,0,0,0,0,0,0,0,0],"split_type":[0,0,0,0,0,0,0,0,0,0,0,0,0,0,0,0,0,0,0,0,0,0,0,0,0,0,0,0,0,0,0],"sum_hessian":[9.9186E4,4.546625E4,5.371975E4,3.67975E3,4.17865E4,4.4646E4,9.07375E3,1.26625E3,2.4135E3,1.219725E4,2.958925E4,1.40625E3,4.323975E4,5.5725E2,8.5165E3,7.7225E2,4.94E2,2.31825E3,9.525E1,6.6705E3,5.52675E3,2.764E4,1.94925E3,1.35375E3,5.25E1,3.8732E4,4.50775E3,1.4075E2,4.165E2,7.50225E3,1.01425E3],"tree_param":{"num_deleted":"0","num_feature":"37","num_nodes":"31","size_leaf_vector":"1"}},{"base_weights":[-3.9743045E-3,-1.0024707E-1,9.058346E-2,-1.961565E-1,-2.2519363E-2,4.8240628E-2,2.8016824E-1,4.4506675E-1,-2.0852292E-1,1.6242956E-1,-5.2067317E-2,4.3444324E-1,3.5796747E-2,8.3667254E-1,2.4582307E-1,-5.0006907E-2,3.281287E-2,-9.422469E-3,-2.7623761E-2,3.045979E-2,5.9233066E-3,-1.3369404E-2,-8.0974627E-4,1.8971706E-2,8.5170515E-2,3.0691647E-3,-9.268909E-3,3.463593E-2,6.340964E-2,2.2056432E-2,8.854137E-3],"categories":[],"categories_nodes":[],"categories_segments":[],"categories_sizes":[],"default_left":[0,0,0,0,0,0,0,0,0,0,0,0,0,0,0,0,0,0,0,0,0,0,0,0,0,0,0,0,0,0,0],"id":10,"left_children":[1,3,5,7,9,11,13,15,17,19,21,23,25,27,29,-1,-1,-1,-1,-1,-1,-1,-1,-1,-1,-1,-1,-1,-1,-1,-1],"loss_changes":[9.027438E2,3.6630682E2,4.0159503E2,1.7451288E2,1.4833849E2,1.9652608E2,1.7436505E2,1.27777855E2,1.4889508E2,7.337183E1,1.8077176E2,8.845949E1,2.2422926E2,3.2075653E1,1.1543378E2,0E0,0E0,0E0,0E0,0E0,0E0,0E0,0E0,0E0,0E0,0E0,0E0,0E0,0E0,0E0,0E0],"parents":[2147483647,0,0,1,1,2,2,3,3,4,4,5,5,6,6,7,7,8,8,9,9,10,10,11,11,12,12,13,13,14,14],"right_children":[2,4,6,8,10,12,14,16,18,20,22,24,26,28,30,-1,-1,-1,-1,-1,-1,-1,-1,-1,-1,-1,-1,-1,-1,-1,-1],"split_conditions":[-2E-2,1.6E-1,8E-2,0E0,1.4141414E-2,9.95005E-3,-2.5E-1,3E-1,4.40169E-1,6.25E-2,6.924129E-2,2.1954545E-1,1.25E-1,2.6409018E-1,2.7818182E-1,-5.0006907E-2,3.281287E-2,-9.422469E-3,-2.7623761E-2,3.045979E-2,5.9233066E-3,-1.3369404E-2,-8.0974627E-4,1.8971706E-2,8.5170515E-2,3.0691647E-3,-9.268909E-3,3.463593E-2,6.340964E-2,2.2056432E-2,8.854137E-3],"split_indices":[10,9,10,24,32,32,24,13,32,15,32,31,24,8,31,0,0,0,0,0,0,0,0,0,0,0,0,0,0,0,0],"split_type":[0,0,0,0,0,0,0,0,0,0,0,0,0,0,0,0,0,0,0,0,0,0,0,0,0,0,0,0,0,0,0],"sum_hessian":[9.916425E4,4.91365E4,5.002775E4,2.1995E4,2.71415E4,4.089525E4,9.1325E3,4.155E2,2.15795E4,3.73825E3,2.340325E4,1.2755E3,3.961975E4,5.295E2,8.603E3,5.25E1,3.63E2,2.0391E4,1.1885E3,3.3375E2,3.4045E3,3.34125E3,2.0062E4,1.22375E3,5.175E1,3.551225E4,4.1075E3,3.99E2,1.305E2,2.23825E3,6.36475E3],"tree_param":{"num_deleted":"0","num_feature":"37","num_nodes":"31","size_leaf_vector":"1"}},{"base_weights":[3.019473E-4,-1.0290987E-1,8.724587E-2,-2.438954E-1,-5.0937995E-2,5.1146105E-2,2.6363668E-1,-6.10257E-1,-2.2196744E-1,1.6318455E-1,-7.705161E-2,8.348539E-2,-7.305371E-2,6.91094E-1,2.2337385E-1,-3.521244E-2,4.408157E-2,-1.5545315E-2,-5.8982354E-3,4.173091E-3,2.0712813E-2,-2.988234E-3,-1.7937154E-2,1.9418737E-2,3.5882597E-3,-1.6213303E-2,-1.476379E-3,6.080541E-2,2.8306214E-2,3.062778E-3,1.4492801E-2],"categories":[],"categories_nodes":[],"categories_segments":[],"categories_sizes":[],"default_left":[0,0,0,0,0,0,0,0,0,0,0,0,0,0,0,0,0,0,0,0,0,0,0,0,0,0,0,0,0,0,0],"id":11,"left_children":[1,3,5,7,9,11,13,15,17,19,21,23,25,27,29,-1,-1,-1,-1,-1,-1,-1,-1,-1,-1,-1,-1,-1,-1,-1,-1],"loss_changes":[8.891262E2,3.319336E2,3.4243484E2,9.788806E1,1.8510284E2,1.7932019E2,1.5708643E2,9.716589E1,1.0646881E2,7.199345E1,1.4365308E2,1.2654599E2,1.0084295E2,5.0881683E1,8.999182E1,0E0,0E0,0E0,0E0,0E0,0E0,0E0,0E0,0E0,0E0,0E0,0E0,0E0,0E0,0E0,0E0],"parents":[2147483647,0,0,1,1,2,2,3,3,4,4,5,5,6,6,7,7,8,8,9,9,10,10,11,11,12,12,13,13,14,14],"right_children":[2,4,6,8,10,12,14,16,18,20,22,24,26,28,30,-1,-1,-1,-1,-1,-1,-1,-1,-1,-1,-1,-1,-1,-1,-1,-1],"split_conditions":[-3E-2,1E-1,8E-2,1.1985993E-1,1.4141414E-2,4E-2,-1.25E-1,3.75E-1,-7E-2,5.625E-1,1.6E-1,6.5717413E-3,2.5E-1,-6.666667E-1,5.75E-1,-3.521244E-2,4.408157E-2,-1.5545315E-2,-5.8982354E-3,4.173091E-3,2.0712813E-2,-2.988234E-3,-1.7937154E-2,1.9418737E-2,3.5882597E-3,-1.6213303E-2,-1.476379E-3,6.080541E-2,2.8306214E-2,3.062778E-3,1.4492801E-2],"split_indices":[10,9,10,32,32,26,24,24,10,36,26,32,1,8,3,0,0,0,0,0,0,0,0,0,0,0,0,0,0,0,0],"split_type":[0,0,0,0,0,0,0,0,0,0,0,0,0,0,0,0,0,0,0,0,0,0,0,0,0,0,0,0,0,0,0],"sum_hessian":[9.908E4,4.530175E4,5.377825E4,1.220075E4,3.3101E4,4.4643E4,9.13525E3,6.875E2,1.151325E4,3.5975E3,2.95035E4,3.54205E4,9.2225E3,7.85E2,8.35025E3,6.4725E2,4.025E1,6.205E3,5.30825E3,2.7315E3,8.66E2,2.779875E4,1.70475E3,1.31E3,3.41105E4,1.361E3,7.8615E3,1.4925E2,6.3575E2,2.429E3,5.92125E3],"tree_param":{"num_deleted":"0","num_feature":"37","num_nodes":"31","size_leaf_vector":"1"}},{"base_weights":[-1.5157819E-3,-5.3011276E-2,1.5082452E-1,-2.2042012E-2,-2.354721E-1,4.1191366E-1,1.09267764E-1,8.0661374E-1,-2.8684124E-2,3.003158E-1,-2.5731623E-1,-3.025685E-1,4.8657092E-1,1.5134825E-1,-5.102274E-2,-3.7597172E-2,4.268691E-2,1.2623739E-3,-5.522261E-3,1.0984216E-1,8.410874E-3,-1.3735338E-2,1.0373919E-2,4.226444E-3,-6.9496505E-2,5.5790354E-2,1.5668083E-2,4.395896E-3,1.2966342E-2,1.5014736E-3,-2.0266691E-2],"categories":[],"categories_nodes":[],"categories_segments":[],"categories_sizes":[],"default_left":[0,0,0,0,0,0,0,0,0,0,0,0,0,0,0,0,0,0,0,0,0,0,0,0,0,0,0,0,0,0,0],"id":12,"left_children":[1,3,5,7,9,11,13,15,17,19,21,23,25,27,29,-1,-1,-1,-1,-1,-1,-1,-1,-1,-1,-1,-1,-1,-1,-1,-1],"loss_changes":[7.742916E2,4.1682123E2,2.7050006E2,3.4712482E2,1.2534918E2,1.8276117E2,1.4511172E2,3.747522E1,2.7587366E2,1.0478963E2,8.318884E1,1.3670435E2,3.3751794E2,1.1668274E2,1.2849513E2,0E0,0E0,0E0,0E0,0E0,0E0,0E0,0E0,0E0,0E0,0E0,0E0,0E0,0E0,0E0,0E0],"parents":[2147483647,0,0,1,1,2,2,3,3,4,4,5,5,6,6,7,7,8,8,9,9,10,10,11,11,12,12,13,13,14,14],"right_children":[2,4,6,8,10,12,14,16,18,20,22,24,26,28,30,-1,-1,-1,-1,-1,-1,-1,-1,-1,-1,-1,-1,-1,-1,-1,-1],"split_conditions":[1E-2,1.25E-1,0E0,-1.5E-1,6.0909092E-2,1.5363637E-1,5.5E-1,-5E-1,1.4705883E-1,3.1E-1,9.5416665E-1,7.5E-2,1.4796568E-1,6.666667E-2,8.333334E-3,-3.7597172E-2,4.268691E-2,1.2623739E-3,-5.522261E-3,1.0984216E-1,8.410874E-3,-1.3735338E-2,1.0373919E-2,4.226444E-3,-6.9496505E-2,5.5790354E-2,1.5668083E-2,4.395896E-3,1.2966342E-2,1.5014736E-3,-2.0266691E-2],"split_indices":[10,24,24,16,31,31,15,20,8,9,3,4,32,4,4,0,0,0,0,0,0,0,0,0,0,0,0,0,0,0,0],"split_type":[0,0,0,0,0,0,0,0,0,0,0,0,0,0,0,0,0,0,0,0,0,0,0,0,0,0,0,0,0,0,0],"sum_hessian":[9.869875E4,7.376475E4,2.4934E4,6.306225E4,1.07025E4,3.4225E3,2.15115E4,5.005E2,6.256175E4,4.1875E2,1.028375E4,3.235E2,3.099E3,1.70385E4,4.473E3,1.425E1,4.8625E2,3.769675E4,2.4865E4,2.625E1,3.925E2,9.91325E3,3.705E2,2.3925E2,8.425E1,6.6775E2,2.43125E3,1.07345E4,6.304E3,3.641E3,8.32E2],"tree_param":{"num_deleted":"0","num_feature":"37","num_nodes":"31","size_leaf_vector":"1"}},{"base_weights":[1.9395315E-4,-9.805287E-2,8.3658114E-2,4.1394617E-2,-1.536216E-1,4.798157E-2,2.6065737E-1,4.4260737E-3,5.1064736E-1,-5.2499634E-1,-1.3825479E-1,7.054586E-2,-1.4852765E-1,8.591939E-1,2.2454914E-1,-1.7403245E-2,1.9008253E-3,9.982214E-3,5.1308412E-2,-3.632682E-2,-3.8029582E-3,-5.4263193E-3,-1.6373089E-2,2.9781105E-3,1.8766304E-2,-5.508756E-3,-3.0397901E-2,3.4465756E-2,6.795848E-2,2.3872152E-2,8.773184E-3],"categories":[],"categories_nodes":[],"categories_segments":[],"categories_sizes":[],"default_left":[0,0,0,0,0,0,0,0,0,0,0,0,0,0,0,0,0,0,0,0,0,0,0,0,0,0,0,0,0,0,0],"id":13,"left_children":[1,3,5,7,9,11,13,15,17,19,21,23,25,27,29,-1,-1,-1,-1,-1,-1,-1,-1,-1,-1,-1,-1,-1,-1,-1,-1],"loss_changes":[8.121962E2,3.525415E2,3.3815662E2,2.2489622E2,1.8557947E2,1.97639E2,1.9395398E2,1.4231618E2,1.5158618E2,1.1686597E2,1.7568524E2,1.3381554E2,8.082789E1,4.2443848E1,1.0510123E2,0E0,0E0,0E0,0E0,0E0,0E0,0E0,0E0,0E0,0E0,0E0,0E0,0E0,0E0,0E0,0E0],"parents":[2147483647,0,0,1,1,2,2,3,3,4,4,5,5,6,6,7,7,8,8,9,9,10,10,11,11,12,12,13,13,14,14],"right_children":[2,4,6,8,10,12,14,16,18,20,22,24,26,28,30,-1,-1,-1,-1,-1,-1,-1,-1,-1,-1,-1,-1,-1,-1,-1,-1],"split_conditions":[-3E-2,2.7272728E-1,8E-2,2.6045454E-1,1.281997E-1,5E-2,-2.5E-1,1.3E-1,2.3620689E-1,3E-1,5E-1,3.846154E-1,7.3333335E-1,1.1E-1,-3.0454546E-1,-1.7403245E-2,1.9008253E-3,9.982214E-3,5.1308412E-2,-3.632682E-2,-3.8029582E-3,-5.4263193E-3,-1.6373089E-2,2.9781105E-3,1.8766304E-2,-5.508756E-3,-3.0397901E-2,3.4465756E-2,6.795848E-2,2.3872152E-2,8.773184E-3],"split_indices":[10,31,10,31,32,26,24,9,8,9,23,6,3,25,8,0,0,0,0,0,0,0,0,0,0,0,0,0,0,0,0],"split_type":[0,0,0,0,0,0,0,0,0,0,0,0,0,0,0,0,0,0,0,0,0,0,0,0,0,0,0,0,0,0,0],"sum_hessian":[9.904525E4,4.549375E4,5.35515E4,1.296325E4,3.25305E4,4.456925E4,8.98225E3,1.20175E4,9.4575E2,1.29125E3,3.123925E4,3.997925E4,4.59E3,5.0975E2,8.4725E3,1.04475E3,1.097275E4,5.9075E2,3.55E2,8.9075E2,4.005E2,2.699875E4,4.2405E3,3.858975E4,1.3895E3,4.2375E3,3.525E2,3.8225E2,1.275E2,1.37575E3,7.09675E3],"tree_param":{"num_deleted":"0","num_feature":"37","num_nodes":"31","size_leaf_vector":"1"}},{"base_weights":[-3.8584406E-3,-5.5243462E-2,1.4877276E-1,1.9869979E-1,-7.0542626E-2,3.4300062E-1,9.866666E-2,1.8554378E-1,1.7861533E0,-2.3199933E-2,-1.5638885E-1,1.02394514E-1,4.9259853E-1,1.2943834E-1,-1.1415E-1,-1.7369332E-3,1.3136609E-2,3.6938217E-2,1.0566862E-1,-4.384582E-3,2.1960884E-3,-9.6435975E-3,1.15395E-3,-7.5530196E-3,1.3586304E-2,1.10009514E-1,2.1892464E-2,8.335422E-3,-3.6496879E-3,5.5750045E-3,-1.4469186E-2],"categories":[],"categories_nodes":[],"categories_segments":[],"categories_sizes":[],"default_left":[0,0,0,0,0,0,0,0,0,0,0,0,0,0,0,0,0,0,0,0,0,0,0,0,0,0,0,0,0,0,0],"id":14,"left_children":[1,3,5,7,9,11,13,15,17,19,21,23,25,27,29,-1,-1,-1,-1,-1,-1,-1,-1,-1,-1,-1,-1,-1,-1,-1,-1],"loss_changes":[7.7693945E2,2.8794604E2,2.4278442E2,8.762396E1,2.840874E2,1.8410474E2,1.2991039E2,7.104869E1,1.0262749E1,1.9503976E2,1.6268793E2,8.427818E1,2.9394916E2,1.3076114E2,9.913316E1,0E0,0E0,0E0,0E0,0E0,0E0,0E0,0E0,0E0,0E0,0E0,0E0,0E0,0E0,0E0,0E0],"parents":[2147483647,0,0,1,1,2,2,3,3,4,4,5,5,6,6,7,7,8,8,9,9,10,10,11,11,12,12,13,13,14,14],"right_children":[2,4,6,8,10,12,14,16,18,20,22,24,26,28,30,-1,-1,-1,-1,-1,-1,-1,-1,-1,-1,-1,-1,-1,-1,-1,-1],"split_conditions":[1E-2,1.1523342E-2,2.7818182E-1,2.4954545E-1,4E-2,1.8545455E-1,4.5E-1,-2.4E-1,1.5E-1,0E0,3.9E-1,5E-1,2.0473713E-2,5E-1,-1.9335E-1,-1.7369332E-3,1.3136609E-2,3.6938217E-2,1.0566862E-1,-4.384582E-3,2.1960884E-3,-9.6435975E-3,1.15395E-3,-7.5530196E-3,1.3586304E-2,1.10009514E-1,2.1892464E-2,8.335422E-3,-3.6496879E-3,5.5750045E-3,-1.4469186E-2],"split_indices":[10,32,31,31,26,31,16,10,9,20,9,1,32,23,27,0,0,0,0,0,0,0,0,0,0,0,0,0,0,0,0],"split_type":[0,0,0,0,0,0,0,0,0,0,0,0,0,0,0,0,0,0,0,0,0,0,0,0,0,0,0,0,0,0,0],"sum_hessian":[9.906E4,7.41105E4,2.49495E4,4.2105E3,6.99E4,5.11525E3,1.983425E4,4.177E3,3.35E1,4.50545E4,2.48455E4,1.96175E3,3.1535E3,1.7329E4,2.50525E3,1.084E3,3.093E3,8.75E0,2.475E1,2.297725E4,2.207725E4,2.0648E4,4.1975E3,7.8575E2,1.176E3,9.675E1,3.05675E3,1.463475E4,2.69425E3,1.09525E3,1.41E3],"tree_param":{"num_deleted":"0","num_feature":"37","num_nodes":"31","size_leaf_vector":"1"}},{"base_weights":[4.706933E-3,-3.8805243E-2,1.3330995E-1,2.4247675E-1,-5.3464625E-2,3.8331065E-1,9.379048E-2,1.3693112E-1,5.3094333E-1,-2.781862E-2,-2.0328309E-1,-2.9007304E-1,4.4594485E-1,1.3503566E-1,-6.2222555E-2,-7.894279E-3,1.1494223E-2,-4.1776705E-3,3.6535524E-2,1.3193644E-3,-6.136791E-3,-1.3617577E-2,-5.6618266E-3,-3.5111167E-2,3.1895515E-2,5.011933E-2,1.443253E-2,7.338583E-3,-1.5575689E-2,-1.135651E-3,-4.417466E-2],"categories":[],"categories_nodes":[],"categories_segments":[],"categories_sizes":[],"default_left":[0,0,0,0,0,0,0,0,0,0,0,0,0,0,0,0,0,0,0,0,0,0,0,0,0,0,0,0,0,0,0],"id":15,"left_children":[1,3,5,7,9,11,13,15,17,19,21,23,25,27,29,-1,-1,-1,-1,-1,-1,-1,-1,-1,-1,-1,-1,-1,-1,-1,-1],"loss_changes":[5.548354E2,3.0549963E2,2.4761841E2,1.1166554E2,2.7055267E2,1.4442691E2,1.3929741E2,7.370563E1,1.2069974E2,3.0935458E2,6.3978973E1,1.1203316E2,2.7370795E2,8.976907E1,1.4686401E2,0E0,0E0,0E0,0E0,0E0,0E0,0E0,0E0,0E0,0E0,0E0,0E0,0E0,0E0,0E0,0E0],"parents":[2147483647,0,0,1,1,2,2,3,3,4,4,5,5,6,6,7,7,8,8,9,9,10,10,11,11,12,12,13,13,14,14],"right_children":[2,4,6,8,10,12,14,16,18,20,22,24,26,28,30,-1,-1,-1,-1,-1,-1,-1,-1,-1,-1,-1,-1,-1,-1,-1,-1],"split_conditions":[1E-2,6.5717413E-3,0E0,1.16264975E-11,1.25E-1,1.3409092E-1,5.5E-1,4.8E-1,3.75E-1,4E-2,2.833075E-1,5.3125E-1,1.4796568E-1,3.548387E-1,8.333333E-1,-7.894279E-3,1.1494223E-2,-4.1776705E-3,3.6535524E-2,1.3193644E-3,-6.136791E-3,-1.3617577E-2,-5.6618266E-3,-3.5111167E-2,3.1895515E-2,5.011933E-2,1.443253E-2,7.338583E-3,-1.5575689E-2,-1.135651E-3,-4.417466E-2],"split_indices":[10,32,24,32,24,31,15,9,23,26,32,1,32,0,35,0,0,0,0,0,0,0,0,0,0,0,0,0,0,0,0],"split_type":[0,0,0,0,0,0,0,0,0,0,0,0,0,0,0,0,0,0,0,0,0,0,0,0,0,0,0,0,0,0,0],"sum_hessian":[9.915025E4,7.408475E4,2.50655E4,3.669E3,7.041575E4,3.42025E3,2.164525E4,2.68725E3,9.8175E2,6.012475E4,1.0291E4,2.9075E2,3.1295E3,1.71195E4,4.52575E3,6.44E2,2.04325E3,2.41E2,7.4075E2,3.827E4,2.185475E4,5.82275E3,4.46825E3,2.015E2,8.925E1,6.885E2,2.441E3,1.668175E4,4.3775E2,4.319E3,2.0675E2],"tree_param":{"num_deleted":"0","num_feature":"37","num_nodes":"31","size_leaf_vector":"1"}},{"base_weights":[1.915726E-3,-8.7540165E-2,6.250376E-2,-1.78382E-1,-5.1857526E-3,7.209017E-1,5.5490423E-2,-1.614894E-1,-6.3136303E-1,8.052465E-1,-1.1546992E-2,6.8957067E-1,1.3887048E-1,9.219711E-2,-3.286122E-2,9.837302E-3,-9.010247E-3,-3.0002028E-2,-5.0280478E-2,3.76254E-2,4.9530014E-2,1.4669154E-3,-6.6777267E-3,2.9410321E-2,5.6798805E-2,6.106309E-3,-3.2593422E-3,-4.1920753E-4,-1.7437609E-2],"categories":[],"categories_nodes":[],"categories_segments":[],"categories_sizes":[],"default_left":[0,0,0,0,0,0,0,0,0,0,0,0,0,0,0,0,0,0,0,0,0,0,0,0,0,0,0,0,0],"id":16,"left_children":[1,3,5,7,9,11,13,15,17,19,21,23,-1,25,27,-1,-1,-1,-1,-1,-1,-1,-1,-1,-1,-1,-1,-1,-1],"loss_changes":[5.3634546E2,2.9894327E2,2.723886E2,1.4529034E2,1.0806421E2,3.8145782E1,1.8932692E2,1.228548E2,7.399994E0,8.5037994E-1,1.037484E2,2.7103699E1,0E0,1.9427713E2,1.3249023E2,0E0,0E0,0E0,0E0,0E0,0E0,0E0,0E0,0E0,0E0,0E0,0E0,0E0,0E0],"parents":[2147483647,0,0,1,1,2,2,3,3,4,4,5,5,6,6,7,7,8,8,9,9,10,10,11,11,13,13,14,14],"right_children":[2,4,6,8,10,12,14,16,18,20,22,24,-1,26,28,-1,-1,-1,-1,-1,-1,-1,-1,-1,-1,-1,-1,-1,-1],"split_conditions":[-4E-2,1.8E-1,-2.5E-1,4.497098E-1,-1.25E-1,3.3E-1,5.5E-1,1.9166666E-1,6.1905414E-1,4.489796E-1,7E-1,3.1578946E-1,1.3887048E-1,1.25E-1,8.333334E-3,9.837302E-3,-9.010247E-3,-3.0002028E-2,-5.0280478E-2,3.76254E-2,4.9530014E-2,1.4669154E-3,-6.6777267E-3,2.9410321E-2,5.6798805E-2,6.106309E-3,-3.2593422E-3,-4.1920753E-4,-1.7437609E-2],"split_indices":[10,9,24,32,24,25,15,3,27,5,35,8,0,24,4,0,0,0,0,0,0,0,0,0,0,0,0,0,0],"split_type":[0,0,0,0,0,0,0,0,0,0,0,0,0,0,0,0,0,0,0,0,0,0,0,0,0,0,0,0,0],"sum_hessian":[9.89555E4,3.995825E4,5.899725E4,1.89995E4,2.095875E4,6.2075E2,5.83765E4,1.831775E4,6.8175E2,1.6225E2,2.07965E4,6.1275E2,8E0,4.1242E4,1.71345E4,9.09E2,1.740875E4,6.315E2,5.025E1,1.3025E2,3.2E1,1.557725E4,5.21925E3,5.0125E2,1.115E2,3.46525E4,6.5895E3,1.590325E4,1.23125E3],"tree_param":{"num_deleted":"0","num_feature":"37","num_nodes":"29","size_leaf_vector":"1"}},{"base_weights":[6.5479614E-4,-4.3403212E-2,1.3061444E-1,1.9392037E-1,-5.7795953E-2,1.8198751E-1,-1.7519847E-2,1.0859978E-1,4.3688416E-1,-3.4062184E-2,-1.9766468E-1,1.9405845E-1,-5.023098E-1,3.8645867E-2,-3.797644E-1,7.9179965E-3,-1.2038194E-2,1.8358013E-2,1.1127231E-1,4.0075134E-2,-1.9792726E-3,-1.3251491E-2,-5.3212396E-3,1.7801126E-2,7.0347125E-3,-1.9443404E-2,-9.18923E-2,1.1006766E-3,5.186953E-2,5.438398E-3,-3.0147979E-2],"categories":[],"categories_nodes":[],"categories_segments":[],"categories_sizes":[],"default_left":[0,0,0,0,0,0,0,0,0,0,0,0,0,0,0,0,0,0,0,0,0,0,0,0,0,0,0,0,0,0,0],"id":17,"left_children":[1,3,5,7,9,11,13,15,17,19,21,23,25,27,29,-1,-1,-1,-1,-1,-1,-1,-1,-1,-1,-1,-1,-1,-1,-1,-1],"loss_changes":[5.6662006E2,2.5245122E2,1.9067267E2,8.755676E1,2.3130385E2,1.5376239E2,1.3129547E2,5.443387E1,1.3610968E2,2.749627E2,6.2100983E1,1.579585E2,4.818373E1,9.278952E1,9.451978E1,0E0,0E0,0E0,0E0,0E0,0E0,0E0,0E0,0E0,0E0,0E0,0E0,0E0,0E0,0E0,0E0],"parents":[2147483647,0,0,1,1,2,2,3,3,4,4,5,5,6,6,7,7,8,8,9,9,10,10,11,11,12,12,13,13,14,14],"right_children":[2,4,6,8,10,12,14,16,18,20,22,24,26,28,30,-1,-1,-1,-1,-1,-1,-1,-1,-1,-1,-1,-1,-1,-1,-1,-1],"split_conditions":[1E-2,1.1523342E-2,4.75E-1,5.625E-1,1.25E-1,2.25E-1,3.75E-1,1.25E-1,3.75E-1,-1.5E-1,2.867264E-1,-7.5E-2,4.232271E-1,6.896552E-1,-1.4814815E-1,7.9179965E-3,-1.2038194E-2,1.8358013E-2,1.1127231E-1,4.0075134E-2,-1.9792726E-3,-1.3251491E-2,-5.3212396E-3,1.7801126E-2,7.0347125E-3,-1.9443404E-2,-9.18923E-2,1.1006766E-3,5.186953E-2,5.438398E-3,-3.0147979E-2],"split_indices":[10,32,15,36,24,14,23,24,24,16,32,16,32,5,7,0,0,0,0,0,0,0,0,0,0,0,0,0,0,0,0],"split_type":[0,0,0,0,0,0,0,0,0,0,0,0,0,0,0,0,0,0,0,0,0,0,0,0,0,0,0,0,0,0,0],"sum_hessian":[9.895775E4,7.3904E4,2.505375E4,4.225E3,6.9679E4,1.860225E4,6.4515E3,3.128E3,1.097E3,5.957175E4,1.010725E4,1.82805E4,3.2175E2,5.58625E3,8.6525E2,2.7385E3,3.895E2,1.057E3,4E1,3.9025E2,5.91815E4,5.81325E3,4.294E3,4.529E3,1.37515E4,2.9775E2,2.4E1,5.49575E3,9.05E1,2.715E2,5.9375E2],"tree_param":{"num_deleted":"0","num_feature":"37","num_nodes":"31","size_leaf_vector":"1"}},{"base_weights":[-2.9331513E-3,-4.1547574E-2,1.1013217E-1,2.0587793E-1,-5.4543316E-2,2.7217337E-1,6.9405E-2,9.95828E-2,5.062914E-1,-4.3254737E-2,-3.1745848E-1,2.2218063E-1,9.2538476E-1,1.1366002E-1,-1.6996472E-1,3.5673853E-2,3.3154746E-3,-2.5304826E-3,3.510099E-2,-1.010843E-3,-8.724298E-3,-1.0637602E-2,-3.402421E-2,2.496469E-2,7.961636E-3,1.5833043E-2,7.151344E-2,2.293167E-3,1.6507942E-2,-1.8502498E-2,8.8185363E-4],"categories":[],"categories_nodes":[],"categories_segments":[],"categories_sizes":[],"default_left":[0,0,0,0,0,0,0,0,0,0,0,0,0,0,0,0,0,0,0,0,0,0,0,0,0,0,0,0,0,0,0],"id":18,"left_children":[1,3,5,7,9,11,13,15,17,19,21,23,25,27,29,-1,-1,-1,-1,-1,-1,-1,-1,-1,-1,-1,-1,-1,-1,-1,-1],"loss_changes":[4.3277304E2,2.3760126E2,1.6651901E2,1.1770065E2,2.0834442E2,1.6530225E2,2.1366257E2,5.561434E1,1.0505829E2,2.0350616E2,1.097074E2,8.2067215E1,1.1018768E2,2.4982474E2,1.181428E2,0E0,0E0,0E0,0E0,0E0,0E0,0E0,0E0,0E0,0E0,0E0,0E0,0E0,0E0,0E0,0E0],"parents":[2147483647,0,0,1,1,2,2,3,3,4,4,5,5,6,6,7,7,8,8,9,9,10,10,11,11,12,12,13,13,14,14],"right_children":[2,4,6,8,10,12,14,16,18,20,22,24,26,28,30,-1,-1,-1,-1,-1,-1,-1,-1,-1,-1,-1,-1,-1,-1,-1,-1],"split_conditions":[1E-2,6.5717413E-3,2.7818182E-1,1.16264975E-11,1.3E-1,2.5603864E-1,1.25E-1,-1.25E-1,3.75E-1,1.25E-1,3.75E-1,0E0,8.2916665E-1,6.666667E-2,1.125E-1,3.5673853E-2,3.3154746E-3,-2.5304826E-3,3.510099E-2,-1.010843E-3,-8.724298E-3,-1.0637602E-2,-3.402421E-2,2.496469E-2,7.961636E-3,1.5833043E-2,7.151344E-2,2.293167E-3,1.6507942E-2,-1.8502498E-2,8.8185363E-4],"split_indices":[10,32,31,32,26,8,24,24,23,24,23,24,3,4,18,0,0,0,0,0,0,0,0,0,0,0,0,0,0,0,0],"split_type":[0,0,0,0,0,0,0,0,0,0,0,0,0,0,0,0,0,0,0,0,0,0,0,0,0,0,0,0,0,0,0],"sum_hessian":[9.91225E4,7.38885E4,2.5234E4,3.6865E3,7.0202E4,5.06725E3,2.016675E4,2.724E3,9.625E2,6.7313E4,2.889E3,4.70825E3,3.59E2,1.70205E4,3.14625E3,1.39E2,2.585E3,2.505E2,7.12E2,5.726175E4,1.005125E4,2.2435E3,6.455E2,8.7025E2,3.838E3,1.635E2,1.955E2,1.29625E4,4.058E3,1.522E3,1.62425E3],"tree_param":{"num_deleted":"0","num_feature":"37","num_nodes":"31","size_leaf_vector":"1"}},{"base_weights":[-3.7257619E-6,-3.9691616E-2,1.1616011E-1,-1.758961E-2,-1.7286044E-1,7.008147E-1,1.0187918E-1,7.141776E-1,-2.3391165E-2,2.1599634E-1,-1.8919657E-1,6.706049E-1,1.3079774E-1,2.530231E-1,6.2871836E-2,-3.3611376E-2,3.804012E-2,1.055985E-4,-7.96635E-3,-4.788123E-2,2.2324076E-2,-6.00633E-3,-1.4634529E-2,2.9854057E-2,6.665547E-2,2.1278625E-2,3.9052856E-3,5.1669455E-3,-7.749853E-3],"categories":[],"categories_nodes":[],"categories_segments":[],"categories_sizes":[],"default_left":[0,0,0,0,0,0,0,0,0,0,0,0,0,0,0,0,0,0,0,0,0,0,0,0,0,0,0,0,0],"id":19,"left_children":[1,3,5,7,9,11,13,15,17,19,21,23,-1,25,27,-1,-1,-1,-1,-1,-1,-1,-1,-1,-1,-1,-1,-1,-1],"loss_changes":[4.5703033E2,2.174721E2,2.1070322E2,2.6905432E2,6.6852356E1,3.3060577E1,1.4527531E2,3.2734894E1,2.1797217E2,1.15255745E2,7.212009E1,2.8125488E1,0E0,1.5253622E2,1.7272717E2,0E0,0E0,0E0,0E0,0E0,0E0,0E0,0E0,0E0,0E0,0E0,0E0,0E0,0E0],"parents":[2147483647,0,0,1,1,2,2,3,3,4,4,5,5,6,6,7,7,8,8,9,9,10,10,11,11,13,13,14,14],"right_children":[2,4,6,8,10,12,14,16,18,20,22,24,-1,26,28,-1,-1,-1,-1,-1,-1,-1,-1,-1,-1,-1,-1,-1,-1],"split_conditions":[1E-2,1.25E-1,-2.5E-1,-1.5E-1,6.0909092E-2,3.3E-1,2.7818182E-1,-5E-1,3.775179E-1,1.0909091E-2,5E-2,5.072727E-1,1.3079774E-1,4.6E-1,1.25E-1,-3.3611376E-2,3.804012E-2,1.055985E-4,-7.96635E-3,-4.788123E-2,2.2324076E-2,-6.00633E-3,-1.4634529E-2,2.9854057E-2,6.665547E-2,2.1278625E-2,3.9052856E-3,5.1669455E-3,-7.749853E-3],"split_indices":[10,24,24,16,31,25,31,20,32,31,30,31,0,9,24,0,0,0,0,0,0,0,0,0,0,0,0,0,0],"split_type":[0,0,0,0,0,0,0,0,0,0,0,0,0,0,0,0,0,0,0,0,0,0,0,0,0,0,0,0,0],"sum_hessian":[9.91305E4,7.388725E4,2.524325E4,6.337075E4,1.05165E4,6.0075E2,2.46425E4,4.975E2,6.287325E4,4.235E2,1.0093E4,5.9275E2,8E0,5.054E3,1.95885E4,1.575E1,4.8175E2,5.294175E4,9.9315E3,6.9E1,3.545E2,6.0545E3,4.0385E3,5.3525E2,5.75E1,2.5435E3,2.5105E3,1.65205E4,3.068E3],"tree_param":{"num_deleted":"0","num_feature":"37","num_nodes":"29","size_leaf_vector":"1"}},{"base_weights":[3.003258E-3,-7.784842E-2,5.7393346E-2,4.038646E-2,-1.2955748E-1,3.2716524E-2,1.9267091E-1,3.3653427E-3,5.280434E-1,-5.115839E-1,-1.1301346E-1,3.264238E-1,2.3803884E-2,2.9695615E-1,6.349658E-2,6.4674616E-3,-4.005389E-3,9.293172E-3,4.788227E-2,3.0426791E-2,-2.9957134E-2,-3.5940853E-3,-1.3016491E-2,1.0560975E-2,4.0480968E-2,-1.3764863E-2,1.6401088E-3,3.236973E-2,1.2526388E-2,-1.3062285E-3,1.38363615E-2],"categories":[],"categories_nodes":[],"categories_segments":[],"categories_sizes":[],"default_left":[0,0,0,0,0,0,0,0,0,0,0,0,0,0,0,0,0,0,0,0,0,0,0,0,0,0,0,0,0,0,0],"id":20,"left_children":[1,3,5,7,9,11,13,15,17,19,21,23,25,27,29,-1,-1,-1,-1,-1,-1,-1,-1,-1,-1,-1,-1,-1,-1,-1,-1],"loss_changes":[4.361999E2,2.4389743E2,1.9795015E2,2.1914641E2,1.7535596E2,1.3127747E2,1.2321698E2,1.1866804E2,1.25728516E2,1.13324005E2,1.61182E2,8.204797E1,1.310176E2,8.218991E1,7.812403E1,0E0,0E0,0E0,0E0,0E0,0E0,0E0,0E0,0E0,0E0,0E0,0E0,0E0,0E0,0E0,0E0],"parents":[2147483647,0,0,1,1,2,2,3,3,4,4,5,5,6,6,7,7,8,8,9,9,10,10,11,11,12,12,13,13,14,14],"right_children":[2,4,6,8,10,12,14,16,18,20,22,24,26,28,30,-1,-1,-1,-1,-1,-1,-1,-1,-1,-1,-1,-1,-1,-1,-1,-1],"split_conditions":[-4E-2,2.7272728E-1,8E-2,2.6045454E-1,1.281997E-1,6.5717413E-3,0E0,2.875E-1,2E-1,-1.125E-1,3.628662E-1,1.3055102E-11,1.5363637E-1,-2.0930232E-1,3.2258064E-1,6.4674616E-3,-4.005389E-3,9.293172E-3,4.788227E-2,3.0426791E-2,-2.9957134E-2,-3.5940853E-3,-1.3016491E-2,1.0560975E-2,4.0480968E-2,-1.3764863E-2,1.6401088E-3,3.236973E-2,1.2526388E-2,-1.3062285E-3,1.38363615E-2],"split_indices":[10,31,10,31,32,32,16,15,8,16,32,32,31,7,5,0,0,0,0,0,0,0,0,0,0,0,0,0,0,0,0],"split_type":[0,0,0,0,0,0,0,0,0,0,0,0,0,0,0,0,0,0,0,0,0,0,0,0,0,0,0,0,0,0,0],"sum_hessian":[9.919E4,3.9891E4,5.9299E4,1.213775E4,2.775325E4,5.015175E4,9.14725E3,1.128225E4,8.555E2,1.15075E3,2.66025E4,1.476E3,4.867575E4,5.0605E3,4.08675E3,4.496E3,6.78625E3,4.77E2,3.785E2,8.3E1,1.06775E3,2.079725E4,5.80525E3,1.193E3,2.83E2,1.42075E3,4.7255E4,5.905E2,4.47E3,2.878E3,1.20875E3],"tree_param":{"num_deleted":"0","num_feature":"37","num_nodes":"31","size_leaf_vector":"1"}},{"base_weights":[-9.837727E-4,-5.9817154E-2,6.7103356E-2,-1.8429396E-1,-1.9892713E-2,6.381929E-1,5.949125E-2,3.6378556E-1,-1.9787002E-1,-1.0007126E-2,-4.5281664E-1,6.0928947E-1,1.24427795E-1,8.261515E-2,-9.138282E-2,7.63324E-2,8.664375E-3,-8.12165E-3,-1.8078499E-2,3.4695302E-4,-1.2901755E-2,-2.7306944E-2,2.6987582E-2,2.7134646E-2,5.9883565E-2,5.171715E-3,-1.9377016E-3,6.386423E-3,-1.0661046E-2],"categories":[],"categories_nodes":[],"categories_segments":[],"categories_sizes":[],"default_left":[0,0,0,0,0,0,0,0,0,0,0,0,0,0,0,0,0,0,0,0,0,0,0,0,0,0,0,0,0],"id":21,"left_children":[1,3,5,7,9,11,13,15,17,19,21,23,-1,25,27,-1,-1,-1,-1,-1,-1,-1,-1,-1,-1,-1,-1,-1,-1],"loss_changes":[3.983564E2,2.6511688E2,2.0035585E2,9.646887E1,1.7286784E2,3.090709E1,1.5871991E2,6.918292E1,7.328241E1,1.6599487E2,8.382268E1,2.2791992E1,0E0,9.967816E1,1.6143854E2,0E0,0E0,0E0,0E0,0E0,0E0,0E0,0E0,0E0,0E0,0E0,0E0,0E0,0E0],"parents":[2147483647,0,0,1,1,2,2,3,3,4,4,5,5,6,6,7,7,8,8,9,9,10,10,11,11,13,13,14,14],"right_children":[2,4,6,8,10,12,14,16,18,20,22,24,-1,26,28,-1,-1,-1,-1,-1,-1,-1,-1,-1,-1,-1,-1,-1,-1],"split_conditions":[-1E-2,9E-2,-2.5E-1,0E0,4.40169E-1,3.3E-1,4.5E-1,2.9090908E-1,6E-2,1.3E-1,3.4E-1,5.072727E-1,1.24427795E-1,1.25E-1,-1.9761764E-1,7.63324E-2,8.664375E-3,-8.12165E-3,-1.8078499E-2,3.4695302E-4,-1.2901755E-2,-2.7306944E-2,2.6987582E-2,2.7134646E-2,5.9883565E-2,5.171715E-3,-1.9377016E-3,6.386423E-3,-1.0661046E-2],"split_indices":[10,9,24,24,32,25,16,31,26,26,9,31,0,24,27,0,0,0,0,0,0,0,0,0,0,0,0,0,0],"split_type":[0,0,0,0,0,0,0,0,0,0,0,0,0,0,0,0,0,0,0,0,0,0,0,0,0,0,0,0,0],"sum_hessian":[9.9443E4,5.334675E4,4.609625E4,1.295425E4,4.03925E4,6.0525E2,4.5491E4,3.125E2,1.264175E4,3.949175E4,9.0075E2,5.9725E2,8E0,3.944575E4,6.04525E3,4.3E1,2.695E2,1.039375E4,2.248E3,3.6967E4,2.52475E3,8.2375E2,7.7E1,5.3825E2,5.9E1,3.367025E4,5.7755E3,2.16025E3,3.885E3],"tree_param":{"num_deleted":"0","num_feature":"37","num_nodes":"29","size_leaf_vector":"1"}},{"base_weights":[3.1426265E-3,-6.387333E-2,5.9519343E-2,4.184795E-2,-1.0636678E-1,5.853383E-1,5.3428944E-2,1.182026E-2,4.3852013E-1,-8.974779E-2,-3.69392E-1,5.5793035E-1,1.1889768E-1,8.525711E-2,-3.8653925E-2,-1.443395E-2,1.9863043E-3,6.3728862E-3,4.0946122E-2,-3.7951672E-3,-2.0224875E-2,4.2175064E-3,-2.2090463E-2,2.4683336E-2,5.6939293E-2,2.1763241E-3,7.7374578E-3,-9.3211625E-3,1.6281685E-3],"categories":[],"categories_nodes":[],"categories_segments":[],"categories_sizes":[],"default_left":[0,0,0,0,0,0,0,0,0,0,0,0,0,0,0,0,0,0,0,0,0,0,0,0,0,0,0,0,0],"id":22,"left_children":[1,3,5,7,9,11,13,15,17,19,21,23,-1,25,27,-1,-1,-1,-1,-1,-1,-1,-1,-1,-1,-1,-1,-1,-1],"loss_changes":[3.7552628E2,2.0401732E2,1.7284404E2,1.5508394E2,1.415625E2,2.9036835E1,1.5640773E2,1.0152222E2,1.0831447E2,1.3273907E2,6.3282135E1,2.2207825E1,0E0,1.1499936E2,1.4426799E2,0E0,0E0,0E0,0E0,0E0,0E0,0E0,0E0,0E0,0E0,0E0,0E0,0E0,0E0],"parents":[2147483647,0,0,1,1,2,2,3,3,4,4,5,5,6,6,7,7,8,8,9,9,10,10,11,11,13,13,14,14],"right_children":[2,4,6,8,10,12,14,16,18,20,22,24,-1,26,28,-1,-1,-1,-1,-1,-1,-1,-1,-1,-1,-1,-1,-1,-1],"split_conditions":[-3E-2,2.7272728E-1,-2.5E-1,2.6045454E-1,9.375E-1,3.3E-1,3.5261756E-1,1.3E-1,1.9871795E-1,4.40169E-1,-1.3793103E-2,5.072727E-1,1.1889768E-1,2.867264E-1,4.6227273E-1,-1.443395E-2,1.9863043E-3,6.3728862E-3,4.0946122E-2,-3.7951672E-3,-2.0224875E-2,4.2175064E-3,-2.2090463E-2,2.4683336E-2,5.6939293E-2,2.1763241E-3,7.7374578E-3,-9.3211625E-3,1.6281685E-3],"split_indices":[10,31,24,31,17,25,32,9,6,32,7,31,0,32,31,0,0,0,0,0,0,0,0,0,0,0,0,0,0],"split_type":[0,0,0,0,0,0,0,0,0,0,0,0,0,0,0,0,0,0,0,0,0,0,0,0,0,0,0,0,0],"sum_hessian":[9.93925E4,4.541125E4,5.398125E4,1.30195E4,3.239175E4,6.17E2,5.336425E4,1.210425E4,9.1525E2,3.0468E4,1.92375E3,6.09E2,8E0,3.9657E4,1.370725E4,1.02775E3,1.10765E4,5.0425E2,4.11E2,2.91855E4,1.2825E3,2.6475E2,1.659E3,5.5E2,5.9E1,2.477875E4,1.487825E4,4.45725E3,9.25E3],"tree_param":{"num_deleted":"0","num_feature":"37","num_nodes":"29","size_leaf_vector":"1"}},{"base_weights":[3.3684148E-4,-8.0191955E-2,4.6554357E-2,-1.9701E-1,-2.6091497E-2,7.455826E-2,-4.2714734E-2,4.4642266E-2,-2.2646202E-1,6.3593276E-2,-9.135837E-2,4.4406913E-2,1.6774905E-1,-1.3896188E-1,8.778365E-2,1.426588E-2,-1.4204728E-2,-1.9808777E-3,-1.4669272E-2,5.112427E-4,2.1558356E-2,-4.148109E-2,-4.005131E-3,-6.1765877E-3,3.589277E-3,4.820463E-3,1.5387406E-2,-4.9305772E-3,-2.4018666E-2,1.6809324E-2,8.588112E-4],"categories":[],"categories_nodes":[],"categories_segments":[],"categories_sizes":[],"default_left":[0,0,0,0,0,0,0,0,0,0,0,0,0,0,0,0,0,0,0,0,0,0,0,0,0,0,0,0,0,0,0],"id":23,"left_children":[1,3,5,7,9,11,13,15,17,19,21,23,25,27,29,-1,-1,-1,-1,-1,-1,-1,-1,-1,-1,-1,-1,-1,-1,-1,-1],"loss_changes":[3.6826126E2,2.2801877E2,1.5716019E2,8.1289795E1,1.443576E2,1.3445471E2,1.8857066E2,9.83071E1,1.27278625E2,2.0377528E2,1.1854631E2,1.6625853E2,1.16801636E2,1.1898474E2,1.1177081E2,0E0,0E0,0E0,0E0,0E0,0E0,0E0,0E0,0E0,0E0,0E0,0E0,0E0,0E0,0E0,0E0],"parents":[2147483647,0,0,1,1,2,2,3,3,4,4,5,5,6,6,7,7,8,8,9,9,10,10,11,11,12,12,13,13,14,14],"right_children":[2,4,6,8,10,12,14,16,18,20,22,24,26,28,30,-1,-1,-1,-1,-1,-1,-1,-1,-1,-1,-1,-1,-1,-1,-1,-1],"split_conditions":[-5E-2,1.3E-1,3.5679096E-1,2.5416666E-1,2.7272728E-1,5E-2,5.1681817E-1,5.0136364E-1,6.0198713E-2,1.6186069E-1,7.460903E-2,-7.692308E-2,2.8540513E-1,8.041667E-1,3.7892777E-1,1.426588E-2,-1.4204728E-2,-1.9808777E-3,-1.4669272E-2,5.112427E-4,2.1558356E-2,-4.148109E-2,-4.005131E-3,-6.1765877E-3,3.589277E-3,4.820463E-3,1.5387406E-2,-4.9305772E-3,-2.4018666E-2,1.6809324E-2,8.588112E-4],"split_indices":[10,9,32,3,31,10,31,31,8,32,32,8,32,3,32,0,0,0,0,0,0,0,0,0,0,0,0,0,0,0,0],"split_type":[0,0,0,0,0,0,0,0,0,0,0,0,0,0,0,0,0,0,0,0,0,0,0,0,0,0,0,0,0,0,0],"sum_hessian":[9.8944E4,3.607925E4,6.286475E4,1.141925E4,2.466E4,4.785325E4,1.50115E4,1.2405E3,1.017875E4,1.0387E4,1.4273E4,3.61565E4,1.169675E4,8.6395E3,6.372E3,7.1625E2,5.2425E2,2.68475E3,7.494E3,9.071E3,1.316E3,2.1325E2,1.405975E4,5.06775E3,3.108875E4,7.7495E3,3.94725E3,7.7275E3,9.12E2,1.4095E3,4.9625E3],"tree_param":{"num_deleted":"0","num_feature":"37","num_nodes":"31","size_leaf_vector":"1"}},{"base_weights":[1.2142337E-3,9.3468845E-2,-2.658415E-2,-9.04849E-3,1.9430867E-1,1.517092E-2,-9.659178E-2,1.5565057E-1,-1.6536766E-1,3.2969873E-2,3.106086E-1,5.435053E-2,-7.084239E-2,1.7804887E-2,-1.3178018E-1,2.7583127E-3,2.103834E-2,-1.3627668E-2,-1.3130946E-3,-2.2860138E-2,4.6058088E-3,7.7974826E-2,1.42865125E-2,2.8783956E-3,-7.4386E-2,5.8953087E-3,-7.0236116E-3,1.674488E-2,-2.3629144E-3,-2.6438868E-2,-5.8951653E-3],"categories":[],"categories_nodes":[],"categories_segments":[],"categories_sizes":[],"default_left":[0,0,0,0,0,0,0,0,0,0,0,0,0,0,0,0,0,0,0,0,0,0,0,0,0,0,0,0,0,0,0],"id":24,"left_children":[1,3,5,7,9,11,13,15,17,19,21,23,25,27,29,-1,-1,-1,-1,-1,-1,-1,-1,-1,-1,-1,-1,-1,-1,-1,-1],"loss_changes":[2.5497888E2,2.3799925E2,2.233414E2,2.9396347E2,2.1776117E2,1.6128885E2,1.1490744E2,1.4809529E2,8.73365E1,1.4102245E2,2.091004E2,1.6322849E2,1.968687E2,1.3856886E2,1.20200806E2,0E0,0E0,0E0,0E0,0E0,0E0,0E0,0E0,0E0,0E0,0E0,0E0,0E0,0E0,0E0,0E0],"parents":[2147483647,0,0,1,1,2,2,3,3,4,4,5,5,6,6,7,7,8,8,9,9,10,10,11,11,12,12,13,13,14,14],"right_children":[2,4,6,8,10,12,14,16,18,20,22,24,26,28,30,-1,-1,-1,-1,-1,-1,-1,-1,-1,-1,-1,-1,-1,-1,-1,-1],"split_conditions":[2.7818182E-1,1.8545455E-1,1.9307692E-1,1.4141414E-2,5.2916664E-1,3.375E-1,2.1875E-1,5.625E-1,5.625E-1,6.924129E-2,2.0473713E-2,2.1E-1,3.7136364E-1,3.540909E-1,1.281997E-1,2.7583127E-3,2.103834E-2,-1.3627668E-2,-1.3130946E-3,-2.2860138E-2,4.6058088E-3,7.7974826E-2,1.42865125E-2,2.8783956E-3,-7.4386E-2,5.8953087E-3,-7.0236116E-3,1.674488E-2,-2.3629144E-3,-2.6438868E-2,-5.8951653E-3],"split_indices":[31,31,28,32,3,16,1,36,36,32,32,26,31,31,32,0,0,0,0,0,0,0,0,0,0,0,0,0,0,0,0],"split_type":[0,0,0,0,0,0,0,0,0,0,0,0,0,0,0,0,0,0,0,0,0,0,0,0,0,0,0,0,0,0,0],"sum_hessian":[9.942325E4,2.3021E4,7.640225E4,1.1416E4,1.1605E4,4.78585E4,2.854375E4,5.559E3,5.857E3,4.86175E3,6.74325E3,3.288125E4,1.497725E4,6.71475E3,2.1829E4,4.032E3,1.527E3,3.3075E3,2.5495E3,5.2275E2,4.339E3,1.305E2,6.61275E3,3.281375E4,6.75E1,4.036E3,1.094125E4,1.1425E3,5.57225E3,7.36E2,2.1093E4],"tree_param":{"num_deleted":"0","num_feature":"37","num_nodes":"31","size_leaf_vector":"1"}},{"base_weights":[-1.488318E-3,-4.6301294E-2,5.9434585E-2,6.680558E-2,-8.535879E-2,-5.0972577E-2,9.396942E-2,2.6554853E-2,5.082846E-1,-4.1573682E-1,-7.289235E-2,-3.290242E-2,-6.9760716E-1,5.595346E-1,8.490555E-2,-1.056073E-3,9.558351E-3,3.3321414E-2,-7.500714E-3,1.7581176E-2,-2.4403533E-2,-3.03815E-3,-1.6924253E-2,1.3166996E-4,-9.288102E-3,-2.7189681E-2,-8.660477E-2,2.1604855E-2,4.8111834E-2,3.533442E-3,1.8926226E-2],"categories":[],"categories_nodes":[],"categories_segments":[],"categories_sizes":[],"default_left":[0,0,0,0,0,0,0,0,0,0,0,0,0,0,0,0,0,0,0,0,0,0,0,0,0,0,0,0,0,0,0],"id":25,"left_children":[1,3,5,7,9,11,13,15,17,19,21,23,25,27,29,-1,-1,-1,-1,-1,-1,-1,-1,-1,-1,-1,-1,-1,-1,-1,-1],"loss_changes":[2.7053677E2,2.5223378E2,1.601368E2,2.6041705E2,1.7476675E2,1.1690965E2,1.3494992E2,1.05421684E2,1.27577515E2,8.5817566E1,1.3173257E2,5.288772E1,4.2338272E1,3.0927505E1,1.311532E2,0E0,0E0,0E0,0E0,0E0,0E0,0E0,0E0,0E0,0E0,0E0,0E0,0E0,0E0,0E0,0E0],"parents":[2147483647,0,0,1,1,2,2,3,3,4,4,5,5,6,6,7,7,8,8,9,9,10,10,11,11,12,12,13,13,14,14],"right_children":[2,4,6,8,10,12,14,16,18,20,22,24,26,28,30,-1,-1,-1,-1,-1,-1,-1,-1,-1,-1,-1,-1,-1,-1,-1,-1],"split_conditions":[0E0,2.7272728E-1,4.875E-1,2.6045454E-1,1.281997E-1,8.5714287E-1,-2.5E-1,9E-1,1.25E-1,2.4999891E-11,4.40169E-1,2.5E-1,3.2E-1,1.1E-1,3.6542442E-1,-1.056073E-3,9.558351E-3,3.3321414E-2,-7.500714E-3,1.7581176E-2,-2.4403533E-2,-3.03815E-3,-1.6924253E-2,1.3166996E-4,-9.288102E-3,-2.7189681E-2,-8.660477E-2,2.1604855E-2,4.8111834E-2,3.533442E-3,1.8926226E-2],"split_indices":[10,31,17,31,32,35,24,17,24,5,32,12,25,25,6,0,0,0,0,0,0,0,0,0,0,0,0,0,0,0,0],"split_type":[0,0,0,0,0,0,0,0,0,0,0,0,0,0,0,0,0,0,0,0,0,0,0,0,0,0,0,0,0,0,0],"sum_hessian":[9.909075E4,5.709425E4,4.19965E4,1.465475E4,4.24395E4,1.000625E4,3.199025E4,1.343125E4,1.2235E3,1.542E3,4.08975E4,9.73525E3,2.71E2,6.0975E2,3.13805E4,1.04155E4,3.01575E3,9.865E2,2.37E2,1.325E2,1.4095E3,3.91125E4,1.785E3,7.89975E3,1.8355E3,2.3725E2,3.375E1,4.6475E2,1.45E2,2.99305E4,1.45E3],"tree_param":{"num_deleted":"0","num_feature":"37","num_nodes":"31","size_leaf_vector":"1"}},{"base_weights":[-1.1259622E-3,2.046787E-2,-1.2552711E-1,-4.538378E-3,2.7996978E-1,6.5451694E-1,-1.3569956E-1,5.9598863E-2,-4.845564E-2,4.0858683E-1,1.2997387E-1,-8.18995E-1,1.746887E0,-1.0041707E-1,-3.3259445E-1,-5.030192E-4,6.1777695E-3,-1.0945715E-2,-1.1340951E-3,1.2058006E-2,2.766783E-2,1.4952518E-2,-3.044525E-3,-7.709403E-2,-1.9136017E-2,1.3499007E-2,1.02290645E-1,-8.912029E-3,4.1559874E-3,-4.338479E-2,-1.315168E-2],"categories":[],"categories_nodes":[],"categories_segments":[],"categories_sizes":[],"default_left":[0,0,0,0,0,0,0,0,0,0,0,0,0,0,0,0,0,0,0,0,0,0,0,0,0,0,0,0,0,0,0],"id":26,"left_children":[1,3,5,7,9,11,13,15,17,19,21,23,25,27,29,-1,-1,-1,-1,-1,-1,-1,-1,-1,-1,-1,-1,-1,-1,-1,-1],"loss_changes":[2.6676266E2,5.490953E2,1.16637375E2,2.1740039E2,1.4342651E2,3.0605136E2,1.00695526E2,1.3975749E2,2.0126463E2,9.690466E1,1.1085991E2,2.5034248E1,4.756961E1,1.7566943E2,8.177205E1,0E0,0E0,0E0,0E0,0E0,0E0,0E0,0E0,0E0,0E0,0E0,0E0,0E0,0E0,0E0,0E0],"parents":[2147483647,0,0,1,1,2,2,3,3,4,4,5,5,6,6,7,7,8,8,9,9,10,10,11,11,12,12,13,13,14,14],"right_children":[2,4,6,8,10,12,14,16,18,20,22,24,26,28,30,-1,-1,-1,-1,-1,-1,-1,-1,-1,-1,-1,-1,-1,-1,-1,-1],"split_conditions":[1.25E-1,3E-2,1.0231164E-11,4E-1,2.8125E-1,1.0909091E-2,3.5892692E-1,5E-1,8E-2,2.888525E-1,2.5552416E-1,5.3E-1,3.75E-1,2.867264E-1,3.8045454E-1,-5.030192E-4,6.1777695E-3,-1.0945715E-2,-1.1340951E-3,1.2058006E-2,2.766783E-2,1.4952518E-2,-3.044525E-3,-7.709403E-2,-1.9136017E-2,1.3499007E-2,1.02290645E-1,-8.912029E-3,4.1559874E-3,-4.338479E-2,-1.315168E-2],"split_indices":[24,14,32,15,1,31,32,19,9,32,32,9,24,32,31,0,0,0,0,0,0,0,0,0,0,0,0,0,0,0,0],"split_type":[0,0,0,0,0,0,0,0,0,0,0,0,0,0,0,0,0,0,0,0,0,0,0,0,0,0,0,0,0,0,0],"sum_hessian":[9.9303E4,8.4616E4,1.4687E4,7.717975E4,7.43625E3,1.8825E2,1.449875E4,3.13685E4,4.581125E4,4.0025E3,3.43375E3,8.025E1,1.08E2,1.229675E4,2.202E3,1.501525E4,1.635325E4,6.016E3,3.979525E4,1.85725E3,2.14525E3,1.8205E3,1.61325E3,2.925E1,5.1E1,1.85E1,8.95E1,8.63525E3,3.6615E3,2.52E2,1.95E3],"tree_param":{"num_deleted":"0","num_feature":"37","num_nodes":"31","size_leaf_vector":"1"}},{"base_weights":[7.666493E-4,-5.0448485E-2,5.1017396E-2,-2.4246138E-2,-1.8043849E-1,7.043787E-2,-8.571608E-2,-1.4307551E-2,-2.409722E-1,-1.5531123E-1,-5.834913E-1,3.6731035E-2,2.9356992E-1,5.554258E-1,-1.3263232E-1,7.334327E-3,-1.6210771E-3,3.381829E-3,-2.1674316E-2,-1.9044027E-3,-1.2109592E-2,8.921115E-3,-3.2211527E-2,1.9741547E-3,-6.574967E-2,1.0571889E-2,2.5029276E-2,9.844817E-2,1.7715128E-2,-1.3720363E-3,-1.265496E-2],"categories":[],"categories_nodes":[],"categories_segments":[],"categories_sizes":[],"default_left":[0,0,0,0,0,0,0,0,0,0,0,0,0,0,0,0,0,0,0,0,0,0,0,0,0,0,0,0,0,0,0],"id":27,"left_children":[1,3,5,7,9,11,13,15,17,19,21,23,25,27,29,-1,-1,-1,-1,-1,-1,-1,-1,-1,-1,-1,-1,-1,-1,-1,-1],"loss_changes":[2.5554869E2,1.674921E2,1.3309618E2,8.8152916E1,8.345715E1,3.3006854E2,1.8758463E2,1.1412982E2,1.0664335E2,7.909064E1,2.2501953E1,1.4189166E2,9.782086E1,1.20198944E2,7.361164E1,0E0,0E0,0E0,0E0,0E0,0E0,0E0,0E0,0E0,0E0,0E0,0E0,0E0,0E0,0E0,0E0],"parents":[2147483647,0,0,1,1,2,2,3,3,4,4,5,5,6,6,7,7,8,8,9,9,10,10,11,11,12,12,13,13,14,14],"right_children":[2,4,6,8,10,12,14,16,18,20,22,24,26,28,30,-1,-1,-1,-1,-1,-1,-1,-1,-1,-1,-1,-1,-1,-1,-1,-1],"split_conditions":[-2E-2,3.5892692E-1,1.25E-1,1E0,8.5E-1,6.666667E-2,2.4210729E-2,2.5416666E-1,6.410257E-2,2E-2,1.6666667E-1,6.25E-2,1.0714286E-1,4E-1,-7.5E-2,7.334327E-3,-1.6210771E-3,3.381829E-3,-2.1674316E-2,-1.9044027E-3,-1.2109592E-2,8.921115E-3,-3.2211527E-2,1.9741547E-3,-6.574967E-2,1.0571889E-2,2.5029276E-2,9.844817E-2,1.7715128E-2,-1.3720363E-3,-1.265496E-2],"split_indices":[10,32,24,1,3,4,32,3,5,26,35,4,7,35,16,0,0,0,0,0,0,0,0,0,0,0,0,0,0,0,0],"split_type":[0,0,0,0,0,0,0,0,0,0,0,0,0,0,0,0,0,0,0,0,0,0,0,0,0,0,0,0,0,0,0],"sum_hessian":[9.929425E4,4.917525E4,5.0119E4,4.092675E4,8.2485E3,4.388625E4,6.23275E3,3.913325E4,1.7935E3,7.76575E3,4.8275E2,3.812775E4,5.7585E3,4.2425E2,5.8085E3,3.957E3,3.517625E4,6.8925E2,1.10425E3,3.30625E3,4.4595E3,3.55E1,4.4725E2,3.805125E4,7.65E1,4.12425E3,1.63425E3,5.175E1,3.725E2,3.1015E3,2.707E3],"tree_param":{"num_deleted":"0","num_feature":"37","num_nodes":"31","size_leaf_vector":"1"}},{"base_weights":[2.2550726E-3,2.1918993E-2,-1.1124254E-1,4.5390963E-4,2.4392742E-1,7.4239105E-1,-1.2102766E-1,4.3303203E-2,-5.0929733E-2,3.6612192E-1,9.919161E-2,-4.8417816E-1,1.7215822E0,-8.864312E-2,-3.0048302E-1,-8.0915587E-4,4.770084E-3,-8.568762E-3,-3.3079827E-4,1.09367445E-2,2.4944486E-2,1.2314546E-2,-3.5366006E-3,-6.852091E-2,-2.6643027E-3,1.3847522E-2,1.03102766E-1,-7.6507265E-3,2.8718724E-3,2.5109394E-2,-1.7027736E-2],"categories":[],"categories_nodes":[],"categories_segments":[],"categories_sizes":[],"default_left":[0,0,0,0,0,0,0,0,0,0,0,0,0,0,0,0,0,0,0,0,0,0,0,0,0,0,0,0,0,0,0],"id":28,"left_children":[1,3,5,7,9,11,13,15,17,19,21,23,25,27,29,-1,-1,-1,-1,-1,-1,-1,-1,-1,-1,-1,-1,-1,-1,-1,-1],"loss_changes":[2.2052124E2,4.0133124E2,1.2196719E2,1.690825E2,1.3127719E2,1.996066E2,8.381412E1,1.2977753E2,1.8637932E2,7.866284E1,8.5008865E1,2.8281105E1,4.4802856E1,1.1494199E2,7.109349E1,0E0,0E0,0E0,0E0,0E0,0E0,0E0,0E0,0E0,0E0,0E0,0E0,0E0,0E0,0E0,0E0],"parents":[2147483647,0,0,1,1,2,2,3,3,4,4,5,5,6,6,7,7,8,8,9,9,10,10,11,11,12,12,13,13,14,14],"right_children":[2,4,6,8,10,12,14,16,18,20,22,24,26,28,30,-1,-1,-1,-1,-1,-1,-1,-1,-1,-1,-1,-1,-1,-1,-1,-1],"split_conditions":[1.25E-1,3E-2,1.0231164E-11,2.625E-1,2.8125E-1,1.0137769E-11,3.5892692E-1,5E-1,1.1E-1,2.888525E-1,2.5552416E-1,5.3E-1,3.75E-1,2.867264E-1,2.5E-2,-8.0915587E-4,4.770084E-3,-8.568762E-3,-3.3079827E-4,1.09367445E-2,2.4944486E-2,1.2314546E-2,-3.5366006E-3,-6.852091E-2,-2.6643027E-3,1.3847522E-2,1.03102766E-1,-7.6507265E-3,2.8718724E-3,2.5109394E-2,-1.7027736E-2],"split_indices":[24,14,32,16,1,32,32,19,9,32,32,9,24,32,4,0,0,0,0,0,0,0,0,0,0,0,0,0,0,0,0],"split_type":[0,0,0,0,0,0,0,0,0,0,0,0,0,0,0,0,0,0,0,0,0,0,0,0,0,0,0,0,0,0,0],"sum_hessian":[9.880625E4,8.421625E4,1.459E4,7.67925E4,7.42375E3,1.645E2,1.44255E4,4.187375E4,3.491875E4,4.0245E3,3.39925E3,7.325E1,9.125E1,1.22215E4,2.204E3,1.9551E4,2.232275E4,9.391E3,2.552775E4,1.9085E3,2.116E3,1.82175E3,1.5775E3,2.325E1,5E1,1.775E1,7.35E1,8.48325E3,3.73825E3,1.0425E2,2.09975E3],"tree_param":{"num_deleted":"0","num_feature":"37","num_nodes":"31","size_leaf_vector":"1"}},{"base_weights":[1.5179487E-3,3.5512857E-2,-6.7819774E-2,5.7619084E-2,-9.482089E-2,-1.03556365E-1,6.765352E-2,4.189665E-2,2.7691397E-1,6.951043E-1,-1.090665E-1,-6.4683415E-2,-2.1278858E-1,1.2241775E0,6.170123E-2,-5.9253525E-4,4.3350547E-3,2.7671218E-2,9.068313E-3,-3.1423472E-2,8.332523E-2,5.579407E-3,-7.183984E-3,-1.7578445E-2,-2.0079236E-3,-1.1623839E-2,1.872065E-2,9.7070016E-2,-2.7882984E-2,3.4635179E-3,-3.2011345E-2],"categories":[],"categories_nodes":[],"categories_segments":[],"categories_sizes":[],"default_left":[0,0,0,0,0,0,0,0,0,0,0,0,0,0,0,0,0,0,0,0,0,0,0,0,0,0,0,0,0,0,0],"id":29,"left_children":[1,3,5,7,9,11,13,15,17,19,21,23,25,27,29,-1,-1,-1,-1,-1,-1,-1,-1,-1,-1,-1,-1,-1,-1,-1,-1],"loss_changes":[2.3329283E2,1.9135233E2,1.5764511E2,1.9576505E2,1.08456E2,1.0938797E2,4.671482E1,1.27594666E2,1.002558E2,2.2058401E2,7.227877E1,1.3369342E2,7.8262085E1,4.5492245E1,3.597739E1,0E0,0E0,0E0,0E0,0E0,0E0,0E0,0E0,0E0,0E0,0E0,0E0,0E0,0E0,0E0,0E0],"parents":[2147483647,0,0,1,1,2,2,3,3,4,4,5,5,6,6,7,7,8,8,9,9,10,10,11,11,12,12,13,13,14,14],"right_children":[2,4,6,8,10,12,14,16,18,20,22,24,26,28,30,-1,-1,-1,-1,-1,-1,-1,-1,-1,-1,-1,-1,-1,-1,-1,-1],"split_conditions":[4E-2,1.25E-1,3.9E-1,4.5E-2,1.0231164E-11,3.5679096E-1,-6E-1,0E0,7.5E-1,1.0137769E-11,2.1875E-1,9.157259E-2,4.871795E-1,2.8125E-1,5.7916665E-1,-5.9253525E-4,4.3350547E-3,2.7671218E-2,9.068313E-3,-3.1423472E-2,8.332523E-2,5.579407E-3,-7.183984E-3,-1.7578445E-2,-2.0079236E-3,-1.1623839E-2,1.872065E-2,9.7070016E-2,-2.7882984E-2,3.4635179E-3,-3.2011345E-2],"split_indices":[26,24,9,14,32,32,6,20,3,32,1,32,6,1,4,0,0,0,0,0,0,0,0,0,0,0,0,0,0,0,0],"split_type":[0,0,0,0,0,0,0,0,0,0,0,0,0,0,0,0,0,0,0,0,0,0,0,0,0,0,0,0,0,0,0],"sum_hessian":[9.897125E4,6.64115E4,3.255975E4,5.678125E4,9.63025E3,2.576375E4,6.796E3,5.298375E4,3.7975E3,1.6975E2,9.4605E3,1.900275E4,6.761E3,3.375E1,6.76225E3,2.408825E4,2.88955E4,9.74E2,2.8235E3,7.2E1,9.775E1,1.2825E3,8.178E3,1.4955E3,1.750725E4,6.54225E3,2.1875E2,2.4E1,9.75E0,6.691E3,7.125E1],"tree_param":{"num_deleted":"0","num_feature":"37","num_nodes":"31","size_leaf_vector":"1"}},{"base_weights":[-2.4436258E-3,-2.0707445E-2,1.063807E-1,1.7471814E-1,-3.0846426E-2,1.5750416E-1,-9.392143E-2,7.635788E-2,4.579196E-1,-1.306591E-2,-1.3596031E-1,7.956165E-2,3.3289105E-1,5.0735545E-1,-1.6454543E-1,7.9411175E-3,-7.7817678E-3,1.8920958E-2,9.298303E-2,2.8316889E-2,-9.1001944E-4,-3.651181E-3,-1.0982304E-2,1.1497035E-2,-2.6335851E-3,1.463903E-2,7.974294E-2,-1.2833947E-2,4.3156024E-2,-4.2282823E-3,-2.5636835E-2],"categories":[],"categories_nodes":[],"categories_segments":[],"categories_sizes":[],"default_left":[0,0,0,0,0,0,0,0,0,0,0,0,0,0,0,0,0,0,0,0,0,0,0,0,0,0,0,0,0,0,0],"id":30,"left_children":[1,3,5,7,9,11,13,15,17,19,21,23,25,27,29,-1,-1,-1,-1,-1,-1,-1,-1,-1,-1,-1,-1,-1,-1,-1,-1],"loss_changes":[1.9732695E2,1.6845302E2,1.461185E2,1.16771255E2,1.5105194E2,1.5536145E2,1.23305084E2,5.95897E1,1.1973398E2,2.0566534E2,6.1571182E1,1.5652792E2,1.765445E2,8.3193596E1,7.2292496E1,0E0,0E0,0E0,0E0,0E0,0E0,0E0,0E0,0E0,0E0,0E0,0E0,0E0,0E0,0E0,0E0],"parents":[2147483647,0,0,1,1,2,2,3,3,4,4,5,5,6,6,7,7,8,8,9,9,10,10,11,11,12,12,13,13,14,14],"right_children":[2,4,6,8,10,12,14,16,18,20,22,24,26,28,30,-1,-1,-1,-1,-1,-1,-1,-1,-1,-1,-1,-1,-1,-1,-1,-1],"split_conditions":[5E-2,6.5717413E-3,3.5084355E-1,5.625E-1,1.25E-1,2.888525E-1,-4.3344244E-1,2.6666668E-1,3.75E-1,-1.5E-1,7.1428575E-2,3.1454545E-1,3.2E-1,5.0454545E-1,7.875E-1,7.9411175E-3,-7.7817678E-3,1.8920958E-2,9.298303E-2,2.8316889E-2,-9.1001944E-4,-3.651181E-3,-1.0982304E-2,1.1497035E-2,-2.6335851E-3,1.463903E-2,7.974294E-2,-1.2833947E-2,4.3156024E-2,-4.2282823E-3,-2.5636835E-2],"split_indices":[10,32,32,36,24,32,8,5,24,16,8,31,25,31,3,0,0,0,0,0,0,0,0,0,0,0,0,0,0,0,0],"split_type":[0,0,0,0,0,0,0,0,0,0,0,0,0,0,0,0,0,0,0,0,0,0,0,0,0,0,0,0,0,0,0],"sum_hessian":[9.92795E4,8.501275E4,1.426675E4,4.19225E3,8.08205E4,1.1366E4,2.90075E3,3.1125E3,1.07975E3,6.912825E4,1.169225E4,7.87E3,3.496E3,3.0425E2,2.5965E3,2.2965E3,8.16E2,1.023E3,5.675E1,6.0625E2,6.8522E4,6.6745E3,5.01775E3,3.682E3,4.188E3,3.3895E3,1.065E2,9.675E1,2.075E2,2.1125E3,4.84E2],"tree_param":{"num_deleted":"0","num_feature":"37","num_nodes":"31","size_leaf_vector":"1"}},{"base_weights":[2.140809E-3,3.4434974E-2,-6.3239165E-2,5.4435942E-2,-8.119434E-2,-2.889056E-2,-1.8671902E-1,3.8607463E-2,2.754416E-1,1.8456852E-1,-1.1953088E-1,-8.6057976E-2,6.32035E-2,-2.0485604E-1,3.4529108E-1,6.3414774E-3,7.464187E-4,2.7312344E-2,8.955474E-3,1.2328956E-2,-3.6356293E-2,1.5912278E-2,-7.410609E-3,2.461633E-4,-7.947344E-3,9.541461E-3,-8.2049205E-4,-9.87198E-3,-5.5671927E-2,-2.2663338E-2,3.8572617E-2],"categories":[],"categories_nodes":[],"categories_segments":[],"categories_sizes":[],"default_left":[0,0,0,0,0,0,0,0,0,0,0,0,0,0,0,0,0,0,0,0,0,0,0,0,0,0,0,0,0,0,0],"id":31,"left_children":[1,3,5,7,9,11,13,15,17,19,21,23,25,27,29,-1,-1,-1,-1,-1,-1,-1,-1,-1,-1,-1,-1,-1,-1,-1,-1],"loss_changes":[2.0972513E2,1.5377225E2,1.3928833E2,1.982813E2,9.992215E1,1.3528659E2,6.903514E1,1.10500916E2,9.872714E1,7.008447E1,1.0764894E2,1.0514028E2,1.0000484E2,4.6358063E1,8.066387E1,0E0,0E0,0E0,0E0,0E0,0E0,0E0,0E0,0E0,0E0,0E0,0E0,0E0,0E0,0E0,0E0],"parents":[2147483647,0,0,1,1,2,2,3,3,4,4,5,5,6,6,7,7,8,8,9,9,10,10,11,11,12,12,13,13,14,14],"right_children":[2,4,6,8,10,12,14,16,18,20,22,24,26,28,30,-1,-1,-1,-1,-1,-1,-1,-1,-1,-1,-1,-1,-1,-1,-1,-1],"split_conditions":[4E-2,1.25E-1,3.5679096E-1,4.5E-2,-1.561635E-1,4.75E-1,4.7619048E-1,2.7272728E-1,7.5E-1,3.125E-1,6.0909092E-2,2.9583332E-1,3.75E-1,6.25E-1,4.9583334E-1,6.3414774E-3,7.464187E-4,2.7312344E-2,8.955474E-3,1.2328956E-2,-3.6356293E-2,1.5912278E-2,-7.410609E-3,2.461633E-4,-7.947344E-3,9.541461E-3,-8.2049205E-4,-9.87198E-3,-5.5671927E-2,-2.2663338E-2,3.8572617E-2],"split_indices":[26,24,32,14,28,3,6,31,3,4,31,3,23,23,3,0,0,0,0,0,0,0,0,0,0,0,0,0,0,0,0],"split_type":[0,0,0,0,0,0,0,0,0,0,0,0,0,0,0,0,0,0,0,0,0,0,0,0,0,0,0,0,0,0,0],"sum_hessian":[9.932825E4,6.64875E4,3.284075E4,5.668325E4,9.80425E3,2.56945E4,7.14625E3,5.2896E4,3.78725E3,1.2355E3,8.56875E3,1.58535E4,9.841E3,6.91125E3,2.35E2,1.119225E4,4.170375E4,9.925E2,2.79475E3,1.1575E3,7.8E1,5.2625E2,8.0425E3,7.052E3,8.8015E3,3.78E3,6.061E3,6.8565E3,5.475E1,8.175E1,1.5325E2],"tree_param":{"num_deleted":"0","num_feature":"37","num_nodes":"31","size_leaf_vector":"1"}},{"base_weights":[-6.0019167E-3,1.1465421E-2,-1.0646122E-1,-8.129524E-3,2.3250994E-1,-9.006164E-2,-3.3520108E-1,9.947686E-4,-2.6234433E-1,3.5345018E-1,8.849141E-2,-1.4594573E-1,5.3008827E-3,-3.7096572E-1,6.2578183E-1,4.448887E-3,-1.0415333E-3,-3.319682E-2,-1.0116115E-2,1.1088035E-2,2.4544444E-2,5.6833676E-3,-5.2785702E-2,-5.5038272E-3,-1.8263923E-2,2.2479063E-2,-3.028414E-3,-1.2037522E-2,-3.9839916E-2,-7.009598E-2,5.428592E-2],"categories":[],"categories_nodes":[],"categories_segments":[],"categories_sizes":[],"default_left":[0,0,0,0,0,0,0,0,0,0,0,0,0,0,0,0,0,0,0,0,0,0,0,0,0,0,0,0,0,0,0],"id":32,"left_children":[1,3,5,7,9,11,13,15,17,19,21,23,25,27,29,-1,-1,-1,-1,-1,-1,-1,-1,-1,-1,-1,-1,-1,-1,-1,-1],"loss_changes":[1.734317E2,3.6468466E2,5.4886032E1,1.7939507E2,1.19384E2,7.280628E1,3.38796E1,1.4337328E2,6.4459366E1,6.7333435E1,9.0305786E1,6.772662E1,1.4777574E2,5.2180603E1,3.4629883E1,0E0,0E0,0E0,0E0,0E0,0E0,0E0,0E0,0E0,0E0,0E0,0E0,0E0,0E0,0E0,0E0],"parents":[2147483647,0,0,1,1,2,2,3,3,4,4,5,5,6,6,7,7,8,8,9,9,10,10,11,11,12,12,13,13,14,14],"right_children":[2,4,6,8,10,12,14,16,18,20,22,24,26,28,30,-1,-1,-1,-1,-1,-1,-1,-1,-1,-1,-1,-1,-1,-1,-1,-1],"split_conditions":[1.25E-1,6.666667E-2,4.017116E-1,1.6E-1,2.8125E-1,2.8540513E-1,9.218148E-1,2.6863638E-1,-4.464286E-2,2.888525E-1,5.555556E-1,2.641374E-1,3.390909E-1,3.45E-1,9.375E-2,4.448887E-3,-1.0415333E-3,-3.319682E-2,-1.0116115E-2,1.1088035E-2,2.4544444E-2,5.6833676E-3,-5.2785702E-2,-5.5038272E-3,-1.8263923E-2,2.2479063E-2,-3.028414E-3,-1.2037522E-2,-3.9839916E-2,-7.009598E-2,5.428592E-2],"split_indices":[24,4,32,26,1,32,28,31,6,32,6,32,31,13,1,0,0,0,0,0,0,0,0,0,0,0,0,0,0,0,0],"split_type":[0,0,0,0,0,0,0,0,0,0,0,0,0,0,0,0,0,0,0,0,0,0,0,0,0,0,0,0,0,0,0],"sum_hessian":[9.88335E4,8.4195E4,1.46385E4,7.734E4,6.855E3,1.36605E4,9.78E2,7.466125E4,2.67875E3,3.72525E3,3.12975E3,8.61275E3,5.04775E3,9.435E2,3.45E1,1.4839E4,5.982225E4,3.47E2,2.33175E3,1.90375E3,1.8215E3,3.06325E3,6.65E1,7.4035E3,1.20925E3,6.51E2,4.39675E3,7.2375E2,2.1975E2,6E0,2.85E1],"tree_param":{"num_deleted":"0","num_feature":"37","num_nodes":"31","size_leaf_vector":"1"}},{"base_weights":[-3.5097285E-3,-5.4887377E-2,3.1310365E-2,-7.978158E-2,7.322923E-2,1.1733993E-1,1.5750142E-3,5.3768395E-3,-1.0577725E-1,2.7172832E-2,2.2771817E-1,8.8244855E-2,4.6987522E-1,3.160776E-1,-6.2142825E-3,-3.7938573E-3,1.5822386E-2,-2.3612328E-2,-4.5481175E-3,2.8069483E-4,1.8799985E-2,9.85102E-3,9.8819874E-2,5.9272684E-3,-1.0413449E-2,4.352949E-3,5.2231736E-2,1.8898109E-2,-3.6020335E-2,-4.1559143E-3,1.2295147E-3],"categories":[],"categories_nodes":[],"categories_segments":[],"categories_sizes":[],"default_left":[0,0,0,0,0,0,0,0,0,0,0,0,0,0,0,0,0,0,0,0,0,0,0,0,0,0,0,0,0,0,0],"id":33,"left_children":[1,3,5,7,9,11,13,15,17,19,21,23,25,27,29,-1,-1,-1,-1,-1,-1,-1,-1,-1,-1,-1,-1,-1,-1,-1,-1],"loss_changes":[1.776737E2,1.2796057E2,1.5143216E2,7.436597E1,4.6440094E1,1.5591937E2,1.0777276E2,1.986219E2,1.3968442E2,3.78233E1,8.00778E1,1.262325E2,2.5492067E2,6.847167E1,1.01703606E2,0E0,0E0,0E0,0E0,0E0,0E0,0E0,0E0,0E0,0E0,0E0,0E0,0E0,0E0,0E0,0E0],"parents":[2147483647,0,0,1,1,2,2,3,3,4,4,5,5,6,6,7,7,8,8,9,9,10,10,11,11,12,12,13,13,14,14],"right_children":[2,4,6,8,10,12,14,16,18,20,22,24,26,28,30,-1,-1,-1,-1,-1,-1,-1,-1,-1,-1,-1,-1,-1,-1,-1,-1],"split_conditions":[-4E-2,4.7E-1,2.1578349E-1,2.7272728E-1,3.8709676E-1,2.3101243E-1,-4.3344244E-1,1.6186069E-1,1.281997E-1,6E-2,3.75E-1,2.5E-1,8.333333E-1,8.5E-1,2.867264E-1,-3.7938573E-3,1.5822386E-2,-2.3612328E-2,-4.5481175E-3,2.8069483E-4,1.8799985E-2,9.85102E-3,9.8819874E-2,5.9272684E-3,-1.0413449E-2,4.352949E-3,5.2231736E-2,1.8898109E-2,-3.6020335E-2,-4.1559143E-3,1.2295147E-3],"split_indices":[10,9,32,31,0,8,8,32,32,14,24,24,3,3,32,0,0,0,0,0,0,0,0,0,0,0,0,0,0,0,0],"split_type":[0,0,0,0,0,0,0,0,0,0,0,0,0,0,0,0,0,0,0,0,0,0,0,0,0,0,0,0,0,0,0],"sum_hessian":[9.9314E4,4.011825E4,5.919575E4,3.35915E4,6.52675E3,1.520425E4,4.39915E4,7.85625E3,2.573525E4,5.02875E3,1.498E3,1.404625E4,1.158E3,1.06225E3,4.292925E4,6.22975E3,1.6265E3,9.9875E2,2.47365E4,4.737E3,2.9175E2,1.47325E3,2.475E1,1.27445E4,1.30175E3,6.9575E2,4.6225E2,1.003E3,5.925E1,1.227725E4,3.0652E4],"tree_param":{"num_deleted":"0","num_feature":"37","num_nodes":"31","size_leaf_vector":"1"}},{"base_weights":[-9.122253E-4,2.8544465E-2,-6.0852364E-2,4.7990013E-2,-8.43276E-2,-2.3908101E-2,-1.9152792E-1,3.081898E-2,2.2656325E-1,1.6525021E-1,-1.2048447E-1,-5.2635357E-2,9.5448986E-2,-3.1515214E-1,-1.2241152E-1,1.7698676E-3,-2.745458E-2,2.0041112E-2,6.5983916E-3,2.5944812E-2,2.6997854E-3,-4.319187E-3,-1.984221E-2,-5.791232E-3,2.1444464E-3,5.3882683E-3,-3.072212E-2,-2.161507E-2,-8.907984E-3,4.4683263E-2,-7.2251195E-3],"categories":[],"categories_nodes":[],"categories_segments":[],"categories_sizes":[],"default_left":[0,0,0,0,0,0,0,0,0,0,0,0,0,0,0,0,0,0,0,0,0,0,0,0,0,0,0,0,0,0,0],"id":34,"left_children":[1,3,5,7,9,11,13,15,17,19,21,23,25,27,29,-1,-1,-1,-1,-1,-1,-1,-1,-1,-1,-1,-1,-1,-1,-1,-1],"loss_changes":[1.7470854E2,1.4562198E2,1.5739935E2,1.7353108E2,8.800797E1,8.716258E1,6.1361908E1,1.371047E2,8.1782425E1,4.8533195E1,8.023288E1,1.2367734E2,4.3183765E1,4.1268097E1,1.0362211E2,0E0,0E0,0E0,0E0,0E0,0E0,0E0,0E0,0E0,0E0,0E0,0E0,0E0,0E0,0E0,0E0],"parents":[2147483647,0,0,1,1,2,2,3,3,4,4,5,5,6,6,7,7,8,8,9,9,10,10,11,11,12,12,13,13,14,14],"right_children":[2,4,6,8,10,12,14,16,18,20,22,24,26,28,30,-1,-1,-1,-1,-1,-1,-1,-1,-1,-1,-1,-1,-1,-1,-1,-1],"split_conditions":[4E-2,1.25E-1,3.5679096E-1,3E-2,-1.6237643E-1,4.6E-1,4.7E-1,3.75E-2,7.5E-1,2.8954545E-1,3.625E-1,2.8540513E-1,2.25E-1,2.2222223E-2,4.7136363E-1,1.7698676E-3,-2.745458E-2,2.0041112E-2,6.5983916E-3,2.5944812E-2,2.6997854E-3,-4.319187E-3,-1.984221E-2,-5.791232E-3,2.1444464E-3,5.3882683E-3,-3.072212E-2,-2.161507E-2,-8.907984E-3,4.4683263E-2,-7.2251195E-3],"split_indices":[26,24,32,14,28,9,31,4,3,31,15,32,14,6,31,0,0,0,0,0,0,0,0,0,0,0,0,0,0,0,0],"split_type":[0,0,0,0,0,0,0,0,0,0,0,0,0,0,0,0,0,0,0,0,0,0,0,0,0,0,0,0,0,0,0],"sum_hessian":[9.894725E4,6.6344E4,3.260325E4,5.65945E4,9.7495E3,2.541825E4,7.185E3,5.1631E4,4.9635E3,1.23325E3,8.51625E3,2.048775E4,4.9305E3,2.57525E3,4.60975E3,5.12275E4,4.035E2,1.74525E3,3.21825E3,2.9425E2,9.39E2,7.582E3,9.3425E2,1.233075E4,8.157E3,4.84725E3,8.325E1,1.387E3,1.18825E3,9.725E1,4.5125E3],"tree_param":{"num_deleted":"0","num_feature":"37","num_nodes":"31","size_leaf_vector":"1"}},{"base_weights":[4.3702783E-4,2.9079244E-2,-5.795714E-2,2.2803673E-1,2.0127526E-2,-2.603194E-2,-1.7532349E-1,-1.954146E-1,2.9140157E-1,-1.1461201E-1,3.2473322E-2,-6.790144E-2,5.2094515E-2,-1.4147891E-1,-3.888779E-1,1.0557998E-2,-5.2887857E-2,5.0129008E-2,1.1327903E-2,-2.2896936E-3,-2.347992E-2,-1.1139065E-3,3.584937E-3,5.581039E-6,-7.975233E-3,1.7985502E-2,-1.5060223E-3,-1.1710484E-2,-2.8802166E-3,-2.1718005E-2,1.579704E-2],"categories":[],"categories_nodes":[],"categories_segments":[],"categories_sizes":[],"default_left":[0,0,0,0,0,0,0,0,0,0,0,0,0,0,0,0,0,0,0,0,0,0,0,0,0,0,0,0,0,0,0],"id":35,"left_children":[1,3,5,7,9,11,13,15,17,19,21,23,25,27,29,-1,-1,-1,-1,-1,-1,-1,-1,-1,-1,-1,-1,-1,-1,-1,-1],"loss_changes":[1.6610481E2,1.18665535E2,1.2245398E2,7.7031006E1,1.0607137E2,8.405321E1,5.0457275E1,1.3135019E2,1.1486517E2,1.307313E2,1.2544951E2,1.0422839E2,2.2676633E2,4.691941E1,3.0767395E1,0E0,0E0,0E0,0E0,0E0,0E0,0E0,0E0,0E0,0E0,0E0,0E0,0E0,0E0,0E0,0E0],"parents":[2147483647,0,0,1,1,2,2,3,3,4,4,5,5,6,6,7,7,8,8,9,9,10,10,11,11,12,12,13,13,14,14],"right_children":[2,4,6,8,10,12,14,16,18,20,22,24,26,28,30,-1,-1,-1,-1,-1,-1,-1,-1,-1,-1,-1,-1,-1,-1,-1,-1],"split_conditions":[4E-2,-2.631579E-1,3.5679096E-1,1.894759E-1,-1.590909E-1,2.8540513E-1,6.25E-1,3.0727273E-1,2.9363635E-1,1.6E-1,5E-1,2.1245772E-1,3.6136365E-1,2.5E-2,3.5E-1,1.0557998E-2,-5.2887857E-2,5.0129008E-2,1.1327903E-2,-2.2896936E-3,-2.347992E-2,-1.1139065E-3,3.584937E-3,5.581039E-6,-7.975233E-3,1.7985502E-2,-1.5060223E-3,-1.1710484E-2,-2.8802166E-3,-2.1718005E-2,1.579704E-2],"split_indices":[26,8,32,32,6,32,1,31,31,25,19,32,31,6,9,0,0,0,0,0,0,0,0,0,0,0,0,0,0,0,0],"split_type":[0,0,0,0,0,0,0,0,0,0,0,0,0,0,0,0,0,0,0,0,0,0,0,0,0,0,0,0,0,0,0],"sum_hessian":[9.9311E4,6.662975E4,3.268125E4,2.86775E3,6.3762E4,2.56935E4,6.98775E3,3.73E2,2.49475E3,5.35125E3,5.841075E4,1.67285E4,8.965E3,6.03325E3,9.545E2,2.54E2,1.19E2,2.0725E2,2.2875E3,4.48325E3,8.68E2,2.43805E4,3.403025E4,9.601E3,7.1275E3,1.89E3,7.075E3,2.8645E3,3.16875E3,8.97E2,5.75E1],"tree_param":{"num_deleted":"0","num_feature":"37","num_nodes":"31","size_leaf_vector":"1"}},{"base_weights":[6.3426225E-3,7.770058E-2,-1.515122E-2,-1.0740592E-2,1.6433573E-1,-7.5257234E-2,2.3512026E-2,1.4547817E-1,-1.0031793E-1,7.5119424E-1,1.2423668E-1,7.556868E-1,-8.114399E-2,5.0786242E-2,-7.64547E-2,2.436136E-3,1.8347425E-2,-3.2605417E-2,-3.5993431E-3,2.6477104E-2,7.341478E-2,2.4472034E-2,4.6974896E-3,4.596609E-2,-3.4314748E-2,-4.2310786E-3,3.465665E-2,3.6511184E-3,-2.1591708E-3,-2.4634805E-3,-2.414552E-2],"categories":[],"categories_nodes":[],"categories_segments":[],"categories_sizes":[],"default_left":[0,0,0,0,0,0,0,0,0,0,0,0,0,0,0,0,0,0,0,0,0,0,0,0,0,0,0,0,0,0,0],"id":36,"left_children":[1,3,5,7,9,11,13,15,17,19,21,23,25,27,29,-1,-1,-1,-1,-1,-1,-1,-1,-1,-1,-1,-1,-1,-1,-1,-1],"loss_changes":[1.5230705E2,1.761327E2,1.7735263E2,1.592065E2,2.731716E2,1.4619322E2,1.2663136E2,8.882988E1,1.12990005E2,1.1724066E2,1.201942E2,5.024121E1,7.9934845E1,7.624665E1,1.0997982E2,0E0,0E0,0E0,0E0,0E0,0E0,0E0,0E0,0E0,0E0,0E0,0E0,0E0,0E0,0E0,0E0],"parents":[2147483647,0,0,1,1,2,2,3,3,4,4,5,5,6,6,7,7,8,8,9,9,10,10,11,11,12,12,13,13,14,14],"right_children":[2,4,6,8,10,12,14,16,18,20,22,24,26,28,30,-1,-1,-1,-1,-1,-1,-1,-1,-1,-1,-1,-1,-1,-1,-1,-1],"split_conditions":[2.7818182E-1,1.8545455E-1,0E0,6.8636365E-2,0E0,7.142853E-11,5E-2,5.625E-1,-1.1764706E-1,5E-1,2.1875E-1,1E0,4.1E-1,7.5E-1,5E-1,2.436136E-3,1.8347425E-2,-3.2605417E-2,-3.5993431E-3,2.6477104E-2,7.341478E-2,2.4472034E-2,4.6974896E-3,4.596609E-2,-3.4314748E-2,-4.2310786E-3,3.465665E-2,3.6511184E-3,-2.1591708E-3,-2.4634805E-3,-2.414552E-2],"split_indices":[31,31,20,31,24,5,26,36,6,23,1,29,10,3,23,0,0,0,0,0,0,0,0,0,0,0,0,0,0,0,0],"split_type":[0,0,0,0,0,0,0,0,0,0,0,0,0,0,0,0,0,0,0,0,0,0,0,0,0,0,0,0,0,0,0],"sum_hessian":[9.93015E4,2.298625E4,7.631525E4,1.1375E4,1.161125E4,2.987325E4,4.6442E4,4.14525E3,7.22975E3,7.415E2,1.086975E4,2.0925E2,2.9664E4,3.64875E4,9.9545E3,2.88575E3,1.2595E3,3.52E2,6.87775E3,5.6775E2,1.7375E2,8.3125E2,1.00385E4,1.8825E2,2.1E1,2.953225E4,1.3175E2,2.950575E4,6.98175E3,9.3315E3,6.23E2],"tree_param":{"num_deleted":"0","num_feature":"37","num_nodes":"31","size_leaf_vector":"1"}},{"base_weights":[1.1721913E-3,2.785449E-2,-5.148582E-2,5.3598974E-2,-6.812413E-2,-2.2206272E-1,-2.460061E-2,2.9566394E-2,2.1525033E-1,-5.8349706E-2,-6.8176854E-1,-1.8518242E-1,-5.2241755E-1,-4.475296E-3,-2.4691837E-1,5.7770316E-3,2.6797918E-5,1.6333982E-2,4.0319846E-3,1.3779581E-2,-3.6688328E-3,-3.8220804E-2,4.5069285E-2,-1.024592E-2,2.1422762E-2,-2.9473975E-2,3.0263389E-2,1.169888E-3,-6.596734E-3,-3.3903774E-2,-8.138854E-3],"categories":[],"categories_nodes":[],"categories_segments":[],"categories_sizes":[],"default_left":[0,0,0,0,0,0,0,0,0,0,0,0,0,0,0,0,0,0,0,0,0,0,0,0,0,0,0,0,0,0,0],"id":37,"left_children":[1,3,5,7,9,11,13,15,17,19,21,23,25,27,29,-1,-1,-1,-1,-1,-1,-1,-1,-1,-1,-1,-1,-1,-1,-1,-1],"loss_changes":[1.3890794E2,1.6213554E2,1.5247089E2,2.0099347E2,8.320227E1,5.0046906E1,1.2850952E2,1.1242264E2,1.0041452E2,6.8576515E1,2.9147583E1,4.893344E1,3.7753235E1,9.357808E1,8.638571E1,0E0,0E0,0E0,0E0,0E0,0E0,0E0,0E0,0E0,0E0,0E0,0E0,0E0,0E0,0E0,0E0],"parents":[2147483647,0,0,1,1,2,2,3,3,4,4,5,5,6,6,7,7,8,8,9,9,10,10,11,11,12,12,13,13,14,14],"right_children":[2,4,6,8,10,12,14,16,18,20,22,24,26,28,30,-1,-1,-1,-1,-1,-1,-1,-1,-1,-1,-1,-1,-1,-1,-1,-1],"split_conditions":[5.5E-1,1.25E-1,8E-2,6.666667E-2,4.598697E-1,3.888889E-1,3.2E-1,2.7818182E-1,2.8125E-1,6.0909092E-2,6.5022916E-1,4.0224358E-1,4.9583334E-1,3.775179E-1,-4.464286E-2,5.7770316E-3,2.6797918E-5,1.6333982E-2,4.0319846E-3,1.3779581E-2,-3.6688328E-3,-3.8220804E-2,4.5069285E-2,-1.024592E-2,2.1422762E-2,-2.9473975E-2,3.0263389E-2,1.169888E-3,-6.596734E-3,-3.3903774E-2,-8.138854E-3],"split_indices":[15,24,9,4,32,8,25,31,1,31,27,7,3,32,6,0,0,0,0,0,0,0,0,0,0,0,0,0,0,0,0],"split_type":[0,0,0,0,0,0,0,0,0,0,0,0,0,0,0,0,0,0,0,0,0,0,0,0,0,0,0,0,0,0,0],"sum_hessian":[9.886225E4,6.5615E4,3.324725E4,5.173775E4,1.387725E4,4.52575E3,2.87215E4,4.50425E4,6.69525E3,1.366075E4,2.165E2,4.03225E3,4.935E2,2.633825E4,2.38325E3,1.136925E4,3.367325E4,3.66225E3,3.033E3,5.875E2,1.307325E4,2.0625E2,1.025E1,3.90725E3,1.25E2,4.6625E2,2.725E1,2.161275E4,4.7255E3,3.88E2,1.99525E3],"tree_param":{"num_deleted":"0","num_feature":"37","num_nodes":"31","size_leaf_vector":"1"}},{"base_weights":[9.3754166E-4,3.5075452E-2,-4.613805E-2,6.329346E-2,-5.98699E-2,-1.7577472E-1,-2.3924256E-2,3.8779806E-2,2.1701127E-1,3.0792958E-1,-7.574207E-2,-2.0158102E-1,4.7068357E-1,-8.746911E-3,-1.9316246E-1,2.0707564E-3,-6.35372E-2,1.6238827E-2,2.0786296E-3,-4.7999616E-3,4.876116E-2,-1.9133566E-2,-2.913839E-3,2.2042363E-3,-1.1715072E-2,3.9423555E-2,-5.489996E-3,9.766747E-4,-4.532113E-3,-3.1314865E-2,-5.837455E-3],"categories":[],"categories_nodes":[],"categories_segments":[],"categories_sizes":[],"default_left":[0,0,0,0,0,0,0,0,0,0,0,0,0,0,0,0,0,0,0,0,0,0,0,0,0,0,0,0,0,0,0],"id":38,"left_children":[1,3,5,7,9,11,13,15,17,19,21,23,25,27,29,-1,-1,-1,-1,-1,-1,-1,-1,-1,-1,-1,-1,-1,-1,-1,-1],"loss_changes":[1.5928198E2,1.5392603E2,1.1997152E2,1.6688167E2,7.686743E1,1.0176753E2,9.1359726E1,1.3187819E2,1.15148834E2,1.4692506E2,6.762589E1,4.712474E1,4.329876E1,7.5602905E1,9.681093E1,0E0,0E0,0E0,0E0,0E0,0E0,0E0,0E0,0E0,0E0,0E0,0E0,0E0,0E0,0E0,0E0],"parents":[2147483647,0,0,1,1,2,2,3,3,4,4,5,5,6,6,7,7,8,8,9,9,10,10,11,11,12,12,13,13,14,14],"right_children":[2,4,6,8,10,12,14,16,18,20,22,24,26,28,30,-1,-1,-1,-1,-1,-1,-1,-1,-1,-1,-1,-1,-1,-1,-1,-1],"split_conditions":[4.75E-1,1.25E-1,8E-2,6.666667E-2,6.0909092E-2,1.1666667E-1,3.2E-1,6.25E-2,3.125E-1,5.625E-1,1.5E-1,3E-2,3.4375E-1,2.4031232E-1,-3.4941435E-2,2.0707564E-3,-6.35372E-2,1.6238827E-2,2.0786296E-3,-4.7999616E-3,4.876116E-2,-1.9133566E-2,-2.913839E-3,2.2042363E-3,-1.1715072E-2,3.9423555E-2,-5.489996E-3,9.766747E-4,-4.532113E-3,-3.1314865E-2,-5.837455E-3],"split_indices":[15,24,9,4,31,4,25,4,1,36,31,9,1,28,6,0,0,0,0,0,0,0,0,0,0,0,0,0,0,0,0],"split_type":[0,0,0,0,0,0,0,0,0,0,0,0,0,0,0,0,0,0,0,0,0,0,0,0,0,0,0,0,0,0,0],"sum_hessian":[9.911175E4,5.74505E4,4.166125E4,4.428825E4,1.316225E4,6.0935E3,3.556775E4,3.8198E4,6.09025E3,5.4375E2,1.26185E4,5.86025E3,2.3325E2,3.26415E4,2.92625E3,3.812225E4,7.575E1,3.77225E3,2.318E3,3.3925E2,2.045E2,6.7825E2,1.194025E4,6.8875E2,5.1715E3,1.505E2,8.275E1,2.42635E4,8.378E3,4.3775E2,2.4885E3],"tree_param":{"num_deleted":"0","num_feature":"37","num_nodes":"31","size_leaf_vector":"1"}},{"base_weights":[5.3773687E-4,-4.568184E-2,3.152756E-2,-7.513525E-2,5.969522E-2,3.4961343E-2,-4.3859616E-1,2.4297439E-2,-1.0109633E-1,2.1156566E-3,1.8649733E-1,1.5087844E-1,1.9901287E-2,-1.873767E-1,-8.2373166E-1,4.7984696E-3,-1.5523794E-2,-2.5559727E-2,-4.2617596E-3,-4.2403634E-3,5.475702E-3,2.6026431E-2,3.944174E-3,2.2187028E-2,5.4277224E-3,1.3614069E-3,-1.0275672E-2,-2.0753017E-2,2.5943836E-2,-4.786675E-2,3.992324E-2],"categories":[],"categories_nodes":[],"categories_segments":[],"categories_sizes":[],"default_left":[0,0,0,0,0,0,0,0,0,0,0,0,0,0,0,0,0,0,0,0,0,0,0,0,0,0,0,0,0,0,0],"id":39,"left_children":[1,3,5,7,9,11,13,15,17,19,21,23,25,27,29,-1,-1,-1,-1,-1,-1,-1,-1,-1,-1,-1,-1,-1,-1,-1,-1],"loss_changes":[1.4252753E2,1.2396525E2,9.617531E1,8.058087E1,6.370449E1,1.0323265E2,4.164318E1,1.551141E2,1.6096375E2,5.6035576E1,9.790389E1,8.42323E1,8.6445984E1,4.2466187E1,3.766281E1,0E0,0E0,0E0,0E0,0E0,0E0,0E0,0E0,0E0,0E0,0E0,0E0,0E0,0E0,0E0,0E0],"parents":[2147483647,0,0,1,1,2,2,3,3,4,4,5,5,6,6,7,7,8,8,9,9,10,10,11,11,12,12,13,13,14,14],"right_children":[2,4,6,8,10,12,14,16,18,20,22,24,26,28,30,-1,-1,-1,-1,-1,-1,-1,-1,-1,-1,-1,-1,-1,-1,-1,-1],"split_conditions":[-4E-2,4E-1,2.25E-1,2.7272728E-1,5.625E-1,-7.5E-2,8.3333336E-2,5.875E-1,1.281997E-1,2.0727272E-1,9.045455E-2,1.08333334E-1,2.5E-1,4.7E-1,5.9090906E-1,4.7984696E-3,-1.5523794E-2,-2.5559727E-2,-4.2617596E-3,-4.2403634E-3,5.475702E-3,2.6026431E-2,3.944174E-3,2.2187028E-2,5.4277224E-3,1.3614069E-3,-1.0275672E-2,-2.0753017E-2,2.5943836E-2,-4.786675E-2,3.992324E-2],"split_indices":[10,9,14,31,36,16,8,15,32,31,31,4,24,31,5,0,0,0,0,0,0,0,0,0,0,0,0,0,0,0,0],"split_type":[0,0,0,0,0,0,0,0,0,0,0,0,0,0,0,0,0,0,0,0,0,0,0,0,0,0,0,0,0,0,0],"sum_hessian":[9.9505E4,3.99385E4,5.95665E4,3.121425E4,8.72425E3,5.91355E4,4.31E2,6.4625E3,2.475175E4,6.0005E3,2.72375E3,6.7985E3,5.2337E4,2.6175E2,1.6925E2,5.3235E3,1.139E3,9.205E2,2.383125E4,3.3165E3,2.684E3,6.6275E2,2.061E3,8.5725E2,5.94125E3,5.069025E4,1.64675E3,1.9825E2,6.35E1,1.5675E2,1.25E1],"tree_param":{"num_deleted":"0","num_feature":"37","num_nodes":"31","size_leaf_vector":"1"}},{"base_weights":[1.4588407E-3,-1.0344338E-2,1.1758733E-1,-3.737439E-3,-2.1075766E-1,-3.4974646E-2,1.7103598E-1,3.6779246E-3,-1.9228224E-1,-5.532976E-1,-1.453179E-1,1.1675614E-2,-1.0701771E0,4.8462123E-1,1.4242479E-1,9.1483456E-4,-4.082885E-3,-1.07931E-2,3.3444487E-2,-1.6470416E-2,-7.903364E-2,-9.084891E-3,3.7767485E-2,1.0943586E-2,-5.4331017E-3,-3.8451463E-2,-7.669775E-2,2.8230742E-2,-6.333122E-2,2.7790132E-3,1.3805717E-2],"categories":[],"categories_nodes":[],"categories_segments":[],"categories_sizes":[],"default_left":[0,0,0,0,0,0,0,0,0,0,0,0,0,0,0,0,0,0,0,0,0,0,0,0,0,0,0,0,0,0,0],"id":40,"left_children":[1,3,5,7,9,11,13,15,17,19,21,23,25,27,29,-1,-1,-1,-1,-1,-1,-1,-1,-1,-1,-1,-1,-1,-1,-1,-1],"loss_changes":[1.3572168E2,1.1901292E2,7.449896E1,1.2165814E2,6.421914E1,1.14513916E2,6.0631348E1,1.0444575E2,6.7007744E1,1.0523024E2,7.909563E1,5.6616577E1,1.3101158E1,7.99001E1,7.198243E1,0E0,0E0,0E0,0E0,0E0,0E0,0E0,0E0,0E0,0E0,0E0,0E0,0E0,0E0,0E0,0E0],"parents":[2147483647,0,0,1,1,2,2,3,3,4,4,5,5,6,6,7,7,8,8,9,9,10,10,11,11,12,12,13,13,14,14],"right_children":[2,4,6,8,10,12,14,16,18,20,22,24,26,28,30,-1,-1,-1,-1,-1,-1,-1,-1,-1,-1,-1,-1,-1,-1,-1,-1],"split_conditions":[8E-2,1.6E-1,5.75E-1,4.40169E-1,3E-1,5.625E-1,-7.514833E-1,1.25E-1,7E-2,8.4375E-1,5.416667E-1,-1.9049695E-1,7.016129E-2,2.1524207E-1,1.1E-1,9.1483456E-4,-4.082885E-3,-1.07931E-2,3.3444487E-2,-1.6470416E-2,-7.903364E-2,-9.084891E-3,3.7767485E-2,1.0943586E-2,-5.4331017E-3,-3.8451463E-2,-7.669775E-2,2.8230742E-2,-6.333122E-2,2.7790132E-3,1.3805717E-2],"split_indices":[10,26,3,32,16,3,28,24,10,1,3,8,7,27,25,0,0,0,0,0,0,0,0,0,0,0,0,0,0,0,0],"split_type":[0,0,0,0,0,0,0,0,0,0,0,0,0,0,0,0,0,0,0,0,0,0,0,0,0,0,0,0,0,0,0],"sum_hessian":[9.90155E4,8.9881E4,9.1345E3,8.70135E4,2.8675E3,2.37E3,6.7645E3,8.372175E4,3.29175E3,4.5875E2,2.40875E3,2.26875E3,1.0125E2,5.6425E2,6.20025E3,7.147775E4,1.2244E4,3.20475E3,8.7E1,3.7775E2,8.1E1,2.316E3,9.275E1,8.3325E2,1.4355E3,6.3E1,3.825E1,5.4025E2,2.4E1,3.7595E3,2.44075E3],"tree_param":{"num_deleted":"0","num_feature":"37","num_nodes":"31","size_leaf_vector":"1"}},{"base_weights":[3.9595133E-3,1.805029E-2,-8.972016E-2,4.0283328E-1,1.4790435E-2,-1.5438649E-1,7.3386556E-3,3.8178775E-1,1.0173507E-1,3.736729E-2,-3.1720597E-2,-1.3140097E-1,-4.8210895E-1,1.9051386E-1,-9.56445E-2,1.3908069E-2,3.198425E-2,1.1556903E-2,1.4640341E-3,-3.0313188E-3,3.027457E-3,-9.891553E-3,1.4389328E-3,-4.6447508E-2,-1.5385138E-2,-7.776805E-3,1.5295655E-2,-7.204741E-3,2.6237775E-2],"categories":[],"categories_nodes":[],"categories_segments":[],"categories_sizes":[],"default_left":[0,0,0,0,0,0,0,0,0,0,0,0,0,0,0,0,0,0,0,0,0,0,0,0,0,0,0,0,0],"id":41,"left_children":[1,3,5,7,9,11,13,15,-1,17,19,21,23,25,27,-1,-1,-1,-1,-1,-1,-1,-1,-1,-1,-1,-1,-1,-1],"loss_changes":[1.3106238E2,1.0825114E2,8.148026E1,2.4122238E1,8.986879E1,5.8625244E1,9.795518E1,1.8983856E1,0E0,9.027414E1,7.459659E1,7.748893E1,3.9478905E1,7.467404E1,9.999031E1,0E0,0E0,0E0,0E0,0E0,0E0,0E0,0E0,0E0,0E0,0E0,0E0,0E0,0E0],"parents":[2147483647,0,0,1,1,2,2,3,3,4,4,5,5,6,6,7,7,9,9,10,10,11,11,12,12,13,13,14,14],"right_children":[2,4,6,8,10,12,14,16,-1,18,20,22,24,26,28,-1,-1,-1,-1,-1,-1,-1,-1,-1,-1,-1,-1,-1,-1],"split_conditions":[3.8424915E-1,-2.5E-1,5.3090906E-1,3.3E-1,4E-2,8.5E-1,2.625E-1,3.4152767E-1,1.0173507E-1,-3.4153536E-1,3.9E-1,4.9583334E-1,-2.1826625E-1,0E0,7.2970116E-1,1.3908069E-2,3.198425E-2,1.1556903E-2,1.4640341E-3,-3.0313188E-3,3.027457E-3,-9.891553E-3,1.4389328E-3,-4.6447508E-2,-1.5385138E-2,-7.776805E-3,1.5295655E-2,-7.204741E-3,2.6237775E-2],"split_indices":[32,24,31,25,26,3,3,32,0,28,9,3,6,20,28,0,0,0,0,0,0,0,0,0,0,0,0,0,0],"split_type":[0,0,0,0,0,0,0,0,0,0,0,0,0,0,0,0,0,0,0,0,0,0,0,0,0,0,0,0,0],"sum_hessian":[9.9286E4,8.630525E4,1.298075E4,7.24E2,8.558125E4,7.79E3,5.19075E3,7.16E2,8E0,5.761475E4,2.79665E4,7.28075E3,5.0925E2,1.86775E3,3.323E3,5.1225E2,2.0375E2,2.307E3,5.530775E4,2.12955E4,6.671E3,5.14625E3,2.1345E3,1.4175E2,3.675E2,4.67E2,1.40075E3,3.083E3,2.4E2],"tree_param":{"num_deleted":"0","num_feature":"37","num_nodes":"29","size_leaf_vector":"1"}},{"base_weights":[-3.0513592E-3,1.5120984E-2,-7.043229E-2,-1.5186789E-3,1.1094527E-1,-2.1053475E-1,-6.9977962E-3,1.41793E-1,-1.2662147E-2,4.8900414E-2,2.4061485E-1,-2.4879877E-1,2.8399372E-2,3.9878672E-1,-3.6112502E-2,5.0263997E-2,6.2078773E-3,-8.9926105E-3,1.8768167E-4,1.1176128E-2,-1.759753E-3,1.0471197E-2,7.360595E-2,2.8677795E-2,-1.2917067E-2,6.271516E-3,-2.9285342E-2,2.3310056E-2,-5.4728348E-2,-3.2765344E-2,-9.4459805E-4],"categories":[],"categories_nodes":[],"categories_segments":[],"categories_sizes":[],"default_left":[0,0,0,0,0,0,0,0,0,0,0,0,0,0,0,0,0,0,0,0,0,0,0,0,0,0,0,0,0,0,0],"id":42,"left_children":[1,3,5,7,9,11,13,15,17,19,21,23,25,27,29,-1,-1,-1,-1,-1,-1,-1,-1,-1,-1,-1,-1,-1,-1,-1,-1],"loss_changes":[1.2148159E2,1.24590324E2,1.8728564E2,1.06326546E2,9.300029E1,6.0053284E1,1.7140144E2,7.302279E1,1.6954764E2,1.1485504E2,1.4339967E2,4.457419E1,5.4148937E1,9.828949E1,1.4432545E2,0E0,0E0,0E0,0E0,0E0,0E0,0E0,0E0,0E0,0E0,0E0,0E0,0E0,0E0,0E0,0E0],"parents":[2147483647,0,0,1,1,2,2,3,3,4,4,5,5,6,6,7,7,8,8,9,9,10,10,11,11,12,12,13,13,14,14],"right_children":[2,4,6,8,10,12,14,16,18,20,22,24,26,28,30,-1,-1,-1,-1,-1,-1,-1,-1,-1,-1,-1,-1,-1,-1,-1,-1],"split_conditions":[3.5491955E-1,5E-2,4.6227273E-1,1.1523342E-2,2.888525E-1,7.5E-1,4.7136363E-1,-3.9213077E-13,6.924129E-2,2.7272728E-1,3.2E-1,1.5151547E-11,3.548387E-1,4.375E-1,4.7454545E-1,5.0263997E-2,6.2078773E-3,-8.9926105E-3,1.8768167E-4,1.1176128E-2,-1.759753E-3,1.0471197E-2,7.360595E-2,2.8677795E-2,-1.2917067E-2,6.271516E-3,-2.9285342E-2,2.3310056E-2,-5.4728348E-2,-3.2765344E-2,-9.4459805E-4],"split_indices":[32,10,31,32,32,11,31,6,32,31,25,5,0,4,31,0,0,0,0,0,0,0,0,0,0,0,0,0,0,0,0],"split_type":[0,0,0,0,0,0,0,0,0,0,0,0,0,0,0,0,0,0,0,0,0,0,0,0,0,0,0,0,0,0,0],"sum_hessian":[9.920975E4,7.813725E4,2.10725E4,6.657725E4,1.156E4,6.56675E3,1.450575E4,4.8025E3,6.177475E4,7.81975E3,3.74025E3,5.66025E3,9.065E2,9.7025E2,1.35355E4,9.5E1,4.7075E3,5.52225E3,5.62525E4,2.54125E3,5.2785E3,3.649E3,9.125E1,6.425E1,5.596E3,7.835E2,1.23E2,9.29E2,4.125E1,3.6525E2,1.317025E4],"tree_param":{"num_deleted":"0","num_feature":"37","num_nodes":"31","size_leaf_vector":"1"}},{"base_weights":[-4.828658E-3,2.446839E-2,-4.7109324E-2,1.7195463E-2,2.6420274E-1,2.8583746E-2,-8.55715E-2,3.8816836E-2,-6.7062385E-2,-4.7469538E-1,3.1125215E-1,-3.1921897E-2,1.6000386E-1,-1.0114384E-1,9.78845E-2,1.6293767E-3,1.7146612E-2,-5.5111567E-3,4.7285575E-3,1.0941899E-2,-6.2703945E-2,1.7533785E-2,-3.5224147E-2,7.147462E-3,-5.79627E-3,1.0217075E-2,-2.4332369E-2,-5.8406047E-3,2.5479763E-3,8.132386E-3,-1.768742E-2],"categories":[],"categories_nodes":[],"categories_segments":[],"categories_sizes":[],"default_left":[0,0,0,0,0,0,0,0,0,0,0,0,0,0,0,0,0,0,0,0,0,0,0,0,0,0,0,0,0,0,0],"id":43,"left_children":[1,3,5,7,9,11,13,15,17,19,21,23,25,27,29,-1,-1,-1,-1,-1,-1,-1,-1,-1,-1,-1,-1,-1,-1,-1,-1],"loss_changes":[1.22966156E2,1.0223622E2,1.18294464E2,1.03685455E2,6.016906E1,1.0886928E2,7.697887E1,8.57907E1,8.109158E1,5.6354263E1,6.5268295E1,1.3774066E2,1.2385058E2,5.919142E1,6.1729454E1,0E0,0E0,0E0,0E0,0E0,0E0,0E0,0E0,0E0,0E0,0E0,0E0,0E0,0E0,0E0,0E0],"parents":[2147483647,0,0,1,1,2,2,3,3,4,4,5,5,6,6,7,7,8,8,9,9,10,10,11,11,12,12,13,13,14,14],"right_children":[2,4,6,8,10,12,14,16,18,20,22,24,26,28,30,-1,-1,-1,-1,-1,-1,-1,-1,-1,-1,-1,-1,-1,-1,-1,-1],"split_conditions":[1.6786447E-1,3.2692307E-1,2.1082863E-1,5E-2,-1.3064577E-1,1.4636756E-1,3.8E-1,1.5491633E-1,4.2372882E-1,-1.6196448E-1,5.9090906E-1,1.75E-1,6.25E-1,7.18575E-1,1E0,1.6293767E-3,1.7146612E-2,-5.5111567E-3,4.7285575E-3,1.0941899E-2,-6.2703945E-2,1.7533785E-2,-3.5224147E-2,7.147462E-3,-5.79627E-3,1.0217075E-2,-2.4332369E-2,-5.8406047E-3,2.5479763E-3,8.132386E-3,-1.768742E-2],"split_indices":[28,6,32,26,8,32,9,28,5,8,31,15,5,27,29,0,0,0,0,0,0,0,0,0,0,0,0,0,0,0,0],"split_type":[0,0,0,0,0,0,0,0,0,0,0,0,0,0,0,0,0,0,0,0,0,0,0,0,0,0,0,0,0,0,0],"sum_hessian":[9.92685E4,5.863775E4,4.063075E4,5.691225E4,1.7255E3,1.368975E4,2.6941E4,4.529075E4,1.16215E4,1.0275E2,1.62275E3,9.3745E3,4.31525E3,2.48335E4,2.1075E3,4.438275E4,9.08E2,9.1725E3,2.449E3,5.475E1,4.8E1,1.56275E3,6E1,3.04175E3,6.33275E3,4.039E3,2.7625E2,2.25145E4,2.319E3,1.84375E3,2.6375E2],"tree_param":{"num_deleted":"0","num_feature":"37","num_nodes":"31","size_leaf_vector":"1"}},{"base_weights":[2.8440673E-3,-8.754336E-3,1.1624257E-1,1.52511E-1,-1.6646335E-2,3.5897812E-1,8.171721E-2,6.7655705E-2,4.0341592E-1,-9.792675E-3,-2.042317E-1,-2.6113406E-1,4.722712E-1,-6.934157E-2,1.345681E-1,-1.1768403E-2,6.618337E-3,-1.2702072E-1,2.1974817E-2,-1.3068494E-4,-9.067139E-3,-5.1864004E-3,-2.6677761E-2,4.5065363E-3,-4.3407217E-2,2.525062E-2,-9.8810166E-2,2.5952473E-2,-7.4722315E-3,-7.1638725E-3,9.7582685E-3],"categories":[],"categories_nodes":[],"categories_segments":[],"categories_sizes":[],"default_left":[0,0,0,0,0,0,0,0,0,0,0,0,0,0,0,0,0,0,0,0,0,0,0,0,0,0,0,0,0,0,0],"id":44,"left_children":[1,3,5,7,9,11,13,15,17,19,21,23,25,27,29,-1,-1,-1,-1,-1,-1,-1,-1,-1,-1,-1,-1,-1,-1,-1,-1],"loss_changes":[1.3053973E2,1.1459984E2,7.715119E1,8.9414566E1,1.1036078E2,8.067003E1,6.438901E1,6.1613144E1,1.13863266E2,1.0199375E2,1.0009163E2,3.797834E1,7.8739E1,9.861862E1,1.006145E2,0E0,0E0,0E0,0E0,0E0,0E0,0E0,0E0,0E0,0E0,0E0,0E0,0E0,0E0,0E0,0E0],"parents":[2147483647,0,0,1,1,2,2,3,3,4,4,5,5,6,6,7,7,8,8,9,9,10,10,11,11,12,12,13,13,14,14],"right_children":[2,4,6,8,10,12,14,16,18,20,22,24,26,28,30,-1,-1,-1,-1,-1,-1,-1,-1,-1,-1,-1,-1,-1,-1,-1,-1],"split_conditions":[8E-2,6.5717413E-3,-2.0930232E-1,1.16264975E-11,1.5E-1,-1.8181819E-1,3.75E-1,4.6E-1,-1.25E-1,4.40169E-1,3.75E-1,-3E-1,3.9E-1,9E-2,1.8E-1,-1.1768403E-2,6.618337E-3,-1.2702072E-1,2.1974817E-2,-1.3068494E-4,-9.067139E-3,-5.1864004E-3,-2.6677761E-2,4.5065363E-3,-4.3407217E-2,2.525062E-2,-9.8810166E-2,2.5952473E-2,-7.4722315E-3,-7.1638725E-3,9.7582685E-3],"split_indices":[10,32,7,32,26,35,21,9,24,32,23,35,10,10,9,0,0,0,0,0,0,0,0,0,0,0,0,0,0,0,0],"split_type":[0,0,0,0,0,0,0,0,0,0,0,0,0,0,0,0,0,0,0,0,0,0,0,0,0,0,0,0,0,0,0],"sum_hessian":[9.924975E4,9.004125E4,9.2085E3,4.2E3,8.584125E4,1.1455E3,8.063E3,3.1395E3,1.0605E3,8.28165E4,3.02475E3,1.7675E2,9.6875E2,2.08975E3,5.97325E3,5.52E2,2.5875E3,1.2E1,1.0485E3,7.9491E4,3.3255E3,2.3185E3,7.0625E2,1.125E2,6.425E1,9.5675E2,1.2E1,2.4975E2,1.84E3,1.06925E3,4.904E3],"tree_param":{"num_deleted":"0","num_feature":"37","num_nodes":"31","size_leaf_vector":"1"}},{"base_weights":[1.5642274E-5,-4.1225597E-2,2.3794478E-2,-1.2964752E-1,-7.046619E-4,2.363661E-1,1.863402E-2,1.1288757E-1,-1.6086996E-1,1.1217833E-2,-2.5362632E-1,2.841714E-1,-6.1688024E-1,8.0622435E-2,-1.2918947E-3,1.8832339E-2,-1.2664787E-2,6.42938E-4,-1.1280801E-2,1.8321684E-2,-1.0724856E-5,9.977115E-3,-1.9280314E-2,1.8690474E-2,-1.6233161E-2,-4.376607E-2,2.7638573E-2,-2.9078412E-3,7.3010675E-3,-3.7138574E-3,1.4819888E-3],"categories":[],"categories_nodes":[],"categories_segments":[],"categories_sizes":[],"default_left":[0,0,0,0,0,0,0,0,0,0,0,0,0,0,0,0,0,0,0,0,0,0,0,0,0,0,0,0,0,0,0],"id":45,"left_children":[1,3,5,7,9,11,13,15,17,19,21,23,25,27,29,-1,-1,-1,-1,-1,-1,-1,-1,-1,-1,-1,-1,-1,-1,-1,-1],"loss_changes":[9.7366905E1,1.3009822E2,6.907793E1,8.642645E1,7.508998E1,6.1053947E1,7.594397E1,1.25848045E2,1.1371991E2,9.657238E1,6.712305E1,7.729007E1,2.4515598E1,1.3575162E2,1.05044014E2,0E0,0E0,0E0,0E0,0E0,0E0,0E0,0E0,0E0,0E0,0E0,0E0,0E0,0E0,0E0,0E0],"parents":[2147483647,0,0,1,1,2,2,3,3,4,4,5,5,6,6,7,7,8,8,9,9,10,10,11,11,12,12,13,13,14,14],"right_children":[2,4,6,8,10,12,14,16,18,20,22,24,26,28,30,-1,-1,-1,-1,-1,-1,-1,-1,-1,-1,-1,-1,-1,-1,-1,-1],"split_conditions":[-5E-2,1.3E-1,-5.3069496E-1,2.5416666E-1,1E0,3.6E-1,2.1082863E-1,5.0136364E-1,6.0198713E-2,1.9166666E-1,2.3809399E-11,3.8552272E-1,4.390909E-1,1.9227272E-1,2.867264E-1,1.8832339E-2,-1.2664787E-2,6.42938E-4,-1.1280801E-2,1.8321684E-2,-1.0724856E-5,9.977115E-3,-1.9280314E-2,1.8690474E-2,-1.6233161E-2,-4.376607E-2,2.7638573E-2,-2.9078412E-3,7.3010675E-3,-3.7138574E-3,1.4819888E-3],"split_indices":[10,9,28,3,1,13,32,31,8,3,5,32,31,31,32,0,0,0,0,0,0,0,0,0,0,0,0,0,0,0,0],"split_type":[0,0,0,0,0,0,0,0,0,0,0,0,0,0,0,0,0,0,0,0,0,0,0,0,0,0,0,0,0,0,0],"sum_hessian":[9.928425E4,3.63095E4,6.297475E4,1.140975E4,2.489975E4,1.4915E3,6.148325E4,1.301E3,1.010875E4,2.377975E4,1.12E3,1.413E3,7.85E1,1.495525E4,4.6528E4,7.5625E2,5.4475E2,2.74475E3,7.364E3,7.405E2,2.303925E4,2.525E2,8.675E2,1.232E3,1.81E2,6.45E1,1.4E1,4.79025E3,1.0165E4,1.3849E4,3.2679E4],"tree_param":{"num_deleted":"0","num_feature":"37","num_nodes":"31","size_leaf_vector":"1"}},{"base_weights":[1.314579E-3,-4.2119343E-2,2.4240127E-2,3.2649517E-2,-7.352932E-2,4.5708552E-2,-5.170469E-2,2.1992119E-1,-3.668458E-2,-2.65879E-1,-5.9148263E-2,6.0428172E-2,-3.6368065E-2,-2.3266535E-2,-2.574389E-1,-4.7673364E-3,2.2911195E-2,3.6078367E-2,-2.5347597E-3,5.4010954E-2,-1.5220873E-2,-2.885063E-3,-8.511023E-2,1.0855816E-3,5.4939264E-3,3.0915087E-4,-1.1332774E-2,1.3433871E-3,-7.475403E-3,-2.2612467E-2,-5.916825E-3],"categories":[],"categories_nodes":[],"categories_segments":[],"categories_sizes":[],"default_left":[0,0,0,0,0,0,0,0,0,0,0,0,0,0,0,0,0,0,0,0,0,0,0,0,0,0,0,0,0,0,0],"id":46,"left_children":[1,3,5,7,9,11,13,15,17,19,21,23,25,27,29,-1,-1,-1,-1,-1,-1,-1,-1,-1,-1,-1,-1,-1,-1,-1,-1],"loss_changes":[9.890876E1,8.0594315E1,1.0600342E2,1.3182806E2,6.682999E1,6.123902E1,8.3827255E1,2.0614185E2,7.875725E1,8.752032E1,5.3361313E1,8.2283875E1,6.2416626E1,7.968489E1,4.7098045E1,0E0,0E0,0E0,0E0,0E0,0E0,0E0,0E0,0E0,0E0,0E0,0E0,0E0,0E0,0E0,0E0],"parents":[2147483647,0,0,1,1,2,2,3,3,4,4,5,5,6,6,7,7,8,8,9,9,10,10,11,11,12,12,13,13,14,14],"right_children":[2,4,6,8,10,12,14,16,18,20,22,24,26,28,30,-1,-1,-1,-1,-1,-1,-1,-1,-1,-1,-1,-1,-1,-1,-1,-1],"split_conditions":[5E-1,2.7818182E-1,5E-2,1.375E-1,6.25E-2,3.8424915E-1,2.5E-1,5E-1,-1.4814815E-1,-1.1111111E-1,9.625E-1,2.867264E-1,2.5E-1,4.7136363E-1,2.4263383E-1,-4.7673364E-3,2.2911195E-2,3.6078367E-2,-2.5347597E-3,5.4010954E-2,-1.5220873E-2,-2.885063E-3,-8.511023E-2,1.0855816E-3,5.4939264E-3,3.0915087E-4,-1.1332774E-2,1.3433871E-3,-7.475403E-3,-2.2612467E-2,-5.916825E-3],"split_indices":[19,31,26,15,15,32,24,29,7,35,15,32,12,31,32,0,0,0,0,0,0,0,0,0,0,0,0,0,0,0,0],"split_type":[0,0,0,0,0,0,0,0,0,0,0,0,0,0,0,0,0,0,0,0,0,0,0,0,0,0,0,0,0,0,0],"sum_hessian":[9.932925E4,3.43155E4,6.501375E4,1.015125E4,2.416425E4,5.0686E4,1.432775E4,2.74225E3,7.409E3,1.67975E3,2.24845E4,4.29785E4,7.7075E3,1.258875E4,1.739E3,1.18075E3,1.5615E3,1.335E2,7.2755E3,4.6E1,1.63375E3,2.246575E4,1.875E1,2.410625E4,1.887225E4,6.29975E3,1.40775E3,9.011E3,3.57775E3,7.235E2,1.0155E3],"tree_param":{"num_deleted":"0","num_feature":"37","num_nodes":"31","size_leaf_vector":"1"}},{"base_weights":[4.761018E-4,6.35175E-3,-1.5502055E-1,7.079726E-2,-1.2261696E-2,-3.2578367E-1,-8.320018E-3,-3.8877672E-3,1.7783962E-1,2.0705964E-2,-6.343627E-2,-2.6482397E-1,-1.395132E0,-1.1651893E-1,1.3679526E0,4.909068E-3,-3.7111111E-3,3.48403E-2,6.791388E-3,-7.4100174E-4,3.9213304E-3,-1.1603866E-2,-2.4196717E-3,-2.4854617E-2,-4.9539763E-3,-9.05798E-2,-9.347911E-3,-1.2193971E-5,-2.3337958E-2,2.8183116E-2,1.2322288E-1],"categories":[],"categories_nodes":[],"categories_segments":[],"categories_sizes":[],"default_left":[0,0,0,0,0,0,0,0,0,0,0,0,0,0,0,0,0,0,0,0,0,0,0,0,0,0,0,0,0,0,0],"id":47,"left_children":[1,3,5,7,9,11,13,15,17,19,21,23,25,27,29,-1,-1,-1,-1,-1,-1,-1,-1,-1,-1,-1,-1,-1,-1,-1,-1],"loss_changes":[9.110586E1,1.1526141E2,